0.5121817
0.63803536
0.5657332
0.47429976
0.51441175
0.47466275
0.4267359
0.28358626
0.15215372
0.08085252
0.3521086
0.18909098
0.09878104
0.06882585
-0.010824208
0.34569526
0.022756033
0.3140598
0.44603866
0.87684906
-0.084562354
0.40894705
0.7360295
0.23323976
0.17877091
0.17839815
-0.087476335
0.374358
0.61150587
0.6681072
0.40510324
0.19536027
0.15565643
0.15933461
-0.64028037
-0.38189816
-0.25746158
-0.5255967
-0.38565293
-0.171025
-0.63899386
-0.09319223
-0.6961853
-0.47061118
-0.96885455
-0.25333458
0.1400599
0.57509655
0.17624366
0.158922
0.25831342
0.2659722
0.12063482
0.50511307
-0.062662564
-0.105065525
0.23520027
-0.21284623
-0.3783341
-0.303476
0.3086611
-0.11557471
-0.29202545
0.20807055
0.06916327
0.10303053
-0.2839229
0.2938792
0.28665894
-0.08533836
-0.3879982
0.40767437
-0.25343207
0.07057158
0.21225087
0.26628155
0.3733726
0.1803715
0.10562558
0.39821976
0.16522025
0.60076845
-0.04547721
-0.026630543
0.10251591
0.01002939
-0.8206886
-0.674718
-0.033689816
-0.040243592
-0.84849334
-0.70139366
-0.265562
0.457417
-0.1222198
0.12168214
0.0024451986
-0.16190812
0.4681564
0.16782144
-0.048093136
0.61863315
0.34531465
0.50053257
0.8148978
0.20458648
-0.125818
0.25548065
-0.20450829
0.41019073
-0.14802936
-0.41577193
-0.35806194
-0.42407253
-0.72434616
-0.6969655
-0.55482376
-0.3607393
-0.13441701
-0.5011774
-0.47854963
0.11096859
-0.26145038
0.5960458
0.5805615
0.53714633
0.42627707
0.5120658
-0.16167873
0.3550853
0.23438036
0.29652482
0.5243458
0.615413
0.41689116
0.8239578
0.22699939
0.20223378
0.32936943
0.7895853
0.1834228
0.05955114
-0.17472725
-0.38823998
-0.2996756
0.25303623
0.8434419
-0.20141658
-0.38707393
0.32061645
-1.0910769
-0.3792186
-0.5879882
0.08360544
0.10385082
-0.083922386
-0.36112624
0.56492203
0.6452004
0.7545845
0.42458054
0.63942
0.49409348
0.59872425
0.0010964294
-0.20078844
0.9064033
1.1521627
-0.16591051
-0.104794174
-0.36037162
-0.17341729
-0.15088291
0.23775674
-0.046577662
-0.25278246
-0.9352508
-0.38002497
-0.6448643
0.09751192
-0.20916736
0.10996952
-0.113818504
0.9027867
1.182898
1.3988824
1.2340859
1.4400681
1.7631747
1.7394302
1.2038785
1.0236508
0.912906
0.9961287
0.9039825
1.1381019
0.04580126
-0.32504055
-0.063081466
0.29438174
0.26272094
0.577591
0.19594003
-0.12473603
-0.21988207
-0.7004719
-0.738784
-0.40135682
0.27342722
0.44195443
0.5233947
1.5995876
1.573719
2.1368835
1.4122665
1.5762987
0.92344135
1.3336798
0.837387
0.21943738
0.43707138
0.83671916
1.3073398
1.3806276
-0.13727179
-0.7642914
-0.27623272
0.072687395
0.08202777
0.08173047
-0.29471168
-0.42106384
-0.59606916
0.15384081
-0.29973283
-0.79235274
0.18518105
-0.39749908
-0.11975316
0.65567374
0.7036457
2.8112717
1.8293562
1.6762867
2.2673764
1.6798159
1.7062317
1.2097615
1.0401075
0.9690351
0.63785106
1.2342478
-0.17554943
-0.5284606
-0.43218398
-0.52236897
0.08444701
0.024890518
-0.19477107
-0.119516104
-0.9719396
-0.5467257
-0.6170845
-1.1034381
-0.67758894
-0.8384805
-0.06268479
0.70487756
0.29266232
1.0136515
1.0366081
1.2101806
1.6520858
0.8720493
1.1685445
0.91932994
0.8195957
1.0792462
0.8759992
1.0952114
-0.51687944
-0.72383153
-0.13085948
-0.69829434
-0.20801009
-0.23632203
0.7358102
0.20606685
0.046135735
-0.29626128
-0.745449
0.20384943
0.095070295
0.19785619
0.15138732
0.599167
0.4962247
0.96297514
1.1771996
1.3218606
1.3027645
0.9098968
0.6329263
0.6070764
0.8727911
0.6108245
0.72266227
0.89818186
-0.055053294
-0.2219766
-0.13357624
-0.21033573
-0.5192329
-0.38336557
0.25213656
0.9040999
0.44107237
-0.46463907
-0.49279454
-0.06971197
0.64286923
0.015333148
-0.22175087
0.46148488
-0.19362101
0.7639619
0.79218525
0.41093767
0.5849759
0.792057
0.07435075
0.21825111
0.39088097
-0.04736696
0.11966699
0.71204394
-0.1617752
-0.13846377
-0.39292508
0.20259455
0.3218964
0.19490074
0.27144638
0.01396917
-0.5310896
-0.49719584
-0.82542825
-0.9849345
-0.6959678
-0.45550913
-0.4868627
-0.60305613
-0.3856346
0.16578023
-0.25840583
-0.42200226
0.4733304
0.15126173
0.25170532
0.32351708
0.4062639
-0.07296413
0.27666393
0.822008
0.13398468
-0.22046056
0.44986272
0.4568311
0.6523527
0.2824132
0.63757366
1.1684663
0.5319685
-0.45956296
-0.48468736
-0.36753404
-0.47169212
0.4247383
-0.50985736
0.14779261
0.46185285
0.5575311
-0.0054323357
0.39080223
1.1499723
0.16544093
-0.16963471
-0.046623163
-0.21773522
0.20298347
0.7918797
0.9792754
0.77369386
0.75116277
0.6622271
0.42780122
-0.14804772
0.34492862
0.107954964
0.39431423
0.26458007
-0.58440113
-0.5775967
-0.560826
-0.018186921
0.725316
-0.22804163
-0.19726598
0.13518693
0.38100207
-0.23292778
0.50864965
0.10067338
0.12165984
0.17272605
0.57541996
0.15321058
0.33902618
0.46748635
0.87024003
0.887035
0.730641
0.43086258
0.6706127
0.24653688
0.25481996
0.14231636
0.32672983
0.1177114
0.27470183
-0.38408744
-0.3413518
-0.61994535
0.070238754
-0.49949068
-0.81147414
-0.19205962
0.12720639
-0.36939523
-0.29376155
0.45955253
0.17986572
0.5502267
1.1932036
0.83104914
0.43633598
0.291085
0.5374227
0.57251847
0.67395085
0.88494295
0.98093474
0.5118144
-0.15032195
0.08615472
0.22595076
0.51451606
-0.39839175
-0.64718914
-0.6857321
0.30048674
-0.25255072
-0.4576238
0.6194091
0.3880033
-0.107250124
0.19749962
0.17605786
-0.29832417
0.17915979
-0.2989008
0.060085196
0.2901808
0.23070897
0.6491878
0.91166466
0.70923686
0.9889009
0.35367146
0.85606384
0.6581703
0.80915666
0.3034304
-0.028701648
-0.28513423
-0.4509035
-1.3293457
-1.0160538
-0.5138235
-0.5908109
-0.346005
-0.58036685
-0.017169677
-0.07316276
-0.18608788
-0.4567627
-0.65199137
0.28409195
-0.086015716
-0.16118172
0.046372857
-0.17873523
0.06959685
0.3084064
0.4364281
0.5354491
0.34228295
0.2723538
-0.057766363
0.21873635
-0.2977845
-0.8398721
-0.5876009
-0.7910674
-1.3460544
-0.49441287
-0.34039927
0.15913855
-0.864685
-0.9688571
-0.29599127
-0.30432203
-0.24921887
0.108287424
0.3501266
0.72560745
0.239727
0.28625122
0.9320533
0.9903761
0.9325388
0.5898471
0.1875281
0.5205272
0.81994414
0.8868833
0.79199386
0.040119328
-0.05475726
-0.33257636
-0.116073355
-0.3911901
-1.1018951
-0.7722001
-0.8564205
0.14536496
-0.357204
-0.74697006
-0.45396882
-0.009094491
-0.6278906
-0.2784454
-0.3963317
-0.17721793
-0.5314264
-0.39867178
-0.60016996
0.09489196
-0.13286483
-0.0688558
-0.12149378
-0.21702625
-0.5838325
0.2938502
-0.63689715
-0.40000057
0.044615388
-0.60210943
-1.2392557
-0.44832465
-0.83874494
-0.6714239
-1.0755227
-0.35444897
-0.19232708
0.19476487
0.07340813
-0.2150456
-0.3956263
0.091000155
0.22562362
0.07637548
0.19037874
-0.29549217
0.39568758
0.57919866
-0.25855303
-0.07492971
-0.24467157
-0.4510905
-0.34595963
-0.37965918
-0.7451845
-0.62099904
-0.15325856
0.042378355
-0.83444554
-0.35239023
-0.54830164
-0.17877223
-0.98300886
-0.67709595
-0.057637405
-0.5266791
-0.8834766
-1.3087095
-0.5599253
-1.0992007
-0.641369
-0.24214554
-0.62756425
-0.120653175
-0.07445812
-0.3115088
-0.6385574
-0.59515226
-0.6599672
-0.6412531
-0.8319215
-0.64373225
-0.2297512
-0.20180474
0.023460446
-0.46538472
-0.911781
0.89035267
-0.19142021
-0.44614556
-1.1507623
0.15880096
-0.15305303
-0.008127173
0.04238275
-0.75614715
-0.250393
-0.15123917
0.3492588
-0.41760674
-0.19909216
-0.063259125
0.028627165
0.35169032
-0.19137058
-0.45980746
-0.35945645
-0.33110568
-0.9530085
-1.1585044
-0.24883738
-0.62078565
-0.53083676
-1.1214134
-0.76771635
-0.36469203
-0.34940153
-0.39966857
-1.5779116
-0.8286196
0.42275736
-0.72376263
-0.30957896
-0.8952815
-0.008775902
0.552619
0.47649994
-0.334103
0.282389
0.13007598
-0.41539216
-0.42213112
-0.10959561
-0.06438927
-0.6674425
-0.7473843
-0.8997862
-0.93581706
-0.60067856
0.16130811
0.3781307
0.33837968
-0.3742778
-0.20982209
0.32752264
-0.15009904
-0.016226802
-0.09599157
-0.31237552
-0.18818386
0.005916653
-0.58417654
-0.65979034
-0.9377834
-0.44780245
-0.9809934
-0.99507445
-0.9287655
-1.2623311
-1.2077855
-1.0082079
-0.70698863
-0.91448104
-0.9170773
-0.6134721
-0.37836534
-1.0006264
-0.43836764
0.07807481
-0.4834353
-0.5852741
-0.5027025
-0.2672318
0.19027206
-0.5890046
-0.27782458
-1.2016082
-0.8630086
-0.5731051
-0.8562263
-0.22637369
-1.446517
-0.9953422
-0.58801115
-0.39211816
-0.13353138
-0.40901804
-0.021949183
-0.12768596
0.031275254
0.13995044
-0.2697122
-0.6851601
-0.28195524
-0.47657144
-0.47229677
-0.3656892
-0.5999366
0.7690604
-0.3101
-0.647023
-0.25338677
-0.98563236
-0.8803228
-0.89231783
-0.027336376
0.22576636
-0.24244083
-1.0509801
-0.71903366
0.02732861
-0.35366207
-0.810434
-0.6578942
-0.37107664
0.031778652
0.19455056
0.44380835
0.63303435
0.013954946
-0.3540719
-0.14754675
-0.354872
-0.5578405
-0.22950907
-0.5690788
-0.0333473
-0.5216973
-1.1687721
-0.69187087
-0.45570987
-0.52817243
-0.5295826
-0.381851
-0.5045807
-0.8964387
-1.085598
-0.92928416
-0.7447521
-1.002482
-1.2663084
-1.2205573
-0.99942607
-0.34537157
-0.053352244
0.29001075
0.2977963
-0.33156538
-0.28161404
-0.39186096
-0.1110063
-0.7319857
-0.35020533
-1.010348
-1.4032407
-0.3760793
-0.7872079
-1.2129428
-0.89207083
-0.5746848
-0.273214
-0.8413401
-0.38875458
-0.45304003
0.6675231
-0.024752712
0.6527708
-0.09977179
-0.058120135
-0.04293402
-0.20545843
0.22464135
0.6302436
0.59122163
0.40930006
-0.26769885
-0.15487383
-0.10911872
0.31868893
0.030684013
-0.1513283
-0.088941656
-0.20387796
-0.5276417
-0.034608986
-0.8490028
-0.15952988
-0.47023454
-0.19339383
-0.14619575
-0.46911243
-0.35892665
0.053461276
-0.3017132
-0.2284884
-0.5808865
-0.5778815
-0.26511285
-1.0260609
-0.034180276
0.26416507
0.35984093
0.0018073263
0.19107737
0.4642242
0.9210223
0.24452108
-0.19791134
-0.5215991
0.42266706
-0.31660017
0.19773968
-0.7054066
-0.2606334
-0.22350222
0.14277619
0.0707477
0.39276105
-0.29927328
0.036933888
0.0076013873
-0.3127972
0.18899126
-0.3465593
0.23372506
-0.1507779
-0.7776288
0.12076962
-0.4446157
-1.7115835
-1.5451025
-0.45153695
-0.28102186
0.021778606
-0.6054563
-0.44854477
-0.3965508
0.32242295
0.6013237
-0.27954593
0.26106977
0.053223606
-0.55847996
-0.13448794
0.431684
0.31692708
0.24636008
-0.14887498
-0.57371384
-0.59991014
-0.22005641
0.19027787
-0.80124694
-0.69512016
-0.46185333
0.011062198
-0.5632411
-0.64058965
-0.66737664
0.09693059
0.6536387
0.5183555
0.61911327
0.10556392
-0.24462366
-0.15475208
1.5724746
-0.054342266
0.16249904
0.35486028
-0.32124767
-0.10778731
-0.5529599
-0.22235346
-0.5915597
-0.29720888
-0.8144474
-0.4603194
-0.42025998
-1.0536975
-0.51101816
-0.46417654
-0.91759294
-0.8558051
-0.7438513
-0.8417271
-0.9256381
-0.29750523
-0.13248572
0.4808832
-0.27928728
-0.16864459
0.041173343
-0.13228895
-0.023892283
-0.034446213
-0.017815078
0.868946
0.010884119
0.97216105
0.17026682
1.45478
-0.13907191
-0.15561768
-0.56265795
-0.18421084
-0.35635322
0.27338046
-0.46086356
0.3333571
0.040269982
-0.63030607
-0.689774
-1.059512
-1.2365651
-0.126017
-0.355096
0.39323646
0.1783702
0.18524016
0.32984412
-0.014822302
0.38911778
0.23134165
0.53481716
2.0783236
0.8570096
1.3289661
0.43732384
0.23602155
-0.75548726
-0.119723536
-0.17625196
-0.34505942
-0.62182736
-0.7157816
-0.5980305
-0.59476227
-0.64277303
-0.5935676
-1.2514607
-1.460694
-1.2602005
-0.097452715
0.2135393
0.9791516
0.6939768
0.5846922
-0.1911995
0.72675884
1.6383388
1.0909673
2.019288
2.3259778
1.7863846
2.359835
1.5233
1.1701187
-0.08961256
0.70563585
0.0102658635
0.23267281
0.7195759
0.10572575
0.008510589
-0.41689497
-0.48914912
-0.7604519
-0.47681797
-0.6537644
-1.1448215
0.19655474
0.9415261
0.62002003
0.87520957
1.2829732
1.2019559
2.02188
2.3598497
1.6612383
0.5471064
1.1221607
0.14697243
-0.24557833
0.11923936
-0.3703721
-1.4577177
-0.68024206
-0.90431154
-0.31297013
-0.35015664
-0.7846089
-0.67008847
-0.44304508
-0.19314657
-0.31880772
0.25684062
-0.081698775
-0.47058257
1.0587832
1.2414085
1.4350991
1.8312366
2.5906487
2.3283136
2.651944
2.0729656
1.5882765
0.71184003
0.47330135
0.26424894
-0.05160416
-0.19293652
-0.78628653
-1.1266732
-1.0862604
-1.0917351
-1.3313497
-0.20082702
-0.10951091
-1.1209862
-0.5637549
-0.34762087
-6.1331596E-4
0.17378643
-0.11388347
-0.29313388
0.72982454
1.0901958
1.7348636
2.2246635
2.1756685
1.142511
1.9512819
1.4332929
1.2564596
0.29651016
-0.09074665
-0.76620007
-0.76768655
-0.45751908
-0.4789782
-0.57211304
-0.08120196
-0.53103113
-0.12236355
0.03108418
-0.11569248
0.008541087
0.7094894
-0.13768685
-0.012647898
0.4498977
0.52916735
-0.05307239
0.6983883
0.7078643
1.0787166
1.8712178
2.1080935
1.9852058
1.4929858
1.2174423
0.18551922
-0.36551037
-0.6770027
-0.30067804
-0.55185294
-0.057781007
-0.3508261
-0.09213709
-0.76427215
0.7742365
0.19348955
0.31319818
0.41091484
-0.2456505
-0.31090817
-0.21352914
0.23574708
0.26460612
0.946125
0.24271986
1.0088432
1.5891927
1.7733117
2.0442765
1.6615748
0.43727535
0.049944084
0.27189878
-0.18714233
0.23231624
0.1354631
-0.26763058
-1.1978585
-0.6166826
-0.938242
-1.6110461
-0.9140763
-1.5337231
-0.78526294
-1.0784608
-0.361789
-0.8144439
-0.21025564
-0.479903
-1.128334
0.08853633
0.8284419
0.3100061
0.8914866
1.52741
1.7400819
1.2990623
0.7600855
-0.3589544
-0.44548813
0.12366107
-0.6870187
0.27391157
-0.3437455
-0.6667787
-1.070297
-0.9436771
-0.41301668
-0.9802236
0.22356738
-0.4273478
0.68153054
-0.22178817
0.6179712
-0.3113282
0.8914951
0.8163924
0.4917689
0.40143156
0.9140262
0.36866233
0.6954756
0.6038454
0.5341415
0.6885682
0.01874969
-0.5834964
-0.35651398
-0.14582895
-0.4841273
-0.36904323
-0.7868038
-1.0949194
-0.40151104
-0.5563359
-0.6008084
-0.4350408
-0.57958645
0.46409515
0.47958988
0.11733945
0.6910827
1.0071048
-0.19390208
0.015332433
0.04006395
-0.2574037
0.57714266
0.2600521
0.52485603
0.28547296
0.47622985
0.34590307
0.18843937
0.49899015
0.85897046
0.8881345
0.54522854
0.37255397
0.14466824
-0.16942935
-0.83017385
-1.3847482
-1.0890883
-0.9812142
-1.2936363
-0.37846586
-0.85110444
-0.8843774
-0.8023757
-0.99538225
-0.50166005
-0.84871894
-0.7624423
-1.5448196
-0.6526462
-0.45578003
-0.004405744
0.05417089
0.5115704
0.12288674
0.32020324
0.5656212
0.9439022
0.026254782
-0.7222079
-0.3079177
-1.1985943
-0.765841
-0.050001144
-0.15908377
-0.7624347
-0.04331635
0.8750817
0.16576822
0.12781608
0.611739
0.52830935
0.33258426
0.78059
0.08377322
0.072850265
-0.8427287
0.124491535
-0.082352355
-0.06055208
-0.19951172
0.53170407
-0.04444467
1.1088881
1.3370034
0.54512763
1.1703652
0.4633712
0.2504733
-0.458376
-0.47531727
-0.1707721
0.28669867
-0.13819148
0.23472627
0.81568265
0.83385676
0.31551838
0.6347527
0.6574904
0.17650561
0.27444747
0.41097355
-0.039927337
-0.45067054
-0.132415
-0.21483034
0.29237884
0.17850181
0.008980492
-0.6005532
1.0725343
0.38766178
0.7855683
1.1874201
1.4853966
0.93151397
0.51571506
-0.009001279
-0.3673883
-0.33533284
-0.47568783
-0.30196458
-1.3996134
-0.20812412
-0.8726873
-1.0154649
-0.25699213
-0.77572155
-1.4965858
-1.1336719
-1.2150537
-0.86277235
-0.26801768
-0.6608719
-0.05614011
-0.360228
-0.717313
-0.7637671
0.0112140495
0.18066874
0.19974357
1.0845293
1.5272498
1.5293397
2.0667655
1.9268262
2.1052165
1.6898252
0.76059103
1.2013869
0.41073713
1.3294002
0.6404119
-0.17927
-0.3221287
0.42289287
-0.124347806
-0.2930531
0.30061397
0.0051982757
-0.5375696
-1.0038122
0.3055322
-0.28019986
-0.139708
-0.2614534
0.11162686
-0.019371018
-0.061303254
0.7989561
1.2140504
1.0712122
1.3322914
1.4808962
1.2795604
0.949176
0.83718383
0.4722781
0.5518521
0.4382705
0.11648714
-0.32009843
-0.45346645
-0.09130568
-0.2538075
-0.03096612
-0.38048443
-0.7567984
-0.54444885
-0.6100363
0.16649488
-0.10215572
-0.022296438
0.17945457
0.08352726
0.29198587
0.7413281
-0.31661475
0.47413746
-0.015895417
0.19124614
0.4463068
1.2092942
0.6874071
0.47374734
0.1594836
-0.35102123
0.26886156
0.1472786
-0.52299064
-0.058797084
-0.96534336
-0.87935317
-0.8480726
-0.5354055
-0.541526
-0.81519693
-0.62987113
-0.5084389
-0.8381507
-0.31596196
-0.33672696
-0.4268325
0.5709198
-0.08371384
0.061925143
0.4990765
0.35281667
0.295281
-0.17068863
0.568568
0.6550315
0.12326426
-0.037485037
-0.4960624
0.22030976
-0.09876602
-0.23144461
-0.12835816
-0.11930658
-0.0034062206
-0.03522489
-0.108736105
-0.39129758
-0.53551716
-0.86936647
-0.5639423
-0.50858474
0.16778617
0.19326249
-0.19134563
-0.26045635
-0.7098833
-0.8731758
-0.30536333
-0.44392827
-0.2510608
-0.86644936
-0.6307281
-0.5094694
0.2750722
-0.19958456
-0.76851755
0.5033509
0.19945663
0.50861347
-0.14721547
-0.4849675
0.24376984
-0.7104314
-0.3660442
-0.8590315
-0.12548587
-0.55038047
-0.36515856
-0.18627135
-0.38200995
-0.3523766
0.0686487
-0.052229505
-0.4966672
0.2130414
0.0032230823
0.014425484
-0.8792418
0.19283614
-0.24805093
-0.43788365
0.052832276
0.29842907
0.10008405
-0.062086713
0.46286577
0.20623983
-0.14642179
0.10621103
-0.017443942
-0.9678907
-0.61644596
-1.1731229
0.10712761
-0.56912005
0.3470474
0.4645433
-0.72611994
-0.6666207
-0.09380761
-0.7792042
-0.56341404
0.31312424
-0.5249713
-0.6157106
-1.0831645
-1.2239031
-0.5039188
-0.46818173
-0.38119128
-1.5200933
-0.30576533
-1.1183344
-0.8032202
0.18630365
-0.20850803
-0.58769464
-0.4108125
-0.41915008
-0.21987323
-0.6857231
0.348322
-0.17970224
-0.1412449
-0.5159014
0.26272964
0.4974693
-0.00940521
-0.57320863
-0.45996544
-0.26258892
-0.5503502
0.5423016
-0.09953498
-0.3837915
0.034847606
0.3767452
-0.6326342
-0.47144645
0.053919833
-0.18923323
0.5338577
0.23815604
-0.3835987
0.09713994
0.66549253
0.38649285
0.6874805
0.4576796
0.38717118
0.014552043
-0.00726764
-0.2629993
-0.092263356
0.16259639
-0.7657452
-0.7836699
-0.9780241
-1.3762934
-0.062396653
-0.60381943
-0.93378156
-0.21357647
-0.3606452
-0.44062242
-0.91243654
-0.60140544
-0.58114916
-0.18971443
-0.15897296
-0.58253604
-0.24730565
0.20197625
-0.08905917
-0.31299287
0.012903365
0.06590102
0.005735751
-0.018229384
-0.24179766
-0.17865478
-0.015136195
-0.17074153
0.010417054
0.08180771
0.13124505
0.029461132
0.20467931
0.024000267
0.1023476
0.06835027
0.115121126
0.2915949
0.107366234
0.07618478
0.25151008
0.44929853
1.0470326
0.85985005
1.0342946
1.2550576
1.4751496
0.8305583
0.56952894
1.1490598
1.1923237
1.181931
0.920835
0.34251234
0.4119574
0.2572303
0.3586239
0.35922307
0.7312923
0.319077
0.5962547
0.32707644
0.52572024
0.67396903
0.42178434
-0.05313014
0.2896114
0.26402953
0.3920317
0.28402355
1.2849029
1.2119777
0.93127203
1.0233046
0.9391089
-0.3425328
-0.20659636
0.689494
0.68515253
0.5797238
-0.67751116
-0.157916
0.23494847
0.1683474
0.12715873
0.621399
1.0052041
0.6337616
0.8918185
0.61778295
0.8209006
0.6735563
0.2714152
0.18569893
-0.25715092
0.37131354
-0.14800769
0.7919716
0.833818
1.0491936
0.7958154
1.1273634
0.7824008
-0.8054051
-0.25868112
-0.7092689
-0.1511073
-0.11002888
-0.5766025
-0.27502725
0.28786826
0.18697284
-0.005750587
0.14553043
0.08684578
0.13408382
0.6562113
0.15709394
0.41262
0.4883164
0.5011597
0.55371773
0.24339306
0.48225302
0.19928853
0.46501124
-0.45444205
0.28615874
0.19224916
0.380006
-0.4453992
-0.7960781
-0.52893126
-0.71761316
-0.9790731
-0.9470024
-1.129328
-0.42121702
0.25994214
0.5660798
0.51934826
0.28787723
0.04945271
0.34267902
0.45802057
0.10418798
-0.22434604
0.69182706
0.09029042
-0.1711523
-0.6660281
-1.1806622
-0.73184645
-0.4455822
-0.6327503
-0.4702308
-1.3922654
-0.51858264
-0.7487982
-1.0591639
-1.1046735
-1.1589118
-1.2227371
-1.6629521
-1.7652112
-0.51870126
0.12109496
0.65166706
0.1277813
0.10178552
0.10613318
0.9707939
-0.03483038
-0.41084275
-2.5255093E-5
0.17192276
0.43946397
0.26398805
0.082287334
-1.2019203
-0.88767046
-0.8750714
-0.9658609
-1.3756574
-1.0135336
-0.87419707
-0.31447905
-0.59738845
-0.83608836
-1.054955
-0.95797265
-1.4555148
-1.3346975
-0.87046885
-0.23251626
0.04362974
0.07422879
-0.41491392
-0.21303457
0.61869437
0.31659573
0.22703937
0.22519732
0.24044657
0.24221668
-0.4929897
-0.19026566
-0.6613651
-0.84743494
-0.6622318
-0.90410125
-0.9157304
-0.28896686
-1.051995
-0.42387906
-0.6206316
-0.6339738
-0.84598464
-1.2176136
-2.0925794
-1.2355905
-0.79596096
-0.78703624
-0.4886973
-0.06367756
-0.59222806
-0.47540915
-0.022235442
0.085570924
-0.18065336
-0.25801778
0.086847916
0.33204904
-0.98390853
-1.3780792
-0.6564515
-0.86334634
-0.46266374
-0.16610111
-0.5041106
-0.6464771
-0.2606289
-0.61929756
-0.46092105
0.39241275
0.14781864
-0.22576745
-0.500659
-0.22190909
-0.011174906
-0.30924222
0.22970909
0.26473084
0.052261073
-0.33206728
0.51573175
-0.005858701
-0.6716016
-0.13731734
0.13756718
0.23315518
-0.4270854
-0.17009073
-1.4061334
-0.6376289
-0.13233466
0.8007959
0.3424132
0.020161696
0.8721603
0.08924076
0.1274869
-0.39977154
-0.04678478
-0.15751694
-0.52188045
-0.12578396
-0.119891785
-0.33633196
0.073127314
0.03691662
-0.48168203
-0.7778944
-0.014501368
0.018575735
-0.29214665
-1.3755604
-0.6954192
-0.99668354
-0.39610344
-0.12894568
-0.19971782
0.17961216
0.2970268
1.2255265
1.3588557
1.468851
1.0245372
1.1347933
1.2691696
0.84365
1.093606
0.57488906
-0.093122065
0.17102842
-0.24062216
0.14858945
-0.01005805
2.374973E-5
-0.12842207
-0.32396382
-0.58608323
-0.9055234
-0.62077534
-0.6173404
-0.45877194
-0.68846315
-0.7073882
-0.7892756
-0.6513987
0.49349388
0.65847844
0.32989195
1.1177942
0.6831575
0.7948773
0.96066386
1.2644005
0.5918087
0.54761904
0.3976167
-0.12241196
0.1425421
-0.36110654
-0.055725798
-0.62075096
-0.46456182
-0.68057257
-0.6166426
-0.55136317
-0.1940292
-1.0203459
-1.2453023
-0.68541414
-0.20344768
-0.10765589
0.29878137
0.4080932
1.118516
0.22851723
0.3025901
0.5490388
0.5933581
0.34261465
0.23773094
0.26455066
0.45883316
0.010320809
-0.033547375
-0.039625432
0.25592175
-0.5284747
-0.20061551
-0.31515893
-0.24110253
0.1971666
-0.042907704
0.77565485
0.43269828
-0.5786515
-0.18930867
0.18366902
0.04348774
-0.35740346
-0.534308
0.31323493
0.7339491
0.566609
0.86295277
0.7888765
1.531037
0.019800086
0.8975197
0.5004457
0.42147753
0.31326413
0.15827888
0.28186762
0.3977698
-0.34600163
-0.6418553
-0.7474389
-0.96668136
-0.5512131
-0.62812126
-0.22218703
-0.0031935144
-0.45645365
-0.3121504
-0.32120752
0.20424463
0.15991051
-0.106130965
-0.39881846
0.17349775
-0.5154156
0.39224154
0.49887156
0.8225022
-0.03087004
0.37145007
0.37559503
-0.06514121
0.166609
-0.010289615
0.037038364
0.3134732
-0.20765366
-0.048098873
-0.039538514
-0.43769255
-0.3543277
-0.23251866
-0.24080163
-0.4073193
-0.28237283
-0.0674551
0.046945762
0.2560444
0.36267602
0.7029302
1.0610287
0.6937038
-0.4972525
0.90561634
0.78530824
0.7854063
0.16923714
0.2935095
-0.10936952
-0.43957657
-0.27142167
0.17302997
-0.13036023
0.12574075
-0.14561127
-0.04415821
0.44697845
0.1719885
0.12634553
-0.046978693
-0.15195698
-0.07757949
-0.37346712
-0.37467152
-0.586176
-0.24462026
-0.26524282
0.7767554
1.1959864
0.36583695
0.20492655
0.9494324
0.6787985
1.3636444
0.756057
0.5046815
0.28987488
0.37856016
0.75530183
0.76479787
0.21692295
0.16815868
-0.3337538
-0.3250072
0.08344404
0.089712754
0.2112959
-0.07623914
-0.19218332
-0.4297803
-0.18601224
0.3323483
0.44746536
-0.10954768
0.15613617
-0.09605014
-0.17538308
-0.63056225
-0.34945926
-0.20605871
0.19336863
0.4972549
-0.39505336
-0.40758508
-0.2426194
-0.1897624
0.40250704
0.3370588
0.06241373
0.2343864
-0.37944388
0.35077554
-0.37999055
0.30522648
-0.102998175
-0.17032404
0.07486216
-0.03572379
0.29329553
0.6957656
0.7660172
0.03316061
-0.31057978
-0.58917636
-0.3733994
-0.44253203
-0.7821565
-0.32496902
-0.42361423
-0.34777904
0.32160363
0.6172017
0.29174334
0.17185877
0.16085221
-0.0696591
0.11646715
0.12561443
-0.33824003
-0.6666564
0.25704876
0.22055045
-0.061524924
0.44983634
0.32116503
-0.12284624
-0.1751505
-0.14012885
0.5820653
-0.17644003
-0.11562613
-0.27407286
-0.31703544
-0.41359437
0.024668798
-0.015341368
-0.582018
0.26813847
0.79001325
0.7513075
0.5531752
0.26155713
0.37316793
0.36029854
0.6085119
0.36523098
-0.6979272
-0.6304595
0.48399052
0.7742993
0.36911875
0.32279626
0.20558847
0.3484288
0.4589976
0.31096053
-0.028019845
-0.34948537
-0.7411665
-0.53408444
-0.8527391
-0.5888348
-0.27384087
0.2613082
-0.33044508
-0.6214057
-0.14770146
0.43622217
0.36555937
-0.09980181
0.053298302
0.124006815
0.25346357
0.16500638
-0.64142203
-0.76086307
0.19311644
0.6889958
-0.24396782
0.2987763
0.6997441
0.24357304
0.31864148
0.07465602
-0.0366174
-0.1159394
0.07176037
0.091485314
0.1975078
-0.8423798
-0.26414618
-0.5724465
-0.61973876
-0.24415366
-0.1126591
0.3129602
0.6268669
0.18555883
0.15356553
0.53014296
0.4074057
0.31938714
-0.75874907
-1.198578
-0.636856
0.349909
0.6641177
-0.11940314
0.2824027
-0.2862031
-0.21740279
-0.07783375
-0.17253941
-0.28803772
-0.7227533
-0.21698472
0.49748304
-0.5895252
0.56153226
-0.114822604
0.011719599
-0.08046398
0.5310155
0.91345674
0.88612056
0.3199832
0.24530879
0.66504985
0.4265613
0.1890812
-1.0180591
-0.57594424
-0.21563846
0.25825202
0.0800993
-0.5051817
0.1955752
-0.20856187
-0.86464584
-0.08742253
-0.03703447
-0.3625634
-0.50484073
0.44501284
0.100238204
-0.31584844
0.45996466
-0.40104923
0.3145234
-0.41541952
0.041872792
0.13899426
0.31293637
0.40270016
0.5782305
0.5096313
0.27580386
0.045453016
-0.94314414
0.28667954
-0.37788588
-0.7118587
-0.13988394
-0.5427797
-0.10587208
-0.11852405
0.45706114
-0.15857902
0.050367437
0.009272166
0.17377363
0.16542916
0.6416434
0.049556352
0.18949874
0.070098326
0.4100023
-0.32335603
-0.07331159
-0.019844117
-0.0633149
0.15364414
0.25498956
0.21980336
0.06767649
-0.060500745
-0.21788423
0.5671102
-0.34994632
-0.15483008
0.58765113
-0.17432399
0.07738277
0.10061399
7.979582E-5
-0.48154116
0.3059245
-0.52711505
-0.25311166
-0.5358731
0.07906036
-0.006909441
-0.047461335
0.18696636
0.35432884
0.015844505
0.08044796
0.18404217
0.3966583
0.2313033
0.07243346
0.026902111
0.03962828
-0.0066724946
-0.035935853
-0.047228742
0.81905437
0.18405516
-0.12192019
-0.26531085
0.11601808
-0.4001435
0.06269778
-0.3588123
-0.40936008
-0.14927757
0.025321892
0.037491374
-0.054894343
0.310241
0.03781431
0.015058589
0.045015287
-0.38287243
-0.102337755
0.36012372
0.6167346
0.24557595
-0.19824176
-0.30598792
-0.16974834
-0.16121748
0.065961875
0.0921177
0.13741508
-0.1364088
0.15457523
0.17587084
0.60762334
0.2601111
-0.2593121
-0.58405775
-0.099848256
-0.10207827
0.048399564
-0.13641883
0.016121648
0.24921137
0.2329435
-0.25698745
0.059801303
-0.048563663
-0.11412107
0.22890548
-0.09095863
-0.5783611
-0.51745033
-0.5298665
-0.17379557
-0.18102588
-0.0271418
-0.23787308
-0.36013082
-0.39662796
0.1042767
0.048554726
0.7139313
0.41293722
0.016009094
-0.1891365
0.029784491
-0.8467203
-0.34808916
-0.31985894
-0.20919241
-0.12960404
-0.23030354
-0.30399194
-0.34692225
-0.2158862
-0.30709758
-0.06489202
-0.16160984
-0.3721653
-0.42734003
-0.3145534
-0.14641164
-0.16928513
-0.25033736
0.114718884
0.053055488
-0.25225598
-0.28029725
-0.27898064
-0.14276142
-0.06773223
-0.2234413
-0.031748984
-0.29702228
-0.19487785
-0.23550497
-0.23389594
-0.5090214
-0.9596975
-0.7447169
-0.46577397
-0.3755071
-0.19976036
-0.6262964
-0.58349144
-0.22018687
-0.55145
-0.2777185
-0.06896285
-0.2005309
-0.04326454
0.21533836
0.3076541
0.20096081
-0.17708516
-0.17582263
-0.3622271
0.21175796
-0.19125122
0.032339327
0.16757382
-0.5625806
0.2610655
0.055885643
-0.43855307
0.15272701
-0.9048369
-0.2722329
-0.21075934
-0.32141665
-0.6522945
-0.9021553
-0.6134338
-0.07480815
-0.020729346
0.3581212
0.6059718
0.6261049
0.41432163
0.16879998
0.08913984
-0.48716596
-0.22706363
-0.2497049
0.14640082
-0.26462385
-0.9141367
-0.32552427
-0.58427477
-0.8840479
-0.81862384
-0.10338855
-0.34436756
-0.46533585
-0.29377517
0.12827078
-0.1704508
-0.007075191
0.492072
-0.008882837
0.66249794
0.8757906
0.7466593
0.5285387
0.8463015
0.9877107
0.892128
0.4198748
0.03409527
-0.2401936
-0.30279517
-0.24265677
-0.48479927
-0.24716556
-0.18246497
0.042495918
0.2838142
-0.04336669
0.4477329
0.97965497
0.24655166
-0.029473865
-0.58708924
0.39042783
0.5007213
0.93490547
0.97320867
1.9074783
1.7558928
1.4006754
1.6230953
1.6513975
1.1601714
0.88187695
0.935576
0.22571436
0.14289162
-0.16931398
0.16086617
0.13207753
0.39523786
0.16581014
0.04171499
-0.597247
0.30397075
-0.24177448
0.06490657
0.6427396
0.2274134
-0.19050883
0.27031505
1.3021809
1.5484216
1.254746
1.674304
1.6608608
1.1677089
1.535914
1.4991972
1.0734833
0.67421836
0.31892034
0.14823698
-0.13623269
0.25857666
-0.04491022
0.2696311
-0.23370974
0.12119223
0.7093275
0.0841077
-0.5622571
-0.072934665
0.16533618
0.6305905
1.1288725
0.73607343
-0.19171016
0.28663886
0.8191376
0.5120868
0.7089769
0.74119425
0.6371173
0.47287092
0.052968156
0.22969393
-0.13351604
0.18211342
-0.2640725
-0.51321006
-0.38641363
0.02169368
-0.4555157
-0.16458303
-0.19486591
-0.09592537
0.4585382
0.3658931
-0.1190951
0.08053916
0.0637392
0.002202173
0.20640457
0.36296147
-0.23071614
-0.12204493
0.0048224377
-0.5528239
-0.5446732
-0.46517122
-0.7089793
-0.7652196
-0.94561577
-0.98740685
-0.70575804
0.12276795
-0.30617705
-0.8922294
-0.47452474
-0.076076165
-0.38153607
0.028936667
0.211082
-0.31516328
-0.019444207
-0.019059725
-0.23552267
0.7122657
-0.19297634
-0.9180871
-0.08049105
0.13215843
-0.43924916
-0.20901857
-0.619564
-1.2096015
-0.77432066
-0.8003257
-1.4455056
-1.4338976
-0.91336447
-1.0718263
-0.5587807
-0.6093706
-1.1073852
-0.8496803
-0.49662042
-0.13967653
-0.47497582
-0.3007461
0.19324803
0.10613265
-0.05552529
-0.20860292
0.0025490278
-0.40500778
0.092517495
0.1268476
-0.2267929
-0.2922556
-1.2406837
-1.5516707
-0.71212727
-0.6565529
-0.64375687
-1.5157939
-0.8457034
-0.6587103
-0.8198921
-0.7031338
-0.4300293
-0.541882
-0.40443942
-0.5692596
-0.08632302
-0.023800468
-0.43653506
-0.37721255
0.089230515
-0.23593502
0.19039029
-0.64634204
-0.6428958
-0.74940383
-0.3535448
-0.045698024
-1.1260062
-1.0012481
-1.3928062
-0.8884453
-0.9369064
-0.4399459
-0.78349334
-0.9434236
-0.7046043
-0.18854539
-0.88092256
-1.0065649
-0.62637067
-0.44854322
-0.18921958
-0.51651376
-0.5065981
-0.5611596
-0.5386632
-0.24330185
0.071047805
-0.17917195
-0.38914716
0.2600212
-0.4699641
-0.4846871
-0.29114974
-0.34309152
-0.21092848
0.041669898
-0.091140494
-0.12327119
0.07445288
-0.312022
0.2599324
-0.4233812
-0.17921075
0.31731626
0.22545588
1.0927826
0.39565212
0.2510531
0.5347071
0.48216745
0.29322866
0.010896271
0.040921897
0.23900035
0.30949292
-0.35298926
-0.106718406
0.024688646
0.070555046
0.2705574
0.10254926
-0.20576157
-0.13207698
-0.0025657946
0.5344965
0.21355583
0.73611057
-0.07633288
0.5325369
0.110168904
0.46961975
-0.06485348
-0.5358566
-0.36317733
0.01762971
-0.08582706
0.50656366
0.4966846
0.25616455
-0.071185224
-0.25411466
0.01915543
0.18973345
0.16866611
-0.09725931
0.44987485
-0.288522
-0.8752194
0.08852917
-0.05660841
-0.25429788
-0.37903875
0.22934368
0.39354917
0.92521524
-0.003567689
0.11745228
0.57950234
0.46321237
-0.020745296
-0.91688794
0.75032747
0.5034582
0.27561772
0.73120624
0.6313498
0.31289926
0.009937668
-0.32192847
-0.11122938
0.06564381
0.2376274
-0.34780425
0.20340708
-0.35726112
-0.7471931
-0.14824538
-0.26180822
0.3479327
-0.2837188
-0.032869134
-0.2443142
0.9728029
0.30149752
-0.27339005
0.086946346
0.28502262
-0.045868922
-0.31755996
0.13987112
0.2601548
-0.12564884
0.305276
0.3167332
0.08403286
-0.1000347
-0.1740514
0.005094982
0.115009196
0.27215806
-0.20116036
-0.41665313
-0.21206209
-0.18088196
0.018371519
-0.024628922
0.3108794
0.32092255
-0.010156966
-0.34972072
-0.11077962
0.10670252
0.4675051
0.5537669
-0.4534122
-0.12662391
0.060884487
-0.36252162
0.250791
-0.04551377
0.0686545
0.29566714
0.1295319
-0.15668109
-0.13626157
0.39369988
0.27938578
0.20362386
-0.36904842
0.016063923
-0.053270653
0.11051113
0.11784819
-0.40443993
0.19147184
-0.3915342
-0.062313233
-0.0088608395
-0.022896472
-0.19872767
0.018293392
0.26036105
-0.23302975
0.42908302
-0.013450579
-0.050057802
-0.324488
-0.53187793
-0.2668009
-0.06765462
-0.042038836
-0.17050678
-0.09340109
0.07267298
-0.07766747
-0.12613143
-0.18557435
0.18315536
-0.6535755
-0.08540681
-0.7560371
-0.48107916
-0.10283434
0.2224114
-0.038284548
-0.24453215
0.61777997
0.70283896
-0.1095122
0.4179948
0.8441755
0.52402186
0.12632579
-0.09325171
-0.185163
-0.060796898
0.008240118
-0.080712624
0.077025644
-0.13534364
-0.20750985
0.028861172
0.17555487
-0.0014346698
0.42591488
0.23282528
0.11718335
-0.5442204
0.12346609
0.40452737
0.44557697
0.5625506
0.5028514
-0.069166444
0.3597482
0.37668717
0.046130944
0.40877518
1.3074174
0.4599495
0.37983787
0.13455296
-0.46955487
-0.2451586
0.10840071
-0.066360205
-0.17949438
-0.1539851
-0.2725627
0.18461174
-0.21191572
-0.21950212
0.4102659
-0.019586563
0.27613896
-0.28172258
0.37887433
0.57789797
0.013738462
-0.3549138
-0.19715656
0.22445355
-0.16303146
-0.3100731
-0.26704076
-0.10834262
0.95162606
0.10053917
-0.13863453
-0.2701351
-0.77056867
-0.11721498
0.17343938
0.089650705
-0.2182948
-0.20157765
-0.11885228
-0.2836447
-0.18474644
0.027690854
0.30474305
-0.2493276
-0.08803793
0.21132717
0.6417047
0.12820101
-0.1567526
-0.5108397
0.5534068
0.1295617
0.68739945
0.14358343
-0.03563283
0.40332618
0.3634394
0.18362471
0.04859429
-0.3049539
-0.64222986
-0.40155792
-0.43911612
-0.06806587
-0.33076745
0.028170919
0.35613504
-0.19921353
-0.24313256
-0.49825737
0.0062409495
0.07050109
0.06101148
-0.18240502
-0.17012656
0.7993576
0.3229199
0.04385619
-0.13717067
0.060546074
0.6161888
-0.04264211
0.36417654
0.1887865
0.39724836
-0.121322736
-0.43514177
0.022887975
-0.45866457
-0.07971234
0.37983686
0.032711282
-0.17051232
-0.2319484
-0.091385484
-0.3219331
-0.21782282
-0.37635452
0.015948797
0.46715122
0.47895512
0.04723897
0.3083748
0.25502497
0.07703107
0.3096272
-0.33673307
-0.12749803
0.13125497
-0.017472694
0.37565517
0.24635082
-0.061217383
-0.21958126
0.13464057
0.095269814
-0.17601831
-0.19069561
-0.21484286
-0.14441228
-0.21761212
-0.17614524
-0.25190848
-0.66205484
-0.47292516
-0.33276874
0.02885093
-0.1554298
-0.11549327
-0.4039167
0.45749742
0.24959427
-0.16231206
-0.08636329
0.1558887
-0.64686173
-0.107720144
-0.07594915
0.5149563
-0.09625288
-0.40446985
-0.26391113
0.5706726
0.3779662
-0.028232012
-0.21908738
0.23190401
0.07295181
-0.23702587
-0.39626753
-0.13614877
0.035517465
0.51487404
0.80284995
0.4936311
-0.22411098
0.4877386
0.28623858
0.16508572
0.31564584
0.17629212
0.40181735
0.6676661
-0.2732989
0.07569826
0.27459422
0.7975197
-0.30355453
-0.55831707
-0.43022627
-0.19730754
0.33802077
0.225259
-0.14040917
0.13087176
0.0037711419
-0.21484731
-0.33607104
0.20362537
0.32665807
0.68912166
-0.024787318
-0.034756623
0.37812355
0.35185555
0.38424155
0.6651047
0.5797759
0.24203375
0.1997747
-0.06076091
0.15079412
0.30261382
-0.14638497
0.6759143
-0.11620857
0.018766139
0.39903378
0.15582366
-0.056995478
0.027047416
-0.31057197
-0.15763842
0.39358205
-0.022637168
0.010316285
0.02227164
0.2183984
0.60118574
0.09809094
-0.28514317
-0.31390053
-0.49692538
0.26192048
-0.14554754
-0.39757144
-0.082853355
0.264014
0.1620251
0.44082162
0.4334682
0.28495908
0.32887697
-0.10585469
-0.0714413
0.18632111
0.5340472
-0.10906355
0.36623174
-0.13609998
-0.036715228
0.30239928
0.08146097
0.22488321
0.25215074
0.21905008
0.20581278
0.18371078
0.6695047
0.41733715
0.6592066
0.51477015
0.22702752
-0.23228301
-0.31358287
0.12870121
0.38315284
0.7221766
0.4360199
-0.69259137
-0.3723896
-0.41864157
0.16586979
0.24247065
0.036440253
0.04726084
0.4611719
0.43491971
0.018347023
0.3331507
0.16565217
0.20382605
0.043494742
0.077213876
-0.17357531
0.011976616
-0.028441837
0.4210604
0.2336755
0.27958858
0.030482257
-0.16045696
-0.4381384
0.18667787
0.043047916
0.013448241
0.106109075
-0.48517185
-0.493881
-0.533382
-0.248767
0.059804205
-0.14583251
0.02157752
-0.08785174
-0.32301244
-0.509075
0.14465114
0.14799406
0.030884877
0.8498749
0.75394243
0.7764405
0.60133183
0.55740786
0.4255856
0.23830956
0.15072943
0.14272195
-0.1281162
-0.03045971
-0.09441422
-0.25057715
-0.6614262
-0.31447038
-0.33675674
-0.23345934
-0.73466235
-0.65191287
-0.30442616
0.007224712
0.17256121
0.015076596
0.5627285
0.69614196
0.30642387
0.7527493
0.77106875
0.8286747
0.7837806
0.81296647
0.58791375
0.23783015
0.33624214
0.21045892
0.1380944
-0.057484284
-0.5013673
0.048590828
0.32307446
-0.19552915
-0.74397063
-0.035942994
-0.028676348
0.15165986
-0.36233476
-0.16977754
-0.13873349
-0.21804741
-0.39405382
-0.20099618
0.23149173
0.26068318
0.07610901
0.39585242
0.5704282
0.61870843
0.34352168
0.37919223
0.13414341
0.1815945
0.090885594
0.46482843
0.57473034
-0.3904415
-0.27908298
-0.42531288
0.24274552
-0.2114821
-0.5757509
0.20220946
-0.24792255
-0.98372513
0.043409888
-0.20848525
0.0025686808
-0.11234063
0.029266413
-0.5558642
-0.53669727
0.19145727
0.2605549
0.59132403
0.1155972
0.2856863
-0.027948925
-0.24512966
-0.42735222
-0.108406626
0.102285534
-0.39228022
-0.04186891
-0.052036006
0.019485582
-0.2946732
0.8291336
-0.18706611
0.34383368
-0.11485395
1.0968783
0.06137721
-0.18435377
-0.91279215
-0.90838486
-0.83730036
-0.11097766
-0.1297503
-0.77369106
-0.914369
0.08102945
0.45221266
-0.021085456
0.24583109
0.026466524
-0.3065424
-0.24005531
0.11394249
0.142695
0.22566636
-0.0057225577
-0.037925843
0.32203683
-0.05218119
-0.6298793
-0.011469107
0.017093565
-0.37010226
-0.0906727
-0.21612336
-0.083510734
-0.9289399
-0.16836344
-0.29065713
-0.33670136
-0.348116
0.12263121
-0.51171607
-0.266128
-0.043685444
-0.46867812
0.23199645
0.07886789
0.0040093698
0.35018197
0.8906587
0.41406295
0.14543389
0.16257977
0.03996141
-0.03807769
0.50916404
0.33300665
0.113888584
-0.25404164
-0.14203833
-0.12192594
0.13733982
-0.13894007
-0.43998507
-0.7879758
-0.8347958
-0.5832901
-0.1599501
0.2633946
-0.7475124
-0.5981633
-0.34297383
-0.25553918
0.49788195
0.22879392
0.11587713
-0.23413384
0.12067051
-0.08347173
-0.5818775
-8.39212E-4
0.16335544
0.57810336
0.7055139
-0.4097713
-0.22149025
-0.6770912
-0.40954867
-0.626402
-0.059823435
-0.14120002
-0.82895625
-0.36912483
-0.75822574
-1.1170224
-0.45633283
-0.44875136
-0.6724162
-0.45059752
0.113630354
-0.6867875
0.04117402
0.40138802
0.09073078
-0.014084707
0.2092591
-0.057371657
-0.1324767
0.75777847
0.14122008
0.27335125
0.45458442
0.0031026618
-0.33865
-0.8521206
0.30097732
-0.9340771
-0.46569458
0.044234425
-0.45887437
-0.12468074
-0.4657308
-0.7169522
-0.50978464
-1.3197464
-1.0700194
-0.79199326
-0.4377345
-0.83671606
-0.13635983
0.43949568
0.24192359
0.20916137
0.5375552
0.4108861
-0.054180544
0.25751373
0.5236115
0.3701456
0.29596463
0.07465241
0.066830315
0.33275947
0.5215427
0.0013780663
0.0055343783
0.107156955
0.3006058
-0.13593626
-0.69246817
-0.78845936
-0.46457398
-0.7101755
-0.33286422
-0.9003436
0.002978361
-0.5086677
0.02413712
0.56551087
0.7526994
-0.0961372
0.098963246
0.04768317
-0.15627743
-0.46356732
0.34203783
-0.3502306
-0.3070565
0.1981194
-0.7035913
-0.35926357
-0.13585223
-0.55625296
0.58428186
1.1705391
0.9398228
0.56390685
0.06815705
-0.26518908
-0.8400043
-0.70659286
-0.3918251
-0.85164785
-0.20499912
-0.57569605
0.20210497
0.33242193
0.47021103
0.035017543
0.3196617
0.2033592
0.10513549
-0.10153571
0.101022184
-1.0548017
-0.2624675
0.26679468
0.15867937
0.19005634
0.715383
0.29230773
1.0639225
1.1957229
1.0061941
0.3346331
0.21676324
-0.5565957
-1.0361376
-1.0437808
-0.6824087
-0.4614672
0.06834598
-0.65208274
0.44469288
0.68108964
0.031600907
-0.40368333
-0.3425076
-0.16323319
-0.21330336
-1.1251312
-0.81139207
-0.3023659
0.16933443
-0.23626319
-0.26044983
0.005392039
0.8185016
0.5775134
1.2441082
0.77993727
0.837982
-0.11700535
0.30357555
0.030276826
0.41329062
-0.20266293
-0.24920343
-0.7916935
-0.3268515
-0.8808269
0.091988295
-0.15931925
-0.42784625
-0.47467038
-0.43682766
-0.47308505
0.24677703
-0.6170064
-0.32286835
-0.99082875
-0.61727095
8.3459716E-4
0.06682283
0.8785995
1.0408691
1.1885017
1.7981234
1.6990521
2.1642106
0.85702103
0.40247473
0.048519135
0.13514704
0.1522778
-0.65280724
-1.4859331
-0.98263645
-0.9203652
-0.24112134
-0.020499667
-0.033811342
-0.08459332
-0.21075946
0.42522722
-0.21706875
-0.36609343
-0.3096622
-0.7272519
-0.553884
-0.3778097
0.27166152
0.29379708
0.744736
1.0882717
1.6282201
1.1780965
1.1252847
-0.24553588
-0.10947667
-0.2689053
0.089560844
0.009521414
-0.5527638
-1.1921004
-0.8664408
-0.6645676
-0.23683877
0.117037855
0.03569097
-0.0054691345
0.22874144
-0.030871581
0.2831458
-0.249124
-0.58046913
-0.8221286
-0.51238334
-0.1361249
-0.2888608
0.10326044
0.51296854
0.66554034
1.4232119
0.728814
0.4679296
0.17830688
0.53262854
-0.1784102
-0.6832855
-0.28061065
-0.5368359
-0.48167858
-0.502651
-0.29333842
-0.26542267
-0.37559354
-0.23440145
-0.5049749
-0.4975481
-0.7596601
-0.5689403
-0.5347525
-0.094044924
-0.21261355
0.4743818
0.045050934
0.60469586
1.4322649
1.7825847
1.4309354
1.2199135
1.0931431
0.8354121
0.18285058
0.2167167
-0.5974683
-1.3584056
-0.67294705
-0.63007146
-0.32178977
-0.39454573
-0.19649087
-0.3205786
-0.1986547
-0.5915839
-1.0577937
-1.9488429
-0.7422171
-0.64224875
-0.13579093
-0.6548865
-0.97426444
0.0126695
-0.12362154
0.5754517
2.112582
1.6410574
0.8402273
0.5437915
0.7284377
0.042383313
-0.5540039
0.26108956
-0.4193045
-0.9235892
-0.58649594
-0.4832936
0.24567565
-0.22130674
-0.18815859
-0.7884338
-0.7187288
-0.39365065
-0.7426169
-1.2737151
-0.39159912
-1.2540152
-1.4787377
-0.42069438
-0.12817818
0.839613
0.13280271
0.4910844
1.1611898
1.0687425
0.86540586
1.0725399
0.8000775
-0.060088936
-0.43350834
-0.1563982
0.5907671
0.06478512
0.007124597
-0.38562143
-0.3096292
-0.51269317
-0.5796363
-0.82485276
-0.28550816
-1.1104453
-0.55837387
-0.49945924
-0.04381403
-1.1100965
-0.5123047
0.20335202
0.027531775
0.92091566
0.40069512
1.2770791
1.3945118
0.7539258
0.2735779
0.23829727
-0.23393849
-0.3279441
-0.9193109
-0.3483314
-0.094180316
-0.27357107
-0.3537003
-1.0349543
-0.78933394
-0.8055612
-0.5148191
-0.65999264
-0.5678482
-0.6631208
-0.34529227
-0.8566801
-0.39024326
-0.6064589
-0.5894435
0.617411
-0.19653833
1.278402
1.0011075
0.8077026
1.0146867
0.7829715
-0.04481342
-0.018686416
0.021203741
-0.733055
0.24188405
-0.22155282
0.09369784
0.06950601
0.85371304
-0.13921858
-0.22127785
0.19669032
0.19137026
-0.9972739
-0.9765955
-0.21832323
0.038243286
0.4160659
-0.045114253
-0.46227688
-0.5469977
0.33190244
0.64885825
1.3509604
1.3470278
0.55614144
0.16141045
-0.5142175
-0.3014497
0.17885624
0.19558448
-0.74674124
-0.13459627
-0.4922702
-0.12609915
-0.46194932
-0.029899498
0.0030765492
0.22876629
0.8977772
0.5557693
-0.23464176
0.078660876
-0.251179
0.013526882
0.31014735
-0.089745745
0.49282074
0.023683565
0.26885813
0.7206312
0.6833896
0.12231309
0.12289352
0.3113819
0.24047947
-0.29028586
0.046890166
-0.8566267
-0.8806569
0.25675774
0.6001496
-0.13703407
-0.15997449
0.07539445
0.07678436
0.46300265
0.6632811
0.5510495
-0.11549533
0.22588453
-0.029687632
0.4749288
0.24745443
-0.4452718
-0.069424696
-0.29834566
-0.3368699
0.094079986
0.5113045
-0.056037933
0.021760149
-0.14941642
0.33449295
-0.32949197
0.22856067
-0.47601223
-0.80071527
0.16796257
0.18118474
0.11265221
0.40377405
0.2772272
0.407562
0.6225956
0.7974144
0.7839971
0.30015454
-0.7429291
-0.021875257
-0.24388742
-0.63493127
-0.3327779
0.38109714
-0.8491396
-0.69772625
-0.37324634
-0.3747059
0.5592947
0.57164884
0.69671685
0.7950946
0.3690587
0.4987337
0.9233472
1.1282915
0.3655942
0.6670944
1.0341799
0.6069684
0.35692608
0.48887995
0.66724277
0.9710944
0.93376434
0.16584674
-0.34648293
-0.10313413
-0.62976813
-0.794191
-0.12428988
0.3362084
0.009362769
0.031187663
-0.17272559
-0.70590425
-0.15017255
-0.2193752
0.5209305
0.35683376
0.14622854
-0.10774882
0.6877335
-0.09077781
-0.7015961
-0.3992961
-0.15831769
-0.1405442
-0.0015986131
-0.04498633
0.20078678
0.44465268
0.61441165
-0.09189506
-0.47508317
-0.9278572
-0.21390751
-0.4977832
0.21329889
-0.14922458
-0.051481564
-0.19431736
-0.5047195
-0.57902473
-0.648084
-0.12656055
0.2621969
-0.22504218
0.36382157
-0.09351302
-0.17498946
-0.8462674
0.42894337
0.16313688
0.07118977
0.23210663
0.43461636
0.12234983
0.64375305
0.99523836
0.9011141
0.39536557
0.27158967
-0.32804704
0.024662996
-0.4465744
0.027476689
-0.5030738
-0.36413157
0.107995614
-0.21692304
-0.6507334
-1.0125378
-0.4447446
-0.6778669
0.19069432
0.6956411
-0.36473683
0.2830847
-0.13448308
0.35961014
0.82502764
0.9404371
0.74423456
0.88792056
0.9488827
0.95621806
1.1042528
0.9497476
0.39326167
0.18919279
0.18026923
0.09350727
-0.13770495
-0.25093505
-1.1547202
-0.5860682
-0.79567814
-0.8824617
-0.5676639
-0.5925157
-0.2562358
-0.22861384
-0.053455748
0.30864614
-0.085640535
0.27792814
0.5142819
0.5082683
0.44243568
0.90155214
0.71586275
0.8038151
0.9319124
0.79715765
0.8993435
0.81178737
0.909665
-0.41833144
-0.66652596
-0.26498556
-0.39013493
-0.25053063
-0.8045549
-0.4576828
-0.5215684
1.1562591
1.1702645
1.3048129
1.6498551
2.4497797
1.9916968
3.3835082
1.8209887
2.7358522
2.9040048
2.8071852
2.5174532
2.29579
1.5751345
0.8099717
0.22574498
-0.112168945
-0.37682858
-0.8800055
-0.83164454
-0.29242173
-0.53713673
-0.12458188
-0.4637077
-0.22774069
-1.2436515
-0.6276632
-1.4296647
0.14725153
0.46393573
0.31403476
1.2669748
0.5694867
1.048636
2.4686575
1.0159782
1.7865299
2.1522527
1.9483987
1.1063555
1.981385
0.71620214
-0.37964815
-0.21694148
-0.11090154
-0.5433247
-1.0530915
-0.4366028
-0.4972492
-0.54811895
-0.4226518
-0.46969032
-0.6199507
0.12607975
0.42750174
0.79979366
1.7265459
0.8466429
2.454096
1.5289849
3.0067308
2.6034265
3.42304
1.7189422
1.8214422
2.737709
1.5347162
2.2882102
1.8106275
1.142053
0.79584605
0.20793888
-0.26385555
-0.8021212
-0.6685656
-0.24720344
-0.0711128
-0.085232966
-0.2935679
-0.2298692
0.37123215
-0.17078005
-0.5823281
-0.8345378
-0.21066625
-0.3803899
-0.4446019
0.030303426
1.3163087
0.858723
1.9899372
1.2580888
1.4274348
-0.0736304
0.29842848
0.48711613
-0.42714366
0.27371177
0.37031165
0.062438343
0.18885651
-0.04155024
-0.36705047
0.1562756
-0.075323634
-0.12923957
-0.7263679
-0.2373065
0.018247634
-0.38293603
-0.5674824
-0.65583
-0.98316985
-0.49446005
-0.17830214
-0.24282427
1.1420325
0.3876723
2.3596644
0.006765974
-0.0070148557
-1.0574787
-0.7124881
-0.6740486
-0.13676855
0.12881143
-0.5829025
-0.20225948
-0.43979457
-0.6043905
-0.10713416
0.62571156
0.14987735
-0.23601194
-0.67866004
0.16893408
0.38468796
-0.25228333
-0.30762178
0.25068298
0.8647338
-0.53914094
-0.14091979
-0.17943276
0.2706088
0.9677233
1.3245642
-0.7406005
-0.1447185
-0.716396
0.4073271
-0.2971446
-0.67947835
0.59705156
0.27007177
-0.13494083
-0.45675662
-0.41628775
-0.16007538
0.2607814
0.20862517
0.21495453
-0.09193568
0.019960567
-0.26521704
-0.5118385
-0.49007103
-0.7056084
-0.25901106
-1.4305704
-0.9181296
0.06831552
-0.16811956
0.49096763
1.6065732
-1.0134665
0.33547282
0.09884197
-0.6401649
0.04766727
-0.2938983
-0.43326706
-0.26783204
-0.5405334
-0.02668286
0.5451976
0.016877618
0.42819822
0.34960443
0.23348488
-0.21849528
0.050303068
-0.18232454
7.5909524E-4
-0.45122245
-0.5776459
-1.0572122
-0.55962557
0.44441888
-0.021806441
-0.35031545
0.9657274
0.17275639
-1.187369
-0.07304551
-0.6412735
-1.3603947
-1.3349066
-0.92988276
-0.08439277
-0.78873676
-0.041793156
-0.009230385
0.74154186
0.2226673
0.29435053
0.4886074
0.5130137
0.10613229
-0.024731215
-0.32517695
0.0043547903
-1.1509732
-0.104080155
-0.3020689
-0.625479
-1.5881258
-1.117643
-1.2837147
-0.30255026
0.34853706
-0.22929925
0.011237566
-0.010699756
-0.068886995
-0.285743
-0.27345166
0.11815601
0.33853275
0.21390487
-0.80330443
-0.683859
-0.21614274
-0.043299645
0.020578178
0.022579404
-0.03665237
-0.02653459
-0.27115488
-0.5830036
-1.1628966
-0.6799079
-1.1034874
-1.4676666
-2.270135
-0.96682966
-1.0995023
0.20821083
1.1096079
0.7729612
0.04102069
-0.054476187
0.7379836
0.21768765
0.66066766
-0.165071
0.010861996
0.42953882
-0.005258695
0.5424681
0.49450615
0.5620345
0.13071628
-0.13233215
-0.60596704
-0.7173804
-0.67944664
-1.0163795
-0.5465939
-0.5989258
-1.4577338
-1.5532542
-0.964838
-0.18891928
0.52060074
0.6801531
0.072398424
-0.27174887
0.08754263
-0.036234178
-0.42251083
-0.5651052
-0.801811
-0.36183932
-1.0884272
0.11019744
0.37854216
0.6623613
-0.07520412
0.0517719
-0.5066777
-0.8515963
-0.8320958
-1.2708333
-1.0594081
-0.1118298
0.17266147
-0.65671414
-1.1006551
-1.1974161
-0.9707074
-0.78784996
-0.9386073
-0.16283101
-0.7980117
-0.7394584
0.9969365
0.60766673
0.08659804
-0.07955907
-0.69040406
0.68020934
-0.12042972
0.2742716
-0.13977495
0.47080955
-0.13846855
0.09787774
-0.22321726
-0.19237825
-0.6225875
-0.42664084
-1.0169135
-1.0236772
-1.3555177
-0.8505562
-0.53995556
-0.88182086
-0.2956821
-0.14852916
-0.41673768
-0.22124608
0.74747884
-0.24126616
0.8271333
-0.21819101
-0.3024346
-0.66254246
-1.1733913
-0.63160104
-1.5674257
-0.66427886
-0.5452763
-0.59565675
-0.6895519
-0.13404909
-0.26963928
-0.49127784
-0.20587245
0.16005057
-0.29540688
-0.3025109
-0.9206109
-0.4566964
-0.59546274
-0.7548501
0.027011614
-0.30452704
-0.48619062
-0.35880542
0.14372444
-0.9601387
-0.17088075
-0.65148246
-0.44149908
0.19678324
-0.1377552
-0.8216712
-0.92141384
0.071266815
-0.0372306
-0.0125203105
0.427739
0.3961873
-0.25541216
-0.52198404
-0.8109736
-0.37577975
0.046690486
-0.18352397
-0.04349509
-0.6437853
-0.6642922
-0.739971
-0.12922731
-0.0024260278
0.054392796
-0.03927761
0.09962732
-0.109806456
-0.52045906
0.4409657
-0.09293349
-0.48827943
0.19009231
-0.06237393
0.3902277
-0.16087928
0.18742795
0.23956874
0.011948461
0.074898005
-0.3001073
-0.6423849
-0.82514775
-0.68158126
-1.1875548
-0.7375609
0.25055283
-0.21264738
-0.5358662
0.015988456
-0.4099598
-0.57081264
-0.4473642
0.14216606
-0.25878784
-0.46443722
-0.79981357
-0.0711574
-0.36878642
-0.23355488
-1.0464051
-0.9599505
-1.3334141
-0.8895967
-0.7874995
-0.22179288
-0.586943
-0.09845788
-0.5317036
-0.07828696
0.011000557
-0.15066554
0.15635279
-0.77138877
-0.6960276
-0.76804036
-1.2107573
0.2463907
0.15947029
-0.14748006
-0.27805024
0.11284996
-0.22585808
-0.067011744
-0.39912623
0.28967062
0.36884612
-0.44856966
-0.9140935
0.43711057
0.57242817
0.31040648
0.66490525
0.65384996
0.896417
1.2279453
0.4691548
0.45142317
0.4043664
0.23911996
0.6929421
-0.09396575
0.42024866
0.6654072
0.35448554
0.40076458
-0.73161614
-0.2866183
-0.8386852
-0.8198465
-0.28177547
-0.6802202
-0.8850661
0.054197557
0.077041574
0.4381239
0.1552636
0.17552736
0.0943049
0.41477054
0.9904869
0.50805414
0.13350283
0.67927754
-0.16450214
-0.38934514
-0.63127
-0.40422216
-0.7833663
-0.9237849
-0.35190994
-0.08442105
-0.051087648
-0.34642264
-0.50866455
-0.20184484
-0.04804622
-0.72100955
-0.33118108
-0.02279669
-0.013674203
-0.2579157
-0.6285886
-0.053113725
-0.52572584
0.07658871
0.031523567
-0.11513476
0.07194659
0.10546845
-0.54654497
-0.18966214
-0.20747745
-0.63347876
-0.236161
-0.65281177
-0.58093095
0.05788154
-0.7023773
0.003807002
-0.48600626
-0.39990646
0.52005905
-0.30411592
-0.11074081
-0.7686283
-1.1430565
-0.4760568
-0.7693753
-0.4918908
0.45816144
0.67401654
0.05472316
0.4986423
-0.042332422
-0.02572885
0.2948871
0.34770787
-0.47176415
0.03715271
-0.007593738
-0.0701098
-0.6252547
-0.7757526
0.0010043482
-0.36264825
-0.7253918
-0.927295
-0.16960202
-0.6617737
-1.3919113
0.38669983
-0.15923661
-0.14481358
-0.48337656
-0.10507553
-0.4534768
-0.0524883
0.27308866
0.08841725
-0.057099935
0.8077475
0.23119031
0.49686027
0.23752852
0.51168025
-0.5018644
-0.3991511
-0.1865809
0.11677865
-0.37692067
-0.2619435
-0.18072437
-0.43981034
-0.42889953
-0.8156327
-0.8896792
-0.17675425
-0.9524294
-0.040328737
-0.6036752
-0.006547271
-0.14105374
-0.18095279
0.34793362
0.31590164
-0.22662811
-0.30390733
-0.11739022
-0.15738362
0.018879373
0.39415717
0.16801138
0.3163786
-0.07047792
-0.09693174
0.22602142
0.08023349
-0.08330933
-0.59566295
-0.07026061
-0.32325348
0.5038651
-0.1870417
0.28791285
0.2697485
-0.2335851
0.48200935
-0.09507796
-0.26939335
0.78397715
0.6803562
0.10041972
0.47127438
0.34866095
-0.0029047728
0.24041328
-0.36630663
-0.3984736
0.4680414
0.613731
0.5576262
-0.25308266
-0.09941096
0.28379393
0.35297957
-0.0972889
0.23334134
-0.088328525
0.79531926
0.5935819
0.76649505
0.15430444
0.8792571
0.739543
0.45198363
-0.15974209
0.17438036
-0.16691926
-0.05681259
-0.07272608
-0.068944976
0.027744891
0.37005213
-0.3665865
-0.50412744
-0.198213
0.07447508
0.9236836
0.33415607
0.16531774
0.27489495
0.29725102
0.20516445
0.42424303
0.4894458
0.5861052
0.22284125
1.1365155
0.79063123
0.19973852
0.39352188
0.6691452
1.0933104
0.18806437
0.5194177
0.7277546
0.020142449
-0.14860065
0.038701408
0.3683277
-0.059646793
1.0649304
0.83880174
0.61769277
-0.12321224
-0.26002195
-0.18334675
1.2523502E-4
0.19889346
-0.16123211
0.2037654
0.40056545
0.792512
1.0679177
1.0696999
0.9923748
0.7047498
0.570632
1.0660582
1.3201556
0.65686977
0.6905304
0.80649585
1.0967574
0.5045444
0.48793092
0.6946239
0.50883716
0.21283604
0.53370583
0.39964974
0.41414145
-0.582789
-0.16272199
-0.47673732
-0.05052122
0.3209858
-0.55292153
-0.76299536
0.0053083175
0.28408393
0.57769924
0.403561
-0.05454376
0.07043891
0.7107714
0.6654682
-0.0068142945
-0.028553648
0.6098287
0.47984985
1.3949785
-0.4745641
0.39118966
-0.41167644
0.22429176
0.6609598
0.1847568
0.47983962
-0.11207619
-0.59432787
-1.487343
-0.738558
-0.47734082
-0.057780176
-0.5305279
-0.5936404
-0.08315042
0.34161732
0.18429707
0.66486907
0.1074409
0.9303856
1.5366387
1.3680727
0.9409191
0.96783406
0.1647523
0.21575086
1.0106524
-0.12370563
0.6307057
9.294994E-4
0.019189134
-0.19393034
0.45295146
0.5044842
0.0037672166
-0.30923674
-0.040297464
-0.12822981
-0.325936
-0.40897068
-0.45533398
-0.9240849
-1.0225108
-0.7960819
-0.7659193
-0.009527572
-0.30988207
0.43310913
-0.13111079
-0.23540935
-0.38103068
-0.06377791
-0.33604604
0.6398325
0.3242975
0.6192303
0.87886226
0.55047333
0.032956645
0.20379572
-0.5615734
-0.6114327
-0.76114225
-0.044998318
-0.30663025
-0.5447422
-0.23880072
-0.7268063
-1.1444354
-0.75694716
-0.7181107
-0.39231715
-0.23948243
0.5822171
0.32563698
0.7270048
0.6431827
0.35901287
0.15038298
0.11468006
-0.1889355
1.4422735
-0.1721005
0.1465828
0.42720485
-0.14736411
-0.68831885
0.13978419
-1.4456328
-0.863366
-0.4097795
-1.0183585
-0.6478218
-0.3207193
-0.99600047
-1.1900598
-1.0877886
-0.94235265
-0.7196845
-0.07213642
-0.18026666
-0.103810094
0.13396075
0.19821855
0.83374953
0.63727987
0.6646676
1.0994412
0.7305529
1.1603228
0.5491461
-0.29187933
0.74504066
0.10231638
-0.3963266
-0.5550039
-0.63655955
-1.0324066
-0.81161594
0.28115797
0.312839
-0.45308048
-0.24212576
-0.18645878
-0.52223337
-0.3988753
-0.26087606
0.054897778
-0.1890132
-0.36322558
-0.103071116
0.33556494
-0.092124596
-0.19968498
0.3015341
-0.179045
-0.62211967
0.5944285
-0.061920296
-0.35058826
0.17190887
-0.30031234
-0.8051864
-0.0687277
0.29014927
-0.5612608
0.45655227
-0.052702844
0.4278579
0.34883714
-0.13502277
-0.1136518
-0.30234775
-0.3591789
-0.1250555
0.35637334
-0.26353458
-0.40818983
0.41263986
0.0399054
0.012901935
0.4601232
0.45063564
0.8301177
0.49462265
0.9173594
0.8131759
0.3293204
0.5044015
-1.2032291
-1.291427
-0.18138483
0.049950365
-0.044151504
-0.38854542
0.039396606
0.95606756
0.8989737
0.1565585
0.31695813
0.26495457
-0.20794189
0.32561848
0.06648182
0.024695747
-1.0432227
-0.491985
-0.20479219
-0.01721353
0.30877942
0.80008316
1.3022555
1.4491117
1.036721
1.3336406
-0.6305538
-0.71100295
-0.8954784
-0.55775505
-0.28223616
-0.32829624
0.15499793
1.0312749
0.28935656
0.8069122
1.0222477
0.10054656
0.44693306
0.3152895
0.12316601
0.41186106
-0.26986432
-0.20670871
-0.42564088
0.2652968
0.38151568
0.60692066
0.86873966
1.5642337
1.4558996
1.6948203
1.3631473
0.44554347
-0.93578804
-0.5294428
-1.0363914
-1.1184855
-0.6684567
-1.0034106
0.34115797
1.1155685
0.7781961
0.7079583
1.0823208
1.029902
1.071024
0.8870979
0.31582883
0.4630422
-0.3556928
-0.2996096
-0.12347938
0.15595357
0.20258129
0.95754105
0.7092775
0.86849266
1.0827559
1.2977808
1.2121614
0.4733068
-0.9331815
-0.66322035
-0.8476617
-0.6507795
-0.2682946
-0.51008445
0.17956193
0.515392
0.72195536
0.6561474
0.9251162
0.81593716
0.4399004
0.39157954
0.024344979
0.23158468
-0.08347994
0.026570966
0.068152
0.49876362
0.4492531
1.0649313
1.5753069
1.0697005
0.26598722
1.3183087
0.42530453
-0.5109574
-1.323458
-0.6449929
-0.77715504
-0.48589605
-0.21773437
-0.2864826
0.07849669
-0.23370178
0.25103745
0.124879494
0.36590374
0.32318965
0.06676761
-0.022281047
-0.39282942
-0.14074792
-0.24086246
0.32429954
0.39636815
0.7836518
1.4301183
1.4988605
1.5687009
1.446896
0.9289595
0.98104733
0.3652462
-0.055232365
-0.6483714
-0.7526535
-1.7655065
-0.6241584
-0.7620224
-0.60756505
-0.30234748
0.43643388
0.6364606
0.476455
0.20972322
0.11617015
-0.53094137
-0.31624833
-0.11190951
0.011384251
0.047640193
0.6140163
0.86625725
1.1641806
1.2805477
1.1326412
1.311955
1.0447112
0.45343444
0.35770905
-0.18289474
-0.8017779
-0.42504615
-0.41453066
-1.2849432
-0.59102255
-0.9277975
-0.2806017
0.12287796
0.06322447
0.14669295
0.5305047
0.57132435
-0.118239135
-0.71758366
-0.80009675
-0.49782214
-0.080704756
0.19510521
0.10971636
0.26912415
-0.2140297
0.7092607
1.3230003
0.5278975
0.7293986
0.65059537
0.16301876
0.20541438
0.38429353
0.37024665
-0.5709364
-0.65023357
-0.57814276
-0.6613798
-0.7349205
-0.79674
-0.23157355
0.35676092
-0.08125935
0.07638088
-0.38378552
-0.9168819
-0.9603136
-0.71634734
-0.16623025
0.13198128
0.2309811
0.5118682
0.5090569
0.48236293
0.7879508
0.27281106
0.01060415
-0.10002291
0.3852121
0.107586056
-1.4016927
-0.5422479
-0.39156774
-0.8766225
-0.24303058
0.18083838
0.15150993
-0.47817266
-0.1539431
-0.22260965
-0.3858273
-0.07539229
0.02505201
-0.5601161
-0.6295734
-0.6374117
-0.4072167
-0.39070055
-0.15731153
0.5844339
0.7721549
0.10191442
0.06573439
-0.14511153
0.16117157
0.14097439
-0.41765139
-0.5817994
-0.4401878
0.16483061
-1.1842061
-0.9018448
-0.21294105
-0.53507036
-0.2580361
0.26257688
0.050007336
0.11720501
-0.5275939
-0.57963
-0.64898324
-0.9098476
-0.88266265
-0.7868512
-0.69280547
-0.17470288
-0.15266189
0.011080584
0.9064147
0.98759556
0.7226275
-0.20421198
-0.19213769
-0.4300861
-0.68844724
-0.99965584
0.23012955
-0.107714586
-0.81622434
-0.1251832
-0.53904426
-0.6160865
-0.3726662
0.081663765
-0.24513353
-0.06512996
-0.52661186
-0.28787985
-0.5352263
-0.8589875
-0.9433223
-0.6649219
-0.26265585
0.12831137
0.38856056
-0.2641967
0.18169042
-0.32513052
-0.07859822
0.021934219
-1.0338455
-1.0024614
-0.51617223
-0.3915435
0.09706772
-0.38276085
-0.30599096
0.11411914
-0.3801378
0.0064029046
-0.20167282
0.44880375
0.4115054
0.3174604
0.16394587
-0.20900865
0.12644632
0.14421251
-0.09685258
-0.36838132
-0.88429135
-0.59921515
0.04100599
-0.34155
-0.33185235
-0.5617861
-0.36713114
-0.34511003
-0.8062076
-0.97770894
-0.16488618
-0.21043096
-0.14493783
-0.32921296
-0.28529274
-0.5673191
-1.0907302
-0.8474049
-0.67022383
-0.18418805
-0.3340638
-0.35566464
-0.57991344
-0.9380078
-0.83219206
-0.98318636
-1.3298306
-1.062863
-1.165211
-0.56696665
-0.25239947
-0.46893355
-1.2574971
-0.5543061
-0.21737973
-0.73566395
-0.65440285
-0.7833071
-0.21213922
-0.61841756
-0.5933589
-0.50221723
-1.0375031
-1.2613826
-1.0334103
-0.86940324
0.09036868
-0.05015575
0.19035776
0.5133449
-0.12690489
0.053443275
-0.096949495
-0.26098937
-0.62769663
-0.6794258
-0.36909357
0.35163063
0.1359813
-0.17213115
-1.3072361
-0.16924031
0.015039099
-0.4471443
-0.35781693
0.13024817
-0.2663752
0.073688045
0.15503463
-0.19799925
0.13914888
0.44992635
1.3657445
0.59088266
0.8202177
0.94473994
1.173953
1.5353072
1.1796924
1.1266047
0.9923703
0.53015405
0.30995518
-0.21354552
0.09616078
0.76889706
0.51948506
0.29045418
-0.28825188
-0.0151675055
0.026851559
-0.49174687
-0.8425316
-0.79321146
-0.7746256
-0.032351635
-0.5151661
-0.8034832
0.43894774
-0.60851294
0.21084763
0.41578603
0.6080121
0.58750296
0.472766
0.6562749
0.62094384
0.64826596
0.57588196
0.20789002
0.23125568
0.1767908
0.27836207
0.29056203
0.1909599
0.21983607
-0.43280932
0.09066376
-0.39451548
-0.33093527
-0.69933206
-0.76948035
-0.76779324
0.5500664
0.13185719
-0.7043238
0.2230686
-0.54473823
-0.36469597
0.05302956
-0.08322967
0.26176608
0.67533535
0.49302617
0.6028567
0.44160366
0.3931813
0.024920626
-0.18738595
-0.06705563
-0.46943352
0.3278752
0.48892865
0.38201317
0.44290483
-0.27719146
0.3768042
-0.30304167
-0.0658226
0.06932142
0.17183374
0.70222634
0.61956036
-0.37383512
0.6654592
0.5725532
0.7950293
0.9252499
0.6178968
0.7415333
1.2346987
0.5976055
0.90254384
0.7487444
0.42695045
0.16585518
-0.016370362
0.038563203
-0.050418176
0.006996896
0.12104171
0.4819306
0.009704222
-0.02568681
0.32835633
0.4950306
0.008330504
0.5980309
-0.123737186
0.37894353
0.48554617
0.14712831
-0.26685572
0.23265825
0.5102744
0.4704094
0.04481557
0.49793652
0.7082553
0.56889296
0.35524264
0.547855
0.2681077
0.15457548
-0.04170653
-0.25935936
-0.002269575
-0.05321489
-0.2657717
0.12422274
0.1521453
0.40030068
0.3372896
-0.1051888
0.15243323
0.23300152
0.011847639
0.39448416
-0.14801724
-0.93434227
-0.5103357
-0.625779
-0.77025336
-0.536582
0.05313826
0.25986552
0.39093977
0.04698818
-0.34127033
0.23054203
0.068587825
-0.14082463
-0.47154275
-0.3194671
-0.04173231
-0.07983531
-0.40776637
-0.4013337
-0.37286496
-0.34496766
0.0022163752
0.25435674
0.587709
1.065641
0.24368596
0.48247162
0.18254283
-0.28728077
0.6409666
0.3219918
0.5892665
0.39055887
-0.0123960255
0.38684493
0.6727695
0.5658228
0.42479965
0.75860023
0.81397593
0.25455743
-0.3224227
-0.44644415
0.12677307
0.24355215
-0.33231932
-0.3507604
0.36127254
0.73775285
0.3676929
0.8149708
0.5295188
1.7868308
0.55426085
0.781711
1.2695811
0.38842958
1.0205219
0.21381773
1.047519
0.90737206
0.05893791
0.23393542
0.206122
0.15198348
0.5493004
0.82140887
0.3470731
-0.32927
-0.6759393
-1.1131839
-0.33939993
-0.5715696
-0.80016124
0.020557072
-0.20336267
0.6061639
0.32909712
0.22317891
-0.18474047
-0.0032449784
0.34576008
0.3622277
-0.6255687
-1.4313693
-0.8411052
-0.669137
-0.76627445
-0.16510431
-0.33291116
-0.63463706
-0.090510674
-0.5331525
-0.24672721
-0.38757116
-0.27628592
-0.7285184
-1.0159268
-1.2433654
-0.7547318
-1.1536484
-0.8385842
-0.31944764
-0.48444188
0.13177952
-0.5008411
0.64303255
-0.10534418
0.2609218
-0.089167364
0.44351152
0.3349477
0.04827052
0.094670504
0.111672096
-0.21190412
-0.30753976
-0.14605938
-0.20414363
0.11666827
0.09150103
0.21800523
0.08305493
-0.24669728
-0.53803045
-0.968652
-1.0681646
-0.17047237
-0.18609127
-0.086168796
-0.11916971
-0.088072255
0.065706424
0.16435635
0.06801524
-0.046631567
-0.26047096
-0.14360632
0.11996032
-0.09786728
-0.06669779
0.052223258
0.076315925
0.22894906
0.3054494
0.46466467
0.2831854
-0.096169606
0.14312555
-0.012283629
0.05399833
0.119996905
-0.060412273
-0.06516321
-0.05018539
-0.12329136
-0.12841837
-0.1318035
-0.13808815
0.05361628
0.06333253
0.38785285
0.07780014
-0.03898992
-0.16955742
-0.5820195
0.19541015
-0.1180379
0.17339036
0.33067092
0.47244605
0.80804795
0.30153155
0.7660013
-0.22911604
0.49358648
0.3706391
-0.6006764
0.11880452
0.22992201
-0.058497846
-0.24934997
-0.09602509
-0.14194734
-0.12530549
-0.14827073
-0.05335484
0.06433867
-0.044521682
0.3289577
0.5901525
0.5885355
0.16649298
0.28026345
0.83549845
0.37264818
0.17905311
0.6331495
0.8546157
0.5892409
0.35734102
0.82824147
0.32000208
0.122549534
-0.24983056
-0.5854349
-0.50589025
-0.21093425
-0.25473666
0.13307872
-0.014922332
-0.13537568
-0.1756902
-0.31476146
-0.2948302
0.121859185
-0.16943878
-0.15797058
-0.12463589
-0.07026501
-0.122367434
-0.42419985
0.14128713
-0.6299316
-0.055602763
0.3086622
0.32633567
0.7901517
0.26516396
1.0627404
-0.20331983
-0.09698475
0.3623879
0.09846403
-0.029133026
-0.04738652
-0.05813265
-0.08589611
-0.041702233
-0.16787468
-0.08720386
-0.27736142
-0.5285513
-0.21907751
-0.17391941
0.29722258
-0.0972311
0.25779462
0.4306464
0.18386553
0.50109595
-0.10189242
0.2519151
0.053720318
-0.050658304
0.24816254
-0.29769215
0.38190323
-0.11585124
-0.34808233
-0.5126769
-0.22088754
0.32675752
-0.14124352
-0.072528094
-0.09061027
-0.03366772
-0.15404473
-0.079578206
-0.18750569
-0.11245501
-0.18583342
-0.34669325
0.3337074
-0.07458744
0.10850468
0.40030026
0.46614823
0.8132104
0.027052836
0.32283324
-0.1263256
-0.27043346
0.06930553
-0.2509408
0.2179877
-0.2483404
-0.01171666
-0.30835512
-0.4536541
0.056370076
-0.13652617
-0.14053026
0.36066577
0.02131545
-0.17000106
-0.24785315
-0.20364155
-0.21979916
-0.028836664
-0.033625316
0.06990046
-0.46737581
0.14568521
0.5258249
-0.33430514
0.1709386
0.023736358
-0.011593398
-0.12305599
0.048172332
0.08344753
-0.22955431
0.17882647
-0.69653606
-0.21560447
-0.5515264
-0.25706452
-0.22236125
0.04521436
0.27059677
0.45603657
0.06924046
-0.13575017
-0.10946708
-0.28733388
-0.30039534
-0.08281353
0.05980287
-0.4417609
-0.6812994
-0.5337054
0.03517701
-0.01106156
0.5334022
0.12741722
0.26398993
0.060334317
-0.09135128
-0.19006579
-0.27253425
0.56995404
-0.050750244
-0.26053503
-0.0064587444
0.0023667887
-0.062027693
0.09929535
0.23850308
0.09378438
0.05233922
-0.09739461
-0.09887187
-0.17613651
-0.38401544
-0.2055973
0.28796116
-0.13521822
-0.3862299
-0.17743339
0.092190035
0.3044651
0.53650194
0.0130978655
0.1706296
-0.38465583
-0.43124783
-0.64201576
0.0046439087
-0.19801864
-0.13823085
0.5688046
0.17882672
-0.08965963
-0.14220162
0.33381194
0.39184037
-0.018420516
-0.016606595
-0.08177143
-0.005080616
-0.15913795
-0.33675572
-0.033605047
0.18755905
-0.16749007
-0.3145995
-0.3800195
-0.033272367
0.33335176
0.6479922
0.29868641
0.06644699
-0.5292196
-0.66910815
-0.48038653
-0.16706026
-0.7611802
-0.5908842
-0.2807123
0.46266767
0.20937075
-0.16274261
-0.17930476
0.24743019
-0.057891067
-0.039457213
-0.07913435
-0.29068995
-0.34505743
-0.24600913
-0.11469141
0.56058633
0.18342419
0.18479685
-0.39111722
0.22844064
0.29562077
0.16929545
-0.26875663
-0.13881148
-0.73903835
-0.39713293
-0.19207472
0.063589945
-0.29375017
-0.21066207
0.4034525
0.53139985
0.06363219
0.116785556
0.11336169
0.2115843
-0.1463465
-0.08174683
-0.06742072
-0.20941421
-0.3553127
-0.31034377
-0.2145868
0.18082236
0.25891158
0.33028275
-0.11727156
0.06771701
-0.00756257
-0.45555305
-0.3695872
-0.30912203
-0.10994887
-0.49122563
-0.09474951
-0.19277096
-0.10342825
-0.037461843
0.49715546
0.5959204
0.51742357
0.42479354
0.2988094
0.124673374
-0.16572347
-0.12164915
-0.14631316
-0.35951662
-0.0709834
0.22208363
0.12834315
0.48826313
0.6622167
0.61620235
0.57978535
0.5062915
0.61304384
0.8200307
0.2213867
-0.41794848
0.121651486
-0.5246379
-0.19789416
-0.5387893
0.24062032
0.20110264
0.34268355
0.8529661
0.5931288
0.751773
0.52302456
0.28813684
-0.051835325
-0.114752896
-0.15815978
-0.19429947
-0.03421046
0.3785208
0.47383046
0.60918117
0.4916565
0.1553994
0.19880727
0.23575164
0.11147893
0.17485581
-0.26094952
-0.41166103
0.21610561
-0.10515822
-0.30097592
-0.147659
-0.31542894
-0.17282788
0.22706442
0.23076054
0.29885906
0.14921641
0.12554018
-0.030838229
-0.032071974
-0.11078551
-0.13507926
0.009158385
0.0022854572
0.24294582
0.112492315
0.27845195
0.35886443
0.26640356
0.34330967
0.19483827
0.3384583
0.059329208
-0.42124742
-0.04113065
0.13160521
-0.100418195
0.16292813
0.3657859
0.1470513
-0.23916453
0.28714955
0.0949424
0.25494948
-0.15534613
-0.19549392
0.027119994
-0.1800743
-0.1538448
-0.15334877
0.0662202
0.12102073
0.15952468
0.12588501
0.0037723694
0.11114156
0.04483591
0.13441086
0.2975423
-0.1381398
-0.11407599
-0.24399999
0.08978978
-0.54196465
-0.6409111
-0.07001502
0.44880387
0.28474802
-0.059978664
0.47787908
0.45259243
0.60075134
0.3892452
0.14066252
0.37087408
0.017205654
-0.08181826
-0.09952165
-0.049887303
0.08595056
-0.012636342
0.20952415
0.06502777
-0.0018542935
-0.04620935
0.109640285
-0.03241057
-0.34244987
-0.20853327
-0.7655008
-0.15693322
-0.62201464
-0.6750237
0.21225406
-0.08979275
0.43360573
0.44419348
0.841092
0.34232238
0.39578873
0.31752005
-0.036797564
0.40400627
0.09528117
-0.12915817
-0.111960486
0.16754684
-0.09486178
-0.034276314
-0.16944951
-0.58080643
-0.24818496
0.29910165
0.018283732
0.06704085
0.0386875
-0.030212246
-0.70961833
-0.56287247
-0.040789533
-0.48435447
-0.18298395
0.1502234
0.5311228
0.5599982
0.56660974
0.54069704
0.4675607
-0.03138681
0.101952836
0.4170056
0.16375352
-0.14388809
-0.11662927
0.517222
0.19677417
0.027565744
-0.03458575
0.17881845
0.2398588
0.2065029
-0.19698417
-0.71873266
-0.006114488
-0.25261924
-0.67550695
-0.20782866
-0.08619996
0.020705502
0.80745494
0.93296266
0.5484209
0.5854452
0.63840705
0.4672665
0.5418465
-0.0023975105
0.13199708
0.09343256
-0.07510933
-0.22189283
-0.22277328
0.117982276
-0.024863817
-0.13160828
-0.08176911
0.12101263
0.10982414
-0.29367533
-0.3088837
-0.8272251
-0.3033588
-0.08216634
-0.69795984
-0.19558525
0.55284303
0.6725644
0.5443662
0.53946805
0.35723162
0.5661013
0.4895082
0.46370012
0.5516468
0.1696219
0.09682004
0.15268539
-0.1526787
-0.22550578
-0.17292847
-0.050551936
0.18821876
0.1213678
0.29329583
0.27232084
0.20355958
-0.76769453
-0.36499998
-0.41580108
0.16310611
0.39739627
0.0077227345
-0.14163454
-0.41466224
0.6196694
0.72094905
0.76640797
0.31943646
0.24791355
0.147116
0.44223458
0.45912722
0.05307376
0.0087873535
0.06838234
-0.118758954
-0.22222422
-0.2834408
0.17444181
0.38475892
-0.021124778
-0.13758737
-0.18436438
-0.11978876
-0.06290643
-0.026168551
-0.3145696
-0.18675281
0.34483314
-0.26841456
0.10265335
-0.3895181
0.3147975
0.4933419
0.32119387
0.21617174
0.26473692
-0.24578612
-0.12233767
0.45355794
0.12987868
-0.12227172
0.07321222
0.09240738
-0.22475807
-0.23568967
0.24745047
0.15761885
0.025349129
-0.3668325
-0.021112226
-0.13062684
-0.060385775
-0.2803181
-0.7385808
-0.07569935
0.21933259
-0.08102312
0.40601212
0.4994066
0.42848343
0.33035842
0.30949143
0.47596237
0.75767535
0.27968523
-0.0017786609
0.11733181
-0.32226232
-0.060048684
0.1711354
0.19617814
-0.1606722
-0.2216836
0.25426903
0.057134032
0.13278633
-0.48076198
-0.053489387
-0.22077957
0.18343446
-0.34294584
-0.31436157
-0.24910802
0.23593244
-0.16404873
-0.113924764
-0.36193806
0.08680354
-0.0065466566
0.09465401
0.41849428
0.29671472
0.19308993
0.0979564
0.13417321
0.08541994
0.26257673
0.4281155
0.06530151
-0.15559568
-0.039540574
0.37820768
0.003592892
-0.15019527
-0.44870785
-0.37173757
-0.51800525
-0.30111617
-0.60230976
-0.15853952
-0.905939
-1.2421328
-1.0525362
-0.9820737
-0.6983389
0.14270346
-0.15359408
0.19573244
-0.42626345
0.012820599
0.069347136
-0.051036805
0.3337484
0.26626053
0.09276563
-0.12601873
-0.14458135
-0.09774555
-0.16895647
-0.048650153
0.14852656
0.122707
-0.5158125
-0.4716366
-0.42484558
-0.37749982
-0.4213281
-0.39578354
-0.91112465
-0.8276623
-0.41543466
-0.5040373
-0.7560455
-0.3559202
-0.4053173
0.015925799
0.02164536
0.079900585
0.28208962
-0.029655552
0.062924534
0.3121342
0.067482665
-0.0058194394
-0.11295751
-0.08668556
-0.24929878
-0.237601
-0.2678669
-0.54745847
-0.6635615
-0.26844954
0.1353692
-0.26813528
-0.27617893
-0.071922004
-0.14032343
-0.605482
-0.57632893
-0.61517286
-0.16534896
-0.15391324
0.036938444
-0.0422133
0.15436575
0.48577818
-0.09174302
-0.1275557
-0.15272845
-0.0048665954
-0.20424873
-0.17810951
-0.19237238
-0.11548433
-0.1963241
-0.22414081
-0.1838805
-0.33454135
-0.2925147
-0.12880611
-0.30293232
-0.42922032
-0.23050794
-0.32958028
-0.31531677
-0.38804692
-0.33540997
-0.28985816
-0.17817596
-0.20299801
-0.18694457
-0.33592728
-0.0745484
-0.0026120637
-0.08281852
-0.12736014
-0.14400946
0.009562282
-0.030180922
-0.109601215
-0.15861563
-0.12708485
-0.10461283
0.14691864
0.09079581
0.16506195
0.19348963
0.45562923
0.49404734
0.27523893
-0.0058443006
0.73376316
0.12614107
0.2763488
0.22123806
0.1108018
0.016754864
0.2763386
0.092947155
-0.062396154
-0.37338248
-0.36587664
-0.27510265
-0.17083131
-0.22708462
0.121077135
0.29216596
-0.34656027
-0.19322495
-0.3039489
-0.19152139
0.1384676
0.07505213
0.039000437
0.060191657
-0.055667844
0.21759884
-0.28648582
-0.28514174
0.5440452
0.33854896
0.10250096
-0.1999245
-0.035997707
-0.15289353
-0.24775262
-0.10138761
-0.02446666
0.27528012
0.23182864
0.4795499
0.3787406
0.078263886
-0.15969394
-0.5565119
-1.5883613
-0.18537621
-0.4968175
-0.25956485
0.013714175
0.020224804
-0.11508514
-0.15579511
-0.0788714
0.16033715
0.51491755
-0.040272444
0.166937
0.9905682
0.33486497
-0.46903694
-0.13180427
0.3896827
-0.1372906
0.40330765
-0.36079192
-0.6570304
-0.8163555
-1.0065076
-1.3010904
-1.3956009
-1.2089101
-1.1595039
-1.3169328
-0.6351577
-0.9309774
-0.03944834
0.2209996
0.38984975
0.04968196
-0.28683513
-0.009844121
-0.08924556
0.46432254
0.46900985
0.1456428
-0.22437184
-0.6829446
-1.2761933
-0.3051973
-0.34258327
-0.60485667
-0.14413777
-0.24893181
-0.31446704
-0.92117447
-1.077232
-0.8180528
-0.4221026
-0.27075496
-0.3545628
0.11492817
-0.25256827
-0.5375254
0.034058698
0.04278662
0.56533587
0.048370183
-0.119826265
0.33857706
-0.051567435
0.05733423
-0.166943
0.2573804
0.6333069
0.2949003
-0.36413544
-0.4011993
-0.19538511
-0.56665987
-0.52363354
-1.4642551
-0.7151725
-0.41252
0.086743504
-0.08031876
0.41077894
0.34651238
0.36135557
0.07938945
0.18982942
0.1790435
0.20693748
-0.0016118997
0.37715885
0.005059979
-0.14607671
0.25160348
0.18250345
0.26956734
0.43012157
0.77197945
0.6167097
0.28106797
-0.009184493
-0.25981253
-0.117028475
-0.33978337
0.4404267
0.10446844
0.97143
0.8309529
0.8136848
0.72884727
1.0066895
1.133813
0.47979793
0.83197355
0.71410424
1.0395976
0.68099135
0.08297917
0.41448694
-0.1969482
0.04607808
0.27162746
-0.32573977
-0.0047899075
0.075823404
0.21284
0.46592563
0.32619786
0.3769671
0.19258486
-0.025150143
-0.14280804
0.5859525
1.3658797
1.6354355
0.80506045
0.9372593
0.9844938
1.3599272
1.2237458
1.1324414
1.0598291
0.8930554
1.0580387
0.8807911
-0.022008782
-0.12182566
-0.10199047
0.094532534
-0.3929248
-0.5130178
-0.22158346
-0.14868265
-0.30524233
-0.47188762
-0.7611227
-0.18892929
-0.5568171
0.115931496
-0.030472046
0.4163949
0.63341355
0.40089202
0.7526726
1.0515739
0.9776544
0.9382185
0.8859189
0.55716795
0.90478337
0.63834035
0.79695624
0.8546798
-0.059846815
-0.16836317
-0.2795298
0.2886968
-0.029743597
-0.72190726
0.010871897
-0.04016453
0.3108053
-0.10409631
-0.73707545
0.11794677
0.59657943
-0.44581372
-0.31746146
0.3155544
0.13964994
0.51747453
0.76894146
1.2129239
0.49952146
0.5451545
0.65416527
0.427269
0.5787902
0.6407637
0.62564754
0.47320142
-0.3224639
-0.25026226
-0.49450967
-0.12826587
0.105309196
-0.9561321
-0.24706914
0.07483574
0.25347388
-0.29526934
-0.44607073
-0.1657049
0.1190369
-0.80223083
-0.6297225
0.0012340297
-0.415661
-0.46837673
0.030165857
-0.17338331
-0.24272668
-0.13498421
0.12509102
-0.12483126
0.038177703
0.67741525
0.33541027
0.19139658
-0.28749374
-0.19124582
-0.29464573
-0.07894395
-0.023010937
-0.060105406
0.41583377
0.71246517
0.25126305
0.24103677
0.7710138
0.49948013
0.49411407
-0.4028461
-0.78147537
-1.0292017
-0.18928006
-0.332575
0.13156855
0.020966426
-0.0421086
0.045250516
-0.4307267
-0.59275407
0.10861435
0.51664
0.15345758
0.08925819
-0.2442515
-0.07210848
-0.035944033
-0.065726765
-0.4310543
-0.5528871
-0.29202878
0.09782372
0.37939915
-0.57690626
0.03335458
-0.8995019
-0.27251518
-0.2606862
-0.18090037
0.062693745
0.18232913
0.16816318
0.010310202
8.601753E-4
0.497979
0.32524833
0.06015473
-0.7469764
-0.74112415
0.07658216
-0.21705414
-0.06420803
-0.2914301
0.17904647
0.15991388
-0.15237954
0.128798
0.4204847
0.44783676
-0.3716262
-0.2634956
-0.062321138
-0.03440331
-0.6120441
-0.3079952
-0.54023445
-0.34741843
0.5492937
0.022239635
0.5502708
0.22270176
-0.043919157
0.10587091
-0.16210641
0.2280806
0.017063873
-0.56270206
-0.26594642
0.081702426
-0.13013518
-0.44688767
-0.37854224
0.20092712
-0.048721038
-0.57804775
-0.65670264
-0.40873283
-0.01780734
-0.16039187
-0.40680197
0.16731411
-0.08627556
0.10069845
-0.24527287
-0.042331085
0.36010078
-0.022292731
0.22820914
-0.43034893
-0.3142582
-0.67503655
-0.61474854
-0.38148624
-0.13875563
-0.6328635
-0.1364383
0.008863992
-0.04781489
-0.304095
-0.08514128
0.26650143
-0.31705454
-0.65018165
0.07548696
0.1674845
-0.28733233
0.07111578
0.036496725
0.38198584
-0.2973277
-0.28814062
0.39924586
-0.5785803
0.28287494
-0.28898758
0.04663206
-0.15736042
-0.26292503
-0.55481386
-0.38557035
-0.40835485
-0.3433288
0.1631479
0.43809968
-0.063097805
0.038435433
-0.33187443
-0.15378633
-0.21106711
-0.48183772
-0.8860188
-0.52286476
-0.048902385
-0.19928937
-0.32729736
0.101492986
0.050569102
-0.24833332
0.10650671
0.8055996
0.16646379
0.626676
1.1075603
0.7910398
0.14194094
0.1109727
0.08169349
-0.023378516
0.54069734
0.019334221
-6.369462E-4
0.007403732
-0.14807437
-0.07547011
-0.3701875
-0.3468744
-0.05439243
0.08704699
-0.077358834
-0.26187065
0.07952085
-0.34272707
0.20708834
-0.26906312
-0.06286803
-0.2793345
0.17221367
-0.21974693
-0.24478263
0.109985426
0.49007526
0.25824684
-0.28336915
-0.16602586
-0.080378264
-0.19989643
0.0014081023
-0.29062584
-0.60824114
-0.22668232
-0.24297546
0.10811288
0.0046163853
-0.21168604
-0.8090703
-0.044057224
-0.7366536
-0.18109104
0.14973785
-0.5138367
-0.35131887
-0.29810917
-0.40297043
-0.05717582
-0.047366593
-0.05155357
-0.11126033
0.15534249
0.63019556
-0.035386678
0.06827239
-0.7044017
-0.3594529
-0.35822007
0.06746879
-0.42666706
-0.24051814
-0.39861515
-0.43675786
-0.12272214
-0.28254613
-0.7851968
-0.84403753
-0.6971404
-1.3245811
-0.889355
-0.7350124
-0.9093943
-0.39084738
-0.2055845
-0.3386482
0.12799878
0.605753
0.45065132
0.38225746
0.31759325
0.17272122
0.041321717
0.725971
0.72662425
-0.044791777
-0.10022372
0.033726096
0.31180292
0.23737963
0.277331
-0.024972098
0.091660455
-0.036144983
-0.34742954
-0.36781657
-0.050095014
0.25609863
-0.14386047
0.3687889
-0.14298788
-0.07867457
0.0063639185
0.049960412
-0.1786767
0.102346316
0.15449448
0.40126398
-0.08622505
-0.12961672
0.010422701
0.1691468
-0.14059225
-0.02894231
-0.787871
-0.07013306
-0.6439776
-0.68376803
-0.5046452
-0.5263452
0.064259015
-0.26803312
-0.68076265
-0.89467293
0.053560097
0.44995365
0.115738325
0.8162786
0.72752887
0.51816183
0.56641454
-0.36191306
0.32321435
0.61101127
0.1167653
-0.08224797
-0.22158179
0.11755132
0.47074562
0.17611352
0.33037856
0.814944
0.10895007
0.059577134
0.41223997
0.1058548
-0.083935454
-0.79132247
-0.23211756
-0.10966252
-0.39244974
-0.06679672
0.0328097
-0.05134939
0.055486366
0.3055592
0.385156
-0.14448304
-0.04714949
0.2892956
0.26422316
0.19411394
0.038979366
0.27936208
0.4121218
0.34990996
0.39374268
-0.0268975
-0.09980785
0.20539154
0.16970189
0.018191848
0.43883333
0.030602189
-0.5879423
-0.09585964
-0.07705021
0.07310257
0.055788584
-0.05104749
0.3650833
0.29584283
0.06536338
0.4974612
0.43481648
0.3239697
0.5122524
0.24270183
-0.039411172
-0.10300587
-0.029718209
0.28341928
-0.09573464
0.3863577
0.48975343
0.014272847
0.516169
0.4863802
0.05390331
-0.5640435
-0.26671502
-0.15315105
-0.49454978
0.10083431
-2.6298396E-4
0.22369458
0.5451978
0.068983145
0.46174404
0.517583
-0.06276157
-0.065626755
-0.7687254
-0.75006247
-0.7433358
-0.81655663
-0.36234993
-0.5543072
-0.22345069
-0.051760476
-0.10090596
0.2347854
0.3497623
-0.3915161
-0.468521
-0.2064156
-0.8002138
0.05950616
-0.30483708
-0.38827807
-0.012607818
0.25988284
0.096244544
0.11540928
-0.16554047
-0.35679704
-0.2695653
0.11112827
0.14776975
-0.28724265
-0.24493103
-0.59819496
-0.46532026
-0.41700065
0.042196885
0.113407925
-0.6322177
-0.5490864
-0.3453534
-0.4216058
0.576699
-0.44808477
0.15832618
-0.27289885
-0.13853873
0.08260137
-0.043718856
-0.0148892645
0.09832248
0.052389834
0.05838023
-0.15101874
0.15544951
0.61988276
0.45490152
-0.9357602
-0.49369425
0.2092053
0.025120782
-0.60244584
0.15159689
-0.09727598
-0.04010342
-0.14956243
0.04171045
0.3330914
0.07201171
-0.11666994
0.8908794
0.2605709
-0.04257677
-0.24415419
-0.2545204
0.2705191
-0.011083497
-0.07970346
0.12705363
-0.13291767
-0.09626513
-0.14587209
-0.057988063
0.0016225079
0.42071304
0.24963428
0.35328305
0.5461326
0.22025223
0.31585246
-0.16717185
-0.54693514
-0.20671566
0.09310767
-0.12177061
-0.45182604
-0.20056188
0.05323758
0.17087387
-0.026051862
0.009187192
-0.3383891
-0.016211757
-0.21467076
0.15643394
0.29557762
0.21480463
0.06520708
0.07088806
-0.042718288
-0.04144738
-0.25432372
0.093211874
0.64704084
-0.09104746
0.3141003
0.19645296
-0.21574636
-0.28169513
-0.43942165
-0.07637314
0.42367956
0.32695812
-0.17029357
0.12327874
0.39657387
0.12923768
0.01873636
0.17119424
-0.50625074
-0.1592871
-0.13188751
-0.07023548
0.17547104
0.28493407
0.3087941
0.13257185
0.07091825
1.520943
1.5108227
0.851841
0.56666523
0.70433146
0.57976174
0.32162032
-0.15075517
-0.46547356
-0.19244316
-0.31254667
-0.18647058
-1.3840798
-0.8046556
-0.64035875
-0.51066524
-0.13834237
-0.21663736
0.019368017
-0.29882824
-0.70845443
0.091873236
-0.4981804
-0.28077114
0.47495693
-3.7242525E-4
0.8411167
0.80801636
1.1852986
1.0988632
0.5185258
-0.1261547
-0.21961457
-0.13836706
0.3745734
-0.9141349
-0.27869755
0.22699659
0.29528245
-0.39754936
-0.52628917
0.040701117
-0.467288
-0.45767683
-0.26862195
-0.01376783
-0.7850076
-0.39171788
-0.816744
-0.8599819
-0.800787
-0.21492682
0.4831304
0.08505888
1.6691647
1.5395883
1.0061115
0.29088774
-0.4956176
-0.5134373
-0.34661788
-0.69703627
-0.7822049
-0.6582432
-1.1049607
-0.42035806
-1.0453887
-0.7489831
-0.94265
-0.34264874
0.0029860581
-1.1571226
-0.023928406
-0.28331682
-1.1255633
-0.22320503
-0.47392535
-0.5195547
-0.23379332
-0.40895578
0.3520801
-0.34604007
0.47381628
0.62061006
0.21554324
-0.4076256
-1.1235191
-0.84401053
-0.3643306
-0.30520445
-0.72387415
-0.26985896
0.31035227
-0.3375674
0.33649015
0.80869997
-0.06024325
0.05487915
0.74931103
-0.6423638
-0.16816375
0.11938502
-0.07880705
-0.49208355
-0.45298043
-0.7349937
0.064337514
-0.15463623
-0.007261241
0.05008572
-0.055695146
0.3005326
0.13413323
-0.4067347
-0.57911557
-0.24351618
-0.7657555
-0.33268732
-0.11302836
-0.060284395
0.57992524
0.12405459
0.7898739
0.60605705
-0.10345913
0.1041363
-0.230456
-1.2244498
-0.47122163
-0.44533107
0.2402761
-0.4835741
-0.4256955
0.19119623
0.8650238
0.46023983
0.50504357
0.06887877
0.2631733
0.59519017
0.2135508
-0.5167729
-0.38234243
-0.6065067
-0.58699024
-0.96836704
-0.56954443
-1.106693
-0.72116774
0.1591993
-0.25031346
-0.059974167
0.29542747
-0.06879624
0.4812105
-0.56679773
-0.78670526
-0.38983506
0.51554936
0.40436855
-0.24305652
0.25866765
-0.4653713
-0.268034
-0.20154844
0.30033097
0.6861441
1.3462017
-0.082072146
-0.6410457
-0.46232054
-1.3713527
-1.0949467
-1.0493705
-0.33218864
0.0056850687
0.18869393
0.538465
0.6769992
0.21770054
0.28075105
0.34432092
0.76626164
-0.14015736
-0.47515982
-0.48849967
0.13307881
0.21456155
0.053325456
-0.34769398
-0.63891315
-0.23883265
-0.2991005
-0.22138186
-0.23355655
0.17152517
-0.21305302
0.010397966
-0.3672072
-0.26208207
-0.13844793
0.3794482
0.051138595
0.09961442
0.6531126
0.34033668
0.049708962
0.6058161
0.10295047
0.3318481
-0.062539734
0.01751347
0.873271
0.5237697
0.39885595
0.73714375
0.16928816
0.40916565
0.2434679
0.2848381
0.07235433
-0.20978117
-0.3845919
0.27727702
-0.27879977
-0.45890346
-0.4008349
-0.6996281
-0.3061772
-0.7668896
-0.021961402
-0.09062735
-0.23514521
0.02601462
0.1977767
-0.38199893
-0.4595348
-0.75295514
-0.64149356
-0.55012095
-0.8036127
-1.1679355
-0.5802572
-0.36153153
-0.1092306
-0.3055259
-0.8360754
0.10935681
-0.34805855
-0.970682
-0.72500557
0.15373203
-0.5142342
-0.4925086
-0.11676932
-0.2509135
0.30138633
-0.3454871
-0.3206368
-0.25106674
-0.3336348
-0.4098066
-0.20908695
-0.13334242
0.13837788
-0.6931345
-0.92966324
-0.6363346
-0.603906
-0.92660886
-0.58071786
-0.8726747
-0.7609834
-0.83271414
-1.0651262
-0.7848417
-1.1911738
-1.1076891
-0.034076434
0.41777137
-0.09690602
-0.6839538
-0.19196042
-0.12649226
0.52716607
-0.46810982
0.22075759
0.22239217
0.66823804
0.21023162
-0.29201767
-0.658267
-1.2108808
-0.5887413
-0.51665264
-0.7405182
-0.59097266
-0.010248062
0.03597868
0.32493153
-0.33620882
0.6060935
-0.06597846
0.17738025
0.2891563
0.37813854
0.33074695
0.73218304
0.88719875
0.3131155
0.09727729
-0.021064628
0.51609296
0.6162184
-0.044956636
0.4989127
0.33861595
0.2028216
-0.3986068
-0.42835957
-0.36903143
-1.4672036
0.048974384
-0.94513446
0.032048844
-0.5726933
0.08268561
-0.3294961
0.25513235
0.21542048
0.63753766
0.33587444
0.39246255
0.43905205
1.0217673
1.3218199
1.0482309
0.7524477
0.2794802
-0.05052768
-0.51102394
0.027819667
-0.3764895
0.09145116
-0.865631
-0.89964986
0.41935793
-0.8913012
-1.3564165
-1.4136171
-0.8307076
-1.2192806
-1.0634345
-1.0303556
-0.925363
-0.8542968
-0.59403455
-1.7109066
-1.2301899
-1.2421806
-0.82196647
-0.7531127
0.73619604
1.1730151
1.3590627
1.2621827
1.2116264
0.6296461
-0.26769823
0.655616
-0.08860588
0.29973376
0.2314627
0.2955223
-0.020492027
0.09050758
-0.8142102
-0.29103687
-0.96740425
-0.57311046
-0.7936543
-0.31607544
-0.2701308
0.22393623
-0.12356275
0.45753703
0.33761737
0.24936146
1.026097
0.8967478
1.3681421
1.7396065
1.7961909
1.7256618
0.34212258
-0.074170485
0.4628507
0.41824007
0.494774
0.23510861
1.0493381
0.3978334
-0.6413619
0.31056985
-0.0015759206
-0.23081456
-0.104380436
-0.873011
-0.50601393
0.16541202
-0.10164455
0.4380745
0.18867531
1.1401807
0.63518614
0.6531884
1.2736338
1.4794734
1.688448
1.9121281
1.5545251
1.3285003
-0.083343
-0.38267884
-0.2543903
-0.4678351
-0.85708773
-1.1996093
-1.373039
-1.3122555
-1.5022802
-0.9932053
-1.2459316
-1.2718441
-0.9403537
-0.7016686
-1.0073361
-0.9548004
-0.30345562
-0.9159524
-0.9729141
-0.083723135
0.28654298
0.1314643
0.053636774
0.52170646
1.485886
1.3377752
1.4089075
1.0618682
-0.09251303
0.18248801
-0.44840223
-0.6706443
-0.11929156
-0.21267977
0.39123026
-0.30736497
-1.2221497
-0.66199493
0.21185923
-0.30391333
-0.43145895
-1.0026592
-1.0819755
0.35439897
-0.10676096
-0.54456687
0.8342559
0.63523966
0.36696088
1.0692022
0.29319185
0.5342727
1.3229984
1.4029661
1.2215302
0.720285
-0.28770515
0.12344185
-0.71133256
-1.0171015
-0.7993757
-0.45824558
0.2576309
-0.25982943
0.008882498
-0.16175413
-0.32975048
-0.8909831
-0.65231127
-0.11829191
-0.44869635
-0.09522546
-0.14300059
0.6315467
1.559486
1.4523522
0.039669137
0.8292458
0.027900107
0.30858177
0.82967025
1.2726536
0.54450756
0.7077842
-0.4169105
-0.13328102
-0.97707134
-0.33022526
-0.69734865
-0.98143363
-1.2030228
-1.528727
-2.4508924
-1.3339734
-1.1152223
-1.1083086
-0.33906004
0.4756005
0.60456324
0.07513945
0.89887965
-0.4809248
-0.003798509
0.3800163
0.17828527
0.4430468
0.0498156
-0.46961233
-0.17087245
0.6503407
0.3561952
0.38784382
-0.93141085
-0.8118623
-0.04308845
-0.2971904
0.023445413
-1.4457579
-0.89152956
-0.6702942
-1.3416125
-0.8591651
-0.8704681
-0.7609306
0.5704249
-0.31910914
0.3400967
0.018155793
0.7130841
0.6723276
-0.0020754214
-0.19660388
-0.29947236
0.12950207
-0.06332267
-0.09878678
0.38206738
0.9076749
0.012712762
0.1638524
-0.9676488
-0.3195904
-0.40634862
0.28744566
-0.5588171
-0.15861677
-0.16812505
-0.1647074
-0.54947364
0.21955468
-0.10597859
0.71055424
1.1114028
-0.07117941
-0.37402987
0.17907089
0.2681865
-0.60677445
-0.18551567
-0.5311085
-0.9302887
0.30877453
-0.34230468
-1.039564
0.18247835
0.6548368
0.17327733
0.47573057
-1.010774
-0.68561155
-0.15889016
-0.40504292
0.14290345
-0.16916126
0.33598664
0.40081668
-0.06040457
0.55414915
-0.03938547
0.36180386
0.7696001
0.1887925
0.44612566
0.1894772
0.7053809
0.10180067
0.3499275
0.05086927
0.3901262
0.37152508
0.5973919
-0.065247856
-0.31154314
0.30113795
0.52015024
-0.18400995
-0.3741641
0.6685509
0.34963673
0.28022632
0.45021784
0.14258724
0.35902375
0.9360452
0.50036305
1.0323256
0.28421316
-0.034426846
0.24767989
0.13763748
0.08150116
-0.5726645
0.16884056
0.54548013
0.5146741
-0.35516322
-0.3630511
-0.5095738
-0.42072955
-0.25373566
-0.37026775
0.58313197
0.7140544
-0.40577295
-0.3066142
-0.4451022
0.31691802
-0.2684118
0.04682415
0.5178933
0.29539737
-0.01464419
0.8243365
0.26177588
-0.009981649
0.8548677
0.58766425
0.6903364
0.6692592
0.7969221
1.0736091
-0.5398644
-0.22903933
0.82263154
-0.23564586
-0.30515355
-0.30359706
0.12335892
-0.07480338
0.7676693
1.130395
0.5315504
0.027320681
0.026883526
-0.029376276
0.06424088
0.09983711
0.51946515
0.6700194
0.7518007
0.8469258
0.65886146
0.11045898
1.0248542
1.0331255
-0.08285913
0.104438126
0.6066595
0.73497856
0.96274716
0.48715448
-0.09801913
0.29587147
-0.47232518
-0.08135643
0.053515036
-0.43897486
0.5487243
0.16462259
-0.257489
0.1487869
-0.028335433
0.11399333
0.009766401
-0.13159849
0.18253386
0.16538472
-0.57496166
-0.9190731
5.2112405E-4
-0.76522654
-1.1545047
-0.16211198
-0.81070805
-0.2030154
-0.04063617
-0.78064185
0.05342614
-0.11859118
-0.40674433
-0.3760651
-0.699453
-0.3234849
0.37321496
0.37986544
0.93551457
1.1569917
0.8043785
0.15567331
-0.61813056
-0.2686426
0.7907316
0.5819082
0.25042164
0.44773257
-0.32408762
0.8109582
0.76754254
-0.06516687
0.4536997
0.55386764
0.08510948
-0.16003068
0.71178174
0.7973233
0.54787344
0.8471835
0.77237445
0.0697669
0.0639894
0.2613514
0.30051813
0.9649209
1.3048134
1.4046714
1.661392
1.299134
0.6715946
1.1588914
0.8378013
0.42362645
0.3436529
-0.23331057
0.45808953
0.4167967
0.48975268
-0.0050080777
-0.06530455
-0.4130831
-0.24119553
-0.2604838
0.3529488
0.24873668
0.33669493
0.11614611
0.3564572
0.1359415
0.36617437
0.17873088
0.69645154
0.975577
1.3123904
1.5857667
-0.73948985
-0.48164377
-0.1775008
-0.161199
-0.1354545
0.034761097
-0.26977345
0.50550735
-0.7718358
-0.18832324
-0.45472762
-0.57963496
-1.1177999
-0.8359528
-1.6429039
-1.0958453
-1.5024899
-0.99956995
-0.4293913
-0.74046487
-0.22153899
-0.5938572
-0.49168828
-0.26151064
0.809267
0.07448039
0.44286552
-0.013714986
-0.15072516
0.032300692
0.27302328
0.22072929
0.3035773
-0.034080166
-0.19240436
0.08753964
-0.14511831
0.18663341
-0.1968926
-0.27114722
-0.4430396
1.0399371
-0.56786615
-0.29499587
-0.6455435
-0.717246
-0.44959918
-0.72896475
-1.1246816
-0.56110793
-0.031643678
0.19803469
-0.35320592
-0.3520218
-0.08681218
0.46527052
0.034871273
0.6712011
0.37520775
0.7408158
-0.5945305
-0.13510704
-0.54515
-0.5562099
-0.30032694
-0.11756071
-1.1141813
-0.33025557
-1.1010432
-0.3268308
0.09804142
-0.739814
-0.16728596
-0.21763468
-0.3200895
-0.7420153
-0.04025085
-0.5139921
-0.41298503
-0.012069421
-0.28837922
-0.28412485
0.2130884
0.30273473
-0.041930716
-0.21951078
-0.14484791
0.5852755
0.19940607
0.12793556
-0.072186746
0.3980837
0.30332834
0.48917243
-0.48602164
0.12693855
0.58326966
0.5802589
0.0664746
-0.67712545
0.22242093
0.34793463
-0.38025522
-0.11939178
0.2558877
-0.04224963
-0.26085213
0.0629416
-0.6667334
-0.21312658
-0.29745793
0.034153074
0.16330558
0.22998938
-0.29056224
-0.28627858
0.2887103
-0.39902475
0.20337774
-0.35683015
0.26194474
0.5815815
0.27888545
0.5742031
-0.9000131
0.9230711
-0.4344677
-0.68229216
0.011974414
0.47042704
0.29073557
1.0576075
-0.04074199
-0.13281387
-0.12340268
-0.9440853
-0.39552343
-0.81316996
-0.383384
-0.18225653
0.115904845
-0.22631474
-0.2905669
-0.6194211
-0.11202949
0.044739798
-0.7187961
0.15956818
-0.84886336
-0.99013907
-0.63549894
0.3625763
0.11825616
0.626035
0.44118065
0.0073497333
0.118591554
-0.253
-0.49486187
-0.29170504
-0.081258416
-0.9771913
0.10629989
-0.7800584
0.17976181
-0.4207885
0.47667062
0.58571744
-0.26225618
-0.094530895
0.21243362
-0.05174752
0.05645092
-0.33332732
-0.42824346
-0.046017677
0.18022834
-0.24746701
-0.2097071
0.16811535
-0.4111167
0.31677034
0.04409075
-0.29262888
-0.10850507
-0.317252
-0.5031075
-0.84541416
-0.3599514
0.58139116
0.061532494
-0.29315716
0.3586258
-0.3730246
0.652998
0.42587546
-0.2408712
-0.6710989
-0.8362983
-0.95501775
-0.20980519
-0.37356856
-0.29317287
-0.3173352
-0.415677
-0.24295631
-0.4367146
-0.2860365
-0.1857586
-0.7138518
-1.121222
-0.34461233
-0.6056383
-0.5541055
-0.94157255
-0.3724655
-0.25260127
0.18036442
-0.1142158
-0.25520048
-0.50369835
-1.0968155
-0.6995691
-0.00873151
-0.7669169
-0.30402505
0.2616054
-0.5139146
-1.1926513
-0.4115927
-0.7857948
-1.3647444
0.018768976
-0.07559305
-0.7892538
-0.23832433
-0.18709359
-0.18570459
-0.42724034
-0.6697431
-0.8679993
-1.2887452
-0.83114034
-0.9646178
-0.9449905
-1.174865
-1.4503804
-1.35288
-1.1955943
-0.9257614
-0.8107504
-0.526237
-1.3696353
-1.1851314
-0.50058055
-0.42589813
-1.2541331
-0.32199225
0.0488219
-0.8086442
0.3303224
-0.13035059
-0.914437
-0.54646647
-1.1798304
-0.7890117
-0.31855035
-0.95212394
0.103108436
0.29768604
-0.055666246
-0.50667226
-0.666184
-0.69895905
-0.79045206
-0.7155852
-0.3012034
-0.29510936
0.039314024
0.26131424
-0.20340706
0.13193253
-0.5272761
-0.13452706
-0.87753224
-0.7970808
-0.97336257
-0.45160887
-0.8599124
-0.20062436
-0.62095886
0.05647197
-0.6026262
-0.47666216
-0.36169574
-0.6047336
-1.3015337
-1.328117
-0.5014028
-0.8476412
-1.4446046
-0.62721443
-1.0101241
-1.2107177
-1.5395302
-1.6932119
-1.4173121
-0.5149218
-1.0490454
-0.802591
-0.3953031
-0.14693531
-0.46911547
-0.69114226
-0.22665434
-1.201185
-0.23783657
0.2080991
-0.69378847
0.25319844
-0.06312004
-0.46444124
-0.3869941
-0.16498366
-0.2863829
-0.8313231
-0.49067417
-1.3232089
-0.66579133
-1.2262512
-0.49391988
-0.9552935
-1.262274
-1.1608908
-1.3337729
-0.3577579
-0.979635
-0.5474136
-0.36790663
-0.33219883
0.11194755
-0.5245522
-1.2526381
0.2767779
-0.10257311
-0.84814966
-1.2950089
0.124371596
0.004614161
-0.11268209
-0.8816277
-0.15242103
-0.26381177
0.3365252
-0.23231511
-0.057781115
-0.17176081
-0.21576628
-0.5410923
-0.4907112
0.54064506
0.0966228
-0.22145917
0.34300154
-0.7653083
-0.7309454
-1.2407812
-1.2967536
-1.0683043
-0.397801
0.08904576
-0.8196545
-0.24645981
0.16349182
-0.22533008
0.013124365
-0.1438602
-0.34473085
-0.04799295
-0.06624774
-1.0343446
-0.678849
-0.9730193
-1.1553243
-1.4134357
-0.1997659
-0.84496534
-0.98508626
-0.7427926
-0.7511836
-1.2659527
-0.0979408
-0.56886625
-1.0758456
-1.1065125
-1.0999708
-0.81666577
-0.19653758
0.18095168
0.1398491
0.14286567
0.6374417
0.36773193
0.31093746
0.38366467
-0.11202903
-0.28282794
-0.07919034
-0.14271832
-0.9048679
0.1123598
-1.1165179
-0.87435704
-2.0015311
-0.86579865
-0.7979854
-1.2674123
-1.0526564
-0.5513274
0.27897435
-0.6646652
-0.46513543
-0.32129452
-0.05824642
0.2717786
-0.20282331
-0.8415868
-0.4402359
-0.6490588
-0.82976013
-0.59820944
-0.33817697
0.67679536
-0.62443537
-0.009131432
0.20233142
0.20839173
0.3368324
0.18199304
0.5560257
0.46942186
0.476476
0.52254176
0.34373298
-0.25307366
0.43124634
0.07526481
0.42416292
-0.024223827
-0.84682816
-0.92423534
-0.88976145
-0.7543501
0.19899617
-0.10282444
0.41720238
0.21376976
0.33262157
0.91412497
0.23197268
-0.5515073
-0.06904525
0.027962102
-1.2409763
-0.91369706
0.6541776
-0.82722706
-0.2528745
-0.8833001
-0.7070864
-0.5265129
0.020407397
-0.85753995
-0.13651085
-0.5742969
-0.4714302
-0.7469766
-0.5945088
-0.71118855
-1.0039889
-0.5456604
0.070098564
-0.039322667
0.05189009
0.82608855
-0.33525127
0.023827266
0.46496952
0.7574456
1.3869156
-0.2384832
0.06600571
-0.049428277
-0.8223848
-0.10422388
-0.025529433
-1.0118805
-1.0858577
-0.3890119
-0.35383448
-0.27545148
0.3871564
0.11929604
0.07942915
0.1667423
0.061867557
0.6849765
0.7004632
0.35546204
0.1456739
0.24725541
-0.045565575
-0.54723495
-0.4009212
-0.36558515
-0.6087539
-1.0602919
-0.33430663
-0.41897812
-0.679007
-0.09085337
-3.5181758E-4
0.6402156
0.8280643
0.33517882
0.4576109
1.0422188
0.82989836
1.1079588
0.8922926
0.3468093
0.40058976
1.1198589
1.1160462
1.5437021
0.675911
0.56934863
0.60256314
0.5793688
0.87097305
-0.307587
0.41445878
-0.34398538
-0.46796724
0.89587444
-0.6460075
0.22885473
0.2679115
0.817525
0.4525622
0.19595537
-0.3600926
0.62256634
-0.15222308
0.41774383
-0.42981818
0.08078314
0.04791095
0.537429
0.5136094
1.3477608
1.6744287
2.3058734
1.5041454
2.469257
1.4106493
1.8479513
1.7216356
0.30488825
-0.48201135
0.14174798
-0.011248164
0.82582635
1.5260042
0.22608925
0.3327414
0.26938784
-0.38067225
0.6520013
0.09318267
-0.25048235
-0.13466607
0.038109876
0.56608194
0.42166993
0.33167908
0.5584662
0.6336956
1.5278285
2.2721932
2.3251302
2.0288444
2.4303086
1.5428094
0.5575977
1.1646179
0.7968619
0.28871775
0.614105
0.35661748
0.41566795
0.73660296
0.31206506
0.9456145
0.9646321
0.73923016
0.37161195
0.6543559
0.77122045
0.2994942
0.98864484
1.2884912
0.9084145
1.004256
1.1180109
0.82581097
1.5300453
2.0409505
2.3227854
2.0937912
1.9214576
0.98193246
1.340743
1.4442228
0.44399863
-0.11613778
0.567728
0.45644087
0.44059882
0.30645204
0.2978919
1.1173373
0.65562373
1.1248686
0.6523227
0.7658784
0.9216806
0.61915064
0.27656576
0.7852731
0.77705944
0.19983053
0.44297537
0.3364442
1.4267874
1.741215
1.4106766
1.6343367
1.6662095
1.4648992
1.0129484
0.71513635
1.0027603
1.4838332
0.5055681
0.18542261
0.515371
0.40982065
0.09919621
0.57148826
-0.77003324
-0.33453622
-0.40772998
0.5096453
0.52069086
-0.13662826
-0.38157564
0.402606
0.21478821
0.4153165
-0.20792921
-0.16791244
0.966062
0.99570173
1.1829234
0.70948815
0.46636233
0.43362132
0.9182509
0.8988359
0.8855182
0.3737282
1.0703114
-0.118283674
0.31374255
0.73435986
0.22943251
-0.2705186
0.014440127
-0.067569286
-0.49308708
0.72308767
0.5734682
0.9079673
0.43519711
0.88101685
0.64215934
0.21887058
-0.60595
-0.69597167
0.6878626
0.8719768
0.79269856
0.54236305
1.0424709
0.78415006
1.1305292
0.92021185
0.9495916
1.2191147
1.3559368
1.4535171
1.558779
2.2270453
1.6437718
2.309825
1.4759207
1.9489175
1.8648282
1.3052148
0.97376806
1.5016954
0.62403584
0.41356647
-0.019105809
-0.36855292
-1.0167534
-1.0793574
-0.19523638
-0.008205129
0.4060551
0.42443478
-0.03765345
0.27003306
0.515508
0.7134473
0.10879414
0.57913595
1.44728
-0.010562916
0.8645393
0.3228528
0.050892867
0.17115137
0.021427898
-0.024375033
0.43280432
0.22732385
0.6728878
-0.08005181
-0.43873912
-0.9631045
-1.3994972
-0.92688984
-1.1448549
-1.2369027
-0.56056535
-0.21446456
0.17130215
0.17732263
0.6123214
1.2234164
1.4214728
2.341176
0.5343862
1.6721946
1.9961661
1.4893059
1.9424256
2.4502177
2.1628287
2.4703698
2.0756836
1.6865109
1.3169154
1.6529809
1.3600119
0.42902887
0.47143057
-0.15298867
-1.3216554
-0.65885884
-0.76462346
-1.0141855
-0.5985784
-0.6112486
-0.75693655
-1.0245371
-0.937123
-1.0188224
-1.0113071
-0.781175
-1.6785817
-1.5920228
-0.9785913
-1.0074884
-0.7239669
-0.46187413
0.019983154
-0.106951155
-0.49166715
-0.23472665
-0.03454486
0.12762554
0.6381908
0.61294335
0.5538438
1.115438
1.0426061
0.9806296
0.47885072
0.14686082
0.012036003
-0.22745709
-0.38828772
-0.23569277
0.0174698
-0.1370165
-0.8885166
-0.8078631
-0.37746713
-0.54445106
-0.34655958
-0.76363283
-0.778086
-0.97533727
-1.028956
-0.047742695
-1.1190517
-0.6113747
-0.48044047
0.07724411
1.4807792
1.2755396
1.1896794
1.2810634
0.8973121
0.9410579
0.41569874
-0.25552672
-0.20847249
-0.004539643
0.22454818
-0.5438774
-0.149755
-0.27630863
-0.6792943
-1.0373192
-1.0234268
-0.79598755
-0.916963
-0.5633126
-0.14303203
0.06834687
0.6374058
-0.028802749
0.3853399
0.96333474
0.295711
0.3678707
0.7205166
1.1296515
1.5149784
1.4058099
1.1933968
1.0704954
0.64216524
0.16089897
-0.024270916
0.0034477152
0.036031704
-0.07958678
0.10127166
-0.20693429
0.34396535
-0.10496411
-0.2683494
0.35183793
0.053568896
-0.22663265
-0.11248387
-0.28989115
-0.0053759958
-1.0357845
-1.7055452
-0.122247614
0.38811502
0.6684884
0.8342081
0.9613985
1.6123646
1.4778572
1.316672
1.049202
0.5463325
0.5774162
0.28151605
0.36882532
0.30813584
0.65631413
0.5750513
-0.0076274415
0.5022944
0.1907164
1.1697943
0.6284845
0.15620615
0.58750844
0.59220743
-0.59099257
-0.8742065
-1.3014365
-0.7646935
-0.12370761
-0.3703106
-0.012377528
0.32002732
0.22353049
0.8191461
1.2827893
1.2053447
0.78722036
0.7983457
0.7025465
0.13860986
0.05014867
0.030804044
0.21107227
0.6529392
-0.098937966
1.4263213
0.354921
0.21976411
0.88478285
-0.23865701
0.28639686
-0.002323782
-0.55062515
-0.40870142
-0.69805497
-0.8472334
-0.3630413
0.68923694
1.0048165
1.4308453
1.5075489
0.8192363
1.1337863
1.0671343
0.6430532
0.5311923
0.35292983
0.13211638
0.038377266
0.016451254
0.5116494
0.5396515
0.44783893
0.961726
0.22768277
-0.31601268
-0.12324899
0.058665406
0.19721018
-0.10356521
-0.4858679
-0.43581486
-1.0428449
-0.60841966
-0.50856686
0.08927473
0.87019664
1.060738
1.3372505
0.96855736
1.3835301
0.94823325
0.61628526
0.81335557
0.6237485
0.11144572
0.25543502
0.4802098
0.6393309
0.6210904
1.0529529
0.7377556
0.51591265
0.7797961
0.2045694
0.41225895
-0.057019815
-0.27624753
-0.7165155
-0.8861391
-1.3154981
-0.5656814
-0.010402233
0.63439006
0.91698915
0.42573452
0.84018546
0.5312004
0.60679555
0.3021417
0.18054786
0.2989427
0.19410488
-0.13083856
0.09825559
0.41325212
0.58574444
0.8960031
1.2171932
0.9298199
0.72304386
0.12795505
-0.13308212
-1.2453018
-0.8959971
-0.87768024
-1.2706995
-1.4429649
-1.1819322
-0.9849318
0.012497516
0.6064926
0.606951
1.0718004
0.8442421
0.9925693
0.6314427
0.33763885
0.55866057
0.42909643
0.028339794
-0.35883766
0.20123756
0.59371877
0.95190775
1.0639178
1.0077329
0.46008998
0.20094085
0.025123313
0.13499469
-0.4881346
-0.6786047
-0.517415
-0.7794934
-0.25986347
-1.3653998
-0.5376935
0.26048902
0.7267211
0.7976333
1.2510622
0.8137789
0.76064706
0.49640998
-0.06453431
