0.41735816
0.5985921
0.58020306
0.32715714
0.41464132
0.39538756
0.24700776
0.15518548
0.067792885
0.12255291
0.3027536
0.14824279
0.09731699
0.07899787
-0.04558033
0.2305739
-0.07278464
0.12784863
0.25183368
0.6425637
0.21668574
0.28520727
0.47281304
0.14277226
0.08608027
0.1839415
-0.11478267
0.2776669
0.5203754
0.6278983
0.3991834
-0.11929021
-0.037287407
-0.24815945
-0.68182987
-0.5341074
-0.7498713
-0.6785923
-0.41216606
-0.57930523
-0.4349447
-0.15994602
-0.4781843
-0.14766616
-0.37721416
-0.1206168
-0.19612482
0.29520464
0.16866097
-0.05043432
-0.06922294
-0.13724479
-0.107095085
0.08396617
0.009394329
-0.02844348
0.17343828
0.022270592
-0.34498438
-0.5924916
-0.28500512
-0.5419323
-0.3980118
-0.11192453
-0.62783223
-0.4026767
-0.6586455
-0.59891164
-0.14548478
-0.22835054
-0.24410929
0.38904327
0.03659733
0.15927862
0.040545028
0.21753576
0.4236022
0.679301
0.1489647
0.22855228
0.5042517
0.63779193
0.311857
0.14013302
0.12447688
0.09678784
-0.35245565
-0.36356837
-0.06682947
0.26697308
-0.11899421
0.46351433
0.4931266
0.5647288
-0.20674105
-0.113199756
-0.021516746
-0.24045376
-0.12316075
-0.26453295
-0.4593945
0.12023738
-0.45165625
-0.64957416
-0.278315
-0.22972627
-0.23586158
0.08621004
-0.29637563
-0.21208736
-0.2009488
-0.32287723
-0.25955772
-0.35010588
-0.50570095
-0.786078
-0.46217147
-0.14570685
-0.3596589
-0.39109015
-0.24663699
0.02705471
0.040359452
0.16439968
0.15050964
0.08594586
0.20546372
0.5360741
0.35453442
0.9211302
0.20986798
0.038413905
0.30839851
0.5263797
0.6879174
1.161997
0.6722281
0.7402383
0.7556625
0.7411275
0.17472236
0.07627944
-0.2753462
-0.45034286
-0.11205372
-0.15722735
-0.11437993
-0.306119
-0.5510609
-0.25525856
-0.93023175
-0.6675884
-0.5124835
-0.12280877
-0.012989773
0.14098439
0.19625051
1.0558288
0.76418823
0.8376986
0.6770489
0.63938916
0.57219636
0.78261036
0.35978535
0.34097514
0.88627803
0.8857853
-0.16067515
-0.31688353
-0.30862784
-0.17372984
0.4402187
0.39717185
-0.21942745
0.21753292
-0.33415598
-0.24761659
-0.54853964
-0.21349926
-0.0040863245
0.36260396
0.259943
0.9532378
0.9687421
1.6874442
1.2578893
1.6582465
1.8472661
1.5190268
1.2965566
1.0293188
0.8186761
0.69326526
0.845562
1.0281284
0.03412435
-0.2004369
0.06459677
0.08719099
0.18443733
-0.11914585
-0.45185554
-0.044175353
-0.61537814
-0.3610495
-0.5562582
-0.22191657
0.31158546
0.29668316
0.33796185
1.0834112
1.0613447
1.6871951
1.177698
1.529156
0.97909355
1.087322
0.631794
0.49597347
0.40439975
0.5987446
1.1427103
1.2059478
-0.1359344
-0.37954056
-0.17986804
-0.3105982
-0.22278106
-0.5247681
-0.48983398
-0.21711597
-0.54593164
-0.309639
-0.23737745
-0.6535414
-0.09669882
-0.22502439
0.20327646
0.44827226
0.091022804
1.723175
1.7309195
1.5912952
1.6543628
1.2233238
1.3097591
1.3903809
1.10186
0.7830576
0.8358005
1.1011039
-0.18253319
-0.31684762
-0.32198942
-0.5499409
0.20791253
0.14398304
-0.15069252
0.18519379
-0.44591078
-0.5982478
-0.7208138
-0.77519846
-0.4168375
-0.59929633
-0.20830235
0.41459605
-0.15405306
0.46220565
0.22246942
0.685907
0.7342758
0.42176506
0.79456073
0.7644932
0.5252902
0.45945227
0.64876115
0.863736
-0.3830318
-0.53587514
-0.17072463
-0.5487519
0.040135764
0.06376519
0.16621251
0.44749707
0.1630275
0.31585595
0.22280794
0.39105883
0.55585635
0.39682475
0.5015647
1.0276237
0.7477127
1.2701808
1.0501777
1.2516342
1.2191216
0.5229191
0.7335936
0.6930602
0.5577851
0.3431458
0.66430813
0.86090845
0.02677645
-0.05621388
0.018322947
-0.41062355
-0.122424535
-0.0952081
-0.14862046
0.5898385
0.15182547
-0.4918343
-0.32386136
-0.34203932
0.25517982
-0.12274987
-0.11094986
0.18967251
-0.17763552
0.8162529
0.6713943
0.3779203
0.72265434
0.61003655
0.4482423
0.31377965
0.35899246
0.1508791
0.44301832
0.70272124
-0.034915414
-0.12325482
-0.20615199
-0.4153822
0.23902671
0.22772752
-0.050696354
0.15946005
-0.2605301
-0.5635651
-0.5824478
-0.77320117
-0.41506854
-0.4430044
-0.6892134
-0.35946465
-0.5174487
-0.13442093
-0.36076677
-0.31585222
0.18677957
0.081361935
0.2727784
-0.064952314
0.1474948
0.07668771
0.2907013
0.58405066
0.16592164
-0.02673618
0.31657654
-0.07122808
0.34137487
0.2967836
0.48384145
1.0040503
0.76660633
0.055833157
-0.20548066
-0.13982892
-0.19915384
0.07208242
-0.41246635
0.21894425
0.45450398
0.36730185
0.20304088
0.3782208
0.93890774
0.40100166
0.14717871
0.041726075
-0.0022305248
0.27987581
0.6204947
0.78706086
0.61818415
0.59010386
0.79560727
0.20812853
0.08684723
0.47637707
0.43633428
0.33016586
0.51001984
0.02104465
-0.2079776
-0.30480468
0.109361164
-0.050308578
-0.41986674
0.16500677
0.14255764
0.30453196
-0.2202257
0.29749253
0.30288395
0.30145863
0.42384967
0.5719137
0.27160805
0.39318785
0.69951206
0.7304705
0.725953
0.542993
0.53285533
0.22669838
0.049819913
0.11275025
-0.25281
-0.1267785
0.046130937
0.08553828
-0.06312978
-0.14270082
-0.16570841
-0.2828546
-0.462179
-0.38503322
-0.16183715
-0.2502549
-0.5858257
-0.26997805
-0.22235663
-0.22053011
-0.19103462
0.5342283
0.25384834
-0.0029223275
0.31796107
0.43212533
0.47415426
0.60037434
0.8648566
0.6808851
0.35214442
0.13361919
-0.13558674
-0.02342517
0.3266225
-0.16181791
-0.26889923
-0.09960138
0.3066528
-0.21546301
0.0524497
0.24768353
0.2961587
0.2311027
0.32771742
0.5005254
-0.005571725
0.071892045
-0.31430295
0.43958315
0.4664327
0.33784452
0.79403776
0.84294134
0.6407427
0.8469951
0.7168584
0.5481501
0.30217272
0.36204123
-0.015099383
0.0040364065
0.041764606
-0.37990585
-0.6789484
-0.51766384
-0.44272956
-0.5852239
-0.16442662
-0.60009515
-0.4251621
-0.25612867
-0.5221395
-0.15688872
-0.10671006
0.11029161
0.016513338
0.34876683
-0.018223524
0.036044694
0.27111086
0.37189275
0.33263484
0.45864788
0.40247917
0.039567757
0.015872858
-0.011990663
-0.5526855
-0.5433349
-0.44012123
-0.93134785
-0.92094713
-0.6222921
-0.61844534
-0.49179468
-0.6467867
-0.6261941
-0.4411444
-0.2770647
-0.48474744
-0.077739835
0.18992627
0.23401491
-0.03872056
0.1301516
0.4005288
0.6616319
0.7519659
0.6216307
0.096871994
0.21037477
0.47406754
0.1715923
0.403977
0.32550898
-0.047980122
0.014790077
-0.035362676
-0.6624257
-0.64809394
-0.65585107
-0.9780016
-0.4188728
-0.23326033
-0.43828776
-0.22550233
0.037818447
-0.6036962
-0.6041994
-0.5321051
-0.039419793
-0.1722102
-0.36794984
-0.6820205
-0.08257365
0.1424133
0.078939945
-0.16887666
-0.20894606
-0.25714824
0.06883611
-0.18895537
0.087419234
0.056114588
-0.03518473
-0.4277952
-0.8091834
-0.31068316
-0.48762354
-0.8183974
-0.56171644
-0.11882997
0.33202934
-0.17881617
0.0057966947
0.011012048
-0.02000669
-0.08096602
-0.03271154
0.29240578
0.11032647
0.24134646
0.3644961
0.05122118
0.015116773
-0.22260779
-0.28404126
-0.40960002
-0.43191612
-0.3199106
-0.2694292
-0.32658237
-0.1742772
-0.20667836
-0.5300493
-0.16492064
-0.19926913
-0.7197878
-0.42131782
-0.14236344
-0.28757054
-0.7393929
-0.87560403
-0.34958583
-0.75740516
-0.7837814
-0.30842516
-0.3127972
-0.20725474
-0.114955105
-0.08903915
-0.21757089
-0.44863605
-0.5112685
-0.38352478
-0.55632687
-0.42867267
-0.34108663
-0.4265492
-0.3289618
-0.18274413
-0.17623965
0.09830082
0.20297322
-0.30377346
-0.6751698
-0.026280824
-0.16901772
-0.3022198
-0.31892633
-0.28412965
0.20884009
-0.21099661
-0.0046781097
0.34233183
-0.03159213
-0.022561401
0.12623586
0.37236726
0.056799304
-0.24685761
-0.3946512
-0.3161163
-0.7546627
-0.88232875
-0.33633325
-0.45714247
-0.33084586
-0.40741247
0.15032841
-0.16871119
-0.17633046
-0.59030944
-0.83019596
-0.4943982
-0.17045909
-0.5531196
-0.4743552
-0.4354305
0.035784133
0.06317846
0.5491687
0.3370751
0.12584446
0.1797635
-0.28964043
-0.16589476
-0.07519882
-0.08547045
-0.6636766
-0.5830294
-1.1213037
-1.0792772
-0.36909142
-0.0114159025
0.029772926
0.14572668
-0.21040265
-0.44343826
-0.12419972
-0.52488226
-0.5834087
-0.62708664
-0.99164355
-0.92080486
-0.81065184
-0.97427064
-1.214415
-0.9477294
-0.4888626
-1.0821363
-0.93903005
-0.73038137
-1.080306
-0.864462
-0.84021384
-0.62826085
-0.96691895
-0.69162416
-0.8294809
-0.9410167
-0.80525804
-0.10864138
0.21000439
0.21259257
-0.08125015
-0.040309872
0.14601412
0.2637988
0.29602033
0.6018337
-0.2775049
-0.06380948
-0.14934346
-0.15116635
0.11722573
-0.18534079
-0.45348573
-0.26382244
-0.24267009
0.14996183
0.0017841532
-0.022626493
-0.0025984666
0.08313748
-0.04363969
-0.269919
-0.70333797
-0.74400294
-0.6552336
-0.60445046
-0.6780731
-0.47859383
0.22095482
-0.36707005
-0.6641656
-0.28707746
-0.07919577
-0.11502935
-0.197305
0.054977387
0.011895914
-0.13021517
-0.32716638
-0.35653818
-0.25377953
-0.38446483
-0.5446183
-0.41003492
-0.29867202
-0.01313478
0.18608469
0.35392264
0.38518006
-0.07808187
-0.47348177
-0.45185474
-0.33895326
-0.51946974
-0.55330884
-0.796698
-0.31960177
-0.713133
-1.1440533
-0.6911929
-0.619282
-0.8675967
-0.9932721
-0.88972867
-0.9754815
-1.0956815
-1.2342707
-1.0410465
-1.0245703
-1.1610502
-1.2877238
-1.1652706
-0.84432185
-0.43681648
-0.19991821
0.11085571
0.17314002
-0.32852322
-0.35653389
-0.3764784
-0.18215474
-0.6410615
-0.5345059
-0.7113695
-1.1794766
-0.56133664
-0.91099703
-1.0903143
-0.90668494
-0.6299937
-0.44751614
-0.72300446
-0.63580996
-0.3899729
0.34000242
-0.17966712
0.27139935
-0.039713044
-0.074147016
-0.06946619
-0.15184923
0.16217224
0.53842705
0.46846542
0.40422767
-0.16510697
-0.17338075
-0.10460635
0.31051728
0.07315868
0.07248255
0.22399284
-0.12895031
-0.14039929
0.22892635
0.007955842
-0.08599667
-0.07041796
-0.1736952
-0.40385774
-0.76348203
-0.32489413
0.12418535
-0.4845267
-0.46739745
-0.09797585
-0.1552137
0.039279453
-0.46040893
-0.086038284
0.42965046
0.2659148
0.07632648
0.11945976
0.2381811
0.7185913
0.66747004
0.3634933
-0.024812538
0.47167054
0.28183284
0.7561055
0.15699229
0.5023892
0.5572191
0.2594355
-0.33577687
0.06282729
-0.5190427
-0.27046803
-0.68600357
-1.0083368
-0.3860735
-1.0163466
-0.23573221
-0.7654132
-0.76527786
-0.043724332
-0.5399555
-1.1698692
-1.1557667
-0.4339786
-0.35733742
0.037273698
-0.48560223
-0.62705356
-1.3767813
-0.8416998
-0.90536654
-0.986053
-0.76764506
-0.25827608
-0.46140867
-0.61444354
-0.5076433
-0.18035994
-0.0783097
0.30872074
0.008372873
-0.31875646
0.25643244
0.15191412
0.14556156
0.05221693
-0.03695147
0.17461564
-0.15319765
-0.45079738
-0.5499288
-0.013902906
0.38346303
0.51893127
0.36777192
0.4364548
-0.07812155
0.1972871
1.0542667
0.8807649
0.26665995
0.60438275
0.16292939
-0.006433752
-0.45007357
-0.24950013
-0.70007396
-0.2400815
-0.43454352
-0.6460818
-0.44758362
-0.85969377
-0.70779043
-0.3287683
-0.61768705
-0.68377775
-0.59611773
-0.74907154
-0.9246149
-0.34884486
-0.07732436
0.47790244
0.12207221
0.66777235
0.5080799
0.35460195
-0.10371347
0.75509137
0.092175566
0.99078345
0.4318844
1.0645894
0.3341566
0.38611528
-0.26036432
0.16637133
-0.30697823
-0.6878965
0.09463089
0.4016429
-0.076740265
0.64705086
-0.25929
-0.65487194
-0.35607693
-0.8398101
-1.1304591
-0.17041188
-0.089985736
0.24322708
0.06396408
0.43033814
0.6616529
0.61849177
0.3575603
1.0730246
0.83320785
1.4896461
0.5454017
0.7853985
0.21707337
-0.10411609
-0.7649629
-0.31809592
-0.5215076
-0.74497783
-0.79066694
-0.746387
-0.16647954
0.032696676
-0.6457521
-0.6617666
-0.54230857
-0.83548003
-1.1896318
-0.113645844
0.239004
0.41601434
0.4016397
0.5831761
0.47901088
0.8140061
1.3469687
1.3699855
1.3134648
1.4302077
0.9323363
1.2195485
0.8035413
0.67811674
0.12504499
0.3186423
-0.38078612
0.17488116
0.4903189
-0.44541997
-0.05672791
0.022814257
-0.46599427
-0.79083157
-0.4332451
-0.63308835
-1.0052375
0.080933
0.4703656
0.23788214
0.5196928
1.2860994
1.7015797
1.834563
1.9102011
1.8032107
0.76244473
1.0994393
0.66022074
0.36060053
0.42631018
-0.12109147
-0.4901699
-0.5218796
-0.8262381
-0.14321607
0.26728243
0.18524094
0.12879018
0.3102983
0.109673865
-0.51884407
0.14042923
-0.121926196
-0.3688839
0.8077001
1.0486336
0.9714518
1.4003263
1.7536972
1.8858019
1.6679413
1.3983514
1.4035313
0.5181121
0.7848654
0.42251906
-0.09516014
-0.23233241
-0.47000393
-0.8666268
-0.6570157
-0.93529946
-0.67709553
0.014730157
-0.5866494
-1.2496616
-0.3620835
-0.28411856
-0.48091018
-0.29789045
-0.19292147
-0.2647265
0.4975649
0.7344454
1.0796696
1.6373283
1.4547282
0.8890499
1.1765175
0.86579156
0.68612635
-0.43787575
-0.1877507
-0.2192937
-0.3492636
-0.40960148
-0.38031623
-0.13945022
0.2888815
-0.04576261
0.094058335
-0.059879657
-0.36875084
-0.2245065
0.09351049
0.2281684
0.2550552
0.2543562
0.18349348
-0.076716065
0.5595537
0.6630867
0.75396156
1.3474562
1.3751876
1.6782436
1.2160159
0.8337049
-0.01846769
-0.111241534
-0.07956394
-0.04435253
-0.36345083
0.046772983
-0.17692864
-0.0144024
-0.07592772
-0.14543873
0.6601091
0.9081064
0.3601168
0.052960888
-0.5039638
-0.018914893
0.30553505
-0.026516937
0.46111238
0.22095573
0.8091185
1.0859512
1.2607577
1.5079128
1.12969
0.58520645
0.29210198
-0.1714791
-0.040709756
-0.3485215
0.2949578
-0.13020968
-0.65460944
-0.611323
-1.0796331
-1.4674814
-1.1751721
-1.2712708
-0.86572903
-0.73897284
-0.3388921
-0.49759308
-0.82346785
-0.04004027
-0.34765357
-0.10323059
0.36086047
0.24806774
0.68638647
1.0971565
1.1139219
1.1595956
0.78971237
0.09844483
0.02763193
-0.10733345
-0.23849352
0.08903983
0.043822374
-0.32076338
-0.56913847
-0.6898076
-0.6592399
-1.1644654
-0.39452922
-0.27834502
0.11643022
-0.030029034
0.20227817
0.3023799
0.31945497
0.8646829
0.55662715
0.32862666
0.6511278
0.32601774
0.64648503
0.59851485
0.5455884
0.64289284
0.16062024
-0.11400853
0.3440486
0.40006885
0.2723356
-0.043410994
-0.5361822
-0.86974055
-0.27652237
-0.58211625
-0.23411678
-0.2602069
-0.08233057
-0.24236424
0.24189486
-0.02662334
0.20977588
0.5720962
0.017598987
0.27543145
0.20093043
-0.050812185
0.24059643
0.17045535
0.50423187
0.16914922
0.39052346
0.43699363
0.18629748
0.34068763
0.7805001
0.6054369
0.55162877
0.15061155
-0.22924206
-0.2924784
-0.2629971
-0.7567163
-0.6092976
-0.75500476
-0.45186993
-0.4591189
-0.5153885
-0.5556373
-0.84405667
-0.7436438
-0.4310808
-0.71324885
-0.6975789
-1.070747
-0.74740326
-0.5190836
0.04116528
0.010259479
0.3132273
0.26808268
0.37008667
0.486972
0.99760914
0.42770803
0.2479036
-0.07973384
-0.4798833
-0.7678253
-0.5539958
-0.5132596
-0.9120533
-0.3718404
0.14634825
-0.06502211
0.09949141
0.3428274
0.14891666
0.16793731
0.71407163
0.30318087
-0.03339138
-0.34374127
-0.14669038
-0.21553113
0.085609846
0.082799695
0.17238629
0.14391916
0.6538171
0.7103082
0.8336019
1.1362668
0.49611768
0.5163363
0.06112843
-0.15975338
-0.059774403
0.1453746
-0.12581544
-0.2197675
-0.17915843
-0.06846825
0.265594
0.42608416
0.2528437
0.2696687
-0.08037693
0.17548655
0.31092426
-0.005786748
-0.20484512
-0.25637516
0.29593885
0.408792
0.04495567
-0.033586282
0.554318
0.5581387
0.9713611
1.4978895
1.0325426
0.89806384
0.7962927
0.3534198
0.17489935
0.12885703
-0.16699626
-0.5498026
-0.5987522
-0.17309587
-0.46166125
-0.67460513
-0.30155995
-0.29208058
-1.0093079
-0.6598308
-0.75068194
-0.7485831
-0.71759456
-0.708033
-0.09403391
-0.13561632
-0.4299382
-0.33475533
-0.07207464
0.2685682
0.736814
0.84199196
0.5043321
0.9512518
1.0919012
1.2207533
1.5754482
1.153069
0.7986888
0.83103096
0.85663176
1.0392929
0.44592032
0.135689
-0.14918536
0.5440784
0.10209983
-0.19074677
0.17182826
-0.09616256
-0.7918988
-0.9467148
0.06727168
0.033533566
0.07245506
-0.17420116
0.020357583
0.011768592
0.22190048
0.3661435
0.24192314
0.24805395
0.679666
0.82810915
1.0589162
0.5321261
0.72622067
0.67354953
0.78456783
0.18408574
0.012858228
-0.019039433
-0.50140035
-0.205032
-0.24600512
-0.11170925
-0.6071744
-0.43060905
-0.55024207
-0.61616814
-0.12204292
-0.1956715
-0.15311308
0.038530182
0.23419377
0.58833337
0.08652502
0.043545958
0.1615886
-0.11657743
0.3717553
0.060058422
0.7360276
0.5094481
0.1565914
-0.10991367
-0.5580758
-0.25751904
-0.18133311
-0.41432288
-0.40225402
-1.2281522
-0.6280702
-0.33977085
-0.9340521
-0.37923315
-0.78073555
-0.64524364
-0.5554412
-0.538737
-0.5233611
-0.2510721
-0.17730437
0.39140937
-0.14773555
0.032859273
-0.20570365
-0.21248448
0.26266566
-0.3409526
0.23311283
0.44778526
0.32748085
0.19485389
-7.041688E-4
0.2714368
0.19316815
0.5544926
0.03034537
0.014424373
0.12957928
-0.11668989
-0.4584011
-0.26738995
-0.817477
-0.772542
-0.6568471
-0.3225967
-0.36620834
0.24195841
-0.0595984
-0.17810291
-0.43432328
-0.2042131
-0.49825433
-0.30670688
0.16930981
-0.12944405
-0.40658578
-0.47673094
0.12821345
-0.40507233
-0.102511704
-0.004113259
-0.08048048
0.2002343
-0.3491088
-0.3976366
-0.030524796
-0.4937493
-0.68615943
-0.6742855
-0.58247167
-0.5785893
-0.42649576
0.08361152
-0.16095868
-0.39813414
-0.113874815
-0.68928874
-0.3529167
-0.17683123
0.0420949
0.12259698
-0.31244475
0.1397477
-0.45382282
-0.2909579
-0.10433562
-0.049716055
-0.4391037
-0.42105728
-0.33990076
-0.14891034
-0.44705635
-0.04932214
-0.37537882
-0.8916339
-0.8188086
-1.282525
-0.56681246
-0.5300969
0.03846564
0.43359205
-0.35606852
-0.20039794
0.13210374
-0.5651305
0.08505488
0.02960096
-0.2061083
-0.49538884
-1.1137917
-0.5834215
-0.5971758
-0.6158637
-0.223789
-0.63494915
0.13194859
0.24054588
-0.28331992
0.13726608
0.40141854
0.24937852
-0.42227238
-0.29863098
-0.26248372
-0.6599548
-0.24705866
-0.24804251
-0.26740924
-0.32152173
0.10611344
0.18254635
-0.11773995
-0.12950882
0.20409222
-0.2726875
0.38354772
0.5753634
0.5377109
0.037817825
-0.03562884
0.020749353
0.06504111
-0.027213272
0.02960767
-0.10502261
-0.040766757
0.16342008
-0.21859668
-0.057383742
0.18910226
-0.03744998
0.2570268
-0.08561307
-0.03881966
-0.080104224
-0.13806929
-0.31642142
-0.13770625
0.084163055
-0.7166541
-0.7248839
-0.9434448
-1.3831166
-0.45165706
-0.6795984
-0.86169
-0.31856924
-0.3299806
-0.6626493
-1.0572938
-0.9491064
-0.5746943
-0.43513027
-0.48242697
-0.677517
-0.28774127
-0.095610075
-0.2759092
-0.25974965
0.043941405
0.016704144
-0.028877739
-0.037824914
-0.18159819
-0.0041594286
0.11480642
-0.010991637
0.09374986
0.15744732
0.23960443
0.21722582
0.40634787
0.24233681
0.30060467
0.2866426
0.18664329
0.37958035
0.3738842
0.31507277
0.5122898
0.7020893
1.1189585
1.0431925
1.0852188
1.095789
1.3188112
0.9376333
0.94635594
1.298244
1.2513877
1.1239787
0.9226552
0.50787264
0.4604811
0.22781606
0.2197936
0.13446808
0.22262605
0.08673225
0.36187622
-0.10507963
0.114401124
0.15049171
-0.1509821
-0.06239562
0.025629696
0.13052438
0.1368486
0.21881361
0.62419367
0.54956675
0.4059665
0.111217834
0.02140993
-0.5853491
-0.42464927
0.38818508
0.34201226
0.19173665
-0.33355582
0.010028532
0.23462714
0.0674372
0.09758155
0.066145964
0.309831
0.20974317
0.32268885
-0.14088306
0.122470886
0.25780573
0.27713224
0.18863837
-0.36630067
-0.104802385
-0.18957679
0.3914163
0.056054212
0.17131498
0.030570105
0.28119746
0.07002726
-0.6973219
-0.46547508
-0.61637115
-0.052001778
-0.28167108
-0.44734567
-0.17780295
0.12561692
-0.0345831
0.03252759
-0.087852694
-0.12349687
0.05614929
0.3271666
0.065044574
0.21388736
0.35775608
0.4298174
0.36320475
0.32206455
-0.0017671454
0.066301696
0.2943748
-0.34433818
-0.060563706
-0.11948368
0.0672899
-0.23880245
-0.34758857
-0.5183417
-0.89522475
-0.4787369
-0.72038656
-0.93620795
-0.3168564
-0.05570069
0.095279604
0.21956988
0.18218443
0.060127113
-0.060406163
-0.1168193
-0.19286168
0.021916507
0.049525235
-0.054055948
-0.26264733
-0.5504877
-0.83696926
-0.80651206
-0.45624283
-0.5430536
-0.61557436
-0.87730074
-0.46900114
-0.82550776
-0.55962217
-0.58186674
-1.0591298
-0.6832098
-0.7919247
-1.3362825
-0.44138148
-0.13654466
0.113813326
0.05382799
-0.053774845
-7.7633944E-4
0.104912385
-0.026106883
-0.06904571
0.061122317
-0.33523792
-0.25224477
-0.22691257
0.022520404
-0.62927186
-0.6581258
-0.56641525
-0.9071047
-1.008756
-0.64145845
-0.39491516
-0.5579867
-0.5271811
-0.6589755
-0.68732667
-0.66761243
-0.9806186
-1.0703505
-0.7323498
-0.47554433
-0.20835285
0.20785928
0.06851554
0.121595874
0.14653212
0.34463084
0.30471373
0.065664425
-0.09931299
-0.030495415
-0.3331813
-0.32875636
-0.7493686
-1.0612173
-1.0104123
-0.9157794
-0.74632055
-0.7233154
-0.7293733
-0.9021587
-0.99319774
-0.82041776
-0.8001704
-1.0698979
-1.3826315
-0.98561645
-0.71250737
-0.67704576
-0.29816315
-0.023506327
-0.32112536
-0.19252072
-0.3656303
-0.12473891
0.060219623
-0.089175336
0.043779474
0.27233386
-0.51281875
-0.9296852
-0.56393844
-0.6619818
-0.4526441
-0.2458269
0.022328781
-0.037319157
-0.024544977
-0.060325567
-0.28706536
0.19397663
0.1819291
-0.35895076
-0.48559585
-0.12594703
-0.056501526
-0.08178864
0.13303593
0.23131292
0.02372598
-0.31967002
-0.22375016
-0.10168271
-0.2172057
-0.2951522
0.048972946
-0.19512267
-0.33827302
-0.21149637
-0.46173593
-0.23313165
-0.3469697
0.032432903
0.13735017
0.17507814
0.2549122
0.30361983
0.0033435326
0.0033568062
0.12817273
-0.2258389
-0.30460402
-0.023133822
-0.069485456
-0.06667934
0.043733057
-0.21956283
-0.18094802
-0.10999111
-0.16308403
0.083276
-0.060912848
-0.5554052
-0.019115277
-0.3981098
-0.053611133
0.18121958
0.546757
0.42579883
0.40653974
1.0738522
1.441112
1.2543404
0.905986
1.1774611
0.7186234
0.5475985
0.5537235
0.18173695
-0.066714875
0.24800223
-0.03332198
0.22303165
0.030100273
-0.27898684
-0.21187021
-0.22259948
-0.78826386
-0.87733793
-0.6574332
-0.6920488
-0.20357944
-0.448938
-0.056510188
-0.30286667
0.024734745
0.2013375
0.40265658
0.46644926
0.9200998
0.69557494
0.7964154
0.69843197
0.704414
0.40509632
0.29775625
0.3407386
-0.032521103
0.25663552
-0.15489765
0.117033064
-0.32628688
-0.5413234
-0.44965866
-0.43207857
-0.49422753
-0.25472984
-0.69736606
-0.97140884
-0.33458284
-0.27427945
-0.10897678
0.052630953
0.08466434
0.5073556
0.19447708
0.41487065
0.78764105
0.65738523
0.42069837
0.29523396
0.30226576
0.23418283
0.083938606
-0.02093262
-0.028788315
0.3261284
-0.25530842
-0.051980026
-0.2900165
-0.37983766
-0.015922572
-0.12786749
0.2574303
0.14116636
-0.33596453
-0.28420863
0.38469186
0.16987777
-0.028461715
-0.19497597
0.11178197
0.542401
0.5017215
0.65300924
0.9174808
0.8908381
0.21897961
0.38304567
0.50459737
0.26115978
0.2468585
0.01683952
0.17501561
0.47636622
-0.10836104
-0.19625807
-0.39854047
-0.5836498
-0.41699582
-0.34004688
0.071521714
-0.04286789
-0.21377118
-0.41150331
-0.040545925
0.04996686
0.16360666
-0.22620653
-0.17332457
0.20338267
0.17966121
0.38254023
0.70946014
0.60407853
0.26900858
0.42271185
0.42521957
0.052572165
0.1180318
-0.11025978
0.1105576
0.37482116
-0.019468833
0.04801496
-0.08290827
-0.46851337
-0.34280458
-0.27948114
-0.42170393
-0.17572586
0.024009597
0.14823605
-0.11698276
-0.047643874
0.23002784
0.24861316
0.5258758
0.67786133
0.14550854
0.5277375
0.5654164
0.5411658
0.14216109
0.47979048
0.23110843
-0.13068564
0.041222982
0.06106413
0.023433652
0.20227706
0.013448264
0.04047831
0.12768497
-0.19605179
-0.18976024
-0.08847702
-0.41718346
-0.12696885
-0.049809277
-0.011520371
-0.34211907
-0.31867138
-0.018620446
0.28545615
0.43245155
0.39458805
0.39693934
0.55990577
0.44438946
0.76568586
0.58199894
0.6828061
0.35374144
0.3102697
0.56099147
0.47036073
0.19272973
0.23804918
-0.11653881
-0.080831
-0.042296644
-0.06269203
0.0936309
-0.0245566
-0.40990362
-0.28389493
-0.08571445
0.13731457
0.038174108
-0.19125667
0.11583165
-0.2806115
-0.30178478
-0.54209113
-0.2761361
-0.16321252
-0.09821943
0.059546918
0.08385729
0.019135613
-0.10610165
0.046468228
0.38242748
0.2892489
0.08545107
0.26464105
-0.0918143
0.17335369
-0.17270789
0.35331205
0.1948192
0.055540685
-0.11952929
-0.048577964
0.2451616
0.1540144
0.051441003
0.0055866037
-0.14650647
-0.40962422
0.014181348
-0.5039658
-0.71850574
-0.22723497
-0.4701403
-0.122358896
0.1488921
0.4097242
0.20115896
0.26794708
0.36710134
0.14800484
0.14554939
0.16471452
-0.11825994
-0.23527297
0.2877061
0.31553105
0.33024
0.39754742
0.32677743
0.10749301
0.21903202
0.05047318
0.4874177
0.06803055
0.11688848
-0.120718375
-0.16871218
-0.16503732
-0.048899204
0.073245786
-0.0703983
0.4212179
0.42847177
0.65978473
0.5477153
0.42238614
0.54552627
0.47741985
0.5159777
0.39771345
-0.41729522
-0.41398796
0.31620535
0.3772331
0.2954915
0.3524103
0.15351538
0.27095202
0.5527777
0.22015297
0.1560192
-0.08731483
-0.3068897
-0.40016842
-0.6723016
-0.76192266
-0.32920772
-0.086270556
-0.2558145
-0.5428375
-0.2897255
0.31674924
0.20084639
-0.0030327574
0.12693788
0.15806256
0.20287552
0.21310154
-0.53572834
-0.41202393
-0.16663133
0.11706924
-0.27517626
0.25998187
0.56619364
0.63542396
0.93971527
-0.059287474
0.006830396
0.12158718
0.05755355
-0.14512224
-0.06958335
-0.35874155
-0.0591331
-0.19127414
-0.03763954
-0.05957723
0.08342185
0.31479305
0.15601096
0.06886364
0.17720746
0.39185563
0.38043386
0.3588792
-0.63880473
-0.717481
-0.7909699
-0.2803254
0.20073059
0.1568883
0.3904245
0.21071963
0.43228072
-0.3704459
-0.021502476
0.23980367
-0.121962525
0.035712723
0.2687185
-0.20347811
0.17208308
-0.1754443
-0.06735828
-0.24968053
0.2163373
0.44174492
0.5174355
0.27323094
0.5317348
0.72500545
0.47550148
0.29930034
-0.7187096
-0.44089928
-0.3176691
0.008645311
0.14839482
-0.38086972
-0.101743944
-0.23991528
-0.53576106
-0.9657165
-0.39570192
0.035364065
0.14390454
0.3485911
-0.10824969
-0.3978009
-0.01295415
-0.44767526
-0.18409406
-0.39029223
-0.0115243
0.18155567
0.21493603
0.2518071
0.61889124
0.5469173
0.31677952
0.18316971
-0.6534895
-0.19570868
-0.52244395
-0.48157534
-0.26205933
-0.3582117
-0.40369827
-0.44470596
8.9673937E-4
-0.4934307
-0.20495415
0.06601114
0.07494791
0.012612556
0.25944278
-0.1223687
-0.063379474
0.008152452
-0.0066246716
-0.3093229
0.090361536
0.33943337
0.1741337
0.3015274
0.37941474
0.2776873
0.14729522
0.104664214
-0.2161288
0.14713536
-0.17707302
0.047447145
0.3970503
-0.16258311
-0.22516812
0.23328528
0.36474344
-0.019310828
0.06050886
-0.050006688
-0.09438609
-0.41176268
-0.031264
-0.09851997
0.0786834
-0.092149265
0.052864272
-0.04486876
0.22910592
0.38320976
0.38801876
0.3961999
0.33297238
0.1901501
0.113469936
0.09283923
-0.055706095
0.08132219
0.24279833
-0.10343875
0.110964805
0.19012748
0.23129368
0.06985843
0.28943005
0.083698064
0.022405118
0.28628427
0.4293127
0.40001592
0.3414147
0.3990533
0.1330667
-0.28853947
-0.35387957
-0.45712066
-0.09881365
0.17951457
0.26579094
0.10965085
0.041341856
-0.044386666
-0.030514074
-0.029028835
-0.00251891
-0.1512905
-0.18559662
-0.31574857
-0.19213943
-0.33960244
-0.20192228
-0.38018924
-0.31172693
-0.4689625
-0.27781415
-0.25334466
-0.010037512
-0.020307312
-0.060919236
-0.01770002
-0.016882753
-0.30032632
-0.15864384
-0.2749238
-0.21242584
-0.024369264
-0.02922237
-0.2354421
-0.14954454
-0.1776552
-0.06566624
-0.048898578
0.024686199
-0.15096186
-0.19695339
-0.14254071
0.106125005
0.17735742
0.6728328
0.24913599
0.16491173
-0.026992531
0.10529733
-0.38329062
-0.079066016
-0.17893997
-0.1824936
-0.056405816
-0.07560387
-0.15621956
-0.019116515
0.030490076
-0.06445894
0.03603799
-0.008317855
-0.122690745
-0.115584955
-0.073091425
-0.0056552505
-0.0085348375
-0.03468023
0.028553002
0.011554153
-0.14453743
-0.17050333
-0.23119412
-0.23580475
-0.11099057
-0.12525989
-0.19093877
-0.28379488
-0.27844113
-0.30741212
-0.2314949
-0.41125444
-0.6564379
-0.4606106
-0.3524046
-0.3239236
-0.2680458
-0.43028998
-0.4901891
-0.21464694
-0.33948886
-0.12677848
0.019128395
0.020239886
0.0821664
0.22907268
0.19999675
0.1230399
0.0040390594
-0.0573472
-0.24696441
-0.2522812
-0.1547048
-0.121653266
-0.18527518
-0.17761314
-0.08073439
-0.21532434
-0.17722361
-0.08942893
-0.3530837
-0.14598739
-0.041622255
-0.20518452
-0.2726077
-0.29833856
-0.21777599
0.10051622
-0.039368298
0.102621086
0.45815554
0.31833002
0.21472771
0.17189786
0.03550151
-0.06985514
-0.014131857
-0.041207828
0.17902261
-0.16155556
-0.20733775
0.07418398
-0.066566296
0.29920223
0.056941
0.43820897
0.546732
0.09067753
-0.028538179
0.2574292
0.17357294
0.11141693
0.524236
0.56584245
0.66176426
0.8720838
0.57640034
0.66658837
0.7107642
0.73169094
0.5812458
0.37985733
0.067156546
-0.0073883226
0.007556907
0.025753845
-0.15625256
-0.10285358
0.055490714
-0.090511255
-0.30228934
0.14145833
-0.036542796
0.4798558
0.23317768
0.07978675
-0.21392348
0.1869705
0.47342932
0.57336897
0.5740084
1.0088413
0.891208
0.92421305
1.143185
0.9650593
0.6487858
0.67687464
0.5309413
0.2568827
0.13257769
0.03339329
0.1255993
0.093179606
0.19065954
0.2772366
0.2493037
-0.20223197
-0.06913047
0.122739784
-0.0010678214
0.2387451
0.23101613
0.13695379
0.16716273
0.583484
0.76800954
0.5596882
0.52950734
0.63280267
0.6994807
0.40373516
0.42039233
0.40993026
0.27710998
0.40995842
0.19051781
-0.09895712
0.100409165
0.027518503
0.15332846
0.14036208
0.029767184
0.04782947
-0.089606345
-0.22041476
-0.06048398
0.48278767
0.25404227
0.45877817
0.3781733
0.13780892
0.06555617
0.089566424
0.21091911
0.28134853
0.38952565
0.31689632
0.29186904
0.07973571
0.29035404
-0.004399485
0.088150054
0.12628612
-0.09596851
-0.26794878
-0.03112695
-0.065005414
-0.063458055
0.052529078
-0.08652141
0.33071688
-0.0074198735
-0.14932178
-0.058114916
0.033880945
-0.22042881
0.13245901
0.3416903
-0.023898473
-0.2767533
-0.30934396
-0.45816976
-0.30162147
-0.124071635
-0.39504296
-0.3459121
-0.2437353
-0.16326347
-0.0817464
0.16123585
0.06595793
-0.40747666
-0.3813541
-0.12015802
-0.15143071
0.055013366
0.06899513
-0.3851454
0.022264525
-0.10602715
0.030532915
0.15764032
-0.09865952
-0.2755631
0.08516707
0.13807735
-0.18550253
-0.24718565
-0.19975823
-0.37185484
-0.23155631
-0.12720406
-0.3520023
-0.3035874
-0.3373293
-0.31295124
-0.1117794
-0.2338343
-0.4674351
-0.35186622
-0.34025988
-0.20082085
-0.26466158
-0.281551
-0.055352345
-0.37726086
-0.35004148
-0.044889785
0.20781742
-0.10026311
-0.008035829
0.08982426
-0.124529675
-0.07874613
-0.33635026
-0.5346945
-0.33969265
-0.52616394
-0.4620186
-0.44172922
-0.32013914
-0.27326068
-0.40415305
-0.118300125
-0.025364215
-0.032918796
-0.12941717
-0.11941509
-0.074278094
-0.12243518
-0.11890431
-0.15712735
-0.10085151
-0.45466056
-0.47169352
-0.56215715
-0.45898524
-0.2810369
-0.35395244
-0.27925098
-0.49192968
-0.41026756
-0.7188693
-0.67246574
-0.57748574
-0.6036117
-0.6209436
-0.755802
-0.53252554
-0.68967634
-0.88945305
-0.61096674
-0.6184213
-0.64653176
-0.46755493
-0.5267591
-0.5228429
-0.5590511
-0.45216218
-0.26728782
0.07283355
-0.38390487
-0.30915982
-0.03419941
-0.17262033
-0.12809712
0.1515925
0.1989598
0.016197294
0.42396572
0.14280805
0.048826158
0.26889074
0.33494022
0.23009427
-0.18113571
-0.18606725
-0.0035698176
-0.17387119
0.33341455
0.09722628
0.10100613
0.2892705
0.2358962
0.25738803
0.033626538
-0.017249864
0.049524564
0.07894179
-0.30291018
-0.05137434
-0.1640046
0.039057717
0.26254657
0.18621476
-0.11087545
0.008025183
0.16528246
0.29788658
-0.041672304
0.4538503
0.02377193
0.1805472
0.12609364
0.155524
-0.052563194
-0.31899163
-0.031270538
0.015976366
0.16039951
0.28290507
0.27596888
0.23529643
-0.032795567
-0.14938372
-0.08438651
-0.03324874
-0.07270622
0.08793244
0.21522303
-0.1964537
-0.15811582
0.25507027
0.11338941
0.18689404
0.18981206
0.2048088
0.06155261
0.3881496
0.1333516
0.025614131
0.20418598
-0.043505892
0.0066879955
-0.31653178
0.3051799
0.26831803
0.3292603
0.45705554
0.37464762
0.25362912
-0.0034479506
-0.104269475
-0.11125825
-0.03335865
0.100261904
0.022452451
0.090315945
-0.38478655
-0.34434706
-0.0723247
-0.24842766
0.2542289
0.060641803
-0.12034759
-0.40380204
0.23574959
0.109418765
-0.3286851
0.14489737
0.10734994
0.001069646
0.15270598
0.2683927
0.10547739
0.06958487
0.20380798
0.15033108
0.07283776
-0.14159364
-0.13051532
-0.09205691
-0.06971893
-0.065313704
-0.08015226
-0.33832258
-0.4554382
-0.34104502
0.06375188
-0.28362033
0.03057583
0.012748044
-0.21583863
-0.2857187
0.028344145
-0.19857502
-0.013679895
0.18698753
-0.17117564
-0.030104415
0.062228214
0.20025599
0.055885866
0.0050947512
0.075529076
0.14294131
0.07792158
-0.21058354
-0.17848888
0.14666764
0.0027872222
-0.15699631
-0.20765276
-0.065194555
-0.19244555
0.09074309
0.25568926
-0.24707639
-0.15158169
-0.08917368
-0.11516856
-0.022711579
0.07543567
-0.061150912
0.042111292
0.3442656
-0.15199111
0.010316334
0.1818302
0.14648202
0.098416634
-0.02668883
0.0634457
0.04515154
-0.010513326
-0.1736648
-0.10720517
-0.015537692
-0.19470271
-0.3866389
-0.38173681
-0.03184147
-0.44464794
-0.099835254
-0.31579196
-0.40597898
-0.32143262
-0.098935135
-0.07021159
-0.042811874
-0.052588288
0.07134401
0.045147963
0.44375575
0.32399067
0.2521648
0.1949539
0.037140083
-0.13651304
-0.017342072
0.22244287
0.058727313
0.035176124
-0.10159711
-0.027645696
-0.030218
0.036424343
-0.25665703
-0.02305489
-0.040274765
-0.1772838
-0.25262833
0.12784415
0.043909363
0.053961083
0.29340062
0.3004709
0.2621738
-0.01625062
-0.0064835018
0.02952779
0.30480084
0.56397974
0.2528545
0.40483162
0.16260043
-0.12565245
0.019932188
0.28366363
0.036367647
-0.13817498
-0.12187225
-0.017177224
0.0034866352
-0.17754693
-0.2994533
-0.13736069
-0.124929115
0.08375488
-0.3764265
-0.16561453
0.007809086
0.015863225
0.13012162
0.17633353
0.08701819
-0.31653604
-0.16482238
3.0665076E-5
0.14062135
0.404934
0.20314585
0.10731423
0.018957548
-0.5762033
-0.17637174
0.15761204
0.12893835
-0.15806985
-0.19123529
-5.507484E-4
0.11783865
-0.038825996
-0.0064989645
-0.11493781
-0.1029978
0.05735401
-0.10016797
0.027102957
-0.11820429
-0.15463647
-0.24906543
-0.06455448
-0.09694313
0.041645467
0.008016025
0.2587984
0.24027878
0.32385853
0.20847285
0.16140127
0.07970474
-0.31560928
-0.118692346
-0.15842754
-0.15400882
-0.24730475
-0.04886121
0.10200118
-0.07576806
0.040063005
-0.27230757
-0.21657687
-0.25183004
-0.11671321
-0.06741935
-0.20107947
0.02668626
-0.07054879
-0.10349536
-0.08210272
-0.053236995
0.24071233
0.09414006
0.08373676
0.0017332499
0.073789656
0.03985184
-0.34431413
-0.038319737
-0.25323352
-0.030904673
0.018903367
-0.12503065
-0.15613411
-0.15845457
0.029947411
-0.17350924
-0.15329903
-0.08614252
0.0779817
0.23352747
0.028942442
0.1770631
0.03817716
0.14968227
0.15678598
0.16486718
0.19358674
0.1315376
0.15313333
0.024627062
0.023666527
0.084328175
-0.0576682
0.020299714
-0.14519002
-0.0670132
-0.21883354
-0.24260683
-0.12873358
-0.09334016
-0.15041578
-0.14925532
-0.08963246
-0.25397384
-0.24923171
-0.2881009
-0.12915018
-0.12152115
-0.26422593
-0.072564386
0.17220367
0.16440417
0.069957644
0.08250336
0.27957094
0.09774939
0.11051688
-0.1411014
0.061507914
0.10901289
-0.048751984
-0.115492895
0.38980937
0.174538
-0.26704523
-0.2814751
0.074318856
-0.05495115
-0.16405064
-0.21885638
-0.09966588
0.01663009
0.33853045
0.12386188
0.06444945
-0.02189654
-0.19811304
0.16513377
0.416842
0.2540956
0.08194443
0.014782748
0.122132614
0.05916199
0.007610793
0.043629758
0.30200008
0.07389596
-0.30660245
-0.023962354
0.10975596
0.0788781
0.014022348
-0.1591661
-0.07960713
-0.07015631
-0.17250817
-0.25276786
0.002046633
0.1851662
0.50583327
0.0667571
0.01843215
0.10460916
0.15966563
0.25623342
0.50324637
0.36227152
0.14166977
0.05897692
0.016919408
-0.030419428
0.066237114
-0.031878125
0.06463352
-0.15591195
-0.15195401
0.22974646
0.2332844
-0.020337876
0.016656714
0.051333427
-0.04012055
0.10812194
-0.039383065
-0.0078010564
0.0018627458
0.21944793
0.5382527
0.16546556
0.12946007
0.20492522
0.021616304
0.19947109
0.046380598
0.028555034
0.014944028
0.364784
0.3833216
0.12357642
0.30702034
0.3151561
0.3061035
0.21984002
0.14064182
0.14761451
0.43409926
-0.034198064
0.23140194
0.25259227
0.05022212
0.09326873
0.03697147
0.09154465
0.031840924
0.033768285
-0.013845397
-0.006464538
0.14630303
0.17693473
-0.080278546
-0.06930538
0.14875971
-0.04786678
-0.10160002
0.23731947
0.039362118
0.20947316
0.2417976
0.003563276
-0.06533037
-0.23609972
-0.3852382
-0.2249155
-0.19618274
-0.056272127
-0.06854287
0.012707754
-0.09712085
0.07718309
0.073666796
0.09056823
-0.014797669
0.076623045
-0.05191953
0.10750792
0.07153874
0.2636314
0.09934313
0.20046665
0.07189205
-0.14025679
-0.23697118
0.08176777
-0.08813088
-0.13116083
-0.006779208
-0.37316865
-0.31213024
-0.3308723
-0.33655074
-0.18537617
-0.19946867
-0.090006866
-0.19223894
-0.25772038
-0.34527436
3.5572148E-4
0.038157683
-0.027650837
0.66976273
0.61227715
0.6279719
0.46712884
0.43740672
0.345184
0.20827822
0.09218284
-0.06604941
-0.21579431
-0.15394399
-0.21265747
-0.35764825
-0.6503836
-0.39382696
-0.44847
-0.33309257
-0.58698666
-0.7465963
-0.39084202
-0.15156442
0.08311699
-0.04951493
0.309049
0.47945118
0.13378814
0.48290533
0.5916946
0.64931285
0.63869065
0.69622093
0.5552614
0.42799923
0.32317019
0.3546614
0.14254129
0.15139131
-0.06431499
0.28463256
0.24680115
0.095287435
-0.09891704
0.36190778
0.4179862
0.25641552
0.049671564
-0.41442603
-0.19664004
-0.17883395
-0.11179515
-0.28111526
-0.28506905
-0.19628921
-0.51955724
0.09229223
0.31708384
0.48035607
0.43098563
0.50203866
0.226427
0.28821364
0.25780156
0.40495437
0.14683715
-0.16969018
-0.12520017
-0.18874884
-0.05138423
-0.043254852
-0.20830172
0.2667928
0.09912928
-0.2548276
-0.14374709
-0.37730214
-0.26906702
-0.01368815
-0.028168345
-0.30097944
-0.4663456
-0.26797026
-0.36525643
-0.07204654
-0.036474515
0.19297515
0.16313219
0.11415303
-0.16976921
-0.019280292
-0.02276367
-0.35338163
-0.61617136
-0.35605937
-0.24402116
-0.1654044
0.24538384
-0.020538379
0.19379437
0.0902804
0.3681951
-0.17413044
-0.47130105
-1.0742981
-0.96066546
-0.63413477
-0.30855882
-0.3020225
-0.41810825
-0.37532696
-0.020112809
0.048931032
-0.0958492
0.12968864
0.22522113
0.184967
0.095117256
0.25620297
0.17839645
-0.02136541
-0.25795084
-0.21262814
-0.04612631
0.10651047
0.06468769
0.064133
-0.13207687
-0.41699702
-0.26713082
-0.20668165
-0.11831584
-0.49638283
-0.30572665
-0.33469132
-0.07254625
-0.5182896
-0.43681458
-0.23674688
0.036327574
-0.33422935
-0.42823547
0.12677701
0.25644538
0.3033434
0.19279757
0.3996646
0.39000618
0.44859657
0.32730624
-0.1497866
0.101118326
0.28676727
0.044919793
0.01760102
-0.32133755
0.09481488
-0.04647504
0.040438525
-0.0731492
-0.2312144
-0.43487442
-0.31322557
-0.21468586
0.010610182
-0.16402717
-0.5936465
-0.3870837
-0.28785282
-0.3499892
0.3273965
0.40350914
0.23031984
-0.16111009
-0.16566318
-0.12626523
-0.07398562
0.24733713
-0.063616395
0.3477703
0.3265562
-0.34082437
0.0526483
-0.40037662
-0.029366674
-0.4356784
-0.06991677
-0.24199447
-0.5839878
-0.5689739
-0.42962912
-0.710675
-0.4354054
-0.582043
-0.52602774
-0.20443666
-0.53321844
-0.84649587
0.008239328
0.22345588
0.08424433
-0.16595808
-0.08160051
-0.06473313
0.29876512
0.48162517
0.08589911
0.16552885
0.09497733
-0.2818352
-0.10336165
-0.21743691
0.0102357045
-0.5323068
-0.24060607
0.07590231
-0.37671706
-0.44443667
-0.4948702
-0.66655004
-0.6392815
-1.181782
-0.89674145
-0.6744131
-0.7728519
-1.0536462
-0.15710263
0.020719798
0.043770213
0.121651664
0.40355533
0.45598665
0.44678658
0.47477
0.4368244
0.5368161
0.3699597
0.37011707
0.43122366
0.1268981
0.0068446104
0.021438956
0.38416693
0.438883
0.4154063
0.26456052
-0.33820134
-0.7891765
-0.96734124
-1.1178501
-0.5639802
-0.4637741
-0.40389714
-0.6741946
0.0034393799
0.10168987
0.20516512
-0.1890089
-0.19899045
-0.17652753
-0.17950165
-0.17841202
0.22155401
-0.09190348
-0.2542914
0.46397468
0.14544797
-0.23994613
-0.012608554
-0.07713754
0.6081169
0.9728478
0.979583
0.6126219
0.55103457
0.19197963
-0.45529908
-0.6320928
-0.37245366
-0.49133152
-0.35028598
-0.68493044
0.04815536
0.0015548136
0.04568001
0.015807647
0.17900959
0.1063638
0.1900223
0.16758777
0.117290676
-0.8802902
-0.3689983
0.06445851
0.19868523
0.3283819
0.32972494
0.06558255
0.54444367
0.6143011
0.48030818
0.13731357
-0.15398979
-0.29501167
-0.4857944
-0.66902614
-0.40696815
-0.30223715
-0.22921649
-0.65139806
0.18144725
0.13430923
-0.05267626
-0.14531444
-0.22341393
-0.13041672
-0.02110524
-0.5402441
-0.38059962
-0.27615136
-0.20957609
-0.07822652
-0.2177846
0.06361624
0.3209998
0.34624875
0.6088122
0.5119865
0.5207178
0.09166005
0.04132958
-0.07838104
-0.02752407
-0.14367387
-0.34007806
-0.2567364
-0.25209755
-0.9340031
-0.069682054
-0.2061127
-0.2771374
-0.024231311
-0.4449396
-0.29163292
0.14547333
0.018036306
-0.114062265
-0.48998845
-0.5385397
-0.23601453
-0.04320016
0.4994541
0.604253
0.6243138
0.8655744
1.020478
1.3102988
0.7348028
0.35664725
0.08635562
0.08904345
-0.29088998
-0.8573375
-0.7677061
-0.6672803
-1.0557884
-0.33278528
-0.18142475
-0.12311962
-0.057656463
-0.45902196
-0.22512496
-0.30528137
-0.07560277
-0.3000952
-0.24532434
-0.46455824
-0.46550816
0.056310583
0.32589653
0.41202056
0.55839396
0.70718795
0.79473263
0.7848161
0.26914057
0.0025199172
-0.17401463
0.053002626
-0.2866888
-0.72767836
-0.65876794
-0.5380135
-0.8122018
-0.3762786
-0.11562048
-0.14516337
-0.10550041
-0.10547884
-0.08155469
-0.3285376
-0.14859076
-0.63936275
-0.35956663
-0.30415463
-0.01112156
-0.045519415
0.035309266
0.37958145
0.5782877
0.93899155
0.71734655
0.5172516
0.26504746
0.0765815
0.0056576473
-0.3899191
-0.4481172
-0.58454376
-0.25216645
-0.37346533
-0.38502404
-0.30443767
-0.06437965
-0.03780811
-0.39557555
-0.6442967
-0.6025909
-0.56692004
-0.32698795
-0.4382526
0.31825352
0.49781284
0.4704825
0.56705135
0.8131906
1.0875942
1.1511662
0.9011735
0.7924409
0.63546014
0.48491448
0.20169513
-0.070882335
-0.55958664
-0.7243544
-0.62098837
-0.08613953
-0.29146937
-0.32122058
-0.36807725
0.0073102247
-0.3278099
-0.94875336
-1.4375765
-0.4326993
-0.36596626
-0.35050127
-0.78415334
-0.33440512
0.12193737
0.21950218
0.6460009
1.2005606
1.1300441
0.88107204
0.45067453
0.4893191
0.23992267
0.13509324
0.16940482
-0.029093416
-0.39833984
-0.67900044
-0.468468
0.20317543
-0.18303232
-0.23857506
-0.73021686
-0.31533322
-0.45800903
-0.8265934
-0.84222764
-0.56905174
-0.7527593
-0.6569878
-0.40746313
0.35773316
0.7901279
0.2761979
0.565247
0.8969782
0.77018714
0.549344
0.49169248
0.24195446
-0.22720906
-0.2089492
-0.2947229
0.32342222
-0.19782618
-0.27708265
-0.2952927
-0.14059266
-0.42922744
-0.52479845
-0.9175381
-0.44666496
-0.5761356
-0.6882645
-0.83143485
-0.5207281
-0.43713862
-0.34082893
-0.09815626
0.36141068
0.8424485
0.49108306
0.99113214
1.1632692
0.96284306
0.5406325
0.41352305
0.022840464
-0.3054161
-0.29873353
-0.406574
-0.12305052
-0.12675199
-0.25610867
-0.24546464
-0.2710971
-0.49684367
-0.5087844
-0.8403055
-0.35290265
-0.3122515
-0.31092593
-0.66802275
-0.5911493
-0.45622322
-0.44566536
-0.015806014
0.27512568
0.8053232
0.64734346
0.7918232
0.81622815
0.66392255
0.18758471
0.23350903
0.054787017
-0.4928973
0.32102066
-0.14075676
-0.0686866
-0.00886806
0.34725368
0.20086744
0.123782985
0.17555787
0.103821695
-0.97735184
-0.63131696
-0.18581061
-0.22280972
-0.10994232
-0.69385916
-0.51970255
-0.26875848
-0.09149216
0.49385166
0.7619133
0.7711328
0.53624797
0.31724295
-0.02079297
0.09775093
0.13216846
-0.041846793
-0.5846432
0.10490794
-0.13831353
0.08645926
0.14804181
-0.14704776
0.07921932
0.29463336
0.4516052
0.34727222
-0.42109048
-0.23013294
-0.26198113
-0.25817597
0.19829078
-0.11860409
0.2447539
0.25038427
0.19460608
0.98022234
0.9852343
0.5780174
0.46635485
0.39939976
0.22216514
-0.16309497
0.016107451
-0.37617585
-0.5168694
0.11384572
0.14834133
-0.23141976
-0.008040908
-0.08104636
-0.021175995
0.22204341
0.46390563
0.419577
-0.27238816
-0.2163528
-0.082990944
-0.068542406
0.12493216
-0.09233034
0.013740045
-0.0013633003
-0.13779236
0.48201373
0.3272681
0.09087146
0.020505017
-0.024713987
0.3367032
0.1957958
0.47725767
0.11630526
-0.12480832
0.37626997
0.47684658
0.21538448
0.3617756
0.18622236
0.45948476
0.49556062
0.6277813
0.6286709
0.052405365
-0.6022936
0.048865363
-0.05510519
-0.47891122
-0.15057074
0.03349012
-0.57184035
-0.71249586
-0.41779298
-0.4424515
-0.11865096
-0.0018766461
0.36059898
0.6863802
0.6556133
0.700493
0.9650921
0.7510432
0.51598775
0.5173038
0.59569985
0.6389116
0.47822887
0.5931795
0.63604116
0.76805353
0.73889863
0.062838115
-0.5629223
0.06421001
-0.15458307
-0.3621875
0.020771472
0.26129043
6.2024454E-4
-0.11228383
-0.17961368
-0.45749968
-0.22266364
-0.21235746
-0.27539882
-0.28222317
-0.4296494
-0.46894795
0.038752496
0.07326182
-0.5106162
-0.16983415
-0.02349836
-0.24098551
-0.016207742
0.2126875
0.3504363
0.4565294
0.5190656
-0.13278534
-0.75067794
-0.63875294
-0.22615488
-0.33937767
-0.29969597
-0.23749669
0.06404948
0.1702939
0.039421797
0.1969656
0.31379595
0.5719938
0.6617182
0.30017626
0.46473986
0.21514997
0.38302237
0.113762826
0.3218625
0.16782466
0.0023531925
0.19177577
0.3306477
0.4488417
0.68822956
0.7565738
0.7495183
0.37096637
0.1482393
-0.3457282
-0.395458
-0.43201935
-0.37359086
-0.8274447
-0.6175937
-0.3531031
-0.34007195
-0.17311418
-0.28519014
0.06675038
0.1094877
0.13024712
0.5440439
0.04607161
0.36310333
0.35121778
0.46952403
0.60631365
0.8757622
0.77974445
0.85357153
0.91378385
0.80609024
0.8481182
0.8134113
0.35008988
0.12911122
0.058354717
-0.07642523
-0.271305
-0.45736173
-1.1636168
-0.7360502
-0.8991941
-0.8960469
-0.81428176
-0.8013293
-0.59599674
-0.36853492
-0.32865524
0.065234154
-0.26116806
0.1486087
0.24204466
0.3286205
0.37397584
0.75898546
0.70797056
0.7924654
0.8470762
0.69250184
0.7395581
0.69343954
0.7290406
-0.2810636
-0.36857146
-0.15541339
-0.24810006
-0.18266705
-0.47389188
-0.338109
-0.2083351
1.1331627
1.0742258
1.5024229
1.7613713
2.4121265
2.2428763
3.2113361
2.0578752
2.7267027
2.9109678
2.810226
2.6660125
2.5905309
1.6706225
1.022117
0.2704538
-0.092234395
-0.38801885
-0.59340364
-0.6455922
-0.24439047
-0.3381938
-0.12191112
-0.28492507
-0.117048755
-0.19166327
0.022104422
-0.035533514
0.76137185
0.3699014
0.53821003
0.16260971
0.6192064
0.8918915
1.2429025
-0.05896049
0.16068868
0.46639484
0.36242154
0.95680493
0.43267807
-0.19562602
-0.04211229
-0.006879446
0.12010517
0.030425774
-0.41817415
-0.31990075
-0.3018893
-0.38067538
-0.3617194
-0.5264567
-0.55060697
-0.19927399
0.33219752
-0.021693876
0.33178705
-0.348482
0.10746894
0.010384514
0.23473327
0.21817511
1.1628476
-0.040809598
0.066329785
0.22442956
0.5906509
0.48749003
0.24231233
-0.17784746
0.07644161
0.24677144
0.37026656
0.1117136
-0.12477434
-0.08842285
-0.022223646
-0.008727376
-0.10840314
-0.16140716
0.08854417
-0.27038977
0.26561806
0.23170125
0.8990917
0.76769584
1.5385163
1.2487928
2.349019
2.4663808
2.9540646
2.2477043
1.942917
1.1003468
1.0931817
0.99591815
0.43206114
0.61208904
0.23637986
0.22469464
0.44746244
0.22163022
0.03027105
0.17898798
-0.008638647
0.005363684
-0.06706028
-0.019585107
-0.004010773
-0.48288736
-0.3882884
-0.43073642
-0.38731152
-0.14345524
0.17167489
-0.05007247
0.72110987
0.25690085
1.321001
0.4871268
-0.0067236144
-0.58746004
-0.5071756
-0.31847647
-0.42711908
-0.056028154
0.21333075
0.020031108
0.22097151
-0.19290307
0.18104303
0.557308
0.20275423
0.046330202
-0.14589497
0.029595274
-0.19284941
-0.17814912
-0.5892403
-0.14157097
-0.073430255
-1.3913674
-0.066722296
-0.24613225
0.10896017
0.42234454
0.2997711
-0.55677116
-0.51798075
-0.40115952
0.00394475
-0.6069968
-0.8439058
-1.043313
-0.9230504
-0.62742245
-0.3617428
0.0162846
0.045492005
0.22557844
0.22879536
0.08036312
0.16166858
0.011848273
-0.3563883
-0.5896701
-0.08253742
0.12546058
0.021273399
-0.6828281
0.2632964
0.24557903
0.037735123
0.45097536
0.7542223
-0.31078124
0.19281213
0.600422
-0.14996275
-0.007870133
0.3676119
0.057714112
0.07957663
-0.2196456
-0.18549226
0.5485334
0.48302191
0.44451195
0.46016228
0.2466301
0.005839847
0.13067868
-0.17162816
-0.62059003
-0.72614205
-0.6486285
-0.4324176
-0.6263831
0.24136521
0.023242313
-0.25666946
0.4673068
0.35329592
-0.5410466
-0.24449563
-0.15910812
-1.0633696
-0.8924678
-0.16589758
0.12656938
-0.4702005
-0.089747384
0.10545625
0.51398224
0.33324987
0.27852347
0.5511983
0.31677777
0.0439043
-0.0991326
-0.20018399
-0.25591245
-0.751965
-0.1821637
-0.18537745
-0.70407975
-0.99068844
-0.94613737
-0.9363119
-0.42126533
-0.018481806
-0.2717616
-0.11360317
-0.2540714
-0.48257884
-0.38809568
0.100970104
0.29869252
0.26256585
0.08610084
-0.38962984
-0.17032696
-0.018401958
0.07466882
0.1092755
-0.3412852
-0.45740953
0.12591542
-0.5177059
-0.82890534
-0.66656834
-1.0628871
-1.1963403
-1.4007361
-1.2510972
-0.8442632
-0.74603385
0.19014926
0.81551826
0.55357695
0.35380623
-0.04017624
0.13805379
0.523258
0.12784533
-0.038958974
0.41727865
0.8581004
0.48596698
0.62385285
0.54607207
0.69281244
0.3005235
-0.20701931
-0.36305684
-0.36981422
-0.4952851
-0.6048528
-0.22124402
-0.8360321
-0.29220098
-0.22714095
-0.32737365
-0.20523527
-0.1770487
0.46738952
0.42863578
0.037560757
0.25077862
-0.02879781
0.21424334
0.36453354
0.051826954
-0.02222546
-0.6032068
0.10508923
0.14764486
0.2394505
0.1397764
0.18409212
-0.367332
-0.7584793
-0.7084505
-0.8382518
-0.3363403
-0.25097102
-0.78724474
-1.0243727
-0.9458227
-0.82248527
-0.734787
-0.23630919
0.10248116
0.19097948
-0.33771878
-0.6066357
0.7975977
0.35768554
-0.4985333
-0.3501876
-0.4031474
0.39891505
-0.15182519
-0.05332517
-0.22056055
0.24698153
-0.10469956
0.17464931
-0.21562967
-0.62943023
-0.7453961
-0.64917165
-0.25965083
-0.76163304
-1.3041033
-1.1317598
-0.6749247
-0.6467617
-0.4396344
-0.18390106
-0.29420298
-0.28392422
0.04608647
-0.108481266
0.28621474
0.2270657
-0.5238291
-0.6081786
-0.3639362
-0.39599395
-0.9666775
-0.6730774
-0.39624918
-0.36473706
-0.5935106
-0.0994261
-0.25601617
-0.5769571
-0.22985259
0.06813411
-0.04791976
-0.29221025
-0.3831909
-0.15352495
0.06618687
-0.16395414
0.021041987
-0.17430924
-0.2484192
0.003893068
0.279489
-0.28549623
0.20504035
0.087159835
-0.5437619
-0.20246932
0.3421926
-0.6276303
-0.6955729
-0.056785528
0.16251904
0.06675252
0.25384104
0.39570728
-0.18851909
-0.66173255
-0.6971846
0.005288259
-0.036378264
-0.16906634
-0.021512704
-0.66012686
-0.5088548
-0.40693885
-0.03448884
0.32255727
0.45797417
0.26927125
-0.16932045
-0.11964717
-0.23271778
0.13714848
-0.022648439
-0.2774313
-0.07218559
0.15776528
0.066940464
-0.23971802
-0.20704848
-0.054763798
-0.0069370307
0.11669713
-0.24775268
-0.81051326
-0.53772116
-0.09482939
-0.7275127
-0.7031294
-0.27494743
-0.6235982
-0.42020795
-0.40371507
-0.32342613
-0.3208391
-0.73965776
-0.74002457
-0.7293597
-0.7839836
-1.0195751
-0.6891126
-0.5137741
-0.276121
-0.23482168
-0.51775885
-0.7410177
-0.9117141
-0.88329285
-0.50899756
-0.48457596
-0.073234916
-0.4793817
-0.21981734
-0.09074475
-0.16168715
-0.16722235
-0.87060803
-0.49354956
-0.2552147
-0.23512036
-0.05811612
0.24594538
0.015730118
-0.38451567
-0.14871162
0.14146984
0.15419088
0.0777409
0.1253608
0.21590799
0.05346629
0.07553288
0.4522392
0.6289353
0.44132388
0.51791054
0.61711574
0.9116713
1.1189133
0.5293163
0.37326285
0.3127614
0.11276807
0.28763077
0.21783903
0.47581467
0.06990509
0.11697912
-0.20346797
-0.09862306
0.05719396
-0.81392795
-0.60869443
0.010455084
-0.082675554
-0.1572589
-0.09222378
-0.11252929
-0.030476876
0.24437547
0.46612632
0.52092636
0.50886357
0.74277943
0.38562113
0.5092506
0.70726913
-0.008253225
-0.39617336
-0.60141677
-0.48618785
-0.62411445
-0.54966545
-0.22208174
-0.6786002
-0.0532914
-0.26190215
-0.6537678
-0.5206046
-0.90634185
-0.8986644
-0.2702178
-0.56293
-0.39701065
-0.41658235
-0.6325385
-0.5979965
-0.5888807
-0.19754995
-0.15975122
-0.103447
-0.31712106
-0.21667098
-0.20750217
-0.123427026
-0.1333929
-0.49685836
-0.48943204
-0.4840778
-0.4203971
0.053487163
-0.39467555
-0.31739414
-0.11590369
-0.27173078
0.014057486
-0.28133145
-0.38744813
-0.38938433
-0.36385122
-0.39125767
-0.45374438
-0.43539077
0.12988037
0.09975099
0.014484109
-0.105429284
-0.081575714
-0.12404023
-0.07806617
0.14370732
-0.08061293
0.0017496751
0.10308427
-0.16449681
-0.4543748
-0.31151855
-0.08644515
0.12978278
-0.046904452
-0.4607836
-0.40323728
-0.49010432
-1.1292303
-0.25256962
-0.54957336
-0.24216789
-0.28985974
-0.21025515
-0.25941855
-0.21139248
0.17623293
0.18526454
0.22646098
0.40854156
0.275761
0.34467608
0.1867044
0.16647473
-0.21428317
-0.26145345
0.05981945
-0.14175248
-0.4189271
-0.17875977
-0.5904493
-0.52914643
-0.55927163
-0.50197786
-0.8036141
-0.79759514
-1.2066952
-0.4341092
-0.433217
-0.20715953
-0.5036318
-0.40064338
-0.36646438
-0.06023844
-0.3753931
-0.07106404
-0.05957606
-0.04521018
-0.005305952
0.19414984
0.1927818
0.028694324
-0.16215588
-0.114651494
0.35262048
0.23789321
0.012356269
-0.23300013
-0.20579517
-0.102927625
0.112110816
-0.048239294
0.107375525
-0.045510992
-0.10491619
0.2747776
0.08626463
-0.45417222
0.13991123
0.29168126
-0.13686529
-0.08137625
-0.21192524
-0.09024206
0.27259788
-0.4816617
-0.30544612
0.25013846
0.19859356
0.19394092
-0.080904
-0.042861752
0.38505727
0.38344947
0.18537807
-0.014902693
-0.12118292
0.255695
9.0604025E-4
0.28715944
0.31469846
0.27667493
0.21504025
0.3895291
0.06847828
-0.016336411
0.24654005
0.25544554
-0.112947136
-0.007910678
0.02913484
0.2699156
0.09487034
-0.23896123
-0.1358551
0.04538452
0.74273545
0.48322332
0.14271961
0.27111688
0.40778646
0.3006793
0.2065519
0.21697287
0.34424433
0.21374944
0.5850034
0.44563875
0.20225273
0.3332327
0.879674
1.1398549
0.4369024
0.6338585
1.063704
1.004128
0.62859714
0.28824714
0.56567955
0.57610404
0.8503538
0.33233833
0.13053483
0.17706682
0.058292635
-0.012586831
-0.022009207
0.22361515
0.10726974
0.26434344
0.19319707
0.47853294
0.71169436
0.38554442
0.6640396
0.43282217
0.22436021
0.20803365
0.6230407
0.29613525
-0.20434114
0.10594251
0.3113476
0.2343227
0.26934877
0.10921612
0.16853769
-0.030204352
0.2929632
-0.32695943
-0.28560978
-0.22553708
-0.29273096
-0.040526375
-0.040030405
0.20046847
-0.27742398
-0.29815307
0.13190581
0.4222348
0.40716383
0.30953503
0.17863888
0.4092795
0.5183195
0.1891436
0.25081202
0.36450756
0.06489879
0.41873476
0.86265373
0.26705694
0.20284599
-0.14386177
0.10341743
0.3670138
0.11328442
0.076400734
-0.26519176
-0.29908532
-0.7299
-0.39011106
-0.25232536
-0.031047966
-0.35532388
-0.39010322
0.07461329
0.366017
0.35909805
0.59617853
0.21743318
0.8876499
1.425303
1.2399493
0.92852336
0.91100466
0.1457496
0.32559523
0.87266195
0.11804334
0.73009795
0.10355694
0.112329215
0.09620924
0.41332048
0.5003234
0.1879321
-0.06547982
0.05162297
-0.0074418895
-0.20007077
-0.30549622
-0.31774408
-0.6551966
-0.7761621
-0.6022474
-0.5292204
0.033393104
-0.011673224
0.43856636
0.14457884
0.031158466
-0.11162292
0.13046876
0.09595835
0.7484507
0.48167446
0.64113945
0.8941696
0.6470505
0.19898172
0.29666388
-0.36629635
-0.4630373
-0.4428027
0.12053257
-0.077219844
-0.33156112
-0.2665978
-0.6390034
-0.9455999
-0.5861734
-0.59678656
-0.34505713
-0.24515502
0.26380453
0.2500309
0.59291434
0.51647735
0.30435148
0.026106913
-0.11006419
-0.31702533
0.1724387
-0.56387144
-0.57660216
-0.09630328
-0.46767676
-0.9446088
-0.38544503
-0.9022915
-0.72893
-0.19593188
-0.47992316
-0.27083522
-0.02031719
-0.37211227
-0.6985708
-0.8830265
-0.6122179
-0.6328933
-0.22391687
-0.20735063
0.06289272
0.20965551
0.12912546
-0.03927386
0.2185112
0.16878115
0.27071548
-0.2423551
-0.130477
-0.20965602
-0.35565758
0.14016151
-0.10088513
-0.33040497
-0.53006446
-0.87012047
-0.7289984
-0.2735275
0.28877673
0.12399517
-0.07687136
-0.10801419
0.069263466
-0.24636601
-0.119690016
-0.1473377
-0.09222585
-0.12592962
-0.12563005
0.1680361
0.40865773
0.16609636
0.72319835
1.1886182
0.5904826
0.46192884
1.0004325
0.364429
0.29791412
0.7211742
0.18695295
-0.34643734
-0.110912815
0.10092808
-0.1678362
0.043483026
0.2556997
0.4450571
0.5488049
0.2135975
0.38498345
-0.030384956
-0.045944553
-0.14919911
0.0032358526
-0.15062477
-0.22868721
0.1296068
0.19383986
0.19499874
0.032871045
0.22271793
0.43365684
0.5935642
0.8531781
0.4012188
0.1676816
0.30287477
-0.7221603
-0.9193587
-0.113034554
-0.07963655
0.2258044
-0.09894662
0.13412856
0.58876675
0.8694445
0.42602327
0.48152623
0.2860468
0.014020643
0.08525301
-0.022916341
0.07487449
-0.51723236
0.008927918
0.10877456
0.09205581
0.17192134
0.4076256
0.92332774
1.094187
0.79707557
0.3765018
-0.45930427
-0.74635345
-0.756647
-0.6771298
-0.11013526
-0.48521152
-0.29750478
0.4279188
0.052939963
0.33017153
0.6183371
0.2907375
0.43677965
0.37640163
0.21486495
0.10400865
-0.3073978
-0.103135765
-0.09490405
0.45919415
0.77848774
0.8575321
1.0444959
1.5988014
1.3396446
1.7128559
1.5174876
0.5905045
-0.27598396
-0.2157635
-0.60890526
-1.1712588
-0.42030904
-0.5311787
-0.10128504
0.6233375
0.9436504
0.80531013
0.7833062
0.6657835
0.79156786
0.80089086
0.36913964
0.2612251
-0.23727128
0.083432965
0.17414925
0.31089714
0.3001903
0.60649645
0.7349255
0.95543194
0.84374595
0.9988544
1.1121103
0.20395796
-0.46423116
-0.6574359
-0.79559356
-0.67446655
-0.13136093
-0.7371714
-0.3782482
0.054380465
0.50835824
0.26592237
0.4186009
0.35552806
0.30441105
0.4295992
0.15939423
0.14895357
-0.1143585
0.19501351
0.12528378
0.37605113
0.25484228
0.23589107
0.3956472
0.62798285
0.28398678
0.76659125
0.5372849
-0.620367
-0.8754108
-0.5753902
-0.52963156
-0.86762315
-0.5412029
-0.70255035
-0.63325375
-0.48186618
0.08403962
0.05698409
0.13540646
-0.10298387
-0.10841112
0.02655018
-0.19667672
-0.10381007
-0.11646683
0.36436954
0.33665547
0.8449952
1.1671693
0.9955911
0.8569318
1.2682393
0.7500867
0.7459216
0.6093114
-0.20377007
-0.38340715
-0.38336447
-0.9381838
-0.47585663
-0.20424463
-0.06407146
0.28432792
0.16672677
0.28704304
0.16531366
0.10300449
-0.20925225
-0.34198165
-0.12048227
-0.06839309
0.006492623
-0.089067236
0.3266332
0.37851596
0.6673466
0.5611697
0.3178156
0.43015218
0.48862356
-0.26712465
-0.29854012
-0.65925896
-1.1916605
-0.95540684
-0.4224606
-1.2605343
-0.60205823
-0.522079
-0.49909416
-0.26764444
-0.0022895702
-0.23224398
-0.1254264
0.23005797
-0.327607
-0.6326588
-0.5400916
-0.37849352
-0.09539383
-0.17052239
0.027208127
0.0379183
-0.09448582
0.81027246
0.9921891
0.5407829
0.8546348
0.54654235
0.049370475
0.24002558
-0.017615715
-0.022255482
-0.26628858
-0.94493514
-0.7329978
-0.95059264
-0.9791966
-0.5014721
-0.049627364
0.034382023
-0.04422522
0.17418954
-0.3013844
-0.63152915
-0.70642316
-0.52602583
-0.22512266
-0.20003118
0.14458701
0.38145015
0.18662904
0.67016447
0.64362586
0.29855353
0.38402647
-0.03337376
-0.122129515
-0.3135657
-0.79795706
-0.49798176
-0.06512882
-0.85343546
-0.70251554
-0.44244802
-0.23558412
0.08617487
0.42418975
0.44501647
0.29274958
0.42573804
0.16640303
-0.23135352
-0.3125202
-0.34544846
-0.33703074
-0.5065606
-0.06628601
0.3063336
0.20756873
0.18494804
0.049038444
-0.073379226
0.2866165
0.104597
-0.3926217
-0.5778161
-0.41633427
-0.019460917
-0.3282181
-0.66838706
-0.64434606
-0.6698087
-0.3849938
0.33253297
0.23385514
0.27896035
-0.1677459
-0.15818273
-0.4319634
-0.70001227
-0.6484987
-0.5368958
-0.5909309
-0.37830475
-0.05290455
-0.009891281
0.2716918
0.49285543
0.32764557
-0.2996977
-0.14486939
-0.21311979
-0.378425
-0.6336515
0.26873308
-0.24587686
-0.5866957
-0.33693618
-0.46043494
-0.5473462
-0.42918456
-0.0380214
-0.012217909
0.10456047
-0.23369992
0.0033296011
-0.53152525
-0.64328444
-0.6769832
-0.4469698
-0.25946704
0.017536813
0.44755232
0.105529055
0.21962433
0.33445475
0.2877635
0.3278834
-0.19961938
-0.19728412
-0.18794857
-0.54668534
-0.041947395
-0.26799083
-0.2380622
0.005010446
-0.32269886
-0.0525797
-0.047341492
0.6121339
0.53042734
0.42136952
0.38550085
0.42775202
0.12990782
0.23822205
0.014071753
-0.1604279
-0.8229747
-0.55353767
0.0504536
-0.2258765
-0.3902741
-0.3309056
-0.49605596
-0.3662172
-0.43511188
-0.59812343
-0.21239018
-0.50910515
-0.3021954
-0.25903094
-0.14320053
-0.3896986
-0.61657023
-0.7302087
-0.6587667
-0.10704013
-0.07737925
-0.17657286
-0.33547762
-0.46220174
-0.83387756
-0.9068452
-1.1100442
-0.88560694
-1.1098677
-0.7101597
-0.18446411
-0.33541912
-0.64496386
-0.283832
-0.6201809
-0.6288195
-0.69174576
-0.8958407
-0.38647303
-0.65204424
-0.29322436
-0.30582452
-0.32559153
-0.30482486
-0.39388493
-0.41213694
-0.16504613
-0.08773215
0.11559662
0.49269128
0.22848968
0.19685218
-0.08731308
-0.25628233
-0.44060585
-0.3949221
-0.35302553
0.04210347
0.32250503
0.24643555
-0.44919515
-0.0330012
-0.28765872
-0.27002758
-0.11328015
-0.31394592
-0.23973854
-0.195831
-0.027800418
-0.33099702
-0.029486757
0.1031953
0.50120276
0.5563671
0.61197555
0.70149255
0.838778
1.2159407
1.066781
1.043086
0.73535305
0.44426918
0.40035343
0.099196605
0.058600668
0.4243331
0.68690276
0.40447676
-0.25451618
-0.3261293
-0.28151405
-0.79858494
-0.6751488
-0.8036298
-0.7177627
-0.27229902
-0.22853093
-0.7208572
0.21223706
-0.55550086
-0.033081826
0.40903708
0.40374437
0.38380358
0.3069005
0.5427598
0.6157177
0.59081906
0.36941358
0.29016978
0.33862442
0.33926916
0.14843875
0.27491158
0.38145056
0.07687041
-0.5645468
-0.2183389
-0.780228
-0.8546787
-0.07354567
-0.47043785
-0.77895844
0.06650745
0.042183805
-0.4357726
0.1469322
-0.41944906
-0.036988623
0.22092248
-0.090558365
0.499576
0.39742818
0.17004062
0.3122474
0.3623311
0.18236889
0.09810722
0.017047143
0.24051692
0.00655613
0.43868804
0.5502864
0.2487834
0.015950486
0.36082366
-0.07147149
-0.7720982
0.038572196
0.18713745
0.20432219
0.5096894
0.46503645
0.2622747
1.0545528
0.9199617
0.9088293
1.004508
0.62964547
1.0276879
1.0324546
0.468965
0.5953164
0.6781128
0.3062695
0.2371189
0.1607713
0.23428333
0.012370791
0.31384718
0.25393143
0.12939106
0.10718707
-0.07257959
-0.2780908
-0.19893749
0.28541824
0.1971557
0.10872307
0.39942312
0.33600038
0.25954613
0.042774457
0.012801096
0.25915995
0.28880292
-0.25839287
0.28417444
0.48457152
0.3254473
0.26498395
0.45975578
0.09067825
0.15264343
0.085404985
0.002965857
0.079034775
0.3643979
0.107770786
0.06705503
0.22675434
0.22142555
-0.2882164
-0.51277083
0.17030327
1.9868769E-4
-0.3167243
0.2999778
0.30358818
-0.37882704
-0.21029001
-0.39162937
-0.5224177
-0.55490637
-0.14258814
0.10070476
0.07049918
-0.08124523
-0.3398421
0.15391901
-0.032416586
-0.045870725
-0.23036058
-0.08050774
0.16674545
0.11439202
0.0919598
-0.15969034
0.09763432
-0.051345766
-0.5288233
-0.15545449
0.58569056
0.71416
0.43062147
0.79742026
0.6967312
0.11817602
0.5594767
0.7502501
0.57284725
0.35475463
0.3008269
0.60466963
0.4685999
0.40513775
0.20998524
0.60864955
0.5852219
0.24556828
-0.085195
-0.14179128
0.35325077
0.5216345
0.4797309
-0.09546483
0.1433573
0.41310224
-0.3041488
0.31324428
0.5780318
0.9126844
-0.07182475
0.039811634
-0.021754835
-0.39764732
-0.12582138
-0.3086243
0.10416709
0.13693978
-0.08938567
0.08190427
0.032106467
0.011914824
0.17835492
0.5974106
0.32157707
-0.12840226
-0.3743175
-0.6916028
-0.16277723
-0.20254096
0.015809314
0.11965179
-0.17945953
0.23806629
-0.12316351
-0.19208579
-0.13488913
-0.24689385
-0.11876266
-0.07130026
-0.8046541
-0.9821281
-0.747767
-0.33106905
-0.33636826
-0.07129909
-0.39544952
-0.49859983
-0.19171304
-0.4014986
-0.20306331
-0.16016388
-0.36291465
-0.6070017
-0.72189325
-0.9200621
-0.63377506
-0.7573997
-0.55702007
-0.22510652
-0.37390897
0.15292655
-0.2571875
0.52976847
0.04998511
0.4778262
0.24097416
0.6432464
0.51297766
0.30265316
0.29683122
0.32809666
0.034254894
-0.0044997204
-0.07493355
-0.07812517
0.11969793
0.16890164
0.32110304
0.20141582
-0.177715
-0.39197767
-0.69009346
-0.74868995
0.0056152497
-0.016332906
0.01898216
0.02421834
0.03526107
0.07606554
0.084964715
0.10635343
0.10610571
0.05410066
0.08411004
0.15034293
0.10627954
0.104935706
0.16207792
0.11433865
0.1413474
0.18224847
0.26497447
0.19382866
0.12145416
0.19274081
0.09461525
0.10513652
0.06345147
-0.0019507677
0.016562434
0.007859172
-0.006662433
1.5868316E-4
0.005046157
0.009093518
0.030613279
0.032407388
0.08272261
0.08804538
0.07947287
0.04595018
0.061408
0.10495617
0.050180897
0.07515934
0.12151302
0.08092928
0.12778525
0.13845299
0.19849901
0.1927365
0.12121485
0.1381614
0.0271386
0.07496438
0.10472453
0.042402986
-0.012430957
0.0066639544
-0.009420189
-0.01899458
0.022234643
0.023341442
0.0086189415
0.019107725
0.13684197
0.09474945
0.10838999
0.109082304
0.09883678
0.09144815
0.0033736795
0.056860987
0.03781672
0.07205809
0.07260753
-0.0049284557
0.13672099
0.07422118
0.024448223
-0.045385454
-0.031774458
0.007430728
0.023285162
0.020557335
0.04524242
0.05016196
0.013987029
0.022504538
0.022393184
0.037150968
0.06259888
0.101496756
0.14846879
0.1422424
0.1315105
0.113990515
0.08445625
0.0025544798
0.0042780335
0.03158041
-0.01941805
0.038834594
0.09322665
0.025638737
0.06955516
0.059869472
-0.039727356
-0.0300122
-0.040513538
-0.025142837
-0.01280224
-0.02358276
0.021452265
0.035867896
-0.028218132
-0.006070906
-0.02875505
-0.08442085
-0.062346205
-0.011049467
0.004241708
0.021452857
-0.032380536
0.01902061
-0.040564474
-0.071142815
-0.07528611
-0.04003313
-0.021271199
0.019386228
0.008502685
-0.07922772
-0.028952818
-0.042893544
-0.11798405
-0.14576271
-0.1586217
-0.10847891
-0.060248185
-0.110448785
-0.06553787
-0.02913746
-0.01965512
-0.054778602
-0.10957761
-0.12943101
-0.093659304
-0.06469559
-0.07540589
-0.044213712
-0.04591317
-0.0053008464
8.506371E-5
-0.008309131
-0.057596147
-0.025947394
-0.05792995
0.01586756
0.052092575
-0.020580808
-0.0538046
-0.14203154
-0.18563493
-0.1371944
-0.25059313
-0.1725275
-0.10997434
-0.029993825
-0.0539357
-0.030500393
-0.022886435
-0.06788707
-0.11402109
-0.112491764
-0.10444285
-0.10920716
-0.115774654
-0.109457135
-0.06778623
0.02498166
-0.11377606
-0.035310734
-0.010992353
-0.004918578
-0.054851465
-0.019185891
0.055218577
-0.119983874
-0.1253987
-0.22927703
-0.25507364
-0.2244855
-0.2933618
-0.19486514
-0.15518025
-0.045592073
-0.06500515
0.0014043808
0.005262499
-0.07754373
-0.11498052
-0.13267629
-0.08352291
-0.13051234
-0.14036725
-0.09083861
-0.043744706
0.038885575
-0.07734538
0.034332357
0.040946968
0.04360565
-0.025026184
-0.003482931
0.009336681
-0.08430697
-0.055670254
-0.12305282
-0.14855736
-0.07042924
-0.09392976
-0.06727476
-0.03433422
0.007556324
0.021126071
0.015179712
0.04942852
-0.05462148
-0.13569157
-0.15887278
-0.14371869
-0.12065232
-0.19906105
-0.1573343
-0.1303832
-0.03474987
-0.13304558
-0.024914455
-0.03682068
-0.067655295
-0.07331864
-0.09397367
-0.08846919
-0.029438026
-0.037201047
-0.06705748
-0.12657909
-0.090786934
-0.04365777
0.018648926
0.027550496
0.013703325
0.027596816
0.037740145
0.052995108
-0.013140001
-0.07132981
-0.08195666
-0.055779044
-0.07182037
-0.081951946
-0.028648121
-0.023960965
0.04101484
0.025994793
0.08397215
0.02971147
-0.018501122
-0.01431288
-0.08682888
-0.12089334
-0.09438563
-0.03575391
0.020676332
0.010473303
0.013664913
-0.008106252
0.06255792
0.010494544
0.07544847
0.052144956
0.028794188
0.032266106
0.022379352
-0.008625714
-0.061108373
-0.052005343
0.0013081963
0.008151311
0.07760062
0.053084977
0.12266684
0.03627516
0.04869469
0.017690059
0.023014124
9.5181516E-4
-0.0061124954
-0.020349406
-0.039513994
-0.06939999
0.035139587
0.04885481
0.05629516
0.06382385
0.08150705
0.07249618
0.06940006
0.061187528
0.033094283
0.070137724
0.056190126
-0.0044208593
-0.049504485
-0.07445663
-0.047519885
0.03323392
0.06927076
0.08703268
0.10256316
0.027284909
0.034947116
0.065662205
0.0837511
0.023513773
-0.0735356
-0.0065381792
-0.061269518
-0.019461272
0.14006016
0.17402633
0.14284384
0.132728
0.1499235
0.1426041
0.09588886
0.029118354
0.029193776
0.028538164
0.017299961
-0.004365926
-0.061681036
-0.050014246
0.01683513
0.06630829
0.080898434
0.058724634
0.124574125
0.075816326
0.116432115
0.10714972
0.1107725
-0.0039801886
0.01088616
0.063017875
-0.038543597
0.09579195
0.22033429
0.20913866
0.174709
0.1550816
0.17195506
0.13305853
0.09836837
0.028855868
0.012396269
0.03783232
0.046636645
0.0052467496
0.007410665
0.033221178
0.037560932
0.06786002
0.07106598
0.06348466
0.07385363
0.046904743
0.04966728
0.02634921
0.04893126
0.016175957
-0.035384893
0.045764886
-0.027250638
0.016315136
0.08390651
0.18335307
0.12409239
0.09733974
0.12246689
0.13095574
0.06296739
0.015719008
-0.002250215
0.029295124
0.05083298
0.004898107
-0.005995046
0.0050681047
0.02207386
0.09750922
0.13544631
0.0848781
0.047106218
0.042393453
0.077007994
0.025017189
0.057349246
-0.037180386
-0.020757854
0.092529535
0.070980474
0.10762328
0.13007145
0.13196097
0.12080113
0.1265914
0.13444047
0.08804785
0.05168325
0.016244952
0.0072129415
0.006262974
0.07097879
0.04557906
0.10043554
0.083860554
0.02166317
0.06152163
0.09342949
0.027734518
0.027327852
0.024130156
0.099493876
-0.011084953
-0.00922523
-0.003514591
0.03561343
0.09287268
0.07381714
0.1028826
0.15549856
0.21378528
0.21287987
0.14195594
0.21132612
0.13817134
0.10463119
0.07507336
0.02066906
0.046057034
0.06270706
0.07857843
0.07817817
0.0806714
0.051374834
0.066749565
0.081650056
0.051697824
0.032737322
-0.036783386
0.008294659
-0.0962202
-0.0770625
-0.08838085
-0.050110154
-0.01368407
-0.027188934
0.12628745
0.14125326
0.17990714
0.1754232
0.12687564
0.14117695
0.10147652
0.075132914
0.07199173
0.025945295
0.020898012
0.041708317
0.04643561
0.05470573
0.034776747
0.049100522
0.031371307
0.07833636
0.05279213
0.013185043
-0.049263228
-0.018218761
-0.14726774
-0.047420908
0.0039858604
-0.021619428
0.06737038
0.087367095
0.09999285
0.17949006
0.15333319
0.15884481
0.15690419
0.14766541
0.08549126
0.057987623
0.07319041
0.041114092
0.015126852
0.03572957
0.038998507
0.015449109
0.0464514
0.020070357
-0.019669788
-0.01941061
-0.0027910161
-0.047600374
-0.09283758
-0.093571566
-0.17622009
-0.07782789
-0.022156665
-0.047961075
0.033241246
0.039276462
0.041567184
0.14832976
0.1227994
0.12925301
0.13820335
0.058112223
-0.026118094
-0.024590997
-0.017969038
-0.014782162
-0.027881121
-7.1512215E-4
0.0113204615
0.015289385
0.047760803
0.03580172
-0.04774189
-0.029107684
0.016400028
-0.08447338
-0.07589826
-0.045246918
-0.13889685
0.005126873
0.0136299655
0.017522627
0.010454933
0.0036349413
0.07629918
0.099049896
0.090976864
0.12591784
0.07232057
0.027370779
-0.016541233
-0.02292612
-0.04281568
-0.017192718
-0.019756006
0.0010183312
0.0036163363
0.024626043
0.07501533
0.043420907
0.01802536
-0.091109835
-0.06471221
0.053586192
-0.055283602
0.0014083841
-0.018513326
-0.029416969
-0.03526022
-0.029787764
-0.029837571
0.03677132
-0.013049737
-0.040419303
0.018908087
0.027479615
-0.047730375
-0.10427204
-0.11457008
-0.09599885
-0.1228048
-0.089491814
-0.09271307
-0.10162128
-0.0438304
-0.14150174
-0.10510688
-0.08219289
-0.07582887
-0.16900617
-0.1489616
-0.0685563
-0.08189818
-0.04272696
-0.052308783
-0.02862729
-0.054702878
-0.06276096
-0.021273402
-0.031880703
-0.021194676
-0.045910936
-0.11252599
-0.08830006
-0.13482708
-0.1082974
-0.14486879
-0.120385244
-0.12947069
-0.10843146
-0.08531937
-0.10339519
-0.06791192
-0.14288443
-0.07184044
-0.058039285
-0.09240944
-0.18096082
-0.10360533
-0.024195688
-0.015657214
0.029869957
-0.007270573
0.01190391
-0.042134624
-0.07936917
-0.0671995
-0.013077598
-0.008231453
-0.016192978
-0.022427522
0.012817154
-0.033445824
-0.06640388
-0.11509368
-0.09555002
-0.10847594
-0.077921614
-0.06736641
-0.080359146
-0.054947257
-0.07223167
-0.12541147
-0.12313373
-0.10872865
-0.13443205
-0.028618071
0.047100697
-0.02754655
-0.07048308
-0.010617739
-0.01832772
-0.09066427
-0.040737227
-0.061144
-0.025049638
-0.0578722
-0.0179118
-4.551263E-4
-0.051530357
-0.09366454
-0.10703873
-0.097753726
-0.059244774
-0.043912075
-0.025930665
0.0027474929
-0.016254822
-0.0051950715
-0.02310854
-0.084927425
-0.16242105
-0.19462723
-0.17818575
-0.18125169
-0.09155491
-0.071198314
-0.09289477
-0.04679533
-0.030277612
-0.12909473
-0.053468984
-0.035019763
-0.018526873
-0.098363
-0.04208721
-0.038633585
-0.0583006
-0.040731773
-0.007848723
0.006130721
-0.017668126
0.009240082
0.042818576
-0.020801632
0.019253945
0.04326984
0.013604766
-0.11639674
-0.16026369
-0.22039075
-0.16685028
-0.18303408
-0.14285904
-0.076330796
-0.15429412
-0.12338777
-0.09785573
-0.11575579
-0.03256577
-0.06115741
-0.019782577
-0.006655208
-0.038452633
-0.013297834
-0.04320735
-0.024650058
0.024136482
0.010480608
0.02288641
-0.0018110974
0.03259308
-0.01525118
0.018778997
1.5239077E-4
-0.062020697
-0.0036526711
-0.05855932
-0.047002178
-0.043758042
-0.020513453
-0.005326789
0.010154991
-0.0638636
-0.051833715
-0.041459598
-0.037511304
-0.049297776
-0.048214436
-0.062348966
-0.038238753
-0.006917052
0.014613057
-0.004989376
-0.02793737
0.017524326
0.01421789
-0.004525035
-0.014488854
0.024365198
-0.019032957
-0.026523123
-0.006601313
-0.06219893
-0.043486252
-0.038283825
-0.07553366
-0.07966313
0.019431196
0.026305716
0.017989116
-0.031134704
-0.044126097
-0.022623617
0.006816055
-0.042045318
-0.015576987
-0.016708393
-0.0017267842
-0.008976907
-0.03252159
-0.039913103
-0.049475815
0.03812331
0.025671465
0.011540015
0.0043619773
0.012500231
0.013207062
0.106738165
0.11624302
0.17576857
0.15820071
0.32015124
0.3029755
0.07016012
-0.009131366
0.46249744
0.18526956
0.27506673
0.117330484
0.09580625
-0.022985743
0.20654784
0.020213865
-0.19121215
-0.36698484
-0.18300289
-0.133506
-0.10766232
-0.19889578
0.14370306
0.2245995
-0.25903606
-0.14053991
-0.31194893
-0.2101549
0.039385926
0.013702408
0.035026114
0.0033522772
0.09196119
0.08558435
-0.25197342
-0.24465801
0.1028826
-0.1344374
-0.101119146
-0.23322071
-0.11834272
-0.28669235
-0.24169144
-0.3756938
-0.4561176
-0.31407523
-0.07959662
0.109446466
-0.062843315
-0.31366062
-0.3018267
-0.012129769
-0.6206772
-0.13767466
-0.111449525
-0.20900021
-0.0252041
0.017290829
-0.19195369
-0.21791089
-0.09367237
0.15000972
0.11012531
-0.1401027
-0.10151905
-0.0075451536
-0.46485043
-0.63588655
-0.3485533
-0.24091214
-0.31404984
0.23225573
-0.16008005
-0.31897983
-0.08999486
-0.2096779
-0.42532656
-0.4259858
-0.38463357
-0.27197695
-0.48096853
0.112673536
-0.1699457
-0.06688047
0.1717389
0.3335547
-0.043350108
3.10717E-4
0.2686211
0.31839958
0.4741417
0.5201569
0.42667663
0.35737452
0.059907675
-0.2235647
0.10196441
-0.22284105
-0.45279458
-0.3863591
-0.7642262
-0.52484053
-0.42394128
-0.52639747
-0.60388035
-0.5191323
-0.35867742
0.028890586
-0.17262013
-0.255146
-0.4283966
-0.08501188
-0.003423649
0.18825026
-0.24856853
-0.17327347
0.045669593
0.011766617
0.29553002
-0.10562736
-0.2232684
0.22883609
0.043887448
-0.28802735
-0.1577655
-0.14981066
-0.3078047
-0.31552637
-0.6872059
-0.19626522
-0.07977244
-6.560697E-4
0.13314591
0.3708984
0.41989502
0.42805102
0.06489135
-0.053502645
-0.060361635
0.16041665
-0.036124382
0.044735562
-0.24387307
-0.15403162
0.06751847
-0.22011426
-0.10064698
0.19277614
-0.07553674
0.009650302
-0.19515778
0.021829454
-0.031720754
-0.11241238
-0.19684938
0.08591001
0.2642098
0.717331
0.54345685
0.3311762
0.5587181
0.64220506
0.6656191
0.63008374
0.42437023
0.2795247
0.3023601
0.4407436
0.08434107
0.19094032
-0.1394538
0.12300701
0.23693581
-0.06536114
0.11545588
0.2870467
0.1347231
0.2969083
0.1630936
0.32246634
0.22679135
0.18375427
0.20228568
0.4670791
0.73547435
0.8993172
0.64690846
0.7491602
0.6621641
0.7086873
0.73419046
0.75902075
0.5576765
0.3596083
0.502848
0.60258234
-0.03785176
-0.1295888
0.028196491
0.02219276
-0.21186095
-0.17814411
-0.05317446
0.0150713045
-0.18458097
-0.12931764
-0.19358274
-0.09186687
-0.29677242
-0.123824164
-0.11756665
0.06149553
0.2879678
0.14381659
0.3773043
0.6273536
0.7002678
0.46372756
0.51204777
0.48152882
0.51803285
0.26409018
0.36034343
0.58641785
-0.08632848
-0.20174752
-0.13880804
0.026463045
-0.070610985
-0.43402657
-0.31384057
-0.26521495
-0.10071703
-0.20913918
-0.16803855
0.010695031
0.05874201
-0.14941895
-0.3540452
-0.15197149
-0.091984384
0.27199706
0.39489138
0.66108674
0.40475824
0.12213675
0.25466865
0.41036376
0.33452934
0.14084509
0.23116304
0.3765219
-0.24644102
-0.20212927
-0.13461375
-0.17845094
0.16461839
0.07988438
0.15774712
0.1678429
0.19806479
-0.010184383
-0.054489635
-0.021328798
-0.0051251934
-0.20283398
-0.32730976
-0.072830305
-0.11385587
-0.1997917
-0.06236168
0.12350247
0.08024978
0.011602426
0.20811892
0.06083748
-0.083061345
0.18533584
0.11218317
0.19470812
-0.17414093
-0.13137992
-0.0043003317
-0.17316906
-0.0978698
0.19923128
0.2199403
0.1222054
-0.0131058255
-0.0010812583
0.27221894
0.17232615
0.31674477
-0.07504359
-0.16119014
-0.20123374
0.047983773
-0.12955779
-0.116280355
0.08120353
0.06807081
-0.014582541
0.111791484
-0.11282361
-0.12925515
0.09899802
0.06688326
0.15315224
-0.18585339
-0.04334179
0.075762495
-0.11168742
0.019636776
-0.12429951
-0.34552237
-0.031433124
0.04570631
-0.17545222
0.084461614
-0.20947507
-0.0066034254
-0.13862559
-0.46036685
-0.37472576
-0.19202526
0.20881909
-0.07275435
-0.06332643
0.3571971
0.2779931
0.19466838
-0.26430485
-0.5040063
-0.0397576
-0.19111156
-0.016113743
-0.22105078
-0.048180126
0.11213142
-0.11087664
0.3700893
0.39009935
0.018452384
-0.31181818
-0.30157632
-0.2733398
-0.08000085
-0.3113632
-0.23611009
-0.25898057
-0.2257073
0.046487726
-0.032973535
0.1525089
-0.08137754
-0.24158368
-0.11997801
-0.24242358
0.017055621
-0.14528173
-0.3222509
-0.17934945
-0.03253818
-0.018528497
-0.3469334
-0.29769933
0.08961768
-0.09225015
6.239093E-5
-0.24078508
-0.4274148
-0.13322042
-0.16980562
-0.30709717
-0.07632972
-0.12415091
0.05628033
-0.14149553
-0.101242594
-0.043781076
0.0054087676
0.17124677
-0.19749928
-0.15662692
-0.34298152
-0.40439838
-0.3107529
-0.3171288
-0.37752622
-0.1363106
0.004137613
0.06777401
-0.24983567
-0.18959872
0.17773429
-0.105359845
-0.0036571578
0.18370862
-0.18536286
-0.18664294
-0.16726848
-0.10599983
0.19137561
-0.13463849
0.13851145
0.23243904
-0.20439565
0.016036872
-0.118730396
0.2684474
0.11497588
0.026171261
-0.176166
-0.11891691
-0.13860267
-0.21028951
-0.24282423
-0.018904008
0.034887355
0.0171871
-0.28857
-0.21166635
-0.10274606
-0.16914447
-0.15880628
-0.16640934
-0.25170577
-0.14783745
-0.21303532
-0.20263728
0.18909259
-0.017628727
0.29080895
0.4508344
0.13368054
0.23512095
0.33189616
0.5086134
0.22548172
0.16083625
0.15086277
0.21624878
0.11888194
0.18249534
-0.15714143
-0.29904073
-0.22954665
-0.20163026
-0.3004253
-0.272502
-0.10203865
-0.07736661
0.023165628
-0.08920023
-0.14360814
-0.18837868
-0.15345587
-0.20961228
0.014307914
-0.18054193
0.026485974
-0.03065824
0.06071179
-0.037158668
0.2352484
0.32981697
0.10893046
0.11463792
0.019735653
0.13766596
-0.014459701
-0.0260751
-0.2266159
-0.22407162
-0.112904064
-0.025787154
-0.06502907
-0.1277021
-0.14817108
-0.04662799
-0.27602592
-0.043921858
-0.045327764
-0.26702866
-0.10368979
-0.1433919
-0.20141824
0.011610827
0.110547625
0.07788318
0.12499977
0.11059494
0.19836631
0.22127508
0.16099663
-0.04682921
0.16828248
-0.0057525965
0.043871477
-0.3248434
-0.102726005
-0.18838465
-0.2184086
-0.2234938
-0.2234076
-0.48621544
-0.27504778
-0.3747816
-0.46036372
-0.22930789
-0.14882565
-0.28290504
0.022788873
-0.12841636
-0.21045193
0.022581648
0.18038842
0.12821642
0.22007227
0.18965112
0.13208975
0.00811001
0.28764567
0.5285746
0.3527971
0.08376571
-0.07276076
-0.30384353
-4.644622E-5
-0.008587371
0.014198193
-0.12094156
-0.07255478
-0.33330166
-0.04314193
-0.25241232
0.18313676
-0.08156443
0.06772104
-0.057493113
0.012948724
-0.17131759
-0.10835375
-0.0469405
0.068357855
0.08392427
0.23222753
0.1463031
0.049892344
0.018360926
0.05783006
0.03151321
-0.0027419294
-0.34942114
-0.20241088
-0.2788024
-0.47051588
-0.51774204
-0.12733707
-0.09833714
-0.2292107
-0.52651304
-0.3975007
0.021583807
0.3482437
0.23859476
0.329615
0.2310915
0.15186426
-0.07693934
-0.057240218
0.03739902
0.26288602
0.008317863
-0.0270166
-0.086052634
-0.094437174
0.24520868
0.34451115
0.3362281
0.27113843
0.0449487
0.25688997
0.15997018
0.18125784
-0.1482368
-0.3721304
-0.23871945
-0.10473692
-0.27700952
-0.19655623
-0.21026085
0.3744057
0.07786388
0.167588
0.24443248
0.1917463
0.027200757
0.094962314
0.19374087
0.20020196
0.07046738
0.2039809
0.31039345
0.1847805
0.4763339
0.3128065
-0.10012817
0.15985169
0.2936577
0.09488431
0.14873815
0.25052968
-0.25242114
-0.21891496
-0.1768679
-0.055237945
-0.004868813
0.100665145
0.10301263
0.43611738
0.20687497
0.21292147
0.1824215
0.08268322
0.087117285
0.22120619
0.11375995
0.11433381
0.058973864
0.2702166
0.15713206
0.19582258
0.48505884
0.34165165
0.1446089
0.2673039
0.29899037
-0.32412702
-0.24701376
0.14447813
-0.06349536
0.06979623
-0.012901725
0.089560285
0.18131825
0.010447342
-0.086541794
0.43790132
0.22004656
0.108431414
-0.10473673
-0.12426963
-0.2952312
-0.2506763
-0.17369151
-0.06114069
-0.09897975
-0.15336825
0.05465107
-0.04602046
0.28769082
0.027317058
-0.011601881
-0.057864964
-0.42972684
-0.18021947
-0.044937916
-0.32107496
-0.04728659
0.12872145
0.10282921
-0.059318043
-0.10047658
-0.38370243
-0.35215363
0.011719486
0.10864767
-0.14286391
-0.18925996
-0.32527298
-0.25072202
-0.24788533
-0.17361653
-0.013441939
-0.44856685
-0.29882398
-0.16623212
-0.20076159
0.16773519
0.015091093
0.19288665
-0.019030258
-0.24070211
0.034259833
-0.0845202
-0.29241246
-0.039045
0.124410756
0.062213764
-0.23923784
-0.01655071
0.050109793
-0.07378598
-0.35580724
-0.08548407
0.15919797
-0.0038544948
-0.16138747
0.14322129
-0.060709722
0.07646666
0.22410928
0.04668745
0.14693323
-0.16498278
-0.26043308
0.121297404
0.10055447
-0.035993125
-0.131416
-0.14163458
0.12928414
0.037417006
-0.10376576
-0.07385652
-0.022051979
-0.04643862
-0.058761895
-0.009058329
-0.16873848
0.002506458
0.123512246
-0.09336764
-0.08720172
0.059028476
0.005742854
-0.10727798
-0.40780628
-0.10760655
0.1265435
-0.21348904
-0.25559616
-0.07360603
0.20657091
0.0928263
0.12189021
0.19125476
-0.089231245
-0.10954655
-0.1138531
0.0601578
0.14817111
0.09172763
0.11449238
0.076546565
0.07550984
-0.012818117
-0.17277874
0.0069940677
0.33698165
-0.05820928
0.048562013
0.087571934
-0.05184837
-0.18541898
-0.24375948
2.0435165E-5
0.23448032
-0.00679472
-0.19306746
-0.05257843
0.12567428
-0.014436408
-0.13295451
0.097161315
-0.23126052
-0.14694008
-0.103603825
-0.031160563
0.13355564
0.08951137
0.1558789
0.09972679
0.074929275
1.0848168
1.0890195
0.61503786
0.36103347
0.38514143
0.17965384
-0.017262088
-0.17840742
-0.7444262
-0.5577627
-0.5425924
-0.4208271
-1.4123949
-0.78770065
-0.8355745
-0.7473666
-0.5245158
-0.50488985
-0.45084342
-0.58922976
-0.91500825
-0.32914573
-0.6576336
-0.5184648
0.04040199
-0.051086277
0.50443614
0.6435237
0.836592
0.8765772
0.4680427
0.10689552
-0.015290069
-0.2127907
-0.31425095
-0.283643
-0.3568835
-0.28311482
0.10281327
0.26638803
-0.15858623
0.61077654
0.052216645
0.31205237
0.48040545
0.27192587
-0.01874399
0.122323535
-0.44076467
-0.22777592
-0.14226884
-0.003046251
-0.119871855
-0.15530413
0.79301095
1.0945199
0.6902618
0.58085215
-0.22601953
-0.27865973
-0.2066196
-0.53177977
-0.23590066
0.5267943
-0.011842511
0.5907824
0.17713225
0.5149442
0.39497626
0.40582922
0.35074252
-0.19773376
0.20831646
0.027236296
-0.744289
0.05592574
-0.17754875
-0.22501476
-0.018471122
-0.19875626
0.06260264
-0.18141843
-0.059914507
0.13204964
-0.026591016
-0.03255523
-0.82855994
-0.8435746
-0.56059295
-0.46067086
-1.0623513
-0.10389529
-0.3463768
-1.1229647
-0.60245603
-0.15330765
-0.7858631
-0.8339011
-0.17377256
-1.2297088
-0.73749834
-0.22778869
-0.19203432
-0.2592845
-0.5602771
-0.8796957
-0.2223042
-0.415777
-0.028833117
-0.09518239
-0.17517452
-0.07618572
-0.079211
-0.113266416
-0.6122434
-0.75786185
-0.73383623
-0.20784838
-0.53501165
-0.117187865
0.329034
-0.049633324
0.559689
0.8929759
0.16984984
0.41559133
0.030211186
-0.47956008
-0.10156934
-0.097853266
0.034755185
-0.053431466
-0.541996
0.24110694
0.47806615
0.40586704
0.20892061
-0.04924686
0.13585418
0.33398992
0.124743
-0.14490955
-0.39533234
-0.50383604
-0.34245232
-0.30330023
0.13038637
0.45400476
0.06051409
0.7775754
0.5037688
0.8216358
0.35487977
0.26166934
0.42703897
-0.05503522
-0.50516295
-0.4294921
0.13213709
0.49806127
0.04351726
0.6396512
0.20759684
0.4054935
0.20141318
0.31040525
0.45317435
0.91728896
-0.20953321
-0.23446238
-0.3240697
-1.1735677
-1.0774238
-1.0702307
-1.1247966
-0.6169147
-0.89260554
-0.8324469
-0.41443792
-0.15512334
-0.6365494
-0.269524
0.021872029
-0.19904989
-0.38169885
-0.74340475
-0.5746182
0.049663298
-0.5155595
-0.79306066
-1.1211946
-0.39422116
-0.5025758
-0.08070548
-0.3420198
-0.11950069
-0.48626468
-0.18632299
-0.19149016
-0.64279497
-0.25052547
0.03299146
-0.04450691
0.12671466
0.08573505
0.020257154
0.35913762
0.6611948
-0.058422662
0.25691965
-0.21301383
0.006408621
0.44082913
-0.06289152
-0.6444167
0.17610449
-0.038089607
0.0041981596
-0.03822382
0.50693625
-0.2878617
-0.004483324
-0.15777148
0.045541093
-0.5553301
-0.37537956
-0.20005405
-0.5828124
-0.5121719
-0.40800706
-0.17583026
0.22224005
0.26718947
0.28314054
0.5418471
0.08675656
-0.6694254
-0.38299665
-0.27631012
-0.5380025
-0.14822352
-0.233007
-0.32605475
0.41052854
0.45180035
-0.0056381184
-0.2841411
0.09497513
-0.29906198
-0.56448334
-0.30167592
-0.057708383
-0.7291867
-0.570152
-0.27421725
-0.45623624
-0.028587062
-0.34761387
-0.714908
-0.42928648
-0.62803787
-0.8842307
-0.51876646
-0.21035388
-0.52624464
-0.5867618
-1.0109934
-0.8341383
-0.64125353
-0.86413455
-1.5124775
-1.3473716
-1.1161276
-1.1378835
-0.81918967
-0.66412824
-0.86028403
-0.5915339
0.14258201
0.19487438
-0.16669473
-0.23522271
-0.30589014
-0.4910984
0.052842997
0.07490549
0.39625287
0.64361125
0.64528733
0.35872665
0.54903096
-0.1424249
-0.58622587
-0.3324173
-0.42815837
-0.7286068
-0.27734843
0.09171383
-0.27692086
0.39236858
0.45703465
0.05633636
0.33390558
0.41226357
0.01704636
0.40833032
0.72936666
0.5245335
0.6699936
0.4399265
-0.19458273
-0.2795999
0.5329335
0.5224824
-0.42375374
-0.052430768
0.10478217
0.28071073
0.17940104
0.178776
-0.8362273
-1.1898984
-0.22428912
-0.8167422
-0.19232342
-0.18488048
-0.18347389
-0.12862872
0.26440746
-0.2810588
0.46685135
0.46855173
0.3397923
0.6160981
0.91172624
1.0312122
0.8444009
0.8547066
-0.1704287
-0.28395757
-0.21461813
0.12125002
-0.81287086
0.09821053
-0.4147542
0.01362916
-0.1025661
-0.4859023
-1.1243874
-0.88004094
-0.69193524
-1.1624682
-0.9265701
-0.9835772
-0.48376906
-0.95313174
-0.7749688
-1.3126323
-0.7505649
-0.5471396
-0.48061442
-0.37126195
0.760189
0.8150178
0.8859544
0.92650765
0.75133
0.33563298
0.049687464
0.8142346
-0.33613074
0.36523727
0.25687584
0.30654594
-0.25252274
0.18655595
-0.5882607
-0.123005845
-0.82560676
-0.5100961
-1.031551
-0.5783751
-0.1624667
-0.15191817
-0.22355969
-0.21474572
0.25551003
0.30251762
0.69648707
0.77408475
1.1851207
1.3122947
1.329573
1.3350738
0.41745764
0.024279607
0.39458248
0.5280885
0.094824485
-0.07067694
0.6526599
-0.14257528
-0.51879567
0.43545607
-0.40648383
-0.43065223
0.06149893
-0.53301835
-0.3969089
0.09373444
-0.09346132
0.10944651
0.03524338
0.52061236
0.33068314
0.5738143
0.8547329
1.3277909
1.4267054
1.4713134
1.1382563
1.0503037
0.024846617
-0.54844165
-0.3691803
-0.45974463
-0.8666379
-0.753104
-0.95011866
-0.7683397
-1.015366
-0.40081704
-1.1305405
-1.116581
-0.65927887
-0.21173903
-0.7735173
-0.27651286
0.056321077
-0.35414162
-0.67924815
-0.08766032
0.25693256
0.4032833
0.25405613
0.74483126
1.1011307
1.0014272
0.99799436
0.8974131
0.28731212
-0.14406362
-0.303688
-0.16763875
-0.3777331
0.12362824
0.31483743
-0.014119209
-0.7454086
0.0661997
-0.17346573
-0.7936826
-0.35226113
-0.5695223
-0.7660344
-0.16209815
-0.18302798
-0.10335262
0.27050576
0.5064155
0.39658022
0.81141007
0.60169256
0.88288146
1.1086358
1.0553502
0.9569163
0.87555957
0.32411474
-0.3714423
-0.35762322
-0.9705252
-0.67525
0.14186329
0.19420035
-0.035106894
-0.25585344
-0.07082215
-0.4119522
-0.77795386
-0.5704858
-0.3050675
-0.29270193
-0.15687257
-0.034101147
0.43833363
0.79411715
1.1248882
0.54870427
0.46988317
0.059296776
0.4730565
0.7098699
0.88536155
0.4006489
0.6361446
-0.2966431
-0.5425168
-0.3317524
-0.4109492
-0.71918523
-0.73139703
-0.9459275
-1.261692
-1.7068762
-1.1007595
-1.0206231
-0.7177702
-0.46213645
0.21546702
0.427877
0.5777644
0.5463078
0.18518934
0.24395892
0.75265926
0.7335369
0.7865269
0.4199662
0.0058345716
0.188414
0.42008954
0.25472447
0.6151921
-0.33111376
-0.8985484
-0.3938034
0.0031415275
-0.26985285
-0.75526696
-0.15503423
-1.1632832
-1.1513717
-0.5294412
-0.84194475
-0.66705287
-0.049317144
-0.15842734
0.36295313
0.5607808
0.45844057
0.6125467
0.39830515
0.22349851
-0.088585615
0.4130763
0.11149461
-0.06363694
0.3062374
0.5242829
-0.017041681
0.3142129
-0.23777911
-0.70614684
0.10745179
0.44367763
-0.8153011
0.24137162
0.19537145
-0.74453753
-0.7044787
0.39647555
0.10684949
0.15389886
0.41643083
0.09902748
0.13895783
0.3893409
-0.40704986
-0.31881285
-0.4457775
-0.047922067
-0.69244915
0.31929994
-0.32108688
-0.56736165
0.03294468
0.27679282
0.06761917
0.3558813
-0.2374763
-0.18219787
-0.22424197
-0.53005636
-0.5850508
-0.27292186
0.039246283
-0.41767594
-0.46971384
0.071250625
-0.097933844
0.07460094
0.8903236
0.33707517
0.38755
0.3713685
0.300888
0.5768686
-0.013715243
0.49557787
-0.07919863
0.2836898
0.33718845
-0.0011266479
0.06851281
0.09565229
0.22551434
-0.16636749
0.04572908
0.5311437
0.26274416
0.12791774
0.3088567
0.22050583
0.9160592
0.469304
0.559486
1.0774184
0.27568522
0.20245618
0.4123691
0.3621444
0.123696946
-0.3877065
-0.36139473
0.36110136
0.3300082
-0.151983
-0.57412136
0.06135908
-0.26267314
-0.021310411
0.022107841
0.2363223
0.36319712
-0.34260136
0.066583246
-0.08973114
0.37219346
-0.28621954
0.3817699
0.27436587
0.9485647
0.45437148
0.8508869
0.74820817
0.378315
0.9094963
0.25952196
0.76882035
0.5311238
0.40845072
0.8829738
0.304199
0.066890396
0.80031735
-0.013254992
-0.117736526
-0.17888199
0.2817903
0.15808716
0.40625805
0.56226856
0.058516316
0.081721686
0.14170125
0.45565727
0.17619976
0.38763538
0.46737763
0.7517887
0.1046191
0.8686018
0.025073051
-0.30785578
0.08408254
0.5412859
0.107097805
-0.039781604
0.37048817
0.37625188
0.074608155
0.26731354
0.3015427
0.24251798
-0.013271964
0.04138717
0.43360558
0.08878132
0.36102304
-0.07397565
-0.47480544
-0.28236616
-0.9986314
-0.14937708
-0.39614972
-0.4785281
-0.19047955
0.12445271
-0.37311792
0.13609323
0.4723701
0.32322037
0.14498861
0.12759851
-0.33143592
0.05994078
0.053961944
-0.049437813
0.4323048
-0.08701749
0.16429271
-0.014460543
-0.14579085
-0.1979012
0.41732275
0.5172592
0.661895
0.7524454
0.27820095
-0.18992646
-0.78863645
-0.13425322
0.39276496
0.059677403
0.16457082
0.44987908
-0.0043889396
0.6726868
0.5618441
-0.0453153
0.55770177
0.50338733
0.17355572
0.0029549398
0.14423054
0.29305297
0.18551496
0.32494003
0.4039716
0.014357928
0.26801643
0.22052826
0.5111108
0.7981532
0.95106304
1.0685087
1.2104253
0.74935126
0.22261357
0.8013122
0.60820717
0.2619321
0.24147844
-0.30461565
0.043796238
0.111018054
-0.043209106
-0.63247997
-0.3448913
-0.40494567
-0.39699477
-0.41901684
0.107055746
0.021846548
0.17845508
0.04704557
0.10040489
-0.13428639
0.08620649
-0.03169441
0.45422494
0.69787014
0.94803196
1.1063501
-0.71210915
-0.48261294
-0.31538096
-0.27457628
-0.073375516
0.028324695
-0.23890129
0.27115923
-0.69223887
-0.18660706
-0.4645525
-0.44767755
-1.0542667
-0.722825
-1.2673718
-1.1006243
-1.4320996
-1.1824768
-0.5658489
-0.7018786
-0.45471388
-0.44171503
-0.39379632
-0.12758805
0.54880154
0.05976997
0.20549855
-0.06770124
-0.17706117
-0.18097644
-0.17561907
-0.10649536
-0.06272021
-0.09490543
-0.32260206
0.073497005
-0.07411683
-0.30529186
-0.5204967
0.05068119
-0.5998275
0.13588457
0.085637756
0.40672463
-0.26973298
-0.18539947
0.46994877
-0.049734987
-0.43699124
-0.06833598
0.1454191
0.37321794
-0.007292446
-0.054617487
0.049847525
0.19572565
-0.03154009
0.19293858
0.20923565
0.16674748
-0.662287
0.124398276
-0.37246343
-0.287121
0.16721565
0.86031723
0.49356982
0.30516493
0.023752218
0.12893698
-0.36052883
-1.0505075
-0.05506719
-0.118072726
-0.27391562
-0.30204245
0.17045958
-0.310699
0.3833094
0.08720702
-0.34365147
-0.49492908
0.16299142
0.15481749
-0.021604737
-0.17513283
-0.028449599
0.47281167
0.15008871
0.49958184
-0.03045447
0.036384095
-0.5894317
-0.11689533
-0.47967514
-0.028336225
-0.38463295
-0.15588093
-0.5292272
-0.49792376
0.18612154
-0.1933258
-0.10991538
-0.18149252
-0.059468135
-0.2295288
-0.4109299
-0.07269464
-0.24599954
-0.40124577
-0.259793
0.10780127
0.056049075
-0.17523465
-0.27650437
0.111280486
-0.19022237
-0.13525315
-0.38719246
-0.3921609
-0.36461216
0.3342054
0.54092115
0.49049866
-0.19666691
0.55815476
-0.16351984
-0.017550537
0.6638935
0.24593352
0.62972283
0.68221855
0.12506373
-0.04739572
-0.46107388
-0.17887896
-0.018280689
-0.28256923
-0.2923725
0.06391359
-0.018411893
-0.5103914
-0.4018251
-0.027336044
-0.018365407
-0.08229152
-0.31733447
0.39353916
-0.17962947
-0.005724437
0.25404304
1.0667268
0.391774
0.6075784
0.3528935
0.54667807
0.36795092
-0.3102633
-0.11529525
-0.3229367
-0.509387
-0.25282416
0.10459351
0.058053028
0.38517362
-0.4299947
-0.17127684
0.33836505
-0.19586748
-0.4348787
0.10026784
0.42258197
0.010593206
-0.8734742
-0.6618138
-0.49567482
-0.39032415
-0.5907444
-0.24304159
0.14897369
-0.282037
-0.11460538
-0.12961604
-0.19624285
-0.27407983
-0.83476627
-0.20981228
-0.19091627
-0.3901093
-0.039854407
-0.1010453
0.022484051
-0.102968365
-0.7081792
-0.0035401715
0.3345495
-0.12841572
-0.35650095
-0.54292744
-0.790335
-0.29905307
-0.28524825
0.22901952
-0.25975874
-0.436012
-0.29868004
-0.13798465
0.016724605
-0.16542345
-0.47119373
-0.78424954
-0.7648691
-0.92436224
-0.96891755
-0.82168174
-0.58902425
0.07066371
-0.45262858
0.11458595
0.1829067
-0.3701386
-0.5631004
-0.45645806
-0.09568196
-0.4751737
-0.13479424
0.18967988
-0.65405136
-0.6920655
-0.014869388
-0.46881238
-1.1900754
-0.2743685
-0.31703869
-1.0191582
-0.3442223
-0.16742215
-0.30467996
-0.492366
-0.5366706
-0.4904988
-0.8779035
-1.0115557
-1.0122136
-1.0035608
-1.2744594
-1.0433975
-1.0581051
-0.87280154
-0.70827514
-0.9803263
-0.62057936
-1.0012999
-0.56679267
-0.31721982
-0.5029757
-0.6062033
-0.4976999
-0.39109215
-0.5278948
-0.44810802
-0.07311666
-0.7892279
-0.8197686
-1.013557
-0.88467485
-0.856523
-0.6702815
-0.32911757
-0.14046982
0.26347443
-0.5232027
-0.29598883
-0.37729967
-0.5941364
0.02698771
0.4445903
0.31231594
-0.02132904
0.16594319
-0.21003515
0.11050959
0.048801698
-0.17800976
-0.20501775
-0.33492833
-0.54732317
-0.019234326
0.032251902
0.5634932
0.2296754
0.42168608
0.047277354
0.17787755
0.10952344
0.083584495
-0.8932489
-0.8113047
-0.27916333
-0.3561985
-1.041088
-0.8788839
-1.1657321
-0.9594129
-0.99503547
-0.9673744
-0.99749595
-0.6302322
-0.99354094
-0.7820223
0.024736993
0.031386428
-0.35219195
-0.41902936
0.26565444
-0.6324956
0.06550611
0.30171067
-0.24909733
0.21227568
0.064737715
-0.119668245
-0.25644028
-0.0028368405
-0.23647854
-0.71417534
-0.38768613
-0.48185566
-0.48561028
-1.2128644
-0.6112918
-0.9080907
-0.96616536
-0.896701
-0.99847406
-0.47684005
-0.856515
-0.33311924
-0.1345569
-0.17959607
-0.40673432
-0.35500893
-0.5864231
-0.30978945
-0.32851455
-0.52247715
-0.9579223
-0.41775092
-0.1882777
-0.329294
-0.3543866
-0.5075103
-0.41073495
-0.14394595
-0.1526362
0.20133935
-0.1955195
-0.23935285
-0.43355003
-0.3678518
0.22778709
-0.059464455
-0.11869336
0.23579249
-0.5489555
-0.39185175
-0.6882074
-0.7858127
-0.851215
-0.20256306
-0.48101592
-1.1867995
-0.50207776
-0.08933536
0.19896328
0.18819568
0.042722385
-0.04586254
0.14063674
-0.13292265
-0.7465397
-0.49262595
-0.3804942
-0.8275938
-1.1719056
-0.86176753
-1.0944712
-1.1172686
-0.57737976
-0.63557786
-0.8349284
-0.103793815
-0.44712862
-0.6521723
-1.0428289
-0.68880653
-0.77296346
-0.107564926
0.2044988
-0.07581996
0.30473995
0.38570493
0.7376073
0.04169
-0.3980183
-0.111872695
-0.10712371
-0.13515337
0.031571988
-0.24892153
-0.2185835
-0.38794905
-0.8265166
-1.2686629
-0.74139994
-0.6180276
-0.5469282
-0.46735096
-0.3389428
0.22022577
-0.50860035
-0.13596596
-0.740037
-0.26899946
0.10635841
0.24694927
-0.03508888
-0.31003833
-0.12133573
-0.4306741
-0.12087885
-0.49118525
-0.5647395
-0.53990054
-0.22424991
-0.11532229
-0.36882704
-0.07588159
-0.1705377
0.0631164
0.006978332
0.19059679
0.5547839
0.33227125
0.116904445
0.3561711
0.16796257
0.44818336
-0.067138016
-0.5576625
-1.0487177
-0.83937365
-0.54557794
-0.20403372
-0.14125891
0.07030851
0.3871088
0.6118659
0.83562696
0.28613186
-0.29043862
0.11362747
0.055873264
0.009542266
-0.56781286
-0.010798336
-0.9315767
-0.44126976
-0.82783663
-0.932936
-0.28880826
-0.3161874
-0.6449169
-0.41098815
-0.6607275
-0.46029788
-0.59510136
-0.8868505
-0.6623543
-0.50156254
-0.38323572
-0.08930569
0.09320967
-0.023214396
0.6014378
-0.23766884
0.056201864
-0.2508334
0.30670628
0.41343045
-0.19980685
0.51362044
-0.131346
0.027542206
0.20797136
0.11876582
-0.2383801
-0.9868371
-0.06826048
-0.26328936
-0.102403335
0.08629053
0.05708261
0.0755838
0.14372316
-0.07908518
0.12527917
0.5998938
0.1714741
0.39987063
0.20275328
-0.27266678
-0.21592166
0.106017955
-0.29583758
-0.6185305
-0.2802058
-0.41295153
-0.25008777
0.2649889
-0.2915463
-0.14936961
0.43508813
0.47940314
0.3019582
-0.026774049
0.6642478
0.78211534
0.8827657
0.5902689
0.38951212
0.5036941
0.96190464
0.8171146
0.39855897
0.6145478
0.20319425
0.3123148
0.14680958
-0.03508457
-0.16308253
0.54647624
-0.1330009
-0.25189295
0.45546606
-0.3218784
-0.0195208
0.43613395
0.1597119
0.05478791
0.29718354
-0.16543575
0.26051828
-0.4198937
-0.053871393
0.057088874
0.24514808
0.27618614
0.45190656
0.49923187
1.1434126
0.9740605
0.99968547
1.1049016
0.99814075
1.0164044
1.1922398
0.8905685
0.6899229
0.025471823
-0.0073594195
0.22972329
0.5326788
1.0099157
0.1364986
0.11582686
-0.1320797
-0.027922528
0.30227953
-0.11492939
-0.35362187
-0.007017872
0.24471693
0.5085773
0.44234484
0.19498576
0.424583
0.540354
1.2330987
1.2396507
1.2319171
1.3333455
1.1758254
0.81697536
0.5067104
0.3964407
0.36101356
0.54177773
-0.17043483
-0.05940381
0.012786951
0.13413
-0.18204151
0.5839958
0.5679417
0.90478337
0.8482733
0.9336682
0.84050256
1.0839359
1.1983557
0.9481759
0.8678236
0.6857754
0.6659758
0.6744127
1.2737671
1.2633716
1.5042408
1.4996302
1.3578423
1.0839586
1.3430265
1.1632845
0.5682756
0.6369354
0.5885531
0.6119406
0.38143346
-0.20501672
0.09147042
0.74066156
-0.043939717
0.6939659
0.060431708
0.0956172
0.34794977
-0.0520625
0.22021018
0.28057438
0.45387107
0.14878717
0.33168456
0.33425957
1.2206099
1.3016679
1.3339367
1.3555789
1.383845
1.410769
1.222253
1.1598389
1.1711011
1.4808226
0.623319
0.41851172
0.68509775
0.39548504
0.2302898
0.5653907
-0.222529
0.087232225
-0.21922211
0.5409236
0.2988802
0.01012647
0.19485322
0.0639891
0.25783613
0.1872163
-0.01477556
-0.06771037
1.0034094
1.0915349
1.2234334
0.76250565
0.45172548
0.64286155
0.67898875
0.85963076
0.58761615
1.1035488
1.0258288
0.76196474
1.3543447
1.2931756
1.3821661
1.2069381
1.3120036
1.4564267
0.7916723
1.7487507
1.2797596
0.9665054
1.284651
0.94447845
0.7655857
0.33623418
-0.037593305
-0.38589016
0.74850535
0.7494226
0.8833376
0.51569027
0.55618876
0.24824417
0.032610897
-0.013803734
-0.43464682
0.22462472
0.51756316
0.5094772
0.35840252
-0.013780896
0.1568627
0.8883075
0.29322988
0.22521685
0.061554234
0.15259087
0.035373453
-0.07795224
0.60512537
-0.046094704
-0.43916547
-0.77320915
-0.69562453
-0.939482
-0.16544098
0.1359097
0.6871892
0.4921628
0.009292822
0.14404285
0.27584514
0.45303035
0.061078653
0.741507
0.5366492
0.03329028
0.19099495
0.049671017
-0.38900265
-0.14587462
0.12738845
0.15151934
-0.11729382
-0.014654689
0.48258573
0.017792607
-0.06091886
-0.53708017
-1.1999987
-0.7582818
-0.9372035
-1.1318624
-0.46703443
-0.029583527
0.25376707
0.2781197
0.58996314
0.9078782
1.4020134
2.07997
1.0009995
1.7456205
2.027338
1.5295573
1.9135128
2.343717
2.218824
2.3994522
2.0886862
1.8054942
1.3327771
1.5670602
1.315824
0.78402907
0.677925
-0.11254377
-1.1110054
-0.70052063
-0.8454211
-0.9958498
-0.68510455
-0.42742342
-0.54100895
-0.7015908
-0.5977285
-0.7733382
-0.80252594
-0.57662797
-1.193779
-1.2170135
-0.8194592
-0.94199675
-0.57249975
-0.17537038
0.07429914
0.092119165
-0.23122862
-0.09794613
0.16747223
0.53316456
0.8601167
0.94483626
1.0156767
1.3408011
1.1240982
1.0346649
0.70518875
0.45588234
0.23883814
0.0050031384
-0.02159595
-7.8339933E-4
0.19217737
-0.081857465
-0.4505776
-0.33791146
-0.4677379
-0.5992549
-0.53362745
-0.7322142
-0.3164183
-0.3575641
-0.8330267
-0.49670932
-0.8210904
-0.7824267
-0.47928265
0.44355965
0.9556903
1.2601163
1.219543
1.129497
0.75662684
0.5554386
0.4754309
0.20260018
0.05882684
0.17870656
0.14190586
0.13391125
0.352919
0.2385213
0.11515327
-0.03124868
-0.31608155
-0.009905833
-0.38452536
-0.58808476
-0.36597046
-0.50172395
-0.44314444
-0.9015301
-0.5609624
-0.13116291
-0.093297675
0.49426234
0.38762718
0.5784077
0.7275432
0.78487533
0.5735967
0.65857726
0.38779938
0.20313826
0.10253963
0.17251818
0.0013746893
0.28397384
0.16759644
0.019916259
0.38712835
0.06845772
-0.17030479
0.2424475
0.2890463
0.04972767
0.0897048
0.047359984
-0.2225869
-0.64972484
-0.52813965
0.28464323
0.4511068
1.1556329
1.3948578
1.4066579
1.4274517
1.361909
1.2789582
1.1773504
0.675152
0.59750074
0.41021234
0.42958456
0.23440313
0.53029215
0.2938826
0.22389543
0.39707997
0.2507808
0.7300685
0.3290979
-0.077378936
-0.100658536
-0.009044764
-0.45016304
-1.0132754
-1.3060542
-0.908667
-0.5587641
-0.5617644
-0.041926153
0.059357505
0.21848553
0.47677246
0.6339663
0.479158
0.5394174
0.29569238
0.29331204
0.2209104
0.20551223
0.06353452
0.2067896
