-0.1841443
-0.1930322
-0.11698556
-0.08824778
-0.09708555
-0.06261675
-0.048629835
-0.06971254
-0.03243055
-0.044285268
-0.041792277
-0.0061505777
-0.0018287799
-0.010562924
-0.028613508
0.020581143
0.02175061
0.15629147
0.21630839
0.18868178
0.23859428
0.18682629
0.1360531
0.088518135
0.004316699
-0.020409541
-0.06838179
-0.105857566
-0.053516142
-0.074816145
-0.04999251
-0.007208696
-0.03074864
-0.026097631
-0.022707976
-0.060932256
0.003611999
0.017539991
0.005793785
-0.04550738
-0.062464315
-0.12032673
-0.075649284
-0.089689255
-0.03285431
0.08447011
0.18936266
0.1743089
0.22580226
0.24079627
0.15558657
0.1349233
0.057323013
-0.013721509
-0.050117478
-0.07704228
0.020809537
0.027029736
0.037667695
0.05292269
0.061815083
0.09304978
0.18099663
0.1733647
0.09569982
0.1744754
0.1332667
0.07599645
0.11266236
0.088116564
0.11049086
0.1157703
-0.01562728
0.033771597
-0.0044844737
-0.030472608
-0.007831262
0.026313074
0.10898441
0.057550818
0.13317916
0.08588336
0.050724484
0.053205542
0.058379717
0.061778028
0.114807084
0.17044795
0.18179864
0.25104204
0.46452868
0.3943571
0.23110028
0.21714589
0.124132276
0.01336573
-0.060428314
-0.101435564
-0.06696118
0.047413856
0.0273365
0.039941695
0.08743582
0.09502954
0.18240485
0.16353098
0.071716174
0.06427733
0.3679225
0.28383112
0.15959205
0.19847257
-0.06363837
-0.09163819
-0.20048541
-0.27791998
-0.31403086
-0.31142765
-0.21764699
-0.21897231
-0.1696479
-0.10535917
-0.138767
-0.20984894
-0.21485111
-0.28425482
-0.28368083
-0.14742592
-0.23016866
-0.2800156
-0.24208742
-0.17653205
-0.17126217
-0.23012252
-0.30431825
-0.18702056
0.05117413
0.027521651
-0.13642976
-0.06950056
-0.23804879
-0.4264896
-0.49077675
-0.33924726
-0.33472466
-0.22093119
-0.19082054
-0.2045799
-0.19715439
-0.051252354
-0.121709906
-0.16958
-0.18561177
-0.26094383
-0.31600913
-0.15112662
-0.21290958
-0.17736062
-0.124015644
-0.23819384
-0.17788365
-0.20509799
-0.31434178
-0.38491797
-0.22033599
-0.06338759
-0.20596199
-0.14241251
-0.087027185
-0.4042268
-0.3884912
-0.17754205
-0.3314749
-0.24952589
-0.22010583
-0.22100131
-0.15311098
-0.060493544
-0.04860104
-0.102534324
0.008360727
-0.09745553
-0.10339893
-0.019663379
-0.117493674
-0.22946255
-0.20078775
-0.31230432
-0.26152575
-0.34009662
-0.39834625
-0.19612664
-0.12204038
-0.036793806
-0.25839874
-0.13365354
-0.060118504
-0.4444191
-0.361138
-0.3908567
-0.39531225
-0.3011005
-0.34980136
-0.33531255
-0.3091516
-0.18266442
-0.1488954
-0.19910952
-0.100385316
-0.18960734
-0.21867049
-0.10582412
-0.25797823
-0.40439275
-0.42661336
-0.40289432
-0.23075466
-0.24453793
-0.33729985
-0.24312826
-0.18374783
-0.15684138
-0.25105247
-0.13867287
-0.056485012
-0.22771692
-0.36809388
-0.36908534
-0.4601317
-0.4710559
-0.4338177
-0.41196096
-0.37813613
-0.34315547
-0.30019006
-0.3561535
-0.15772699
-0.11759332
-0.051174756
0.10658171
-0.06875666
-0.10842654
-0.046618752
-0.19887821
-0.21311864
-0.20089015
-0.27020496
-0.19725989
-0.14948897
-0.19833907
-0.29434472
-0.2195863
0.08366256
0.06973546
0.13603033
0.207456
0.006963634
-0.07591901
-0.0038658478
0.0756859
0.14616159
0.22003798
0.28833088
0.14786553
0.21178786
0.12434793
0.011943644
0.14693286
-0.08741641
-0.12682696
-0.14863826
-0.13327229
-0.21409419
-0.26296037
-0.3259126
-0.19838963
-0.14219156
-0.22640635
-0.31450534
-0.22937778
-0.040665768
0.046024077
0.06654248
0.22977658
0.197521
0.23335966
0.3105682
0.15506424
0.3406573
0.4064425
0.3380243
0.33464277
0.3856066
0.30333012
0.17206001
0.31696308
0.12875895
0.1692414
0.22287902
0.22963907
0.30792135
0.19403388
0.17641252
0.27353197
0.33700407
0.27640852
0.27557513
0.30813652
0.1996162
0.12708297
0.08820011
0.23950459
0.19864127
0.24553844
0.21824484
0.15593863
0.28781435
0.31939372
0.2243347
0.29432967
0.3676275
0.21168908
0.16161534
0.2637642
0.13140541
0.14174663
0.23032854
0.229368
0.19442107
0.23671557
0.16827534
0.23545516
0.3835385
0.3912376
0.3249997
0.30724305
0.19325584
0.14657477
0.123503104
0.20859002
0.21253045
0.18905286
0.19247833
0.16696125
0.32375473
0.35860246
0.23097004
0.2577724
0.40913427
0.2879725
0.2941395
0.37863266
0.29265946
0.2672701
0.30132484
0.24877357
0.25702435
0.32428485
0.35005713
0.30851543
0.4797393
0.37159824
0.2708912
0.22291142
0.12558879
0.005902322
-0.07722072
0.007876816
0.04979735
0.06334783
0.063238546
0.005912519
0.09092192
0.16389114
0.16315581
0.09845464
0.19159892
0.14826682
0.14267999
0.22036377
0.082824536
0.11939691
0.093337625
0.06784418
0.11026606
0.21580891
0.19522779
0.16195557
0.2871533
0.09915879
0.04967501
0.08657589
0.021900516
-0.112098135
-0.07048987
-0.0288929
-0.017341146
-0.010865711
-0.038325798
-0.042086218
0.028388528
0.08355998
0.06732241
0.08747411
0.20745325
0.17611428
0.11016652
0.22862482
0.0934153
0.03528822
0.00561544
-0.06233848
0.122343555
0.32039982
0.20124207
0.12588745
0.19197236
0.09986865
0.010186801
0.035344984
0.014541244
-0.048029847
-0.060694788
0.11677668
0.14040457
0.0979462
0.122746125
0.15922427
0.23342244
0.3293442
0.35731637
0.43438303
0.5169776
0.4354059
0.36658382
0.48236477
0.38834703
0.32142937
0.2011169
0.16359118
0.39087063
0.5087426
0.38817167
0.40492016
0.40451443
0.24680664
0.14403425
0.10651893
0.10527813
-0.048309483
-0.019826
0.16334862
0.1379492
0.0018287638
0.05155871
0.07192713
0.07854795
0.11949713
0.106320426
0.14273186
0.15560292
0.04909313
-0.03929896
0.11023409
0.043939088
0.0019338568
-0.013980884
-0.012095536
0.18292911
0.3345099
0.21575323
0.20941512
0.17563777
4.1878264E-4
-0.05014922
-0.028135477
0.01578517
-0.010138208
0.077806994
0.09418107
0.11436587
-0.0974919
-0.025228227
0.08693928
0.23069887
0.36441842
0.3211986
0.29131564
0.3280813
0.28736848
0.17113674
0.26620767
0.25194487
0.013612411
0.12689647
0.028064353
0.146515
0.34912053
0.22308314
0.15662271
0.11546883
0.015282945
-0.018885896
0.10968452
0.083428435
-0.15601584
-0.15473369
-0.25722432
-0.24148074
-0.20193541
-0.15990451
-0.074842535
-0.017808255
0.14391609
0.16653799
0.12646429
0.23811755
0.1562065
0.0074545783
0.08674683
0.09097266
-0.20504685
-0.12192021
-0.22600149
-0.086009555
0.008020785
-0.14506698
-0.21439973
-0.15527983
-0.3139481
-0.36254433
-0.20927317
-0.27618644
-0.4018899
-0.6280274
-0.38867936
-0.37367317
-0.3411538
-0.2651222
-0.17496803
-0.070443206
0.031352993
0.09660912
0.079632916
0.15258925
0.05026998
-0.038533296
0.024008056
0.022946626
-0.05943643
0.011822486
-0.12402092
-0.10743559
-0.060571395
-0.10559314
-0.08153822
-0.09233723
-0.2594182
-0.35399434
-0.3721467
-0.034958046
-0.25185105
-0.22382987
-0.030252758
-0.043816283
-0.014423393
-0.100411184
-0.17498817
-0.25692132
-0.05710433
-0.06143369
-0.058524348
-0.067499004
-0.16233662
-0.13681689
-0.059098255
-0.122856565
-0.09767264
-0.13112895
-0.3363931
-0.3644164
-0.32574517
-0.4352221
-0.4679907
-0.53852373
-0.6216202
-0.5091917
-0.3262782
-0.1703963
-0.31506225
-0.32940048
-0.38627884
-0.5468449
-0.38960534
-0.3146489
-0.30551362
-0.35595685
-0.16528447
-0.18947355
-0.22346608
-0.17155331
-0.25425774
-0.25475413
-0.11118737
-0.12456314
0.0052583762
0.030511415
-0.12394392
-0.17052151
-0.162311
-0.2393884
-0.31981388
-0.3452306
-0.5219528
-0.6214004
-0.5563507
-0.20992564
-0.5134368
-0.4892342
-0.4239622
-0.24842289
-0.18345334
-0.039710294
-0.054697964
-0.015995057
0.11413378
0.055174187
0.068676606
0.010340898
-0.08134533
-0.14341621
-0.02068732
0.009732422
0.014265137
-0.0035060402
-0.1525196
-0.07119248
-0.0721107
-0.17892338
-0.25533015
-0.34402454
-0.54089195
-0.5680697
-0.24682233
-0.29801658
-0.5151372
-0.3423882
-0.15169923
-0.10961053
-0.002708511
0.064835586
0.05206137
0.113776
0.17050083
0.09350496
0.11981493
0.07393522
-0.04457709
-0.11503649
0.05598502
0.044734083
0.01640775
-0.006612367
-0.13907553
-0.1281527
-0.07565415
-0.22672844
-0.2802122
-0.24540447
-0.12167532
-0.22215474
-0.1510391
0.072814934
-0.02027941
0.17908117
0.23711531
0.20204261
0.23343359
0.29882205
0.2181816
0.30141756
0.32136273
0.16875362
0.10351967
0.09588469
-0.023284916
-0.06946026
0.08059636
-0.020410214
-0.07189233
-0.08956173
-0.17623687
-0.14509174
-0.018979842
0.037915938
0.1620794
0.25617653
0.13814195
0.07793817
0.09593826
0.14360726
0.188343
0.08973252
0.052134488
-0.026498353
-0.013020093
0.056922898
-0.09034028
-0.05006348
0.021215262
-0.13018009
-0.17878813
-0.26986834
-0.45843393
-0.48290884
-0.29174688
-0.18727444
-0.11937281
-0.046921555
-0.13546725
-0.007334983
0.030676337
-0.025714213
3.4917897E-4
-0.022666067
-0.04501192
-0.058837485
-0.011218225
0.042223874
0.05476152
0.07300925
0.14060567
0.1801173
0.2208574
0.2401491
0.17545079
0.107929535
0.19113746
0.11902755
0.11582522
0.11255087
0.04813202
-0.028369205
0.055587195
0.04075623
-0.06748752
-0.1177162
-0.18154658
-0.0784826
-0.111350864
-0.13223132
-0.122620456
-0.18696234
-0.15383443
-0.116098404
-0.118730865
-0.09688112
-0.08472729
-0.09804245
-0.05712265
-0.01456736
-0.009818948
-0.0038045
0.011136362
0.03576505
0.04775513
0.056548953
0.06162676
0.086864814
0.053582624
0.003704836
0.043674424
0.03891837
-0.0633557
-0.097307146
-0.111596525
-0.07982111
-0.09239334
-0.13492325
-0.12974665
-0.19853714
-0.16795264
-0.15599895
-0.17591198
-0.19557533
0.0049297614
2.9498026E-6
-0.022294672
-0.014961804
-0.012909351
-0.0242397
-6.570804E-4
-0.02128881
-0.026550338
-0.010303535
-0.01582644
-0.017123794
-0.0011534384
0.0029679928
0.0075185834
-0.007831987
0.013806781
-0.021490999
0.010482957
-0.003757723
-0.008092694
-0.025605837
-0.01305541
0.0027703526
-0.01113539
0.0073771426
-0.013832044
0.010782876
-0.0033111225
-0.017021365
-0.011388964
-0.02071198
-0.016687622
-0.026682168
-0.028619325
-0.0077798446
-0.023336342
-0.0054800557
0.011412435
-0.019214835
0.0074281343
-0.006484446
0.0059747924
0.007021622
-0.0055274284
0.011116918
0.0018732646
-0.010740483
0.010058286
0.006616731
-0.011724554
-0.019997913
-0.012735962
-0.027478645
0.0032959334
-0.018626718
0.015495102
-0.013516047
-0.007578082
0.0060144486
-0.023860963
-0.010755627
0.0034574997
-0.023053965
0.010515979
-0.0021350454
0.0028478268
0.006294625
0.015856951
-0.020853769
-0.002425993
-0.01155933
0.015987726
-0.012886216
0.009958322
-0.015617571
0.0074894107
-0.016784865
8.7265467E-4
-0.009079643
-0.0011057246
0.0074558267
-0.0096895825
0.013547937
-0.008051103
-0.014858111
-0.0011676083
-0.018973507
-0.004080295
-0.009359054
-0.016252568
-0.0052046957
0.01430066
-0.0058067283
-0.016258812
0.0075186347
-0.0032198315
0.014445475
-0.010609631
0.004478108
-0.015643498
0.006921785
0.012260011
-0.013302312
-0.018818218
-0.005233737
0.011604501
-0.006126021
0.004356036
-0.022327457
-0.017588468
-0.021778526
-0.013141669
0.0062546823
0.01001596
-0.0026897436
-0.013160771
0.0019192155
-0.01222661
0.017532371
-0.005122309
-0.018306118
-0.011457391
-0.014328578
-0.018314555
-6.7599094E-4
-0.006122866
0.020147573
-0.015299714
-0.008558405
-0.007850279
-4.2100553E-4
-7.9537556E-4
-0.022101603
-0.009201426
-0.005499933
-0.022930786
-0.016881805
0.013738691
0.009932919
-0.014893338
-5.1810476E-4
7.6397567E-4
-0.0065694014
-0.007484961
0.006075428
0.004561828
6.0777774E-4
-1.2426381E-4
0.011325571
0.0018307749
4.0537983E-5
0.013369271
0.012623017
-0.0029524083
8.335656E-4
1.8830452E-4
0.012600253
0.0148997875
0.019385293
0.015022914
-3.1892408E-4
-0.01131261
-0.012988073
7.911583E-4
0.017131764
0.018827016
-0.009422599
3.301249E-4
0.01232979
0.016462063
-0.009729208
0.009085086
0.020784335
0.009942648
-0.003702986
-0.0032926556
-0.019390542
0.015984926
-0.0024983208
-0.018497787
0.019930763
-0.013476075
0.0055455253
0.003393612
-0.012154368
0.009654607
-0.013697234
-0.0076533994
-0.009307843
0.0034207567
0.003166871
0.009890325
0.0164624
-0.0127298795
-0.0134263635
-0.0023077573
0.0029210527
0.0053310287
-0.019703142
0.009065619
0.014172597
0.012170444
-0.00712257
0.016141193
-0.015195613
-0.01675312
-0.006439409
-0.01153885
0.0052084997
-0.005427034
-0.0016242974
0.003976813
0.006843642
0.001281841
0.0017005875
0.0050401515
0.0038137904
-0.014090346
-0.0012791783
-0.004721447
6.359231E-5
0.013545321
0.008851315
-0.012915323
-0.015029805
2.429372E-4
0.009146053
0.02040087
0.008943504
-0.008090873
-0.009367188
0.01108714
0.0014857763
9.1596215E-4
0.016210392
-0.0045864275
-0.017368883
0.018330686
-0.0014559701
8.723885E-4
-0.0055733947
-0.015151719
-0.0014432061
-0.004437305
0.009995067
-0.014438108
2.8015586E-4
-0.011290648
0.017045513
0.01859346
-0.00972246
0.00595892
-8.559884E-4
-0.0107189305
0.01692967
0.002525881
0.0068743937
-0.019667836
-0.019048946
0.011225063
-0.014088346
-0.019583864
0.010739443
0.0025684363
-0.019208824
0.018607507
-0.0034880887
0.0094240075
-0.017132998
0.0058869
-0.005727258
0.004171076
-0.011200646
0.016727615
0.018465627
-0.0057398817
0.009605415
0.009633151
-0.011676222
-0.014555648
0.004078319
0.0065772925
6.8396557E-4
0.01012502
-2.0742061E-4
-0.012429537
0.007081349
-0.012057716
-0.011897982
-0.0072635897
-0.015538183
0.0053119664
-0.0051598805
0.016644938
3.4832855E-4
0.020998452
-0.002754006
-0.003651327
0.0022707086
0.017524924
0.013075887
-0.0075125266
-0.01747475
-0.013409838
-0.0177153
0.011195218
0.017250512
-0.009491931
-7.343198E-4
-0.010009246
-0.011270391
0.008289592
0.015630834
-0.019574005
-0.009162103
0.018435303
-0.019379446
0.019890904
0.020140193
-0.013843001
-0.004788937
-0.010004426
0.01981386
0.017509844
0.023002764
-4.1344916E-4
0.009130904
0.003691866
0.017096084
-0.0015378491
0.0060533313
-0.00765705
-0.013131148
-0.016614487
0.015475533
-0.010073503
-0.00942454
-0.014069713
-0.010447637
3.8991804E-4
0.017422538
-0.014501607
-0.019627975
-0.01191216
0.0010683787
-0.015948443
0.007139169
-0.006815756
-0.0072715585
-0.012069228
-0.016517913
-0.017079972
0.013393215
0.016991382
0.016377972
0.018231817
0.01105463
-0.016755732
4.9542583E-4
5.687301E-4
-0.015030221
-0.020490322
0.008585631
-0.011994233
-0.014900849
-0.017018719
0.0065650893
-0.007254563
0.009368589
0.009744643
0.017450728
0.004367291
-4.064715E-4
-0.013352492
-0.018027836
0.009079855
-0.01741609
0.017543474
-0.012596529
-0.013031941
0.0034594582
-0.005582504
-0.008172477
0.0024422514
0.019549653
-0.0036730478
-0.003101055
0.008555168
-0.004316048
-0.016557155
0.01125203
0.014115834
0.013782318
0.0063548926
-0.016093729
0.005455422
0.0061000497
-0.0037192497
-0.0031332693
-0.017175516
0.015249145
0.021477917
0.019726655
0.016199151
0.021972498
0.018658962
-0.008000226
0.013066709
0.019478418
0.022055445
0.009610635
0.009821798
0.007733975
0.0056223287
-0.0027763208
0.009508346
0.007074752
0.018696284
-0.014817277
0.019411558
-0.008526272
-0.015918367
0.009507811
3.1105167E-4
-0.011960288
-0.0029929276
0.0029439537
-0.009917494
-0.00811555
6.413253E-4
-0.013319511
-0.009075127
-0.012074048
0.013048384
-0.004410002
-0.009156247
0.0023460784
-4.0104307E-4
-0.0097633125
1.823739E-4
0.0037070254
-0.016166301
0.005175466
0.014793571
-0.015276059
-0.009003957
-0.0029249508
0.019588366
0.0058885664
0.009713307
0.0057649836
0.005563141
0.011594868
0.0045335414
-5.039169E-4
-0.005127479
0.022225618
-0.010330756
0.00670862
0.013424419
0.019604426
0.023216318
-0.011920944
-0.009808794
0.009251724
-0.0013619396
-0.0130361235
0.010716033
0.014014089
-2.0495256E-4
-0.011548986
-0.0059179827
-0.002235669
-8.534705E-5
-0.009672149
-0.0013759389
-0.013489695
-0.006079965
0.011101875
0.0051680957
-0.009888905
0.019732919
0.010265166
0.0025063572
-0.015121509
0.015955444
-0.01351541
0.016722748
9.5954165E-4
0.008696683
-0.0016714574
-0.0031103867
0.014382297
-0.018192774
0.011011766
0.0015923895
-0.001457758
0.005745768
-0.019929986
0.015189032
-0.020825287
0.01537797
-0.009789415
-0.0033955553
-0.002853947
-0.018398838
-0.0012866079
-0.007124546
0.005470633
0.0020032811
0.009094178
-0.0023248754
-0.0050262357
0.0058519915
0.021109609
0.0025996864
0.021578196
0.021936238
0.011099629
0.0044805882
-0.013382658
0.009993063
-0.010050807
-0.0191171
-0.010238618
0.002993868
0.016786767
0.002500891
-0.025076909
-0.0057297065
0.012725683
0.0014304088
-0.007476129
0.007993035
-0.0035169658
-0.004319181
-0.005155064
0.014070715
-0.005059888
-0.015216615
0.0066249613
-8.8342093E-4
-0.0046042195
-0.0069288914
0.016535284
0.019100165
-0.001221309
-0.012276416
-0.001459295
-0.0029177915
-0.014422868
-0.0014038869
0.019465439
0.00440447
0.011105091
-0.02093518
0.011127039
0.00803866
-0.011533
0.001972735
-0.015434725
-0.0029086284
0.00957587
0.018083388
-0.018362036
-0.004864048
-0.0066310503
0.019106185
-0.019522576
0.0037702194
0.01783602
-0.0034307528
0.013395493
0.015767235
-0.017364072
0.007610611
0.019046698
-0.0010102876
-0.011932372
0.020127919
-0.003332169
-0.011221021
-0.0026076054
0.0032739136
-0.011061996
-0.008831481
0.012190891
-0.0059565515
-0.014542266
0.0011372755
-0.015366478
0.015211031
-0.017962838
0.012830675
4.926367E-4
-0.01819654
0.0087701045
0.0018687637
0.007695931
0.0090321265
-0.014148418
-0.011394092
0.008598097
0.016426018
-0.008520726
-0.016851438
0.0021884919
-0.012370039
0.016891671
-0.0045475047
-0.017156769
0.011751642
-0.0044771056
-0.011038043
-0.011504078
-0.019121815
-0.00833467
-0.0015292644
0.014715665
0.009767011
-0.010282783
-0.016505057
0.0042689755
-0.011824824
-0.008537062
-0.010958052
-0.007418704
-0.012080649
0.013772928
0.01420574
0.01328227
0.006912125
0.002076854
-0.0026680708
-0.00432899
0.0047437805
0.012335054
0.008105649
0.012240914
0.0033178807
0.0053586066
-0.0045563458
0.015841816
0.00979846
-0.022978598
-0.023071555
0.014835181
0.0068134316
0.018948758
0.017169906
0.013405059
0.019265348
0.0128230285
-0.012765746
0.008976126
0.02146793
-0.01253642
-0.009541976
0.020622322
0.010461305
0.010402584
0.013757637
0.001473012
0.010692639
0.006416826
-0.013148242
-0.008420006
0.0054497407
0.012242831
-0.0113716675
0.0011972886
-0.0042605847
-0.015668089
-0.020561824
-0.018036703
-0.02375325
-0.017695773
-0.02100715
0.0012407829
-0.02265159
-0.007986929
0.0019596415
-0.015208136
-0.011403262
0.009701116
0.016048074
-0.006276415
-0.01531928
0.01116621
-0.020733636
0.008126459
0.00791163
0.008303797
-0.0073890467
-0.019778578
-0.014952321
-0.01332046
0.0028246257
-0.0048164045
-0.020574816
-0.01970073
-0.011434302
-0.03182074
0.004294994
-0.027604533
-0.027346205
-0.01845492
0.0142782815
0.012498711
0.014040431
-0.020246074
-0.009288551
0.007162923
0.017138764
-0.006697393
-0.0011536686
-0.007501779
0.0052374997
0.014619226
-0.018963138
-0.015894746
-0.015176906
-0.00889923
-0.013751927
-0.012262131
-0.02174613
-0.0022579494
-0.010922969
-0.019166851
-0.030666547
-0.031174729
-0.01036815
-0.019692712
-0.029946594
0.0076780985
-0.016758969
-0.0029138047
0.012395719
-0.015949372
0.0053679394
-0.021678157
0.010471239
0.003883397
-0.017265454
-0.0013545315
-0.01911594
-0.0011965241
0.012501596
-0.008530253
-0.0021597582
-0.023906581
-0.009696419
0.0046079415
-0.020828983
-0.018736996
-0.0018954896
-0.0090953065
-0.027748993
-0.0051635955
-0.031287964
0.0022684382
0.0061002676
-0.017173657
0.0041563883
-0.0070780413
-0.004969487
0.017439194
0.0047873654
8.587586E-4
0.01461854
-0.0027292075
-5.710693E-4
0.009092224
0.0154442405
7.2069094E-4
-0.006841468
-0.0122628715
-0.006312741
-0.023107821
0.011458616
0.009105826
-0.019496985
0.015250636
-0.008143719
-0.27448517
-0.35362685
-0.2907345
-0.19104446
0.0028349524
-0.12635608
0.049697198
0.15760726
0.31264976
0.031172898
0.20568703
0.3405148
0.43015894
0.27633747
0.38094985
0.14445022
0.3634732
0.28461015
0.545387
0.46593934
0.80982685
0.8285822
0.44463247
0.37319142
0.50464463
0.2627097
0.22877458
0.015614929
-0.13820015
-0.2678887
-0.24391873
-0.10354177
0.1228125
-0.0381937
0.28235546
0.3765609
0.17275071
0.060048267
0.25253153
0.29067284
0.19308409
0.09149916
0.09366137
-0.25618464
0.17329729
0.25109282
0.18844412
0.12645836
0.46535254
0.43162653
0.08521771
0.23190199
0.35851347
0.040220276
0.156924
0.11621645
0.04851651
-0.07452471
0.090702236
-0.04704855
0.24363133
0.093533754
0.37825426
0.107569456
0.045151614
0.35170943
0.15097217
0.33561212
0.15392655
-0.02195168
-0.044363286
-0.18308407
0.13552687
0.39423558
0.24356204
-0.09896188
0.11865037
0.079397544
0.03847798
0.33023855
0.42788947
0.19709815
0.244313
0.2795461
0.08387527
0.026990242
0.16998065
0.22942074
0.46709058
0.6085306
0.35381424
0.34252587
0.49453732
0.41237602
0.3906445
0.1565476
0.30833164
0.25549427
0.21775864
0.20850554
0.4038744
0.3957268
0.5125935
0.45104766
0.18802688
0.4342782
0.51004934
0.40875295
0.4337897
0.22573037
0.42374483
0.43826303
0.12221085
0.1077986
0.024389062
-0.138982
-0.0680635
-0.014204364
-0.55662036
-0.21686512
-0.05896405
-0.030958865
-0.12509955
-0.09350118
-0.2959054
-0.18144509
0.11309399
0.017448975
-0.0088737
0.09409021
0.15520608
-0.1332759
-0.09841772
-0.12736285
-0.026826983
-0.016124412
0.061781388
-0.06151786
0.0040183053
-0.018754717
0.024591492
-0.10189216
-0.08295545
0.09895876
0.08240757
-0.042899106
0.15696405
0.064747915
0.21241617
0.10281673
-0.0069717383
-0.020577932
-0.2336094
0.138342
0.1423065
-0.18178953
-0.11693095
0.20943233
0.19675796
-0.11160971
-0.533176
-0.20512566
0.00444794
0.05091263
0.36005914
0.056925543
-0.11497216
-0.23128568
0.0945412
-0.12708619
-0.20270595
0.09981841
0.14486289
-0.10812206
0.106381916
1.9634266E-4
-0.022865327
-0.26318052
-0.11757094
-0.4402599
-0.45230144
-0.4141677
-0.4785364
-0.4983668
-0.35026798
-0.04501402
0.16937077
-8.968231E-4
-0.14894006
-0.08094174
-0.19414458
-0.035187203
0.2572774
-0.09914668
-0.14909568
-0.07241903
0.016345985
-0.23714179
-0.39161712
-0.14445826
-0.29605925
-0.31692272
0.10469113
-0.110437155
-0.07720648
-0.41945103
-0.50755423
-0.25325888
-0.3330899
-0.3845271
-0.44270444
-0.62008595
-0.53147477
-0.27672768
-0.17399111
-0.13319254
-0.15449691
-0.25201568
-0.14142758
0.052411266
-0.063075036
-0.33879304
-0.016353305
-0.0051559336
-0.1396154
-0.39116418
-0.5241562
-0.1804584
-0.27455163
-0.12731305
-0.26315093
-0.5155091
-0.29233646
-0.42363518
-0.40491793
-0.1774097
-0.24034299
-0.08578106
0.16820543
-0.042685125
-0.07440242
-0.043375578
0.006558071
-0.15070191
0.084862985
0.50237346
0.14077011
-0.0034771748
-0.14954536
-0.31494546
-0.24302904
-0.21671592
-0.1077914
-0.25795308
-0.3026164
-0.5165079
-0.9165746
-0.62094957
-0.63134235
-0.940908
-0.52472866
-0.5488538
-0.60866123
-0.4023275
-0.58828473
-0.4773036
-0.617183
-0.6703152
-0.69986504
-1.1027988
-0.7517834
-0.7682716
-1.1035887
-1.1912469
-1.077065
-1.1273825
-1.2395924
-1.2775887
-1.1380187
-1.110511
-0.6525276
-0.52470386
-0.39823362
-0.32995936
-0.57353145
-0.38926524
-0.28870666
-0.5730238
0.2640284
0.50205743
0.10797751
0.49960998
0.33418196
0.35317767
0.32391495
0.4434817
0.44721287
-0.17804852
0.047880545
0.18105464
-0.02409664
-0.36523843
0.090158276
0.19811004
-0.10724401
0.14647998
0.31254223
0.37056914
-0.0067653516
-0.185565
-0.12642422
0.012800939
0.032561183
-0.091235906
-0.10006125
-0.022900173
0.07381802
0.005586025
-0.15230833
0.038940255
0.0939726
-0.16223547
-0.25143585
0.041800294
0.062458977
-0.23758198
0.144461
-0.02987782
0.107906304
0.23035875
0.3413442
0.14734657
0.1848666
0.33725405
0.15893932
0.21517311
-0.07048245
-0.021747155
-0.0074912524
-0.023455834
-0.07056954
-0.28754884
-0.32585526
-0.12730287
0.015425708
0.11096453
0.012699617
0.123365544
0.22581625
-0.07751309
0.21929222
0.26523823
-0.041628245
0.049740855
0.29722422
-0.050337628
0.26259395
0.30280623
0.28296563
0.31665218
0.29294533
0.23516014
0.21737982
0.14204471
-0.07532355
-0.05119103
-0.10926537
0.13253689
-0.028539062
-0.12918697
-0.055075645
0.20335135
0.12064603
0.3554794
0.14827433
0.059096534
-0.013969736
-0.20182502
-0.1392184
-0.017882064
0.007123701
-0.108709954
0.37903032
-0.06463178
0.14114465
0.028226146
0.105348215
0.19167762
0.18330276
-0.051559113
0.1323154
0.011582546
0.012705483
-0.118516326
-0.47904286
0.05011774
-0.15961058
-0.080216855
-0.0059362426
0.014537772
0.16538663
0.32958338
0.19111654
-0.09394267
0.0062911487
-0.06355291
-0.2512558
0.029408433
0.044282865
-0.32149726
0.081999816
-0.19561651
0.15610138
0.29469728
-0.0207577
-0.010606406
0.4019557
0.27813601
0.21770802
0.069145285
-0.047707032
-0.12899421
-0.22111253
0.21834767
-0.1286148
0.08615795
0.21976718
0.20907456
0.39821142
0.47488156
0.6838493
0.2858902
0.38268432
0.43751284
-0.08954724
0.12347517
0.3314468
0.079960905
0.28822595
0.26061288
0.3229121
0.32831612
0.1430992
0.19059093
0.5028568
0.5083689
0.26979524
0.17851506
0.13411127
-0.10034077
0.0138159115
0.18906334
0.092731774
0.20131767
0.20139302
0.15305626
0.13732873
0.086938806
0.3528983
-0.06574271
-0.060471907
0.0942306
-0.03489225
0.15251191
0.13616498
-0.20720585
7.303176E-4
-0.113666385
0.12208039
0.25512818
-0.057617303
-0.07485486
0.15931565
0.20677239
0.01132419
-0.08158614
-0.016732626
-0.11835365
-0.014028538
0.12945479
-0.05035307
0.17916135
0.3374121
0.10130453
0.21096563
0.36442477
0.17137149
-0.24857947
0.053424932
0.4137671
0.2036696
0.24643344
0.29960367
-0.048855577
0.0027535663
0.21837065
0.25075334
0.25484625
0.07251721
0.020060793
0.19638233
0.22068419
0.03344343
0.033498008
0.1260943
-0.19665724
-0.20931785
-0.1573614
-0.26940352
-0.07255314
0.029897165
-0.38760448
-0.25602406
-0.13812302
-0.21299143
-0.50539273
-0.31280658
-0.06855883
0.036924727
0.13642918
0.1984875
-0.29340652
-0.13216168
0.13870846
-0.07770241
-0.06877274
-0.18517354
-0.50228786
-0.26001722
-0.23873468
-0.47213882
-0.44996244
-0.24883968
-0.30279186
-0.38097712
-0.16414444
-0.28712744
-0.23986524
-0.108389266
-0.4084836
-0.16618693
-0.04301434
-0.0030168176
-0.22638102
-0.109229706
-0.048039094
0.12393274
0.09166614
-0.045549482
-0.30961457
0.08072225
0.13644706
0.08936777
0.028392954
0.1313635
-0.074188665
0.22065237
0.028284863
-0.45147946
-0.40035886
0.04379286
0.020829942
0.107063726
0.27827454
-0.025762614
0.021451155
-0.116608255
-0.11374614
0.086642586
-0.02714508
0.0737963
-0.080520734
-0.004258804
-0.080193505
-0.29615977
-0.29853785
-0.16861837
-0.29198906
-0.16714947
0.08096725
-0.25116897
-0.30711466
-0.124774635
-0.13324478
-0.2164564
-0.19288303
-0.35443458
-0.2900915
0.13405268
0.066541806
0.08946166
0.0038553814
-0.21316832
-0.06459037
-0.1993893
-0.17232065
0.03431654
0.0761908
0.19998518
-0.005152463
-0.00278718
0.20097604
-0.10395665
0.015402814
0.08122403
0.033622324
0.046855476
0.02159513
0.005902805
-0.30201477
-0.2092289
-0.17723362
-0.076662086
-0.2987389
-0.44092068
-0.46566492
0.09565579
-0.045685798
-0.12615162
-0.019211179
0.013329093
0.082800366
-0.10796099
-0.10680287
0.13950433
-0.032334913
0.11281761
-0.12158108
-0.059783332
0.15103467
-0.15835346
0.004384524
-0.043844998
-0.0041016755
-0.039955527
-0.019665755
-0.18336123
-0.2750061
-0.2597179
-0.1483145
-0.016149519
-0.29760653
-0.2702669
-0.122113355
-0.05172476
-0.08540281
-0.13624911
-0.0046967547
-0.22534414
0.10014325
0.14407027
0.12264388
0.37096325
0.2961566
0.2218078
-0.27273154
-0.21846043
0.06632853
0.05803838
0.23112212
0.20413356
0.12010384
-0.20684053
0.19289155
0.10128679
0.13809079
-0.13741535
-0.13816777
0.09096538
0.032742783
0.07349571
0.01090697
-0.0067136358
-0.053706393
0.07024724
0.049811304
-0.066754475
0.31537497
0.40552673
0.36897156
0.45999253
0.39702407
0.54711336
-0.0029026556
0.17508164
0.40608546
0.21338521
0.30354223
0.13479953
-0.0077683064
-0.08972612
0.16422243
0.122768894
0.13107097
0.11032039
0.30433375
0.5792487
0.29176506
0.27397433
0.23081237
0.04522022
0.085686676
-0.01399512
-0.08840057
-0.22879314
0.023543108
0.04822567
-0.025393395
0.31788033
0.18378387
0.40759683
-0.41823158
-0.2277936
-0.041619685
-0.1934033
-0.17848043
-0.19198838
-0.22501625
-0.40313697
0.07042186
0.21737792
0.14203644
0.14194523
0.26020965
0.19116025
0.100379966
0.07667169
0.034800526
-0.14989628
-0.12330564
0.09551607
0.082035035
-0.16673455
-0.38190594
-0.2907052
-0.24085283
0.087858565
0.29844195
0.10436326
0.07752298
-0.06951243
-0.12773527
0.24095833
0.2737814
0.10329944
-0.19631381
-0.2675357
0.2526311
-0.10788765
-0.013059601
0.0918392
-0.046038307
0.15592906
-0.057245407
-0.115035415
-0.05728089
-0.16241959
-0.18553688
-0.09751658
-0.1605214
-0.3628896
-0.13156314
-0.2967887
-0.37536857
-0.05688603
0.21649401
0.037293922
0.27973124
0.17472264
0.17985222
0.20022516
0.21324544
0.2425313
-0.014984675
0.047922935
0.06420026
-0.08374637
0.008816456
0.039790772
-0.08392994
0.013577681
-0.17319033
-0.22552387
-0.16337453
-0.19344951
-0.14861943
-0.091260694
-0.04309911
-0.3365004
-0.6438571
-0.26555344
-0.6271839
-0.92368233
-0.46891633
-0.2815431
-0.42066947
-0.33488822
-0.38730285
-0.58799005
-0.4562868
-0.8105257
-0.7796998
-0.7001569
-0.8550419
-0.6743301
-0.8728114
-0.8716351
-1.1268703
-1.0227543
-1.0431703
-0.8841072
-0.8401022
-0.30073196
-0.2973612
-0.4512487
-0.37302467
-0.38610858
-0.7061457
-0.21393289
-0.28746942
-0.26466718
-0.34640476
-0.40937644
-0.32849997
-0.023029258
-0.07990607
-0.34408662
-0.24015842
-0.29432288
-0.2019144
-0.26028752
-0.33509895
-0.16367614
-0.1573985
-0.43833336
-0.35389802
-0.34900796
-0.18544127
-0.29015335
-0.5095507
-0.21482107
-0.42093083
-0.6829929
-0.52546823
-0.5901678
-0.41103038
-0.22818045
-0.009542813
-0.22738868
-0.24187192
-0.22947673
0.058318138
-0.3357898
-0.27459925
-0.3764337
0.1799856
0.46008098
0.15098086
-0.3997246
0.12785922
0.20422828
-0.09825053
0.041179575
0.09281889
0.11066593
-0.33110514
0.0078112045
-0.08930165
-0.024700476
-0.15151939
-0.23247622
-0.010597549
-0.18417045
-0.12706344
-0.06704002
0.051032707
-0.81278235
-0.21380953
-0.5885383
-0.12304532
-0.1931468
0.026400479
-0.44707605
-0.5917133
-0.3387848
-0.42828935
-0.3756138
-0.053970538
-0.11875746
-0.47177193
0.25532478
0.3730498
0.27462214
-0.1530153
0.044522207
-0.22299069
0.1482726
-0.024990318
-0.18257786
-0.14162299
-0.016421773
-0.54721445
-0.44067466
-0.24500504
-0.2205636
-0.21164571
-0.19566523
-0.32914782
-0.34220144
0.25967836
0.035703845
0.0492559
0.33228007
0.077378444
0.5037697
0.3034723
0.45845273
0.731936
0.6549033
0.27431616
0.8991814
0.5109402
0.46994904
0.3281605
0.4242527
-0.08884269
-0.13888517
-0.0019922652
-0.10852277
-0.022068782
-0.1242495
-0.08032861
-0.16830564
-0.27406955
-4.056286E-6
-0.14657879
0.06320243
-0.0990796
-0.059770424
0.50030863
0.8061574
0.83249396
0.7184801
0.6641071
0.27276543
0.10861576
0.25423938
0.024028754
0.47707334
0.22796452
0.49942636
0.4350819
0.23004033
0.25787354
0.33029982
-0.2936113
-0.046625942
0.2650172
0.4474836
-0.23182648
-0.29768136
-0.19041489
-0.10590103
-0.052328926
0.16527261
0.5928562
0.43634203
0.5226659
0.96429914
1.1812934
0.8026065
0.7772733
0.72640085
0.5685287
0.74658674
0.6246214
0.70983475
0.5905445
0.6574056
0.6441581
0.31127077
0.043742932
0.16480403
-0.07137379
0.036858987
-0.39408302
-0.30749047
-0.61997765
-0.52043796
-0.27518123
0.05383684
0.062957495
0.27221948
0.4909484
0.27235663
0.29943302
0.5230856
0.4264272
0.2120155
0.3167451
0.048434723
-0.21256797
0.3151226
-0.17107043
0.17194444
0.30189523
0.28384662
0.37611407
0.073310666
-0.104340814
-0.4309919
-0.3087352
-0.22315261
-0.3646481
-0.20386069
-0.438544
-0.19418211
-0.1428691
-0.05516953
0.1854604
0.1968179
0.5309007
-0.23228928
-0.16027439
0.2813812
0.14172927
0.36836863
0.3358796
0.097516075
0.44456354
0.34334296
0.27218503
0.53207374
0.4880127
0.1581773
0.36234847
0.09632725
1.6602298E-5
-0.13786094
-0.37815723
-0.104419015
-0.440224
-0.28925705
-0.29087824
-0.2705588
0.30950516
0.2416268
0.4051813
0.093222775
0.4097546
-0.4127406
-0.47779197
-0.33405173
-0.139191
-0.3763242
-0.24643198
0.058973752
-0.35410812
0.06255772
0.07052888
0.357561
0.42094812
0.19839695
0.35131094
0.019827016
-0.12682262
-0.15384261
-0.27227074
0.09045956
-0.5228579
-0.44025737
-0.018000335
-0.13049056
0.32249445
0.62251556
0.12008253
0.32376614
0.56257856
0.18413086
0.09890286
0.19892268
0.11882005
-0.0658707
0.096276164
0.117490664
0.0963011
0.025834732
0.21329252
0.10246779
0.08568647
0.122652106
0.31586766
-0.053690754
-0.21938032
-0.21974808
-0.23425475
-0.18954177
-0.14617382
-0.41484573
-0.14954706
-0.17627607
0.16526681
0.14271978
-0.11974354
-0.14232999
0.3968804
0.037329867
-0.40686485
-0.04586752
-0.24932802
0.2377505
0.40470374
0.3007639
0.13854867
0.15386838
0.07250189
0.2107046
-0.06523574
0.1106722
0.16551352
-0.087318465
-0.25392845
-0.28237703
-0.012797944
0.02035475
0.41059196
0.04562957
0.2562384
0.2913574
0.24637972
0.44797474
-0.046661388
0.11058752
0.37720665
0.39428163
0.32012832
0.6583504
0.24904455
-0.10514708
0.114581004
0.13197735
0.17610088
-0.15608536
-0.18170345
-0.014571927
0.16300048
0.11449742
0.0524272
-0.11368372
-0.3069852
-0.47241822
-0.1997477
-0.023582121
0.3849649
-0.34136418
0.03529169
0.08120632
-0.35718733
0.0026577245
-0.008521448
0.12884434
0.38115996
-0.024671061
-0.091201365
0.30980036
0.32160106
-0.15975381
-0.011560408
0.3275516
-0.031612813
-0.09482127
-0.086752765
0.029804697
-0.15100436
0.051053334
0.07037184
-0.15096983
-0.23932284
-0.26096916
0.059565965
-0.089716144
-0.2138491
-0.15739602
-0.22809756
-0.30399626
-0.10887972
0.18455055
0.009215897
-0.17337953
0.45941064
0.012182696
0.032679953
0.3234792
-0.13367261
0.01902733
0.18791623
0.12596233
-0.015210534
-0.0064563756
0.14696582
0.007887998
-0.15666083
-0.108299635
-0.0049615917
-0.16258912
-0.13899055
-0.26459703
-0.0021284097
0.1095019
0.065446235
-0.00972562
-0.075883664
-0.18728182
0.24127363
0.4454352
0.07600136
-0.16775936
0.38143718
0.37955937
-0.013217005
0.45524147
0.3680625
0.15400124
0.44118488
0.51786095
0.31487012
0.2578756
0.1044979
0.27933094
-0.037450515
0.31547374
0.013090502
0.02240963
-0.28802556
-0.35011217
-0.10998926
-0.15028833
0.18440491
-0.0022138986
-0.32884544
-0.32139388
0.3871445
-0.24810083
-0.13523948
-0.08650594
0.07599773
0.119192734
0.020467725
0.43079546
0.3609819
-0.14618582
0.3375634
0.07578818
-0.037957367
-0.03427566
0.18437704
0.118684486
-0.30670497
0.09322253
-0.13050218
0.01022133
-0.051368117
-0.010053029
-0.032616504
-0.15751697
-0.2419745
-0.0016390245
-0.0906626
-0.11552931
0.34488884
0.16818479
-0.020580018
0.12915814
0.14792518
-0.16693147
0.2727146
0.33299023
0.3117861
-0.06730047
-0.020525094
-0.044232566
-0.1836324
-0.08009322
-0.31076407
-0.24098197
-0.004261323
0.16603123
-0.046006676
-0.0977516
-0.12540865
0.008166389
0.11792512
-0.35771382
-0.13721953
-0.012822632
-0.16458318
0.03536831
0.36398134
0.051766783
0.0036292572
0.43758535
0.20252661
-0.13512023
0.12114941
0.2548853
0.40460354
0.34180555
0.22202666
0.33551642
0.19564529
0.10322621
0.019405618
-0.31983614
-0.17429411
0.3493918
0.08822061
0.06914465
0.04667707
0.30407012
0.30637443
0.013063657
0.12827246
0.13285136
-0.17407957
-0.51566744
-0.12698089
0.17742625
0.22884293
0.34305182
0.26459354
0.3793718
0.22108874
-0.23056604
0.026800938
0.5113784
0.16026188
-0.022694245
-0.016564291
-0.14615826
0.09706845
-0.18876335
-0.17206067
-0.07043722
-0.11453211
-0.07904427
0.21297154
0.21880043
0.2329069
0.16258588
0.11804
0.36197335
-0.11364551
-0.054619055
0.1775318
0.463904
0.44836336
0.20579989
0.2550301
-0.19085892
-0.12043403
0.14138722
0.30280152
0.43914878
0.17495587
0.3838632
0.25513968
-0.38492644
-0.21193032
-0.19689623
0.06480557
0.03395378
-0.16228294
-0.21002743
0.07317313
0.07512168
0.24099444
0.37326932
0.40744305
0.64019233
0.17912844
0.073068835
0.17777532
0.013515033
0.19800739
0.3545065
0.22320719
-0.22669442
-0.09670084
0.14135055
0.16779266
-0.02177627
0.0021095183
-0.28380632
0.01832737
-0.22227311
-0.088241324
0.1534685
-0.027933033
-0.21013038
-0.10770048
-0.07608107
0.06658052
0.11612062
0.104611985
0.45624372
0.14731225
0.44294977
0.31855756
-0.041846856
0.23628478
0.30648434
0.104051195
0.1360052
0.075648814
-0.16310574
-0.11267822
0.011660631
0.2484317
0.024639057
0.41504854
-0.31504172
0.008911873
0.35741422
0.0337354
-0.14404263
-0.114107594
0.071948
-0.058945797
-0.15424186
-0.038228672
0.03020476
0.37693197
0.618716
0.13080058
0.25432655
0.37491944
0.5236097
0.17967923
0.33847314
-0.010721108
0.055595376
0.1674239
0.592416
0.35076818
-0.04571174
0.027788986
0.04233161
-0.22367637
-0.15508816
-0.049948998
-0.14873278
0.021371158
0.10169913
-0.4513532
-0.26290786
-0.3501712
-0.18016352
-0.008231381
0.11253247
0.16396424
0.389922
0.2783251
0.33860144
0.1473156
0.3068188
-0.14643402
-0.23476192
-0.06701732
0.08800058
0.024356548
-0.09613641
-0.5392153
0.060831226
-0.018877944
0.16525333
0.114708014
-0.095961645
-0.06928591
0.080287166
0.07652145
-0.14105001
-0.2884595
-0.3236281
-0.21055615
-0.015818197
-0.17702529
-0.07784431
0.09345895
0.26897496
-0.29639232
0.4482748
0.018166453
0.20243858
0.31179944
-0.011785413
-0.0024156228
0.12541582
0.40250185
-0.06556853
-0.51963353
-0.46523547
-0.29609022
0.20015189
-0.33978662
-0.31783476
-0.41145602
-0.33091334
-0.15227847
0.3528674
-0.05088422
-0.045530636
-0.1767006
-0.044655878
-0.31267884
-0.02288142
-0.49986985
-0.0031585204
-0.5737365
-0.33793253
-0.47220927
-0.2311887
-0.64789474
7.849848E-4
-0.022447867
0.21421778
0.08036601
-0.17815503
0.15731387
0.15464517
-0.050019387
0.0999816
0.01818732
0.03686719
-0.50702924
-0.12208041
-0.22509813
0.01972104
-0.13147223
-0.24447526
-0.055353407
0.03688156
-0.1432027
-0.38233742
-0.5511469
-0.080964565
-0.4101066
-0.71411586
-0.6760699
-0.54172975
-0.5655293
-0.19921196
-0.4184495
0.025843076
-0.49539652
-0.46707743
-0.12261506
-0.14111091
-0.29230523
-0.4826843
-0.20662671
-0.08544165
-0.5119484
0.20823891
0.25424704
0.2881348
-0.05792181
-0.3469251
0.0871349
0.09487913
-0.2192818
0.6610844
0.4434907
0.4810959
0.41768774
0.6640247
0.95040685
0.62532055
0.5277065
-0.0012609229
0.11519263
0.18837999
-0.1257839
-0.24042286
-0.30254897
0.10267667
-0.073542446
0.06327819
-0.05974023
-0.6688162
-0.10987013
0.10340271
-0.14371984
-0.029133195
0.2443398
0.5747547
0.32703465
0.5962669
0.71177846
0.84812784
0.68076557
0.72181904
0.5581872
0.65603733
0.519875
0.27057213
0.14380135
-0.047509275
-0.12493569
0.25218305
0.09213277
0.08575777
-0.3969802
0.41572237
0.070477374
0.20131202
0.15990788
-0.5941378
-0.48219866
-0.03842112
-0.11009613
0.12881447
-0.01126465
0.105669886
-0.19894251
0.23123169
0.61285657
0.727598
0.47410667
0.32060137
0.16730922
0.44661367
0.33930323
0.29506022
0.37884897
-0.31535032
0.19196247
-0.14882925
-0.5669568
-0.87648886
-0.5251137
0.2866926
0.11360944
-0.13853402
0.18382443
-0.0389301
-0.17281882
0.51956725
-0.5405762
0.52324206
0.7076689
0.33161438
-0.25320503
0.39527956
0.18737955
0.5853893
0.2678836
0.19444413
-0.041645076
0.4275418
0.16929805
0.33491206
0.12515303
0.31054577
0.24831545
0.5804061
0.63763523
0.051554903
0.21294573
0.09464548
0.2412332
-0.53524774
-0.21333931
-0.27131203
-0.42520732
-0.46361783
0.0341175
0.2884503
-0.18002246
-0.018566879
0.14204018
0.31935978
0.14071512
0.50310946
0.2877653
0.12590936
0.12520654
0.4009072
0.089281976
0.0566223
-0.05110727
-0.190338
-0.12317639
0.31367975
0.1586954
0.025087526
-0.0046056956
0.010622188
-0.03769212
-0.22062084
0.33280566
-0.3727055
0.1108499
0.13925289
0.4615574
0.18684258
0.088522054
0.112291805
0.11581511
0.044278473
0.12342306
0.43280545
0.31189463
0.21354061
0.06234353
-0.014813984
-0.16542967
-0.06790339
0.058099825
-0.112847425
0.35292807
0.49719554
0.358162
-0.10706366
0.12921087
0.11301876
-0.46618986
-0.06627141
0.36578932
0.047728367
0.3139689
-0.40776396
0.20621331
0.4055656
0.09259173
0.014071966
0.4113263
0.36566693
0.045408513
0.73461956
0.6396716
0.042442642
-0.105073184
-0.2121328
0.044796553
-0.048990186
0.43331006
-0.16248491
0.37101468
0.42278832
-0.018870335
-0.22252642
-0.14705817
0.23483297
0.07749341
0.11094496
0.26624906
-0.1337549
-0.1399974
-0.1982301
-0.3601757
-0.13238887
-0.43716374
-0.21618807
0.31910294
-0.20075475
-0.89856726
0.23718317
0.16084869
-0.42018032
-0.39168584
-0.30343872
0.37165642
0.31558743
0.31026435
0.41893926
0.24313757
0.2538189
0.2626817
0.023040535
0.13361368
0.6400909
-0.24213225
0.4263092
0.47330272
-0.07425313
-0.04525094
-0.11558273
-0.5635117
-0.42847693
-0.799303
-0.1652577
-0.4448783
0.019310573
-0.6442469
-0.0016345214
-0.23901674
-0.14772959
0.19157682
-0.03861656
0.07129034
-0.05255111
0.10995398
-0.32963172
0.5691491
-0.25454208
-0.5072756
0.028860072
0.042875964
-0.123838365
0.1649962
0.500426
0.3575764
0.089821786
0.23907337
-0.205594
-0.43364948
-0.7105493
-0.76697797
-0.15505648
-0.49004316
-0.06471514
-0.6035868
-0.14143807
-0.29195437
0.08507789
0.11490336
-0.2640307
-0.21506938
-0.07320216
-0.14184928
-0.25931248
-0.37814543
-0.31279278
0.22813447
0.18334877
-0.07412199
-0.08283665
0.23381308
0.78615814
0.9169714
0.78046477
0.20482697
0.29666743
0.049775552
-0.42664477
-0.31873178
-0.17455366
-0.5420994
-0.21080789
-0.73960793
-0.121810466
-0.2003936
-0.13039726
-0.040924978
-0.12929074
0.15344663
0.09428831
-0.08082099
-0.48522627
-1.0934546
-0.52307796
-0.09308052
-0.15418337
0.41712326
0.5552655
0.35081723
0.6640629
0.6096687
0.29974467
0.29260847
-0.49288577
-0.37680903
-0.3831166
-0.1910147
-0.25981545
-0.49904102
-0.28536776
-0.51116055
-0.036629748
-0.20655195
-0.019654376
-0.32796204
-0.57991266
-0.06147414
-0.33923453
-0.025703097
-0.30272725
-0.22875258
-0.4965302
-0.47825456
-0.14348108
-0.14962676
0.24673891
0.2598965
0.3226674
0.10024056
0.14984275
-0.25629175
-0.22851714
-0.8268698
-0.30441162
0.30291355
-0.14273939
-0.20373899
-0.09400795
-0.71445566
-0.28190613
-0.630239
-0.29085386
0.023821805
-0.6651399
-0.46474245
-0.017947627
0.09290357
-0.47248822
-0.38303012
-0.57357717
0.27093664
0.5347403
0.6243354
0.8760763
1.1181223
0.9673137
1.0938765
1.0511738
0.560565
0.06444856
-0.29117683
0.039164975
0.21462306
-0.29235741
-0.9184163
-0.7100875
-1.0067803
-0.71166855
-0.72566414
-0.28600305
-0.047784492
-0.5127988
0.29760882
-0.033139158
-0.023975741
-0.2981501
-0.37250468
-0.08907673
-0.048575528
0.18826085
0.40894243
0.40368292
0.7729486
0.49131614
0.24947752
0.21439478
-0.20047607
-0.5209241
-0.6460574
0.1403433
-0.20827769
-1.109811
-0.30802956
-0.49432135
-0.86714774
-1.0452563
-0.7704053
-0.6492746
-0.16020198
-0.3736445
-0.12554733
-0.64446324
-0.4273814
-0.5042608
-0.5366819
0.01729505
0.2687517
0.2246028
0.52076596
0.7111948
1.0204611
1.0783503
0.8651697
0.5621794
0.28309032
0.16612053
-0.5289003
-0.25709632
-0.281591
-0.48066202
-0.09136545
-0.40491816
-0.39759102
-0.78270054
-0.56825787
-0.45568764
-0.168505
-0.34933773
-0.5772808
-0.26108426
-0.20762779
-0.02365114
0.2670205
0.27207267
0.42160514
0.46636564
0.75976753
0.7962489
0.83377206
0.7943153
0.7944002
0.737597
0.29561558
0.062189534
-0.31946602
-0.65908664
-0.7639553
-0.583059
-0.14196925
-0.48701307
-0.296933
-0.4386383
-0.28876355
-0.77235645
-0.8332534
-0.9627179
-0.37162307
-0.2253267
-0.56280184
-0.37418088
-0.20363472
-0.017370066
0.08176029
0.49429157
0.80628204
0.85974133
0.80054134
0.4270101
0.61133856
0.439442
0.10925147
0.049743384
-0.12476788
-0.5430258
-1.157351
-0.64173
0.045738477
-0.43375415
-0.25792372
-0.7668488
-0.3449487
-0.3270116
-0.878842
-0.22197804
-0.2724214
-0.6253223
-0.6878662
-0.28995597
0.07769985
0.5730753
0.31815836
0.92564744
0.73386085
0.47363904
0.7131115
0.5987298
0.59501666
0.35685426
-0.08332276
-0.11201169
0.45501286
-0.08921885
-0.20799653
-0.19753243
0.018328793
-0.58534807
-0.6187001
-0.48859236
-0.14613296
-0.69927
-1.072003
-0.8984704
-0.20822765
-0.22217244
0.17792454
0.08324973
0.5260927
0.7758699
0.56379634
1.1717972
1.1525177
0.7725398
0.66146266
0.451437
-4.146421E-4
0.12403542
-0.2414518
-0.7128359
-0.38041773
-0.3362207
-0.35996833
-0.17154485
-0.4995086
-0.39787078
-0.57489616
-0.64486486
-0.32667708
-0.5321335
-0.58783126
-0.835564
-0.5312636
-0.14069512
-0.061678924
0.13071932
0.27269638
0.5500046
0.39967433
0.5232652
0.71854013
0.3426079
0.17634359
0.03121405
-0.10863232
-0.10641076
0.40623546
0.1896701
0.20144911
-0.028847124
0.11239262
-0.10588454
-0.021637315
0.002851027
-0.32508242
-0.94021636
-0.68512297
0.06526849
-0.21205872
-0.61249304
-0.6752479
-0.58556426
-0.37002748
-0.16417445
0.5273787
0.674399
0.40817228
0.25773782
0.062051777
-0.20861375
0.2524984
0.5514469
0.3869625
0.2999013
-0.021205816
-0.4977345
0.094294384
-0.44495958
-0.35322604
-0.13741452
0.088890955
0.33784452
-0.028973192
-0.5136338
-0.14202993
0.0033460308
-0.50950336
-0.28094915
-0.55222476
-0.092214584
-0.2170632
-0.27948678
0.39241242
0.4512126
0.40426165
0.7001325
0.15783042
0.265588
-0.6024074
-0.25706398
-0.26951957
-0.274572
0.08150106
-0.2727802
0.13824968
-0.6302007
-0.17401817
-0.116853654
0.26783982
0.06996779
-0.026526017
-0.35231656
-0.2369823
-0.11932135
-0.81252766
0.013693198
-0.48834202
-0.07029084
-0.07298343
-0.2609247
0.060404614
-0.11362388
0.18444988
0.44018596
0.09083606
0.41875058
-0.031273507
0.44363484
0.15906546
0.0020827272
-0.07260446
0.34763688
0.44827288
-0.2984857
-0.288192
0.42805842
-0.015328577
0.50179356
0.42712155
0.28513396
-0.57002604
-0.31213158
-0.2503637
0.0700827
-0.21137099
0.07140996
-0.13891813
0.009766532
0.3168794
0.0091994265
-0.17500554
-0.10804402
0.27756068
-0.05528101
0.50980204
0.38969234
0.50054365
0.20218465
0.15838954
-0.20677143
0.23692872
0.25683495
-0.009822281
0.28946424
0.7391192
0.4779918
0.39829522
0.19104429
-0.6372666
0.13905159
0.18306711
-0.088358425
-0.24916771
-0.09606557
-0.03174347
-0.11784863
-0.2041744
-0.6981995
-0.53642195
-0.6013709
-0.29115498
-0.42359966
-0.3879016
-0.118208826
-0.015852211
-0.2700235
-0.10296075
-0.27560407
-0.086296
-0.5370972
-0.17533119
0.10932299
0.2565859
0.1996827
0.3854638
-0.18990058
-0.575541
-0.22557797
-0.35724187
-0.36562034
0.14527011
-0.44928777
-0.40034816
0.17958286
-0.10055388
-0.4523905
8.4625627E-4
0.085143596
0.28685203
0.2500796
7.304547E-4
0.33866364
0.17259042
0.023293382
0.17659509
0.18911359
0.12868096
-0.007515846
-0.05370043
-0.13094
0.3911012
0.45552295
0.6617139
0.6205317
0.40081027
-0.22916704
-0.18646345
0.24999268
-0.18832943
-0.12926507
-0.35488793
-0.22681013
-0.49017736
-0.29853654
-0.1567647
-0.4195831
-0.11603006
-0.1826866
0.14056228
-0.25509965
0.10343521
0.07222601
-0.15495892
0.12665987
0.5028131
0.12597522
0.27597782
0.27736205
0.7145983
0.7437422
0.7223318
0.673955
0.4344346
-0.088763714
-0.23865688
0.2664731
-0.1318855
-0.73591393
-0.25992355
-0.7166965
-0.29291752
-0.1392259
-0.6137523
-0.94387925
-0.4242633
-0.45485568
-0.14348347
-0.4280654
-0.37792826
-0.056956504
-0.1246287
-0.08774751
0.58543664
0.39794832
0.40320507
0.53333
0.65739864
0.86912274
0.774525
0.74721754
-0.47057575
-0.542016
-0.33195287
-0.13708495
-0.15831845
0.15361474
0.32375056
0.38431665
0.48800212
0.72268045
0.71802866
0.7152538
1.0422628
0.69795495
0.9713564
0.6930358
1.0142612
0.84351796
0.62545836
0.48652402
0.15749027
-0.033630792
-0.42372403
-0.027635504
-0.2048695
-0.19634265
-0.3558731
-0.33309376
-0.30960897
-0.4758888
-0.20450512
-0.07364474
0.011372107
0.2448423
0.2126637
0.19224778
0.14406615
0.37658972
0.32083535
0.49967623
0.7857611
0.41531098
0.38246825
0.25550106
0.294159
0.24439599
0.16792884
0.030670654
-0.24194206
0.0070426734
-0.39995006
0.31229258
0.009098767
-0.20005153
-0.6937662
-0.5785686
-0.26461378
-0.26550308
-0.17546865
0.09931378
0.1793261
0.08634155
0.16424447
0.16443269
-0.028698465
0.43368945
0.26422355
0.26234698
0.31384093
-0.0064332723
0.17375383
0.03979162
0.26157528
-0.029887889
0.08367535
-0.13978593
0.07723586
0.13132036
-0.16771646
-0.060752712
0.08974698
-0.2402311
0.11542146
-0.5102318
0.006212422
0.01629161
0.10127293
0.3061448
0.40529677
0.40265265
0.68053395
0.57603997
0.5964195
0.9724793
0.8596617
0.8472926
0.9487263
0.8533225
1.012479
0.5309281
0.18439336
-0.046657126
0.031469736
-0.061210096
-0.17940153
-0.10315079
-0.43574947
0.12670568
0.038603764
-0.054482892
0.13905124
-0.48794094
-0.10774778
-0.23981756
-0.3285403
-0.032430865
0.047578283
0.11634544
0.13434106
0.1251958
0.14920376
0.48792243
0.3613551
0.5064969
0.41525415
0.22062361
0.585882
-0.026371479
-0.4407008
0.24568243
0.5036632
0.22828282
-0.21690784
0.18004945
-0.097093515
-0.3001103
-0.08997155
-0.080285616
0.3021554
-0.06971102
0.018335665
-0.10607926
0.049998157
0.1245843
0.073267244
0.16935001
0.28363383
0.12953898
0.27089036
0.46440688
0.38005778
0.46532035
0.26459032
0.206202
0.115706794
-0.45318085
0.046933822
-0.19568267
0.05005022
0.22946022
-0.36669207
0.34437686
-0.14332129
-0.3213681
-0.29737306
0.014256445
-0.012565083
-0.25526536
0.10975337
-0.021373017
0.15280777
0.27926245
0.27511632
0.12906085
0.61428905
0.616966
0.41153535
0.97501904
1.0167532
0.9306565
0.7756578
0.27559036
0.19941182
-0.72568285
-0.39610827
-0.6039868
-0.17306118
0.003880091
-0.6402545
-0.17032243
-0.10760201
-0.2988565
0.12286276
0.17843568
0.17625065
-0.014013088
-0.0017221295
-0.07428733
-0.12948057
0.23042403
-0.022673475
-0.09990691
0.03134091
0.18816122
0.11763711
0.47258854
0.45556697
0.5127241
0.22120859
-0.20833603
0.19644438
-0.7019164
0.121638395
0.23414275
0.13817412
-0.09171724
-0.0988089
0.39171934
0.45424637
0.19798699
0.6544903
0.025848135
0.06679054
-0.03333561
-0.060214754
-0.19699624
-0.0583045
0.057848025
-0.01964507
-0.11613707
-0.03017088
0.40749377
0.15463263
0.4427897
0.18094629
-0.27198562
-0.18457907
-0.6184999
-0.7829987
-0.58096486
-0.47083852
-0.24377273
-0.030189332
-0.39500028
-0.006467122
0.022014966
-0.1052761
0.14630605
0.3532383
-0.116370894
-0.025574412
-0.08718353
-0.12002497
-0.22392403
0.13091566
-0.07381477
-0.14242035
-0.024103614
0.09916963
0.5527388
0.28562593
0.10762344
0.0020315284
-0.16132662
-0.6047782
-0.807905
-0.55627036
-0.60223097
-0.3972392
-0.46254426
-0.06209266
-0.17089893
-0.13990156
0.26135373
-0.29535395
-0.21441461
0.045271456
-0.2909891
-0.55509657
-0.6115807
-0.34694254
-0.3698641
-0.18464673
-0.0045885057
-0.0235617
0.36095378
0.34950337
0.6664458
0.5215977
-0.006626405
0.15064971
-0.07144638
-0.4809351
-0.30900365
-0.024816982
-0.10971265
0.0077081933
-0.057864312
0.1966451
0.21080664
0.22710761
0.65646064
0.25750196
0.19698913
0.55220246
0.33269358
-0.0043564844
0.0104445275
0.008211615
-0.013986094
0.15484115
-0.16786481
-0.01729365
0.18551911
0.055483572
0.21539286
-0.009877834
0.23092057
0.10522175
-0.117952876
-0.615006
-0.30421567
-0.012071509
-0.46997318
-1.0012734
0.18261698
0.18636812
0.2515839
0.18163043
0.20198517
-0.07812196
-0.1629823
0.25191718
0.032311935
0.04693843
0.023599524
-0.1489429
-0.104484804
0.10081403
-0.080562614
0.023887528
0.34948927
0.2910305
0.34946817
0.22117297
0.17650205
0.04980029
-0.17537145
-0.5242893
0.009185904
-0.0069156005
-0.22241935
-0.67354286
0.7068206
0.2836536
0.48709172
0.2430935
0.38556263
0.08734095
0.23968865
0.2620578
0.06643863
0.0031987252
-0.10697903
-0.2587662
-0.08473894
-0.1778495
-0.3429654
-0.30219665
0.087498374
0.019895962
0.18992686
-0.11044752
-0.18594038
-0.07665497
-0.36611566
-0.27789745
0.12387485
-0.12571569
-0.31159148
-0.6007814
-0.059409227
0.3700505
0.19797273
0.019009063
0.11595062
0.10270172
-0.14756835
-0.18749651
-0.3966786
-0.21708071
-0.11000463
-0.37062466
-0.30831394
-0.08535289
-0.015923264
0.021687346
-0.09558502
0.061632186
-0.08448358
-0.4852942
-0.0938768
-0.24905713
-0.19237608
-0.6623681
-0.03333308
-0.10656832
0.12864418
-0.28865176
0.10652969
0.21132107
0.20986944
0.24525793
0.2897285
0.30888844
0.35382766
-0.04343361
-0.07157068
-0.34476787
-0.23896669
-0.13860005
0.021465454
0.029481303
0.16714934
0.31994975
0.28933167
-0.011713822
-0.02000877
-0.076773465
-0.40108547
-0.63226
-0.108303
-0.47780722
-0.06156627
-0.11686921
0.26440033
0.0888771
0.30337784
-0.09606892
0.31100696
0.3611466
0.51544386
0.06239948
-0.023663675
-0.065367445
0.051970825
-0.06115157
-0.039556842
-0.08430528
-0.008321561
-0.3629692
0.011685862
0.0779425
-0.02511767
0.18824525
0.41554382
-0.05051885
-0.28747353
-0.37948754
-0.23445
-0.23376717
-0.0074561047
0.12583607
0.17794698
-0.04093616
0.34933543
0.13942663
0.2866781
0.12085762
0.31783965
-0.020392518
-0.117440864
-0.22498079
-0.060824588
-0.17559631
-0.14567594
-0.21698485
0.06878294
-0.11378862
0.07165863
-0.06324403
-0.2988218
-0.14633726
0.03887875
-0.49637222
-0.03447766
-0.1780995
-0.05340829
0.06973995
0.046613567
0.108904056
0.049669076
-0.016346117
0.38754043
0.08477701
-0.100617684
0.34152707
0.021366121
-0.06740863
-0.04339443
-0.09067313
-9.985596E-4
-0.04420457
-0.19333138
-0.11353974
0.066075005
-0.2744127
-0.041141488
-0.05930751
-0.18310294
-0.40077788
-0.28474572
-0.45659244
-0.16660908
-0.13727635
-0.35566884
-0.36371312
0.14206424
0.0109528145
0.10017259
-0.28174466
-0.16614117
-0.43029085
-0.10475054
-0.05208977
-0.24816048
-0.39071077
-0.485103
-0.24091347
-0.18952596
-0.27702716
-0.3698044
-0.34861344
-0.30323935
-0.1886739
0.10810284
-0.12863737
-0.32095426
-0.16828614
0.30062926
-0.3536099
-0.084214255
-0.015352886
-0.25059125
-0.05488023
0.032501895
0.17165986
-0.020677011
-0.1724375
0.039466713
0.028178314
-0.053380407
-0.15110889
-0.18835156
-0.1561342
-0.27086627
-0.07634535
-0.1467891
-0.17454858
-0.19991724
-0.28786218
-0.15855727
-0.078141995
-0.002452911
-0.18425342
-0.56625
-0.37900206
-0.24871996
-0.3322412
0.54365355
-0.063663155
-0.32598853
0.3755081
0.13748999
-0.31856197
-0.2508619
-0.35431555
-0.08482273
0.11439953
0.09225397
0.03979343
0.005420356
-0.15042971
-0.28951213
0.15750058
-0.06512197
-0.21311055
-0.17746663
-0.05576955
-0.17578255
0.046849627
0.35925868
0.17883867
-0.09303516
-0.19213273
-0.06975546
-0.15747906
0.23237272
-0.03211063
0.067161456
0.6490877
0.071572326
0.10022921
-0.27822685
-0.12170221
-0.19881561
0.0065260204
-0.09092181
0.1439629
0.052134987
0.04481138
-0.37821788
-0.14504302
-0.19789241
-0.21237448
-0.116972886
0.109103896
0.044708077
-0.07894105
-0.25012857
-0.1489424
-0.13214837
-0.2959714
-0.1957549
-0.0089677
0.0075204736
-0.15860605
-0.18524589
0.3306521
0.030232782
0.33406192
-0.21582544
-0.051755242
0.3295147
0.17022856
-0.03301016
0.06079564
-0.06908778
-0.026616396
-0.035421364
0.10485091
-0.22937806
-0.057801705
-0.030407477
-0.1909454
-0.16649613
0.018844966
0.21374996
-0.011469089
-0.03600145
-0.0715053
-0.6412964
-0.7175094
-0.27730766
-0.6445261
-0.4345376
-0.13134399
0.32171538
-0.08822701
-0.19691794
-0.11137472
0.1720896
0.09568846
0.02677433
-0.23026605
-0.36348706
-0.0425193
-0.1508926
0.114366524
0.09935699
-0.08788191
-0.07121425
-0.28577462
-0.113564566
-0.10936413
-0.069285244
-0.33041567
-0.45971996
-0.21391724
-0.08726706
-0.11140733
0.52233213
0.2819613
0.022376735
0.2759141
0.020755084
-0.15533154
-0.02128136
0.11523898
0.10845319
-0.038437445
-0.020411616
-0.30423337
-0.5388439
-0.05590742
0.1227264
0.12995425
-0.007954371
-0.07817127
-0.10838098
-0.32888585
-0.08336038
0.060644828
0.020107886
0.05960747
-0.1872221
0.22592315
0.28106025
0.22138207
0.37759393
-0.088557504
-0.071478866
-0.020294635
0.04787561
-0.15555452
0.0069227815
0.14814524
0.4075927
0.07663088
-0.078469604
-0.26986232
-0.24104705
-0.14669724
0.1956895
0.15233913
-0.23941872
-0.29540986
-0.19597024
-0.30137745
-0.2015397
0.08477312
0.2069144
0.18603554
-0.30172426
-0.26753646
-0.03702328
0.03789239
0.18408152
0.051426973
0.137734
-0.13015532
-0.49470758
-0.23431927
0.16134901
0.25508073
0.11663716
-0.07644416
-0.2230952
-0.15690419
0.14013246
0.01692371
-0.32448605
-0.2609574
-0.32114732
-0.4300452
-0.45427865
-0.49761432
-0.47485763
-0.33556527
-0.49314216
-0.26935664
-0.50309837
-0.5099446
-0.40652835
-0.013016462
0.030546267
-0.11128148
-0.18191428
-0.3201641
-0.40816128
0.05532551
0.31513545
0.30320838
0.06274551
-0.1329319
-0.12558198
-0.22409117
-0.050935898
-0.04781434
-0.31861395
-0.31656426
-0.4407781
-0.46530554
-0.5468783
-0.62430656
0.07214302
0.10825317
0.37888518
0.6337583
0.9891581
1.1363307
1.0747509
1.1964651
0.54654175
0.38837275
0.37200478
0.09796804
-0.40777498
-0.46337503
-1.0240034
-1.5732603
-1.2444234
-1.3610193
-0.6025142
-1.1311992
-1.0520563
-0.7805325
-0.5342057
0.15477207
0.34269032
0.07662917
0.29254302
0.12750947
0.23660284
0.27149197
0.38166723
0.42098188
0.8043258
0.71242076
0.5733884
0.6319586
0.4818737
0.3065081
0.19726063
0.18838118
-0.1186104
0.16485508
0.24567416
0.065111086
0.014522328
-0.32998618
0.70404196
-0.14705133
-0.36694908
-0.050470456
-0.092425376
0.6247448
0.13397865
0.054138422
0.3437715
0.36891726
0.404033
0.55146307
0.7630236
0.54465073
0.7675411
0.6341918
0.47257704
0.16597623
-0.50354856
0.45039257
0.29113013
0.7205081
0.44831622
0.37816226
-0.75136817
-0.49014592
-0.13669723
-0.01051111
-0.25756073
0.07900388
0.024201158
-0.08176281
0.10582783
0.056471486
-0.14663294
0.124988176
0.23437418
0.19679165
0.4804031
0.50546455
0.47669595
0.6322324
0.598932
0.3793308
0.36858538
0.30433616
0.118126445
0.0032189938
-0.67689043
0.28405547
-0.44362426
-0.5828231
-0.9108594
-0.7824885
-0.44590616
0.091957726
-0.37445533
-0.66113514
0.25611448
0.26134554
0.23734626
-0.0047234665
0.10071637
0.006916528
-0.07191641
0.11477497
0.3105535
0.2463893
0.07937027
0.37978876
-0.14021046
-0.23098579
-0.0031002027
0.052282058
-0.036021605
0.21413337
0.529127
0.3704324
0.004067593
0.2277502
-0.3528325
-0.32074296
0.46233886
0.6799888
0.95600265
0.19987288
0.39231598
0.76088536
0.20166568
0.030714838
0.46196267
0.33434913
-0.22480433
0.13879083
0.1498831
0.026723195
-0.08500208
0.3302089
0.33628768
-0.42794567
-0.27712238
-0.06572977
-0.3612692
0.32206482
0.37123278
0.6077926
0.027614526
0.18754467
-0.20384856
-0.2121269
-0.2449781
0.117911816
-0.015469786
-0.2601026
0.096110485
0.30669096
0.11505931
0.3600474
0.5114145
-0.14593372
0.14190854
0.4550586
-0.11769862
-0.046291333
0.23974061
0.30196488
0.04567974
-0.45885983
-0.47215578
-0.47782835
-0.04063511
-0.48911637
-0.59440166
-0.065907516
-0.57319224
-0.98016644
-0.7301234
-0.18641227
-0.17993386
0.04604461
-0.23070662
-0.13908373
-0.2909964
-0.4102641
-0.6768959
-0.27265057
0.10380154
-0.2733695
-0.3846274
-0.20943807
-0.35241592
-0.41303456
-0.34274656
-0.46544003
-0.043853357
-0.14750087
0.37836578
-0.26801285
-0.110493146
-0.1304997
-0.16810241
0.1721933
-0.58208656
-1.0833768
-0.8326909
-0.41007093
-0.104298644
0.21224177
-0.4533873
0.049989857
0.5877812
-0.39374387
-0.4438711
-0.20157556
0.04451926
-0.29095122
-0.63742626
-0.33063543
-0.32855844
-0.25697577
0.15579906
-0.3187498
-0.61125016
-0.5438791
-0.7381562
-1.0406518
-0.2283907
-0.08127377
0.06277428
-0.1036182
-0.5453441
-0.85650635
-0.5774402
-0.20086965
-0.5581389
0.01689157
-0.16795892
0.02959725
-0.31004095
-0.5892275
-0.5702888
-0.18244
-0.09739009
-0.52249885
-0.43690887
-0.19156112
-0.2791478
-0.20261467
0.037662826
-0.09845109
0.055709437
-0.5314459
-0.42738155
-0.4641447
-0.122832574
-0.13418661
-0.19676398
-0.15151158
-0.73004156
-0.9462574
-0.9099559
-0.53258944
-0.997895
-0.50222385
-0.33036208
-0.37727216
-0.32291797
-0.13173643
-0.43722373
-0.40078124
-0.520573
-0.2374024
-0.10286671
-0.15788467
-0.15337607
-0.23312375
-0.35401273
-0.49155477
-0.08023144
-0.14166793
0.047924113
-0.124237664
-0.4500645
0.1927228
0.669538
0.10327692
-0.19563054
-0.18123366
0.15009376
0.16698378
-0.70821756
0.14658381
-0.37574524
0.022633616
0.0039995993
-0.19810438
0.12820184
-0.2425415
-1.0424403
-0.439754
-0.105766
-0.04489427
0.035511762
0.13609873
-0.16134061
-0.19407482
-0.42838612
0.08160184
0.23970276
-0.21173157
-0.19524926
-0.24325232
-0.4141461
-0.2886148
-0.34852612
-0.37072787
-0.46283916
-0.17612958
-0.5832247
-0.4579551
-0.43128473
-0.10768516
-0.07988876
-0.41281068
-0.09796438
-0.31287447
-0.3875686
0.028661767
0.111532204
0.2436026
0.3399343
0.54113877
0.16276307
0.042304125
-0.49562055
0.20013925
-0.01767067
0.32606727
0.11723842
0.11200169
-0.7450603
-0.58679795
-0.100439765
-0.15626626
-0.2971623
-1.0071388
-0.7656609
-0.52871037
-0.015652062
0.06308573
-0.029057864
0.14842868
0.4890523
0.34658512
0.3088528
0.53246367
0.531034
0.6129096
0.24786934
0.30493915
0.2555102
0.034983978
-0.46277058
0.026224442
-0.33815077
-0.48220065
0.4902978
-0.070208445
-0.40220815
0.28411248
-0.123932965
-0.10202072
-0.33519787
-0.2204039
-0.3435887
-0.3336261
0.080980726
0.13384296
-0.25182343
-0.13829944
0.027314017
-0.19340476
-0.0049845953
0.39688075
0.016457923
0.30283153
0.19696893
0.23864679
0.26166254
0.30145672
-0.08296565
0.038327865
-0.39905643
-0.56592
0.33251253
0.17452613
0.28607693
0.27311093
-0.022157654
-0.0085435845
0.4221695
0.025032619
0.19227497
-0.14167972
-0.18261313
0.04745106
-0.7409255
-0.64221025
-0.13514031
-0.0666087
0.2986607
0.16736285
0.085058
0.29119915
0.07783398
0.32455033
-0.060429018
0.19492395
-0.057103947
-0.07712199
-0.11261035
-0.40324622
-0.315318
-0.15417214
-0.49888247
-0.29651284
-0.15803613
-0.6872347
-0.12454157
0.06740497
0.25227934
-0.13417414
-0.1069287
0.017594408
0.017677551
0.73722446
1.0476094
1.166125
1.0889983
0.5919746
0.56974936
0.4605549
0.13322952
0.09798529
-0.17090097
-0.21014105
-0.5749034
-0.2537733
0.21606803
0.19171934
0.32592043
0.6283322
0.09313139
0.1713661
0.2723068
-0.44061446
-0.2410102
-0.3320111
-0.7489461
-0.17369874
-0.25212523
-0.19206604
-0.46354532
0.04835548
0.13576122
0.44462493
0.49483785
0.09510456
0.022999637
0.04104285
-0.2914233
-0.11933929
-0.34747562
-0.7408113
-0.5774228
-0.53787005
-0.089310065
-0.20061816
-0.037965197
0.38086593
0.3274354
-0.20637324
0.3176436
0.14186151
0.3244786
0.45808542
-0.017888818
0.084233515
-0.016380774
0.63682
-0.12369832
-0.03772508
0.41875368
0.26845694
0.20777601
-0.039437514
0.18664607
-0.012850394
-0.23450522
-0.0854173
-0.44001573
-0.6384778
-0.5680621
-0.31431893
-0.37243885
-0.5730387
-1.0934087
-0.2230595
0.064958
-0.38506004
-0.18412162
0.13653676
-0.35809425
0.1512422
-0.1875728
0.042375714
0.15938719
0.7716192
0.21463667
0.56321716
0.44712004
0.43667042
0.76713216
0.2506231
0.4510478
0.2202411
-0.08620307
-0.05968528
-0.4528739
-0.6453631
-0.46490613
0.16112249
0.055769734
-0.14985004
0.4631597
0.42359746
-0.048305288
-0.2333084
-0.19959925
-0.43829694
-0.18155345
0.07716287
0.16779236
-0.022143101
0.04652418
0.19905244
-0.26974145
0.09885755
0.12505488
0.09751786
0.14820768
-0.1648953
0.42409855
0.2732402
-0.23195352
-0.27119675
-0.3564495
-0.73414445
-0.17195898
0.03914375
-0.009059345
0.47510827
0.25033307
-0.09962237
-0.2771136
-0.14212468
0.32302925
0.14999945
0.15622553
-2.1630705E-4
-0.15596361
0.009044378
-0.11025315
-0.71172476
-0.37160882
0.19658813
-0.23867895
-0.16089673
0.09236429
-0.1423684
0.18048343
0.28463912
-0.22238596
-0.46109724
-0.09107385
-0.28897497
-0.3730522
-0.11808883
-0.093325295
0.52105397
0.5722246
0.44033226
-0.14017333
-0.3454031
0.27396044
-0.5325712
0.12098771
0.4620555
0.4790221
0.6970208
0.32591254
0.10034638
0.16399363
0.675448
0.48909625
0.439754
0.47624707
0.12630375
0.3171278
0.30383876
-0.1732184
-0.69591314
0.20991553
0.16072112
0.09430991
0.028066328
0.115665406
0.5697049
0.8157063
0.55677694
0.42185587
0.08590365
0.32759482
-0.27728173
0.056621604
0.081189536
0.21458605
-0.22234711
-0.11312675
0.34847105
-0.06244088
0.20246767
0.22329648
0.056832477
0.13192117
0.009477623
0.22734934
0.12558731
0.1019685
-0.48836046
0.07519356
0.10941465
0.27268353
-0.118751794
0.06405282
0.008189664
0.4501084
0.66272366
0.43053162
0.52454764
0.78761786
0.45226502
0.012905559
0.16510548
0.1264897
0.3063624
0.12958686
0.13625893
-0.16766672
-0.10183887
0.1365187
0.08577182
0.048922237
-0.022668121
-0.06793918
-0.1399909
0.15651594
-0.5883151
-0.29513186
0.26775938
-0.0020726488
0.13297074
0.43463922
0.44736505
0.11521912
0.1672212
0.20967942
-0.22609851
0.126262
-0.04314454
0.21770947
-0.22199404
0.08032398
0.5437212
7.584934E-4
0.610243
0.19425647
-0.13349192
0.17503414
0.24164546
0.1826968
0.17823124
0.020266078
-0.058007345
-0.09646691
-0.39615092
-0.19935691
-0.59614974
-0.09356381
-0.102495424
-0.20766965
-0.10570407
-0.15065493
0.28984013
0.04424292
0.14085135
0.414389
-0.06268356
0.20370828
0.4158662
0.031229507
0.48684055
0.29902506
0.19174081
-0.1567683
0.19617292
0.11449275
0.24014935
-6.2655966E-4
-0.2147302
-0.22694427
-0.22203255
0.10460975
-0.10103078
-0.038410086
-0.5852758
-0.75598633
-0.09357578
-0.46391496
-0.05516979
0.04715359
0.12354008
-0.17053424
0.28066987
0.07105864
-0.14927521
-0.85309637
0.13016789
-0.17087995
0.2319782
-0.030456575
-0.3301064
-0.27878845
0.043355882
-0.09859633
0.008450828
-0.09454113
-0.12764929
-0.08142306
-0.08958919
0.08358585
0.32520303
0.18469167
0.029873757
0.047691975
0.022345917
-0.18183859
0.21725293
-0.63337576
-0.34996694
0.30194646
0.4186979
0.5036468
0.37218878
-0.15215711
0.6125906
-0.15783237
0.27720445
-0.19535768
-0.33924168
-0.58921325
-0.20849492
-0.12757437
0.09321558
-0.24332033
-0.21398158
-0.0807185
-0.07834192
0.019687077
0.71522075
0.76122165
0.40405646
0.15986204
0.14854491
0.19770847
0.42252532
0.13232514
0.0015174282
-0.06263973
-0.020972367
-0.37837932
-0.41174647
-0.051092863
0.06273793
-0.13976128
0.1818286
0.27645618
-0.54446334
0.029050317
-0.45029742
0.22316343
-0.25152943
-0.112667166
-0.7719274
-0.29452237
0.18869269
0.685548
0.74454266
0.75951874
0.4880077
0.029546607
0.2234208
0.22354469
0.3802336
0.26353547
0.07772063
0.18907872
0.29841194
-0.21208775
0.018106844
0.2424169
-0.08569944
-0.31784716
0.2015285
0.40801007
-0.48816848
-0.08607821
-0.2944197
-0.25237796
-0.15773585
-0.41758028
-0.38829595
-0.14023244
0.3130274
0.69683063
0.52251714
0.41010565
0.037951514
-0.23934445
-0.07274916
0.0071441657
0.36774993
0.57103634
0.14642373
0.13800387
-0.025875576
0.3880291
-0.019928915
-0.039618477
0.23973651
0.076746166
-0.1421347
-0.19309248
-0.100326344
0.39552537
0.1045083
-0.13407165
-0.048346173
0.34302893
0.20193622
0.169285
0.16688173
0.17579566
-0.20899369
0.14029048
0.13636118
-0.3114793
-0.04761643
-0.079340875
-0.21625039
-0.021576708
0.11769416
0.1894037
0.089145765
-0.30547553
-0.5764699
-0.5809015
-0.490113
-0.5661172
-0.19065139
-0.9310848
-0.6578814
-0.30006543
-0.53449136
-0.46656802
-0.54881036
-0.14949955
-0.81632453
-0.17933011
0.03259383
0.16523844
-0.26954663
0.047772165
0.29803616
-0.21302845
0.10600543
-0.5960287
-0.46381426
0.48791316
-0.20642383
0.31971213
0.45198917
0.40723622
0.716565
-0.097674206
0.74691916
-0.09949809
0.089918755
0.12066688
0.023776336
0.26388997
-0.27149913
0.7860048
0.09267294
0.18905348
0.26486707
0.38388756
0.24225783
0.1437447
-0.07050555
0.2730194
0.23729691
-0.055472005
0.13746867
0.13379258
0.72917956
0.091923386
0.17101844
0.44026628
-0.026118983
-0.40063062
0.16410384
-0.050808437
0.2915753
-0.22735958
-0.5063871
0.3534865
0.13289349
0.20042671
0.31548038
0.3912792
0.35453105
-0.12269487
-0.10883735
0.3308829
0.057171546
-0.045105346
-0.25248677
0.0413019
-0.087426566
-0.16725397
-0.18770537
-0.14944133
-0.38957125
-0.51486313
0.036831547
0.19087245
-0.32233194
-0.6473874
-0.30625844
-0.5074771
0.32355368
-0.1110406
-0.122612365
0.5917111
0.31995702
-0.06806571
-0.17977715
-0.1001232
-0.42161232
-0.7318753
-0.34315753
-0.16433159
-0.5843815
-0.7039466
-0.25632325
-0.026627613
-0.10767937
0.15518042
-0.040786326
0.3641227
0.16788442
0.25655314
0.09369663
0.31760815
0.02869704
0.010578571
-0.46084493
-0.5967901
-0.12771195
0.39101568
0.58233654
0.49648312
0.7093999
0.7487349
-0.054998137
0.22244579
0.1676256
0.1286114
0.3679807
0.10858485
-0.03985008
-0.2859835
-0.009161948
0.088910356
0.036758598
0.12983505
-0.47442114
-0.19002424
0.053791862
0.780871
0.7800035
0.18275025
0.32826236
0.08400215
-0.16660069
-0.087491564
0.27285
0.42001867
0.3082638
0.37413377
0.60620517
0.7753872
0.246156
0.5429837
0.20096368
-0.15608479
-0.059041474
-0.25711468
-0.0831782
-0.050055984
0.15436186
0.042679235
-0.045537908
0.3530597
-0.020516904
-0.04008482
-0.24034554
-0.018101094
-0.39627272
-0.9876225
-0.21540377
-0.19752404
-0.1857577
-0.2154293
-0.2895691
0.4335304
-0.11449559
-0.23196647
-0.37318468
-0.3750793
-0.7798482
0.26868483
0.17537339
-0.42445898
-0.68133736
-0.42517093
-0.4059745
-0.29614678
-0.1583997
-0.19801907
0.19485033
0.041555893
-0.041742135
0.18832958
0.39167833
0.31851992
-0.35115182
0.0029820483
0.9573364
0.44867253
0.15594566
0.5858216
0.1991544
0.24085066
0.13596328
0.58351994
0.866278
0.35618633
0.41597402
0.56489563
0.38376713
-0.039276842
0.38899466
0.33480626
0.367022
0.4710682
0.15325628
0.27063987
0.07482894
0.120621204
0.21021198
0.67171055
0.3659636
0.64161164
0.050125636
-0.08930138
0.00885573
0.47929513
-0.009722255
-0.33610448
-0.067406125
-0.24342555
0.31632152
0.32791504
0.8644644
0.6865911
0.56434655
0.7710208
0.7025012
0.546666
0.43305477
0.48996767
0.61741257
0.6611507
0.1882947
0.24372306
0.08595089
-0.003845191
0.10679179
0.62744623
0.30889675
-0.15839547
0.65036106
0.0038979452
-0.16350238
-0.5813195
-0.4045781
0.049142815
-0.48223
-0.54716986
-0.5110769
-0.62185836
-0.27523577
-0.41778594
0.014658786
-0.41141197
0.0697758
-0.040052805
-0.12557998
0.4160937
0.8900961
0.89721173
0.54949844
0.4709537
0.08935311
-0.2981183
-0.08056953
0.38193202
-0.11099538
0.8680047
1.054635
0.3711844
-0.14553052
-0.3329037
-0.23772033
-0.1558179
-0.29004735
-0.18845186
-0.2502861
-0.0015749641
0.056619775
0.37945002
0.29534528
0.4622165
0.60888946
0.52612966
0.42620373
0.794924
0.9367382
0.9419132
0.7633235
0.63302916
0.55381376
0.07364746
0.43555942
0.7951201
0.43359143
1.1393617
0.656146
0.026110014
-1.0502727
0.07571807
-0.14106186
-0.7018732
-0.25371936
0.060706582
0.2826094
0.13576198
-0.018574279
0.218981
0.0024774238
0.4279904
-0.032026317
0.43553302
0.57279634
0.6507559
0.8935384
0.7975122
0.7485975
0.7557001
0.44862422
0.18364255
0.030807896
-0.1641664
-0.0533063
0.15413167
-0.40194485
0.3155082
-0.16844176
-0.10506423
-0.73113203
-1.0127981
0.35916054
-0.5662995
-0.4137327
0.065491885
-0.07784136
-0.62432843
-0.468884
-0.18778844
-0.20311533
0.32962063
0.34856617
0.47545967
0.6242196
0.37663323
0.71777457
0.7199383
0.82927066
0.74140954
0.75637895
0.7571009
0.6288717
0.45111278
-0.3066499
-0.24425521
-0.7393324
-0.43528074
0.18185714
-0.7273265
-0.27115974
-0.4478681
-0.09479789
-0.1677029
0.24374469
0.21444808
0.04156455
0.6289706
0.26615658
0.14172038
0.04770832
0.56944436
0.59477884
0.35723397
0.81404734
0.81694627
0.5302797
0.74580526
0.75332445
0.5888493
0.49982694
0.49347693
-0.32894027
-0.2874343
0.19082522
0.12204699
-0.3387609
-0.41301495
0.31514755
-0.15535524
-0.11764818
-0.060613833
0.14009029
-0.19444568
0.112694815
0.23770458
-8.4795326E-4
0.5825048
-0.123839304
0.31498206
0.34655786
0.13260598
0.45052055
0.57702696
0.6222101
0.60801864
0.63111234
0.22161804
0.019990908
0.13327129
-0.46302366
-0.7107096
-1.0322082
-0.36183763
-0.389231
-0.60585636
-0.2589324
-0.5487592
-0.17761824
0.19557537
-0.37629408
-0.62831223
-0.36769477
-0.4431061
-0.7480845
0.010202943
-0.15948254
0.13518162
0.19219588
-0.18907431
0.24657157
0.44183135
0.4507743
0.3215196
0.32947478
0.14331797
-0.08019488
-0.3108231
0.29283985
0.03563454
-0.08291087
-0.22451398
-0.06198009
-0.4575812
-0.83444697
-0.5075321
0.0521279
0.5563112
-0.18587068
0.4062963
0.08912422
0.5353567
-0.17259371
-0.5714026
-0.27988926
-0.23078135
-0.19735658
-0.2692106
0.25922194
0.45547402
0.0381086
0.31298906
0.10818852
-0.40503824
-0.69415843
0.18850352
-0.25081277
0.25177976
0.094038665
0.33633214
0.16952787
-0.56524426
-0.008078181
-0.20587489
0.10402042
0.20080626
-0.5965522
-0.19657958
-0.56011444
-0.086051114
-0.45449978
0.022688566
-0.52349174
-0.46518618
-0.40257412
-0.35311437
-0.111041605
0.06272082
-0.33331144
-0.18888462
0.096180595
-0.48449114
-0.7664199
-0.28489354
-0.31870645
-0.17250475
-0.31789255
0.010953068
-0.4600345
-0.31609303
-0.17924054
-0.28511906
-0.4490307
-0.5682915
-0.21286994
0.002001471
-0.81125665
-0.8764486
-0.5446087
-0.16686043
-0.3729528
-0.41204977
-0.6161856
-0.53325754
-0.25492403
-0.048038837
-0.039954897
0.13790524
0.013915362
-0.061773457
-0.20943749
0.002571318
0.4457321
0.27888936
-0.23924741
-0.17192817
-0.26072085
0.35650766
-0.12806025
0.18937026
-0.18934058
-0.8625674
-0.5596708
0.3033021
0.50289065
-0.11258319
-0.15730332
0.17903136
-0.14292125
0.119440295
-0.5748698
-0.43915135
-0.33894426
-0.28842437
-0.22121228
-0.3569876
-0.5750476
-0.84919345
-0.4863167
-0.18473078
-0.22726972
-0.43634394
-0.036056902
-0.2421755
-0.1683378
0.10691757
0.05570281
-0.07702138
0.27022815
-0.1937998
0.35431644
-0.48246276
-0.04470929
-0.10639089
-0.37789342
-0.23261316
-0.71319383
-0.5015996
-0.62819487
-0.38956398
-0.1147541
-0.12904765
-0.04998126
-0.044465687
0.14757596
0.00223219
0.0034244612
0.300153
-0.07352578
-0.1045386
-0.164947
-0.35639432
-0.6654794
-0.68571573
-1.0690602
-1.086025
-0.9103426
-0.8951786
-0.51592296
-0.9835021
-0.50220305
-0.7723721
-0.84509325
-0.55784285
-0.8049836
-0.7561668
-0.4931098
-0.301478
-0.2436026
-0.3192351
-0.60279393
-0.60920715
0.0906663
-0.12885329
-0.34179223
0.107238404
0.6845655
0.02510997
-0.4100477
0.3741703
0.19859569
0.21904401
0.6182596
-0.18363565
-0.017886167
-0.08070897
0.50312704
0.067396946
-0.076991625
0.19080521
-0.3467767
-0.06710324
-0.32679063
0.07852786
0.16092162
0.050770804
0.05718643
-0.40062726
-0.28971747
-0.21005705
-0.120363295
0.2588533
-0.011655916
-0.03227356
0.4089168
0.2572727
-0.084387496
0.5273888
0.3264948
0.03576342
-0.09035025
0.6994624
0.36880362
0.05305153
-0.28256688
-0.2613773
-0.4137328
-0.4560242
-0.6434107
-0.64608157
-0.2319628
-0.07643513
0.30516225
0.3298231
0.1579651
-0.04886013
0.16217469
0.24794705
0.0018065129
0.052846428
-0.48832452
-1.0787958
-0.4698615
-0.50402755
-0.93829036
-0.8185948
-0.9567465
-1.634066
-1.6232054
-1.4176536
-1.2928813
-1.0250957
-1.0873971
-1.2922802
-0.76434016
-1.0494319
-1.0345695
-0.5002412
-0.40849906
-0.1889416
0.20239799
0.27436897
0.49695596
0.38231796
0.37332487
0.47877476
0.2757889
0.5703154
0.58674747
0.16102204
0.26628762
-0.0031616862
-0.1657032
-0.043483444
-0.18103692
-0.1710638
-0.029217368
0.019513438
-0.12632453
0.054469023
0.030060923
0.12885392
0.3003831
-0.024981368
-0.07354286
-0.12927246
-0.40458333
0.029489972
0.25381762
-0.04689905
0.14065036
0.13519801
0.11315915
0.3137384
0.021675523
0.17233153
0.305466
-0.10883135
0.15914585
-0.09981745
0.44610336
0.54816765
-0.09908792
0.010017223
0.035867557
-0.21100228
-0.1737177
0.06919298
-0.12010218
0.058743447
0.22763722
0.089360334
-0.062098317
0.422195
0.2692849
0.55507475
0.45164078
-0.072317906
0.14686014
0.24693689
0.120840676
0.009634177
-0.044645883
0.012905662
-0.4336671
-0.055767845
0.06671018
-0.39155242
0.11087544
0.01063088
-0.1871662
0.031321067
-0.032880113
0.5155831
0.118679345
0.45895523
0.3621596
-0.001326444
0.43890235
0.048100866
0.2562964
0.17649959
0.029728437
0.10160166
0.14880635
-0.1804109
-0.1248464
0.23851734
0.17763434
0.044842277
0.18449825
0.040589094
0.24350344
-0.46039855
0.21515743
0.13159879
0.15651664
-0.21368936
-0.06524277
0.14243986
0.30863512
0.081144184
-0.17895114
0.23997283
0.27932516
-0.13763815
-0.28658965
0.26971206
-0.057734273
0.29585096
-0.012928347
0.064775236
-0.21558121
-0.46546504
-0.09790341
0.033213448
-0.12163196
-0.31174934
-0.55771255
-0.5588617
0.045805983
-0.6970161
0.21173725
-0.16343847
0.03003855
-0.019948369
-0.061597716
0.13755159
0.040490232
0.0062351003
-0.26755115
0.086883225
-0.16533212
0.20665291
0.29508242
0.047644563
0.3656664
0.029927433
0.35558948
0.7293426
0.15004863
0.12155244
0.15444463
0.117820315
0.24239331
-0.18092468
-0.37728855
0.10448063
0.26857564
0.11434597
0.05281518
0.084651925
0.34923485
0.45013845
-0.15103686
0.5420704
0.675773
0.60913897
0.43160993
-0.024456332
-0.31204626
-0.052152127
0.17168057
0.34554136
0.25640634
0.16699618
0.43066394
0.3463227
-0.13040325
0.6359987
0.4022955
-0.22327784
-0.2815078
-0.31951293
-0.5904085
-0.6487195
-0.28258136
-0.27974185
0.017038826
-0.3331333
-0.13217464
0.19777493
0.20628269
-0.027190156
0.4553801
0.81904626
0.42422077
0.20255706
0.4508316
0.10845231
0.4524679
0.34734452
0.061733115
0.14572854
0.48475718
0.34160134
0.11323392
0.3711185
-0.05418844
-0.60478264
-0.615243
-0.7203078
-0.3183528
-0.2996221
-0.45055333
-0.15550892
-0.09383947
-0.2914269
-0.25104418
-0.039921016
-0.3421511
-0.047320865
0.5807132
-0.04548654
0.40686944
0.30542266
0.35916105
0.05326992
0.60436094
0.42774767
0.28509614
0.4623164
0.6266047
-0.18638533
0.25124964
0.20942177
-0.06691684
-0.6343585
-0.5347683
-0.23396264
-0.61940306
-0.33888683
-0.2015185
-0.18819551
-0.029562809
-0.12124344
-0.5449168
-0.009995457
-0.6050978
-0.31106195
-0.06541301
0.15872279
0.21275839
0.22502643
0.5800398
0.48202765
0.82444173
0.4714323
0.33091637
0.2972395
0.7229
-0.15280482
-0.038509145
0.19627902
-0.053272378
-0.5659147
-0.308211
-0.1912909
-0.3732279
-0.34839192
-0.6111286
-0.3805681
-0.5305413
-0.46131837
-0.6888179
-0.5355273
-0.602102
-0.09555036
0.5308613
-0.1947195
0.1069214
-0.46926633
-0.55803823
-0.7830799
-0.16262564
-0.24031132
-0.3799868
0.050563566
0.065696806
-0.9470186
-0.3205043
0.29303032
-0.1246278
-0.50912994
-0.37693745
-0.40644833
-0.45154738
-0.21229574
-0.49602687
0.27676275
0.046343286
0.09947103
0.34275025
-0.028699858
-0.4755018
-0.60069823
-0.122939035
-0.004304502
0.23357077
0.3534374
0.56957084
0.14860806
-0.009508639
0.4215419
0.24751861
0.279648
0.011975158
-0.46097863
-0.043201424
0.44131485
0.14979751
-0.06298524
0.07761257
-0.40714812
-0.33476385
-0.0919508
-0.0064555514
-0.12763941
-0.04514503
-0.0073524006
-0.14476268
-0.6051747
-0.21632068
-0.73989683
-0.7816853
-0.49465975
-0.5246705
0.017107327
0.15464237
-0.25765768
-0.11840482
-0.017207613
0.2847846
0.14753526
0.35254306
0.09060355
0.48694217
0.61517704
0.42844522
0.016838536
0.08044155
-0.4683453
-0.3199219
-0.16592248
-0.054094635
-0.7134853
-0.27746022
0.054712325
0.034612417
-0.670476
-0.2880688
-0.2629906
-0.1772154
0.14338218
-0.116000086
-0.15184635
-0.019146547
-0.33737808
-0.62995756
-0.14684752
-0.3217354
-8.8759087E-4
0.03845258
0.03704523
0.8426393
0.7442169
0.46490702
0.25400096
0.14730264
-0.089329146
-0.06623812
0.11551691
0.15536349
-0.19546452
-0.02961084
0.007627789
-0.4894779
-0.87508255
-0.26781592
-0.05573279
-0.19179763
0.07148965
-0.14802495
-0.58796954
-0.22983173
-0.0064086113
0.23186304
-0.021229848
0.19010204
0.25018784
0.16689956
0.27020127
0.6943174
0.51052237
0.56435573
0.32417518
0.12412902
0.065617695
0.06856048
0.19888833
0.26797754
-0.31451228
-0.35680628
0.011456971
-0.4910427
-0.6200751
0.23189318
0.4496519
0.3211858
0.15017235
-0.17128769
-0.027558682
0.14443906
0.15073659
0.36082953
0.56382084
0.68082076
0.62992704
0.61603004
0.5857704
0.6209734
0.4482001
0.35498863
0.16852637
0.057478637
0.07203403
0.012161815
-0.42002547
-0.22658648
-0.64581597
-0.97177947
-1.061424
-0.7021744
-0.6188044
-0.41687578
-0.32572702
-0.2081202
0.3164456
0.19313101
-0.06412742
-0.45485932
-0.16351141
-0.12753497
0.32067686
0.064048514
0.22555423
0.27207398
0.4074566
0.68446
0.48943576
0.25477174
-0.010548108
0.013750933
0.20452067
-0.04461651
-0.57369435
-0.09690232
-0.22412105
-0.62982535
-0.64141166
-0.5804854
-0.8196314
-0.45403507
-0.34364477
-0.2507897
-0.21359073
0.008186381
-0.08492332
0.35658875
0.38571858
0.53661907
0.43924752
0.5391564
0.31706157
0.5356101
0.24081111
0.266456
0.11793495
-0.040279914
-0.124280445
-0.01437727
-0.08946854
-0.07447852
-0.32274097
-0.8776813
-0.6929359
-0.25180793
-0.23150706
-0.28297293
-0.15026425
0.13224022
-0.34481332
0.1062118
0.5534006
0.2296123
-0.02753335
-0.07390345
0.6608139
0.57909036
0.5650812
0.63605547
0.6719293
0.5049761
0.17690536
0.01419784
-0.22647935
-0.096354164
-0.6374168
-0.49599048
-0.44853106
-0.3812512
-0.5591965
-1.1058903
-1.0583642
-0.63592523
-0.34286803
-0.5233092
-0.5612013
-0.11038512
-0.17974314
0.1837466
0.21156433
-0.016209254
0.1833198
-0.03058321
0.23449013
0.19583872
-0.053662606
0.21380462
0.11074103
0.021639144
0.19377661
0.24968931
-0.31575564
-0.2250894
-0.47655484
-0.2869876
-0.5167033
-0.4402393
-0.63518983
-0.65493524
-0.91129714
-0.9452456
-0.37617764
-0.43174908
-0.2368775
-0.3792143
-0.36619258
-0.096317194
-0.039212063
-0.020114463
0.45792976
0.08177921
0.41886532
0.7292168
0.5078327
0.3807294
0.47577772
0.19684078
0.12854782
0.13652064
0.03790768
-0.14314695
-0.09135902
-0.069074675
-0.44818458
-0.3861232
-0.39214876
0.22155514
-0.2538594
-0.009226313
-0.34095332
-0.10343554
-0.18996008
0.19028187
-0.22771168
0.31780627
0.42344394
-0.15618452
0.09754919
-5.280962E-5
-0.14765312
0.12504098
0.36164638
0.43777812
0.11463983
0.3169927
0.0877826
-0.33857208
-0.24836673
-0.16271746
-0.3916305
-0.40239686
-0.6751985
-0.29454517
-0.7288929
-0.7146873
-0.10906493
-0.22594447
-0.3204561
-0.02743966
-0.062230036
0.21490413
-0.102792755
0.7552024
0.39501303
-0.17605242
0.122326575
0.2179258
0.2809537
0.27896264
0.12621085
0.18952794
-0.0072372654
0.17378137
0.09868344
-0.426966
-0.064464815
-0.02287707
-0.4990503
-0.63922054
-0.3873061
0.2867927
-0.36740822
-0.2613066
0.14582719
-0.06055737
0.3010765
0.12827155
0.23613548
0.3560205
-0.16933642
0.12004172
-0.025650343
-0.034117296
0.104061045
-0.15145817
-0.12028406
0.30403924
0.113983445
0.40998158
-0.14457789
0.16356018
-0.16986123
-0.2458466
-0.047735937
-0.030841978
-0.34867194
-0.3752617
-0.106600374
0.054496974
0.23472314
-0.4004272
0.07179343
-0.29099858
0.066356584
-0.5046335
0.33550176
-0.019752923
-0.23856023
0.2528122
-0.063998885
0.06835889
0.40606818
0.4186086
0.76831543
0.2108621
0.36525568
0.52472806
0.40344393
-0.015957545
-0.14119266
0.04680574
0.14760768
0.24726966
0.016146084
-0.2582366
-0.3492487
-0.029323922
0.066405416
0.22109117
0.057382125
0.009751071
0.11834421
-0.35090476
0.55662197
0.1014341
-0.036948785
0.12508973
0.2565937
-0.6435886
0.022370098
0.095526844
-0.07134812
-0.029200986
0.055685032
0.15237622
0.60970485
0.6782922
0.35752723
0.5863049
0.5553597
0.44886163
0.11011538
-0.32307026
-0.28636718
-0.3802526
0.15938924
-0.12966499
-0.22646552
-0.019356072
-0.30968285
-0.17116742
-0.24941674
0.101747
-0.32046345
-0.35030037
-0.18882468
-0.5916259
-0.36546096
-0.1749057
-0.24777362
0.24486496
0.20689358
-0.12070487
0.007931732
0.4206102
0.16167171
0.46231523
0.36753488
0.3267304
0.31603253
-0.20533673
-0.0535581
-0.5436535
-0.050207436
0.6288947
-0.18130563
-0.49102208
0.28148
-0.88571906
-0.5182677
-0.120799184
-0.31219465
-0.16912471
0.17522089
0.017070448
-0.23624836
0.2867417
0.19863944
0.22191478
0.3866763
0.32779917
0.33232272
0.19779219
0.41894007
0.27696458
0.3353745
0.34210745
0.47831884
0.101481415
0.086214386
-0.23200122
0.079913765
0.21434544
-0.1738744
-0.26363477
0.099224985
-0.5422533
-0.8523779
-0.39816245
-0.40423942
-0.6498964
-0.81146055
-0.6350516
-0.48127958
0.06777352
-0.4800024
-0.40641266
-0.05198378
-0.082997926
0.058611445
0.4848007
0.56510824
0.4126183
0.34926304
0.3358461
0.27541074
-0.4686553
-0.28217342
0.10559112
0.24868962
0.58091503
0.40842858
0.008100949
0.24605888
0.3328836
0.6394875
0.41251686
0.578183
0.6734202
0.58987755
0.4204462
0.17292865
0.32007483
0.54729223
0.51768833
0.25069627
-0.075307585
-0.2748253
-0.2866459
-0.34543145
-0.276489
-0.6585647
-0.6312742
-0.67026746
-0.41379276
-0.22869307
-0.06654408
0.08218875
0.17226054
0.096991844
0.5372135
0.19980595
0.57395333
0.29056832
-0.4019947
0.22349812
-0.10406099
0.2485424
0.26083988
0.07458581
0.15760781
0.18208843
0.28431654
0.3242502
-0.46700105
-0.3068364
0.04689242
-0.015182931
0.020061772
0.27367532
-0.13340008
0.010870172
-0.19575495
0.038309958
-4.897873E-4
0.5999273
0.13200785
0.24755596
0.41034016
0.4050399
0.31844288
0.4141878
0.24070495
0.13421248
-0.38578165
0.21288829
0.9188427
-0.11171679
-0.33754936
-0.368134
-0.13418306
-0.34908378
-0.3799234
-0.05989103
0.2020079
0.292139
0.11644397
0.5517989
0.12975906
0.12182089
0.20779292
0.289358
-0.11660781
0.4725529
0.22437268
-0.23620065
0.33994526
0.7362426
-0.041928694
0.6503374
0.4180463
0.08720484
0.2921858
0.43564436
1.4482567
0.39020872
-0.0647622
0.24134074
0.4007506
0.5472997
0.6264157
-0.101685725
-0.16596891
-0.040082272
-0.2889623
0.12446933
0.019924393
0.2242663
0.30154696
0.29949093
-0.27682382
0.004165153
-0.0737268
-0.46267992
0.0049306126
0.048999574
0.010366373
0.49644008
0.61808413
0.35294414
-0.024109144
0.4061976
0.8005025
0.30833232
0.34346363
0.042101573
0.17706607
0.5094458
-0.049829125
0.51229006
0.30537045
0.07916101
-0.4358317
-0.06476858
0.20990844
0.5361872
0.28781518
0.07311983
-0.47281086
-0.1964884
-0.09308188
-0.023739837
0.08887092
0.49018285
0.79811615
0.053292282
0.38755563
0.75345767
0.21809708
0.2199795
0.4793509
0.24682072
0.37207073
0.076265424
0.6194915
0.004589158
-0.6309451
-0.104085214
-0.40747637
-0.23955734
-0.44403645
-0.2262539
-0.14071366
0.24206586
-0.017785104
-0.059978407
0.52885085
0.36236703
-0.2983976
-0.6323648
-0.0835137
-0.21307577
0.095282674
-0.28310916
0.102749124
0.37978032
0.1556749
0.21762154
0.7958631
0.16010076
0.093730524
0.3561795
0.6368382
0.2188179
0.38390842
0.20329668
-0.026586417
0.04581441
-0.11199154
0.09974784
0.29573283
0.2453198
0.091771506
0.0430602
0.09180509
-0.32837912
0.1821024
-0.42829373
-0.08529085
-0.20162146
0.3477186
0.16291139
0.72085786
0.37912712
-0.011865591
0.46295807
0.35855278
0.24597907
-0.14288674
-0.19583769
-0.18584645
-0.43914115
-0.01729877
-0.26712653
-0.32622558
0.49202275
0.03164988
0.21608558
-0.20355058
0.015647588
0.24987131
0.36825567
0.117406264
-0.6452426
-0.4922388
-0.5789527
-0.5049712
-0.065047234
0.040081672
-0.54379815
-0.6814213
-0.1528585
-0.40941322
-0.18622725
-0.24796711
-0.062259674
-0.4790371
-0.48375338
-0.29671115
-0.2691871
-0.19624847
-0.58801347
-0.503697
-0.42411485
-0.5995601
-0.21968596
-0.4331647
-0.16700277
-0.17871565
-0.1868262
-0.5938077
-0.36711255
-0.88502604
-1.1390082
-0.86421126
-1.118156
-0.8762429
-1.240194
-0.9281183
-0.9210235
-1.0733564
-0.2972711
0.11195683
-0.2949213
-0.12819168
0.066914745
-0.105086505
-0.5301083
-0.0703999
-0.15647455
-0.46373922
-0.0074420273
0.24695538
0.36606786
-0.024380257
-0.021255558
-0.15356296
-0.28039238
-0.20810099
-0.38993934
-0.3740161
-0.47290486
-0.11138426
-0.4459216
0.052629404
-0.29842684
-0.27352488
-0.7391802
-0.8092043
0.27248317
-0.13622859
-0.37207624
-0.41845196
-0.4285465
-0.1778346
0.04662597
-0.16270712
0.116707206
-0.818282
-0.00856096
-0.08581846
-0.15811798
-0.21584846
-0.20486504
-0.7725155
-0.6760798
-0.42666885
-0.61920345
-0.49851492
-0.18918224
-0.03887209
-0.6413015
-0.4289295
-0.64309365
-0.5320528
-0.50552946
-0.1923979
0.0958197
-0.6085719
-0.50776607
-0.20053974
-0.49501383
-0.6255428
-0.36901802
-0.3956846
-0.17701615
-0.38176855
-0.7161511
-0.6934898
-0.7885471
-0.44342315
-0.02746765
-0.6885352
-0.5049625
-0.68431395
-0.81818587
-0.58137214
-0.55872536
-0.6743963
-0.68870145
-0.5723875
-1.0814123
-0.8914939
-0.79933625
-0.62569016
-0.500771
-0.5195969
-0.5408132
0.18445128
-0.075152114
-0.6658729
-0.14033148
-0.27432156
0.24200617
-0.49461982
-0.5316266
-0.33145964
-0.596939
-0.5792536
0.07317758
-0.64156157
-0.09644131
-0.23406826
-0.07819428
-0.19292685
-0.5792064
-0.67070204
-0.628068
-0.25325805
-0.2968685
0.14818206
0.03879367
-0.13491145
0.069248654
-0.112678215
-0.6006675
0.040794678
-0.0878783
-0.09583094
0.032875903
-0.06818389
-0.40251458
-0.44194952
-0.27933148
0.023730418
-0.3828568
-0.40715542
-0.15725386
-0.21348566
0.1713423
-0.63634443
-0.6027021
-0.28668728
-0.3425248
0.08341786
-0.2377443
-0.4587047
-0.23842692
0.13183987
-0.12945266
-0.07778459
-0.2127947
-0.0030446977
0.038756944
-0.4099222
-0.41086274
-0.18775938
-0.11737359
-0.33562332
-0.13703108
0.09754661
-0.47388673
-0.42492777
-0.2455367
-0.3488228
-0.1267417
-0.37061092
0.08283638
-0.38565212
-0.2781746
-0.26836988
-0.60877967
-0.46509126
-0.79981077
-0.7316214
-0.8150995
-0.6757407
-0.54054075
-0.49945492
-0.772674
-0.1035887
-0.28861812
-0.8300914
-0.10055898
-0.3360311
-0.32876995
-0.5725685
-0.71302354
-0.34235
-0.61188656
-0.33524528
-0.18905921
-0.022084417
0.18425134
-0.50145864
-0.25316924
-0.49974832
-0.6245821
-0.0051218607
-0.11290485
-0.25712392
-0.22955158
0.011667877
0.43509334
0.4306234
-0.22924253
-0.3830869
0.16950132
-0.029317677
-0.2776562
-0.4200213
-0.2387813
-0.6220474
-0.30786785
-0.3568524
-0.61240816
0.00824661
0.0052182935
0.09408036
0.053757515
0.38900453
0.28245157
-0.1042405
-0.27331248
-0.38481182
-0.52319384
0.0294409
0.12199754
0.097977914
0.012903995
0.362484
-0.2189206
0.14997071
-0.12519279
0.13313343
-0.2679517
-0.41966492
0.16715208
0.18406186
-0.17924652
0.028227111
-0.062396895
-0.8533276
-0.7206936
-0.14259766
0.10400073
0.35732624
-0.055906896
0.11838152
0.31025556
-0.04635437
-0.25338733
-0.43704802
-0.27915218
-0.45176253
-0.10031082
-0.0015618771
-0.41899708
-0.26567066
-0.29601708
-0.5185865
-0.55932426
-0.25609913
-0.4375706
-0.34491253
-0.59097886
-0.24017358
-0.79750305
-0.55371857
-0.46702737
-0.575374
-0.6661174
-0.07932632
-0.021629998
-0.07355029
-0.42327422
-0.10747224
0.08439586
0.3731647
0.067049265
-0.029225936
-0.08167572
-0.17208815
0.207178
0.33581257
0.20388383
0.31637263
0.07848575
-0.07651042
-0.0075935954
0.4394607
-0.4047634
0.24500242
0.039654344
0.3259278
-0.14976034
0.53251773
-0.27603015
-0.28627002
-0.7825608
0.16091532
0.07493175
0.02923734
-0.01667988
-0.043364704
-0.018806262
0.73880273
0.24397518
-0.09829858
0.044313136
0.15653022
0.43572444
0.499496
0.01608757
0.1619504
-0.03105819
0.044430263
0.36242
-0.03396542
0.19891071
0.022223247
0.2793442
0.16690582
-0.15364261
0.26917472
-0.3537178
0.22941294
-0.15215038
0.11355164
0.2845314
0.102560684
0.20387228
0.08278325
0.035682652
0.82779247
0.42906842
0.095608644
0.3200073
0.34394184
0.38598028
0.29854685
0.049392257
0.0023442807
0.31050214
-0.31990868
-0.1706876
-0.011411298
-0.09721506
-0.49456477
-0.21451081
0.044061076
0.07034443
0.06731948
0.044981547
0.23340443
0.10960424
0.37238693
0.047359873
-0.0022632335
0.4229345
0.30517685
0.2698861
0.9770838
0.5830568
0.4552863
0.4531913
0.40231442
0.6995134
0.9959257
0.47084096
0.7867372
0.7352864
0.4024904
1.1886232
0.40455636
-0.26104948
-0.039280184
-0.0381321
0.011814208
-0.017131552
0.054828875
0.36297172
0.39927444
-0.6506308
0.14686951
0.34478396
0.04692022
-0.12192024
0.09783039
0.16842638
0.8690572
0.8609063
0.7124676
0.659387
0.8376366
1.0430326
1.0671881
1.1266336
1.0817086
1.0803261
0.68897897
0.527878
0.4692387
0.05217476
0.34165066
0.26514155
-0.06591734
0.31348845
0.015431186
0.34188926
0.05792072
-0.29990754
0.105544165
0.061056003
-0.02477865
-0.01304944
0.085097305
0.16542315
0.74718124
0.89803064
0.93037105
0.5113983
0.6390161
0.79423356
0.7028131
0.68914485
0.5895957
0.79102415
0.8685442
1.1669565
0.9489368
0.73373
1.1386194
0.71052176
0.728568
1.0526158
0.88538355
1.1924369
0.9568376
0.41277838
0.548328
0.22798611
0.040942803
-0.021966435
0.072643794
-0.2227891
0.44875652
0.7124229
0.9381744
0.53597134
0.7209931
0.36439273
0.41107744
0.30794248
0.17384991
0.22606173
0.54751325
0.27222237
0.32416406
0.26989153
-0.2973598
0.26059186
0.06118011
-0.03798857
0.3853947
0.25115445
0.18738419
-0.14027338
0.09278396
-0.017437741
-0.15749684
-0.10531178
0.047690827
-0.107707106
0.13262932
0.1297695
0.62175184
0.14144467
0.45672804
0.14651437
0.14367595
0.13995644
0.22884104
0.3172704
0.5815838
0.045391615
0.31949675
0.8135124
0.6350248
-0.2179425
-0.030263558
0.038382538
0.23175769
-0.035713885
0.31918734
-0.32451954
-0.39126375
-0.15885206
-0.6696356
-0.37159526
-0.21335293
-0.35378355
-0.30385402
-0.0010323175
0.31037733
0.054794457
0.57151985
0.7488173
0.35722953
0.7366795
0.6323184
0.7124697
0.90338856
0.7320642
0.5226282
0.89658797
0.8093302
0.39134496
0.60282165
0.80547166
0.41243115
0.30316746
0.5639564
0.2018059
0.14067975
-0.032711394
-0.39295244
-0.30287308
-0.5613841
-0.62025756
-0.37868652
-0.057431545
0.20270962
0.60024655
0.683593
0.5156753
0.4745928
0.13364606
0.32740575
0.93473715
1.080579
0.34322605
0.020468911
0.363856
0.20403
0.42163497
0.16773386
0.11714792
0.39252946
0.29725206
-0.024462646
0.3251612
0.54527426
0.23232928
-0.01560707
-0.33362097
-0.19681464
-0.31919792
-0.20611933
-0.48007268
-0.3457338
-0.1302887
0.09638823
0.1454038
0.09359173
-0.30530256
-0.09771215
0.10260692
-0.28154838
-0.4971285
-0.59043473
-0.38924515
-0.4647019
-0.11894428
0.055328034
-0.048073333
-0.20924743
-0.14783593
-0.508394
-0.110436104
-0.13992333
-0.31017745
-0.2853631
-0.27939647
-0.02285946
-0.39822787
-0.74036294
-0.3300004
-0.15098597
-0.2540056
-0.10755367
-0.27893072
0.0055577727
-0.10714868
-0.5412093
-0.51536745
-0.23049675
-0.048986197
-0.13577282
0.12602027
0.033879675
-0.11538869
0.24738915
0.5388115
-0.2170729
0.34984058
-0.11719479
0.4177181
0.41003427
0.25946963
-0.1296552
-0.25978684
0.19753087
0.18330106
-0.5011127
0.12492269
0.25384355
0.21429226
0.5236715
0.404508
0.6503675
0.4649497
-0.19222611
0.43523645
0.13904516
-0.07122706
-0.13944724
0.15248494
0.06075073
-0.5580027
-0.4232619
-0.07704021
-0.511717
-0.28500825
-0.5338217
-0.6168177
-0.76839566
0.013517129
0.28839892
-0.61914504
-0.3272295
-0.9079163
-1.2107347
-0.26304498
-0.24067907
-0.18740371
0.003725325
-0.49142447
-0.14902309
-0.12436335
-0.38306037
-0.27531132
-0.22630443
-0.48016325
-0.6683453
-0.30736366
-0.6149435
-0.69359004
-0.12733957
0.099069454
0.046448328
-0.15524441
-0.24938764
0.16015245
-0.21935277
0.2659303
0.75284183
-0.22935556
-0.10503298
-0.38564909
-0.6155213
-0.25982428
-0.21754688
-0.044946197
0.050822776
-0.14183974
-0.2884374
-0.095499255
-0.21550815
-0.12748834
0.2039951
-0.35249504
-0.27938056
-0.50566316
-0.39839017
-0.16433135
0.15304817
0.38037327
0.24779306
-0.052379683
-0.3229509
0.18179728
0.21022716
-0.19447085
-0.08154421
0.4053446
-0.45331606
-0.34017882
-0.25318658
-0.31109405
-0.36560383
-0.6041298
0.013818237
0.07199051
0.04175373
0.60857695
0.6618238
0.398036
0.31309345
-0.37052962
-0.27142456
-0.2949625
0.033359215
-0.34520528
0.03319532
0.44379073
0.34400976
0.396271
0.43571737
0.8489582
0.74977505
0.43593386
0.60835636
0.8502342
-0.08830658
0.15137807
0.6875486
0.17149864
-0.1098168
-0.23107545
0.23901606
-0.4917759
-0.28892392
0.26575166
-0.07192207
-0.4490909
-0.11557233
-0.276368
-0.4186425
-0.73455995
-0.16125435
0.03407269
0.23533563
0.16034569
0.6838244
0.9165256
0.29965916
0.3832253
0.7330561
0.79959494
0.7480682
0.998823
0.5201012
0.587923
0.8429651
0.40407434
-0.035353612
-0.23314656
-0.024348142
-0.27287883
-0.4257027
-0.3192147
-0.121952474
-0.8765085
-0.24699122
-0.45067722
-0.87486047
-0.5231785
0.24651587
0.49652424
0.7308488
0.35877657
0.89684516
0.8125077
0.2822328
1.060481
1.2634844
1.1472067
0.9662199
1.3779703
0.9148845
1.0123855
1.344202
0.15774657
-0.21559027
-0.41172713
-0.6112683
-0.18392196
0.19647434
0.009163193
0.4431397
-0.29295388
-0.23194863
-0.41788048
-0.7604191
-0.42888105
-0.2307476
0.30274305
0.13296892
0.30798164
0.5658888
1.042565
0.92920035
0.6309535
1.1020027
1.1681286
1.0131686
1.5764331
1.1436826
1.0363188
1.2818282
0.03431597
-0.12762436
-0.64150494
-0.37784216
-0.62755054
-0.48039576
-0.918507
-0.623263
-0.48152247
-0.27889457
-0.7174931
0.3179805
0.6445427
0.67017835
0.14349236
0.5702612
0.1718683
0.35066274
0.4463921
0.19292973
0.625418
0.4307675
0.8026847
0.7068749
1.0004694
0.68249875
0.5852341
0.66446537
-0.26052204
-0.10625856
-0.24242638
-0.279848
-0.30230644
-0.50926924
-0.7457263
-0.21794015
-0.3718684
-0.42912608
-0.432632
-0.32117537
0.4745408
0.45349056
-0.30290586
0.56796986
-0.07171141
0.82009333
0.38740677
-0.02781223
0.26113036
0.7901665
0.70320433
0.5089878
0.52042395
0.4899587
0.38261893
0.25350878
-0.6026456
-0.5375987
-0.26289877
-0.13301323
0.11142259
0.2243972
0.26962608
-0.13311644
-0.5891449
-0.36263287
-0.34249544
-0.5782967
-0.025714865
-0.2138822
-0.57386166
0.03201549
0.15006924
0.34323505
0.13147572
0.06048272
0.082141444
0.49105242
0.054033343
-0.02402353
0.13044585
5.67676E-4
0.21835509
-0.10969065
-0.55752593
-0.7622261
-0.5019141
-0.58362114
-0.2147359
-0.33286506
-0.047945287
-0.07518828
-0.27970207
-0.5344395
0.26519826
0.33283913
0.7057599
0.29262167
-0.21705085
0.5341709
0.7092346
0.54380906
0.14051674
0.09229264
0.25752443
0.29111263
-0.091423325
-0.4586795
-0.68060154
-0.22540297
0.08068627
-0.39528352
-0.38917798
-0.42088774
0.15990317
-0.40221542
-0.5006593
-0.4208212
-0.46332663
-0.41878602
-0.2826203
0.14105429
-0.048844557
-0.5262792
0.3493415
0.4668371
0.7374651
0.40894067
-0.34217718
0.08414043
0.026198545
-0.111005664
-0.11101793
0.061439652
-0.11872507
0.08368561
-0.39986944
-0.46848488
-0.2144522
-0.6624627
-0.5179353
-0.34781003
0.09506927
-0.18114327
0.04282671
0.099763334
-0.26691404
-0.16254194
-0.20154971
-0.020351395
0.12666374
-0.34510165
0.41304502
0.26997045
0.004057861
0.0027762437
0.30197978
0.45747843
0.16675235
0.49671307
0.44826737
0.4535596
0.38806733
0.8040673
0.22770926
0.33524987
-0.1208924
-0.41000715
-0.49377263
-0.34058058
-0.20515539
-0.32950008
0.30207527
0.0725885
-0.08028991
0.030334031
0.21473944
0.1656788
0.6444946
0.104938895
0.72114563
-0.022708712
0.21335116
0.3198055
0.44837007
-0.008914228
0.35009918
0.094315365
0.020495279
-0.11523542
-0.56232387
0.34949845
0.15861656
-0.24551164
-0.20133625
-0.289821
-0.22401525
-0.17371616
-0.04046177
0.08728076
-0.008839949
0.17684776
0.2554762
-0.17232274
0.23646474
0.12287049
0.32902512
-0.09245594
0.591261
0.44353917
0.4920916
-0.13020311
0.37612706
-0.08162616
-0.048445627
-0.13547033
-0.2566257
-0.4522051
-0.276251
-0.2306752
-0.42234588
-0.3549366
-0.3374356
-0.5725643
-0.033232223
0.01588719
0.2626752
-0.076373026
0.47278717
0.78238076
0.56501114
0.26543194
0.45553562
0.0854098
0.948861
0.40280217
0.60150254
0.53895396
0.22722428
0.03202538
0.27359778
0.054007813
0.0048765005
0.5479409
0.3993459
-0.06215019
-0.15217109
-0.16977134
0.012540913
0.399712
0.09708847
-6.8399415E-5
-0.4738923
-0.3297307
0.31676376
0.003336491
0.2900561
0.34868604
0.091012225
0.36319584
0.45387903
0.37858847
0.04762855
-0.13435806
-0.23269531
0.020756477
-0.021703463
-0.66214025
-0.6355409
-0.25037667
-0.27554888
-0.5451728
-0.92216086
-0.077261806
-0.40261763
-0.43898785
-0.16102271
-0.35319024
-0.43217874
-0.066685036
-0.7870522
-0.6674962
-0.33317828
0.011623204
-0.039576802
0.39237878
0.7515149
0.4653111
0.6768235
0.3991516
0.2621115
0.07558273
0.22378622
-0.10893655
-0.46037033
0.03659011
-0.16540942
-0.12889482
-0.1015103
0.15433502
0.19001544
-0.2285752
-0.095352575
-0.1519989
0.097028345
-0.16362733
-0.40285468
-0.16217408
-0.6444519
-0.6394719
-0.34135988
-0.28825685
0.0024816138
0.56848294
0.29325467
0.6383727
0.8113269
0.28718323
0.6328043
0.4582068
-0.019067954
0.056335386
0.15755796
0.3527997
0.16956241
0.08316083
-0.2945816
-0.55252016
0.28212446
-0.19170126
-0.12499128
-0.03479884
-0.05430371
-0.27775362
-0.2517149
-0.12701395
-0.5636686
-0.3055156
-0.4875472
-0.09906992
-0.26005352
-0.10579707
-0.2520524
-0.25040856
-0.41218084
-0.45657584
-0.11030168
-0.19164035
-0.09570507
0.10902234
-0.17419869
-0.49027175
-0.15558806
0.19719402
0.33779263
-0.4440491
-0.21080951
0.10134183
-0.1890957
0.34680513
0.13251452
0.25368857
-0.033484366
-0.02538294
-0.7982632
-0.1992679
-0.46998665
-0.6817809
-0.3495531
-0.23173529
-0.23133545
-0.2508049
4.998826E-4
-0.009250995
-0.22702293
0.10135836
0.2346483
0.26441675
0.22024247
-0.6933087
-0.18077797
-0.007846926
-0.080673024
0.05051071
0.57585895
0.3513935
-0.24371462
0.081713505
0.0032400354
-0.05648782
-0.016498607
0.042569112
-0.87127227
-0.20750512
-0.6317504
-0.5814221
-0.25668237
-0.37036368
-0.45152998
-0.44269493
-0.3442029
-0.38589317
-0.34293136
-0.4404208
-0.16017
-0.22931458
-0.83958626
-0.379987
-0.38764706
-0.22084336
-0.1645806
0.060262386
0.56200653
0.5111166
-0.07644746
-0.14650029
0.18284276
-0.04867762
-0.012675122
0.20307796
-0.27102426
0.13622116
0.15570812
0.11950854
-0.17948711
-0.25091574
-0.107537456
-0.2719468
0.065384716
-0.14878193
-0.31143865
-0.15921846
0.0976758
0.30161852
0.035741635
-0.0016378249
0.0031361699
0.46149087
0.051140662
-0.13380934
0.37270752
0.07667535
0.28069767
0.09751439
0.25152937
0.012612442
-0.036776334
0.13676
-0.1807297
0.23147547
-0.3035369
-0.20791206
-0.66303265
0.024008079
-0.19533543
-0.030596629
-0.7221364
-0.5021569
-0.31053513
-0.32106304
-0.06527372
0.008611711
-0.2054283
0.008140008
-0.092098124
-0.07882907
-0.24977785
-0.2693663
-0.39642778
-0.11449607
-0.2239038
-0.16052535
0.17945187
0.051820733
0.08312711
0.1249063
-0.03178405
-0.21187346
-0.5972666
0.06581003
-0.28563476
-0.30983776
0.25363234
0.05482786
-0.4164756
-0.38857543
-0.43270484
-0.35564315
-0.26313755
0.19446124
-0.04055796
-0.27661327
-0.20704326
-0.20508586
0.09022911
0.03764995
0.0015235671
0.10855563
0.3243462
0.14335732
0.28183526
0.21388516
0.11608592
0.0985358
-0.18077818
-0.03098011
-0.04269317
0.008952841
0.04044661
0.062142406
0.07459219
0.07373018
0.06546566
0.0488854
0.072745286
0.076745056
0.118287675
0.14135481
0.1111267
0.12549236
0.12857221
0.11967536
0.13674803
0.14188215
0.08009266
0.06907999
0.07504172
0.06057962
0.062146258
0.07987833
0.031389244
0.022374092
6.388792E-4
-0.031673044
-0.022957629
0.0031339973
0.038382076
0.059107475
0.015507328
