0.017216785
0.015397193
0.03693905
0.0068923067
0.03203549
0.0522257
0.06341172
0.077922985
0.07008851
0.064848
0.04763767
0.09243891
0.114057265
0.13247454
0.04770011
0.07145249
0.019395445
0.038359337
-0.019798331
0.047607426
0.027935455
0.058402807
0.06664256
0.05040515
0.043392364
0.06622256
0.062728025
0.026582371
0.02699176
0.046731725
0.030414363
0.0063632773
0.043079864
0.032775205
0.059729915
0.08702145
0.05900948
0.0968608
0.09439371
0.14622697
0.14150992
0.10331153
0.09073952
0.102180004
0.050921276
0.06504758
0.016426798
0.01823121
0.06172185
0.029716652
0.06839825
0.08062925
0.06876755
0.08906365
0.053027008
0.043588288
0.04961463
0.013639348
0.05652812
0.015593749
0.0064679217
-0.020305565
-0.0037066422
0.05595696
0.06656354
0.10325711
0.13407326
0.15036233
0.110353045
0.06593432
0.05959841
0.06848356
0.05598878
0.038463272
0.06368533
0.064858675
0.096098974
0.07365986
0.10183882
0.10545273
0.09377152
0.08769874
0.068264306
0.078972556
0.04370513
0.004694532
0.019338824
0.041109446
-0.012714358
-0.013572266
-0.002172508
0.04265919
0.05375
0.104152836
0.1180966
0.11042971
0.11231668
0.053668167
0.08157421
0.047231153
0.06304406
0.073846586
0.102637246
0.119205914
0.10019935
0.090399526
0.074405275
0.10682068
0.11513476
0.095011204
0.11348028
0.10664343
0.050136223
0.0067920303
-0.036701202
-0.04658776
-0.05080494
-0.09552253
-0.10779929
-0.094436996
-0.031397242
0.012026167
-0.0059489766
0.0051082256
0.0054109893
-0.0083753895
0.032045882
0.0388307
0.05709446
0.07507949
0.07307268
0.066728525
0.07669039
0.09795382
0.07467868
0.084870905
0.08762014
0.09193712
0.052050356
0.043161906
0.035268586
-0.0014337852
-0.0422438
-0.086188905
-0.052633327
-0.094589144
-0.11524669
-0.06039016
-0.031157795
0.0076229973
-0.02297107
-0.030852593
-0.064229965
-0.03884027
-0.051342648
-0.04398817
-0.0145909395
0.012311982
0.024079058
-0.0024716612
0.041305155
0.08773982
0.06226291
0.06850267
0.07953389
0.08174726
0.020193046
0.056758635
0.030886875
6.895072E-4
-0.09206853
-0.11461295
-0.13499504
-0.186781
-0.15520222
-0.14906195
-0.13748969
-0.13082527
-0.15850331
-0.14420722
-0.12992261
-0.102228574
-0.10252899
-0.10312932
-0.10533946
-0.091240905
-0.050414056
-0.07296773
0.011772297
-0.01347232
0.0132006295
0.06761096
0.040394332
0.059485443
-0.0038214002
0.017545672
0.05431592
-0.03848024
-0.08982965
-0.11844086
-0.103607774
-0.1469276
-0.11972729
-0.15162095
-0.15166436
-0.15612134
-0.19808318
-0.20734708
-0.16662662
-0.15553918
-0.13559982
-0.15005463
-0.11921672
-0.12821281
-0.10344891
-0.09740348
-0.05105681
-0.031560156
0.020126758
0.039773833
0.034851007
0.04636463
-0.022343721
0.016131802
-0.016749026
-0.10447466
-0.12349099
-0.14026456
-0.075638846
-0.11445815
-0.07447962
-0.065756775
-0.10426014
-0.15075946
-0.14829543
-0.16317701
-0.18095614
-0.1885718
-0.18366785
-0.16127034
-0.11352604
-0.09872264
-0.11158002
-0.07033459
-0.03733687
-0.011540383
0.0927231
0.07073132
0.047539502
0.05353308
0.025771204
0.029320953
-0.010350391
-0.09548181
-0.075532034
-0.13265924
-0.05198803
-0.10325073
-0.05202601
-0.06450711
-0.07410357
-0.10807689
-0.07737288
-0.07248789
-0.073809855
-0.06438794
-0.057564337
-0.05793141
-0.013734104
-0.03960731
-0.046167817
-0.057363722
-0.009541566
0.045249324
0.07246796
0.08427321
0.04112705
0.051926777
0.024468796
0.0189613
0.033270203
-0.08124849
-0.08403047
-0.119898595
-0.027486097
-0.053060282
-0.023407292
-0.049454756
-0.041275736
-0.061089057
-0.06711103
-0.078205734
-0.053360667
-0.015149316
-0.028843043
0.0024348875
0.019359456
0.003898857
0.0046706237
-0.053831685
-0.021731853
0.033622596
0.07095382
0.060525402
0.04650736
0.030356431
0.029995227
0.04775877
0.06614045
-0.037623692
-0.019203113
-0.021868432
-0.01073035
-0.03706027
0.016689366
0.0075654215
-0.0036384838
-0.06950387
-0.0460224
-0.009731967
-0.022408815
0.026532805
0.062465522
0.079531774
0.026112007
0.05324595
0.025648544
-0.019626943
0.031810813
0.04141453
0.039050654
0.02030145
0.045418307
-0.008213854
-0.028314058
0.038926557
0.048413627
-0.027067145
-0.015741507
0.03609729
-0.033050846
-0.008864839
0.03979433
0.05716797
0.005733269
0.004922466
0.004600097
0.004165251
-0.014856143
0.024090052
0.014440376
0.018831449
-0.03533835
-0.038942162
-0.04582763
-0.044857323
-0.019725883
-0.024615347
-0.045628276
-0.045472328
-0.0013279954
0.0027121906
-0.01688372
-3.3009602E-4
0.01213954
-6.764003E-4
0.019133983
0.029725675
-0.014535306
-0.04566069
-0.0068255225
0.009340405
9.465734E-4
-0.01769374
-0.007749976
-0.05322576
-0.018592596
0.0055513387
-0.022426242
-0.07098163
-0.08631247
-0.054355305
-0.05077323
-0.024730172
-0.035155192
-0.083541885
-0.04025436
-0.060265947
-0.0282038
0.009571908
-0.02544726
-0.0039059604
0.04968575
2.9126406E-5
0.0118225
0.022330377
-0.03195151
-0.01962103
0.03190207
0.033798866
0.038503468
0.01870518
0.012422544
0.032130927
0.0055432282
0.056793895
0.028051155
-0.007339451
-0.010795074
-0.058062807
-0.075797185
-0.0068704044
-0.039278384
-0.082046226
-0.08012126
-0.11529107
-0.039488353
-0.049908467
-0.059948254
-0.0053388816
0.045299977
0.016816001
-0.007301974
0.038928356
0.0036148808
0.028870506
0.042504437
0.037785217
0.044555765
0.049394052
0.026610618
0.01102708
0.00442517
-0.01045682
0.032436743
-0.008779699
-0.019968547
-0.048677623
-0.03762969
-0.04426686
-0.07247994
-0.10232584
-0.120709606
-0.12072065
-0.06662108
-0.05238754
-0.075837135
0.0027220726
0.07717001
0.048568115
0.043569896
0.045243718
0.08793284
0.038408875
0.056759465
0.054634508
0.047784995
0.051252436
0.007018069
-0.020767232
0.0053860536
0.018220084
0.0026650939
-0.009839222
-0.025883859
-0.064024724
-0.07112465
-0.08937926
-0.092324704
-0.09849152
-0.15543559
-0.10380363
-0.0750282
-0.089960314
-0.09727094
0.013757086
0.04978444
0.06924863
0.03890954
0.057418842
0.08279286
0.02701538
0.0048322813
0.03740164
5.053061E-4
0.037852433
0.010848525
0.028739372
0.02216199
0.0069104065
0.006911246
-3.9897073E-4
-0.033130955
-0.05039233
-0.06694669
-0.05210419
-0.09865713
-0.12859434
-0.11922771
-0.10982606
-0.06360954
-0.12637305
-0.13977037
-0.028741496
0.05030065
0.03500245
0.048207507
0.049684893
0.06815158
0.024023179
-0.011776278
-0.026925651
-0.017978642
-0.016430037
-0.021922668
-0.03147304
0.0012702531
-0.020622997
0.0038370488
-0.01560707
-0.01035952
-0.03072726
-0.05503322
-0.09057026
-0.095404215
-0.11623061
-0.12142846
-0.0554189
-0.06890106
-0.11783802
-0.14487603
-0.0483925
0.0033952629
0.020414809
0.034762114
0.05958275
0.049127974
0.01956322
-0.0017766474
-0.047448926
-0.055196468
-0.018353114
-0.0073014796
0.019605707
0.01465772
-0.03312431
-0.028318383
0.014056853
-0.0031343095
-0.057221748
-0.04816204
-0.09360156
-0.032332707
-0.038520366
-0.045212895
-0.03539235
-0.101060644
-0.10253624
-0.09698798
-0.023365583
0.032981474
-0.023527242
0.024339689
0.03075561
-0.028273273
-0.09044936
-0.10282037
-0.08415871
-0.08118209
-0.089931026
-0.027008053
-0.016469643
0.0061918492
0.0019206384
0.0063692727
-0.0017022623
-0.061310265
-0.07507829
-0.06887922
-0.037057444
-0.0056421286
0.002813548
-0.023405917
-0.05822482
-0.12779433
-0.091396704
-0.072839856
-0.04255427
0.02228614
0.011542371
0.021199742
0.014938361
-0.055338968
-0.12353416
-0.08332605
-0.06025756
-0.08080527
-0.06561435
-0.049474154
-0.047950342
0.017850365
-0.011984795
0.0035591875
0.0051233284
-0.07732318
-0.056723915
-0.03779544
-0.04513761
-0.012405849
-0.018510344
-0.018095251
-0.029113216
-0.081871465
-0.09749743
-0.074144505
-0.01811502
0.031204166
0.033529934
0.0100127375
-0.0028432445
-0.040782765
-0.093547
-0.06746788
-0.08956518
-0.03760641
-0.0226771
-0.03072129
-0.050084915
-0.03269517
-0.009976239
-0.057561986
-0.024568496
-0.06453304
-0.040322393
-0.06722884
-0.072551675
-0.06336807
-0.0168449
-0.045738738
-0.046140168
-0.11530412
-0.095953144
-0.06424072
-0.028136246
0.02353058
0.0055061537
0.026865374
0.0031654024
-0.03942826
-0.053969
-0.022892786
-0.01578816
-0.024221877
-0.010210563
-0.02279562
-0.0039128023
-0.020451015
0.0030591171
0.0075385952
0.026240055
-0.015595162
-0.03466437
-0.066729404
-0.06780651
-0.009485332
0.0261639
0.039894953
0.01629187
-0.014684604
0.014154713
0.009494818
0.061005674
0.063411444
0.037873227
0.05372115
0.06944907
-0.0038622802
-0.002196456
0.022798752
0.07358729
0.091797814
0.037354447
-0.005729318
0.024456223
0.011578449
-0.01001487
0.003857179
-0.008721778
-0.033430487
-0.028830677
-0.04744155
-0.008747774
0.048386686
0.0742036
0.12227274
0.114559904
0.079445295
0.11983122
0.08258941
0.08997826
0.05526878
0.06527226
0.027013073
0.010115843
0.04436359
-0.024450138
0.025447728
0.021009732
0.04278057
0.019047001
-0.007243938
0.024266733
-0.016174193
-0.023358598
-0.012612932
-0.045716144
-0.07755425
-0.058207873
0.001955719
0.023681054
0.04585933
0.100944355
0.09100469
0.09416356
0.12481796
0.10381689
0.08057715
0.08286589
0.050262965
0.02363172
0.036438007
0.027658211
0.009940064
0.03441162
-0.0023981398
0.01867199
0.03504094
0.026147228
-0.0046260804
-0.0077306638
-0.060489908
-0.036215495
-0.012153366
0.0075991726
-0.0017869353
-0.009339968
0.012810883
0.034903552
0.074750915
0.090895385
0.11770017
0.122513644
0.1103827
0.0697363
0.0719776
0.042227328
0.053188562
0.02375547
0.032679632
0.021652447
-0.011155219
-0.0026441244
0.046126187
0.010077833
-0.007617203
-0.010167164
-0.028197782
-0.046768796
-0.053546436
-0.039205402
-0.045859322
-0.020168055
0.0134056
-0.017273093
0.0036965758
0.044780456
0.060405925
0.07351799
0.06975006
0.048686706
0.055366307
0.059814937
0.04359924
0.045056585
0.027258197
0.048482228
0.04386261
0.040172953
0.036835052
0.040588055
0.05392772
0.09662756
0.10877027
0.06802267
0.050614487
0.031303454
0.1323905
0.06890023
0.0014617738
0.0117821
-0.07969751
-0.15564173
-0.18765657
-0.1612857
-0.0858886
-0.008477066
-0.052259766
-0.048588447
-0.006345552
0.025590593
0.026339687
0.01202109
0.018473279
0.010941756
0.04475747
0.039741777
0.023142567
0.037748832
0.05086564
0.10095832
0.11543152
0.10533979
0.10283487
0.107848264
0.14136559
0.08463284
0.09987975
0.054396268
-0.02532325
-0.14239308
-0.19679095
-0.21778135
-0.08971844
-0.08755297
-0.04181526
-0.020078056
-0.053511523
0.01565686
0.029972449
0.060948737
0.03723248
0.045835122
0.05242791
0.049657702
0.03315206
0.06304753
0.04932377
0.03372529
0.0749423
0.063299485
0.13057154
0.12250178
0.097548634
0.06322855
0.049427003
0.099249214
0.052518886
0.01919266
0.047343794
-0.03347636
-0.12555358
-0.105957635
-0.121268526
-0.034790207
0.042008717
-0.054974835
-0.06337205
0.015417912
0.017552374
0.0239459
0.04242207
0.025570963
0.0404228
0.044139687
0.027901597
0.05380376
0.07096587
0.05660444
0.12201098
0.093841985
0.10487532
0.07030554
0.1314002
0.09065629
0.03205921
0.07369144
-0.032121427
-0.081882834
-0.13900726
-0.19904199
-0.1760746
-0.1528807
-0.030614218
-0.056303855
0.015738944
0.022774095
-0.011750157
0.00903845
0.024680411
0.0051077097
0.03792361
0.016855376
0.05270464
0.04109809
0.060270596
0.014807206
0.053959757
0.03770267
0.0143304765
0.047899563
0.099927254
0.14478995
0.15908186
0.07850766
-0.009409132
-0.03147461
-0.07976929
-0.113803476
-0.098969445
-0.10978042
-0.11523992
-0.07812987
-0.011839879
-0.040398292
-0.004194038
-0.006262453
-4.6190157E-4
-0.0037012286
-0.0046245623
-0.030893056
-0.024349594
-0.0067582624
2.6698422E-4
0.012405902
0.096398726
0.060193434
0.10473569
0.071209274
0.10571687
0.08265512
-0.02986053
-0.028188586
0.015660688
-0.014593959
-0.045591753
-0.023605788
-0.09601289
-0.20872518
-0.2724983
-0.15015467
0.011902589
-0.034269784
-0.024179898
-9.7403646E-4
0.027343083
-0.031401373
-0.06174307
-0.103437796
-0.024269272
-0.002327724
-0.029416285
-0.017197844
0.036764376
0.06251151
0.08028447
0.06914992
0.10265514
0.041333333
-0.0073107327
0.019359384
0.0421761
0.02891472
0.012056766
-0.029681187
-0.103410795
-0.1956775
-0.17029156
-0.14354905
-0.0231444
-0.019212153
-0.015613252
0.026303567
0.0014990703
-0.01165968
-0.04368035
-0.07535111
-0.031152964
0.029017024
-0.02522067
-0.006743694
0.041166086
0.021116989
0.018474221
0.071683034
0.02422726
-0.013858169
-0.087316
-0.03186502
-0.012892425
-0.08327436
-0.06475681
-0.09911555
-0.13431104
-0.150629
-0.26385608
-0.18520696
-0.09113456
-0.06776946
0.020581948
0.026983233
0.024366334
-0.047172077
-0.07907421
-0.029447593
0.009636048
0.053276826
-0.021107126
-0.034772675
-0.077855825
-0.035787657
0.04306824
0.0099426415
-0.037711617
-0.0447706
-0.03351633
-0.02611294
-0.006661456
0.030491967
0.060566116
-0.043594062
-0.04462955
-0.13365489
-0.25677353
-0.22122431
-0.15071382
-0.11727215
-0.078655064
-0.021067249
0.009191608
-0.024850529
-0.094252214
-0.007049717
-0.07587098
0.0014220419
-0.049954087
-0.037715126
-0.080558315
-0.03691251
-0.052397516
-0.090307966
-0.074144915
-0.115631826
-0.038571034
0.0788425
0.16446505
0.10647991
0.18297201
0.040692158
-0.0013594133
-0.06742158
-0.22543241
-0.23717842
-0.16193266
-0.19338834
-0.17098755
-0.029716866
-0.0074665667
-0.035806596
-0.07199133
0.004993418
-0.011344885
-0.018358916
-0.0052882517
-6.056921E-4
-0.025865385
-0.029023185
-0.015313769
0.0039138123
-0.027717775
0.019468602
0.046139695
0.18853056
0.24494562
0.1563162
0.1580104
0.045992665
0.09093955
0.05202889
-0.060647365
-0.18058032
-0.1931402
-0.18287782
-0.13039607
-0.035125006
-0.03252613
0.0076981066
-0.05634392
0.009536423
-0.010149155
0.1025968
0.05761414
0.017807303
0.022720145
0.0085394485
-0.04338148
-0.036624752
0.07251411
0.11277435
0.24511361
0.28553036
0.35153058
0.2517824
0.25268668
0.15393397
0.10908659
0.12079147
-0.037959173
-0.16843906
-0.20423727
-0.16616398
-0.15638222
-0.07032153
-0.035621557
-0.007617077
-0.059090998
-0.07698383
-0.13347298
0.013297115
-8.3265186E-4
-0.01186492
-0.03991289
-0.03704929
0.040217765
0.03210218
0.11620002
0.1273671
0.27389413
0.34269118
0.34229246
0.26927733
0.21891737
0.14872202
0.051206924
0.020998465
-0.03551858
-0.082608275
-0.10955522
-0.13379332
-0.09384911
-0.054376088
-0.017041478
0.020496968
-0.032378152
-0.15676771
-0.0938746
-0.025187412
-0.05878674
-0.020861968
-0.009600884
-0.029574942
0.055808544
0.047329433
0.096018374
0.13116108
0.23736848
0.23200595
0.2628307
0.11732877
0.1606822
0.06210871
0.058709327
0.008877899
-0.07710056
-0.09998951
-0.044944838
-0.0832456
-0.09295981
-0.08142977
-0.024621785
-0.023268426
-0.0931205
-0.20443434
-0.14083685
-0.10661141
-0.029576246
-0.01065721
-0.07364691
0.019101428
0.05156228
0.06937137
0.08965811
0.12037831
0.23457737
0.23282728
0.25849727
0.15532842
0.16103843
0.10597273
0.03983027
-0.009456331
-0.04204328
-0.06606229
-0.06478725
-0.11744246
-0.08297946
-0.06363535
-0.055120006
-0.052535538
-0.090692475
-0.05576358
-0.09858741
-0.038316052
-0.032263305
0.041979827
0.010595281
0.058127075
0.08070553
0.1571497
0.15575227
0.1480398
0.19808255
0.15641415
0.19444628
0.10089827
0.084903754
-0.06510863
-0.06684978
-0.14329562
-0.10525716
-0.08008356
-0.06605809
-0.0450428
-0.037198894
-0.04727942
-0.0666202
-0.069310084
-0.12485206
-0.0789065
-0.03737938
-0.024196383
0.052176703
-0.02603107
0.0030646427
0.12017169
0.10951709
0.13456117
0.15244143
0.13229533
0.1429341
0.12343946
0.10373142
0.032557745
-0.09122141
-0.14595903
-0.12897685
-0.09550139
-0.11795435
-0.060101073
-0.05814391
-0.037465304
-0.010303023
-0.03720643
-2.630693E-4
-0.018582331
-0.06955234
-0.1571472
-0.050642427
0.027822709
0.07939004
0.067051366
0.07396849
0.08081731
0.12211952
0.12706052
0.20495752
0.15864404
0.12863663
0.061919313
0.067384936
-0.060624387
-0.09826062
-0.1579517
-0.11048808
-0.06257878
-0.020841654
-0.022698833
0.003614841
-0.007873371
7.0148247E-4
-0.03645504
-0.068033494
-0.061031446
-0.10946035
-0.08918965
0.048887536
0.05413287
0.068869516
0.042676233
0.046451807
0.116519555
0.09513139
0.09414052
0.09558789
0.12389805
0.15224317
0.013499066
-0.06399529
-0.11889209
-0.18149006
-0.16440128
-0.09328892
-0.035722353
-0.04167779
-0.028759843
-0.013475366
-0.06932767
-0.040670045
-0.055138323
-0.08991059
-0.059675872
-0.09017138
-0.12709719
-0.040743086
-0.04790372
-0.027126165
0.116650626
0.10709872
0.15337688
0.20764695
0.18882686
0.08686423
0.06522068
0.009465656
-0.048153464
-0.14404187
-0.13428302
-0.24493472
-0.12187078
-0.054188713
-0.035859827
0.031843547
-0.050001353
0.050204042
-0.013075208
-0.0038723303
-0.0634309
-0.075291626
0.028589103
0.020562235
-0.037448898
0.0234888
0.0038125087
0.010025693
0.05916944
0.04919787
0.11865415
0.10808538
0.05941559
0.06699365
0.009996697
-0.10961213
-0.21321486
-0.14953913
-0.10242304
-0.07078132
-0.014773792
0.0035787204
0.009382818
0.034124974
2.1980399E-4
0.02581866
0.020711446
0.049340285
-0.06456981
-0.05662938
0.05610741
0.027292894
-0.039257873
-0.017062103
-6.9588714E-4
-0.024434188
0.019770276
0.016789453
0.058104996
0.11964044
0.07458346
0.031686258
-3.989118E-4
-0.1562078
-0.17945664
-0.10488353
-0.15003604
-0.049358733
-0.02444561
0.041101642
0.019715473
0.06250651
0.008574193
0.057730433
-5.4189883E-4
0.011254947
0.0078035435
-0.030224614
0.04350667
-0.014452583
-0.09853018
-0.120451674
-0.10624482
-0.09515807
-0.02565052
-0.044477776
0.008885833
-0.03659499
0.008382976
0.030601408
0.06286855
0.037498184
-0.028922182
0.013966502
-0.0049692523
0.024309028
0.019125827
0.025239963
0.0135391755
0.06095181
5.765844E-4
0.009104104
-0.016968586
0.024322376
-0.034447815
5.3690193E-4
-0.008018822
-0.048122007
-0.061332792
-0.077346236
-0.10515982
-0.14045587
-0.082213
-0.019722708
-0.028166303
-0.039830536
-0.080992185
-0.054956663
-0.06434718
-0.1340807
0.0026052797
-0.040358517
0.005669525
-0.050605193
-0.016201058
0.029294128
0.03646822
0.035995595
0.002871734
0.0051456043
-0.0294955
0.0026730965
-0.028678395
-0.04391272
-0.05631707
-0.062395353
-0.10429917
-0.09737509
-0.07033202
-0.02988473
-0.026150389
-0.022219919
0.036813788
0.030296123
0.0034340988
0.007411129
0.09365399
0.0827156
0.075657405
0.010598268
0.018195815
0.03747975
0.0707544
0.02638901
0.011194544
0.007131756
-0.015701942
0.017028838
0.03366756
0.03761335
-0.04215033
-0.042637143
-0.05974487
-0.16990666
-0.086502776
-0.097225435
-0.079987496
-0.020028582
-0.03985539
0.008853928
-0.008564736
0.058305696
0.038556088
0.09862481
0.073700726
0.051640194
0.05638509
0.0530479
0.051795367
0.08017861
0.019485641
0.024514494
0.026286835
-0.008306364
0.012202055
0.029551484
0.050327748
0.06659422
0.02578328
-0.023143422
-0.016955841
-0.124656074
-0.10069366
-0.13523173
-0.099784784
-0.15145627
-0.13589871
-0.09483178
-0.08720343
-0.067089505
-0.029525219
0.02153482
-2.699725E-4
0.028947558
0.009342986
0.042077426
0.07626547
0.051585097
0.012602075
0.03521176
0.038286243
0.027078988
0.038132213
0.009845318
0.03838836
0.03958225
0.050981767
0.0055858344
-0.049020555
-0.046148296
-0.10404294
-0.05089695
-0.16666278
-0.14850694
-0.15407006
-0.13624214
-0.09720578
-0.10188678
0.004847577
0.008427936
0.011164129
0.06292445
0.10077774
0.10124243
0.10276433
0.045485936
0.043202482
0.002517423
0.0066386736
0.014795783
0.0040013026
0.039587393
0.035918303
0.053598326
0.030588845
-0.0054128426
0.027872674
0.031220121
0.098551184
0.057200626
0.037016913
0.0056998013
-0.004994695
-0.03520865
-0.03723249
-0.006820965
0.01916779
-0.05415166
-0.08432292
-0.026925111
-0.06057381
-0.081567235
-0.17422433
-0.13774055
-0.08152449
-0.0021945012
-0.0063940813
-0.010516675
-0.038615238
-0.0054458207
1.7443033E-4
0.03334162
-0.007306893
0.03533452
0.050578307
0.06525668
0.11495252
0.032954104
-0.0016889013
0.005366825
5.430094E-4
-0.021354372
-0.045363113
-0.012725968
-0.03316723
-0.07747784
-0.081881784
-0.08659825
-0.10247368
-0.105530605
-0.12181753
-0.15953536
-0.1161479
0.024441166
0.04060826
0.013321328
0.04343826
0.012828616
0.018250067
0.051140778
0.03587404
0.023832822
0.07124278
0.046389252
0.055611014
0.011276045
0.0021172822
-0.017868254
0.0096474495
0.021461243
0.035336696
-0.01784988
-0.047317132
-0.13335264
-0.114670016
-0.06993528
-0.035322685
-0.08745677
-0.01889978
2.993399E-5
0.03459327
-0.03583793
0.025719387
0.06350286
0.0834317
0.047159776
0.033223737
0.032679185
0.024383124
0.048891596
0.053067587
0.027733667
0.012855062
0.027195336
5.153744E-4
-0.04078793
-0.01314803
-0.0082154535
0.057226017
0.014624654
-0.06763921
-0.13412501
-0.13194387
-0.14139487
-0.053132627
-0.06408488
-0.062059265
-0.03652525
0.031467427
-0.0012204256
0.024859197
0.06435421
0.08143289
0.012164372
0.033247076
0.0135042975
0.030606057
0.017521037
0.047621753
-4.4428528E-4
0.040299725
-0.050967034
-0.005625249
-0.04365273
-0.028427415
-0.05266197
-0.10446923
-0.0029612945
-0.023257336
-0.07558547
-0.058642358
-0.06341521
-0.010289123
-0.0014348885
0.041998014
-0.017994985
-0.0029527547
0.011743023
0.002234736
0.07259897
0.05865092
0.039789382
0.07559305
0.020042397
0.03893089
0.04232969
0.0407511
0.013386608
0.058962706
0.017435899
-0.029892238
-0.047941525
-0.14758384
-0.119084276
-0.09334486
-0.07749675
-0.14602967
-0.10196289
0.014414605
0.052301895
0.1208459
0.13643858
0.1508173
0.13457774
0.15612952
0.08170138
0.019512871
0.05568383
0.07061626
0.066413365
0.09157549
0.05513506
0.011782258
0.017014164
0.025170969
0.023828045
0.055540517
-0.03004163
-0.026884753
-0.062358405
-0.13119468
-0.14508708
-0.09237473
-0.08004229
-0.026125286
0.019128432
0.11175556
0.10276335
0.19129556
0.10764573
0.09996977
0.114399396
0.10414899
0.08029619
0.08905079
0.07381877
0.095539406
0.07623563
0.10746017
0.053434655
0.05515087
-0.011793695
0.020763269
0.0068462007
-0.012525114
-0.074788556
-0.076742
-0.08171295
-0.1370176
-0.17436314
-0.17135514
-0.105642706
-0.095580585
0.044030394
0.1424219
0.22038275
0.18349463
0.1319479
0.12117247
0.08359683
0.13225085
0.098385036
0.10466295
0.122641556
0.14577834
0.16100237
0.121706896
0.08759457
0.064795405
0.0044484176
-0.0026895332
-0.073384516
-0.030314343
-0.108233966
-0.12779799
-0.1805157
-0.2351188
-0.2997076
-0.2220206
-0.07268258
-0.011776968
0.17769419
0.1745416
0.17460401
0.1922439
0.11134313
0.0448482
-0.047441404
0.09473349
0.12928137
0.15847898
0.12189161
0.12384285
0.1513755
0.13780062
0.10355158
0.08598087
0.012692591
-0.008680303
-0.07527434
-0.10394758
-0.09874198
-0.060870856
-0.080477126
-0.22099952
-0.20547837
-0.13860978
-0.0072861854
0.075644955
0.15331447
0.14224847
0.08101093
0.07610071
0.0770891
0.054831494
0.028083613
0.10397755
0.057098825
0.04304764
0.059556782
0.09611826
0.08264001
0.09318286
0.081302635
0.026248308
-0.01517689
-0.020226935
-0.10255927
-0.0941507
-0.048692923
-0.09025127
-0.12658751
-0.23543838
-0.12903827
-0.14892256
0.04696886
0.075690374
0.21440455
0.16279994
0.09263981
0.090548486
0.07671644
0.04392516
0.011545624
0.08587101
0.034346484
0.05115147
0.021218486
0.09769302
0.08336943
0.058340166
0.034949057
0.029700927
-0.048198234
-0.049516898
-0.060374767
-0.054259688
-0.08299845
-0.11144184
-0.09561138
-0.23674938
-0.13893196
-0.10770786
0.02863039
0.080287375
0.19837932
0.14187449
0.14292103
0.10419007
0.038294807
0.04925297
-0.060499664
-0.059404306
-0.06429354
-0.023808163
-0.0070382957
0.039045747
0.040051363
0.058659587
0.031345103
-0.021512555
-0.06382231
-0.08966471
-0.034067813
-0.054434974
-0.07991374
-0.13405381
-0.09668871
-0.17907344
-0.10478166
-0.044569794
0.052303087
0.06747516
0.15078366
0.113829754
0.11551652
0.08320094
-0.013366977
-0.017168816
-0.05613698
-0.007894519
0.027495604
0.0010600883
0.0014016848
-0.013156059
0.012894752
0.0038351535
-0.029368065
-0.07119331
-0.07727072
-0.10842505
-0.052362178
-0.06893173
-0.05669718
-0.06123098
-0.11768435
-0.0848598
-0.095813185
-0.038599655
0.08788879
0.1339174
0.1324772
0.08942339
0.11033538
0.0850402
-0.031205539
-0.018228112
-0.037497964
0.015719192
-0.03808109
0.0046081324
0.031240754
0.045315333
-0.0589726
-0.05355882
-0.07664191
-0.08440067
-0.123890065
-0.109831855
-0.047452882
-0.071748145
-0.068147175
-0.048969522
-0.02979716
-0.043918226
-0.0052586175
-5.268705E-4
0.108784504
0.15389252
0.14697516
0.07706199
0.08477953
0.026956612
0.015354914
0.021154575
-0.008225449
-0.016295465
-0.053669814
-0.041326873
0.003944908
0.014028749
-0.09312569
-0.083463766
-0.08962474
-0.07583639
-0.08147822
-0.09720141
-0.03863845
-0.0044787517
-0.051468715
-0.07824575
-0.04214995
0.009475738
0.06412892
0.104089595
0.18528011
0.22011304
0.22685342
0.13328741
0.12128785
0.05200332
3.4254597E-4
-0.0070457733
-0.054082334
-0.057761192
-0.05340703
-0.12067883
-0.15952165
-0.09706232
-0.105620444
-0.091248184
-0.08708722
-0.061417583
-0.050016675
-0.05101826
-0.002946492
-0.006006553
-0.051259473
-0.03700265
-0.036767647
-0.009382121
0.027993431
0.069129355
0.14960164
0.17511688
0.17330895
0.12270339
0.07559515
0.08807299
-0.006091068
0.030272342
-0.006863534
-0.025213765
-0.056758016
-0.11447539
-0.12799579
-0.13339111
-0.044379346
-0.07023644
-0.041556835
-0.055707015
-0.050824746
-0.03243116
-0.026625799
-0.025696829
-0.059649043
-0.037772063
-0.04655581
-0.041875064
0.03457024
-0.0021778967
0.079644434
0.084660105
0.101760484
0.061573904
0.051474676
0.0039219465
-0.012371626
5.0784514E-4
0.0015235427
0.022298599
-0.06821106
-0.09403117
-0.07771677
-0.14146563
-0.09624327
-0.062990695
-0.029077573
-0.018953528
-0.03090311
-0.025977366
0.0019376343
-0.01489233
-0.06646105
-0.06766599
-0.06839054
-0.08708964
-0.048885636
-0.04006353
0.014274586
0.0485579
0.05240064
0.051904786
0.023842968
0.07773568
-0.0345056
0.02776893
0.035055775
0.0573148
-0.09687841
-0.12660784
-0.10800131
-0.15412354
-0.10645442
-0.01976141
-0.035623375
-0.0012507313
-0.04945655
-0.00301174
0.005309772
-0.03302514
0.0018814066
0.009396022
0.0082560135
-0.05783253
-0.051048126
-0.041117854
0.020824082
0.07011181
0.07083376
0.021925004
0.0012001294
0.03048454
0.004616112
0.029968966
0.049410727
0.07087007
-0.0018355988
-0.012834219
-0.06730865
-0.15545753
-0.06490604
-0.04187127
-0.02027388
-0.0062816935
-0.014371512
0.021494858
-8.727587E-4
-0.032578375
0.05367597
0.036244553
0.07241538
0.016090633
0.03158415
-0.01957553
0.038288157
0.08975364
0.034589708
0.057855677
0.018901525
0.07216846
0.06102478
0.09773582
0.034264144
-0.004126614
-0.013652066
-0.07526246
-0.068981394
-0.090828
-0.0040996284
-0.0026313325
0.06894477
0.024376648
0.024456419
0.033719867
0.0040235342
-0.044115517
0.043980274
0.09029081
0.069951005
0.056320652
0.048555657
7.874407E-4
0.020947212
0.045830738
0.005176419
-0.019682785
0.058392376
0.09311415
0.08831997
0.033170428
-0.03611627
-0.050085984
-0.016406376
-0.004356609
-0.04491097
-0.02252123
0.012994038
0.015813127
0.09520459
0.032295085
0.06558249
0.031493615
0.027788652
-0.043386437
-0.049984448
-0.026138047
0.0010188065
-0.0036145824
-0.096265204
-0.06501581
-0.04940459
-0.06846481
-0.06817163
-0.04055561
2.5383398E-4
0.019011792
-0.08811288
-0.106488094
-0.07557548
0.0535364
0.043961536
-0.023870707
-0.013458831
0.028220579
0.057215948
0.05815225
0.04208392
0.0623552
0.045092944
0.04230915
0.024230726
0.024433749
-0.02130328
-0.043990884
0.03571631
-0.013443281
-0.087248564
-0.15877873
-0.09175223
-0.13790578
-0.10347134
-0.10181703
-0.101302646
-0.10436967
-0.09937975
-0.10551016
-0.040762417
0.03815161
-0.0011522681
-0.0051359404
-0.033212647
-0.010141161
0.0061647156
0.011970804
0.04479219
0.032161806
0.009257617
0.018927712
0.003055059
0.033618074
0.042436227
-0.03202769
-0.013732181
-0.010463344
-0.043788023
-0.04280209
-0.060590822
-0.14790916
-0.08609938
-0.033725895
-0.021508908
-0.05152305
-0.06896497
0.0064511024
-0.0050683734
0.05831879
-0.008032327
-0.06653518
-0.020847324
0.052955136
-0.0033083034
7.403474E-4
0.018176686
0.036575925
-0.027902717
-0.028362105
0.019022638
0.08308203
0.060926102
0.008539665
0.033463944
5.003097E-4
-0.080892645
-0.027167886
-0.024197802
-0.06741898
-0.09106549
-0.031756263
-0.028971361
-0.08703257
-0.010762171
0.019171264
-0.0030271155
0.057279967
-0.051709946
-0.012801187
-0.021794159
0.059119422
-0.027698204
-0.015066073
0.027829587
0.0227666
0.006914201
-0.01848016
-0.026062086
-0.018024448
0.026803972
0.089400105
0.09286577
0.07148596
0.09327415
0.05563114
0.029161159
-0.020378523
-0.07977668
-0.07460661
-0.095680766
-0.1257681
-0.0994875
-0.08418905
-0.11882361
-0.06394185
-0.063503146
-0.065603375
-0.02445716
0.04050042
0.021973642
0.018359505
2.9866444E-4
0.005762883
-0.008336992
-0.021134706
-0.0103326505
0.0012325711
0.06228778
0.07380138
0.07527327
0.06805136
0.05970424
0.08627843
0.053557333
7.460466E-5
-0.06420649
-0.01412451
-0.085125536
-0.030103361
-0.0768986
-0.12780797
-0.09039931
-0.08328762
-0.08026888
-0.05286311
-0.008054493
0.004767324
0.042953376
-0.00659017
0.0056241597
0.013368919
0.008338879
-0.00798943
-0.016781708
-0.007779128
0.004482476
-0.012019358
0.011863083
-0.0066420883
0.009427236
0.011120884
-0.018367061
0.0018731095
0.014670197
-0.003919877
-0.003958389
5.012825E-4
-0.0018166471
0.016466506
0.0076376274
-0.0057319636
0.0071219318
0.014619738
-0.004895351
0.010536836
0.015154783
-0.016477792
-0.014423444
-0.016882028
0.015857156
0.01739768
-0.0080498
0.0023191143
-0.01636534
-0.01949609
-0.010499001
-0.014335871
-0.004563758
-0.019566271
0.004039416
-0.0026362855
0.007670857
-0.011126298
-0.013364803
-0.003972035
0.015024733
0.010832446
-0.017848551
0.0077307113
0.011166658
6.832369E-5
-0.0018327665
0.014157668
-0.016364532
-0.0033297446
0.018146008
-0.007390771
0.002659412
-0.01904761
0.011873033
-0.013877058
0.010519505
1.1469424E-4
-0.015691817
0.008594716
-0.01327922
-0.009775927
-0.018723235
-0.007199647
-0.014815351
0.0113356
1.7022341E-4
-0.009435606
-0.018445
-0.00102235
0.0024963934
0.016530491
0.008278076
-0.002630299
0.012275446
-0.016779542
-0.012745639
-0.01914623
-0.0073816488
-8.826535E-4
-0.002422452
0.017951429
-0.0018304102
-0.002215311
3.0397438E-4
-0.0093150325
-0.017609369
-4.2068958E-4
0.012593277
0.019424565
-0.0120246075
-0.006007814
0.0073106643
0.005270403
0.0012189299
-0.013649713
-0.01320941
-0.0017992873
-0.004773617
-0.015554034
-0.0054363515
0.01589045
-0.006104231
-0.0038315486
-0.011798875
-0.01316773
-0.016793758
0.006558271
0.019917507
-6.017089E-4
-0.013812151
-0.019320685
0.007198205
-0.0013809539
0.00386036
-0.013281524
-0.010379305
-0.006797743
0.010352163
0.0018186811
-0.005530116
-0.009230675
-0.0065834094
0.011991568
0.005095748
-8.2087517E-4
-0.008153223
0.008330343
0.0027308557
-0.008512366
-0.00782756
-0.013434832
-0.0066899564
0.0025353245
0.0049474295
-0.011687779
-0.017527627
-0.01703684
0.015476294
0.003327243
0.009258898
0.013859361
-0.012323532
0.0064738505
0.0050569884
-0.019915821
-0.0012494065
0.005370578
-0.019784497
0.0060854983
0.0053958967
0.019827142
-0.0042771287
-0.0061944313
0.011475164
0.007884283
-0.011214921
0.0028151982
-0.012388296
-0.018178599
0.014570173
0.018447928
0.003369201
0.017806534
-0.01456661
-0.019580577
0.01398183
-0.007527387
0.005359795
-0.006191559
-0.009419212
-0.013223052
0.0010426156
-0.0064285565
0.013215616
0.010826191
0.01996265
-0.01418484
0.010513088
-0.017659085
0.016180377
-0.017663594
0.0024976712
-0.003868727
-0.01944457
0.0035580155
0.010986635
-0.016977593
-0.0038495231
-0.011329591
0.015264653
0.005393846
-0.017833441
0.0058812816
0.012757562
0.014795732
0.019526843
0.0011584684
0.0016085356
-0.012484992
0.0049339775
-0.01267606
-0.006018214
-0.010349164
-0.007245171
-9.527728E-4
-0.0017245598
0.0180097
0.018444099
0.011045868
-0.008964381
-0.01863921
-0.0054630395
-0.019895067
-0.0058257384
-0.006659656
0.019779142
-0.004520667
0.012173455
0.019224174
-0.00889704
-0.008432292
0.002504794
-0.009811127
-0.007592134
0.0017968696
-0.0011763852
-0.0025308654
-0.012903254
-5.9233606E-4
0.012060195
-0.0074702883
-0.01518749
-0.009111826
0.003893625
-0.013830125
-0.013304181
-0.011614919
0.007954121
0.018155295
0.005752597
0.0013901964
-0.012723341
0.008940602
-0.004288597
-0.016176675
0.005968012
-0.0036551598
0.017324004
0.004416188
-0.0041789915
-0.016664235
0.017800402
0.005771814
-0.0050905365
0.01965604
0.01747962
-0.0040189996
-0.001655044
0.0017996542
-0.01344691
-0.012801144
-0.012182195
0.015358556
4.3561496E-4
-0.005278454
0.005849568
-0.015827557
-0.009896722
0.010082789
0.005548438
0.01581712
-0.013604791
3.6283024E-4
0.0029023439
-0.002826199
-0.013959521
-0.0032536108
-0.004787309
0.012171175
0.0012796875
-0.0025184248
0.008234907
0.01194929
-0.008213551
-0.0014939364
-0.018854665
0.011947066
-0.017335895
-5.290173E-4
-0.009081697
-0.0023211762
-0.010768742
0.009683941
-0.0024828091
-0.011222212
0.009873031
-7.8822114E-4
-0.0069502974
-0.012589528
-0.017693149
0.0022575073
-5.9442595E-4
-0.008805527
0.0041994955
0.005806232
0.010704674
-0.018302917
-0.007691078
-0.015101974
-0.006919381
0.0074926857
-5.3196214E-4
-0.01916663
0.0019795056
-0.0037229043
-0.011839309
0.019875497
-0.013539145
-0.015034139
0.003670644
0.0029352475
-0.015731683
0.011955123
-0.012555003
0.0022845268
-0.002863247
-0.0056628557
-8.378513E-4
-0.013854392
-0.007509906
0.00800184
-0.011086075
0.018271998
-0.011943836
-0.0059900284
0.001909459
-0.0047760988
0.01580099
0.014806859
0.008318044
0.012424022
-0.010088973
-0.01620314
-4.531648E-4
3.5915338E-4
-0.007602322
0.0071822572
0.006780073
-0.01080379
0.01445993
-0.015925137
0.013497215
-0.0060402583
3.3769198E-4
-0.0033714343
0.0045706443
0.009247839
-0.01553353
-0.0061447592
0.0021774024
-0.006153281
0.016873185
-0.010960984
0.0030266717
0.018767089
0.0036286097
-0.009956014
3.1274743E-4
-0.019980123
-0.010385318
-0.0062680533
0.013485588
-0.011648919
-0.01618031
0.010208838
0.013644822
0.016267262
-0.01008815
3.653504E-4
-0.005508435
0.017730948
0.017156854
0.012457546
-0.0011767428
0.013240531
-0.017841505
-0.01779848
-0.012837386
-0.016391126
0.0068581253
0.008571168
-0.004969106
-0.0037800595
0.0022994392
0.01735394
0.013490334
0.010100406
-0.0064553637
3.2531098E-4
0.016899098
-0.011355515
0.014637139
-0.015937459
0.003476819
0.004752094
0.01258979
-0.0060288617
-0.012472064
-0.008415878
0.00810626
-0.01829252
-0.015603926
0.0078309495
-0.006687519
-0.015862755
-0.014066276
-0.0103172995
0.0015047546
0.016185794
-8.99883E-4
-0.01144119
0.0022568218
0.0059523676
0.0050042868
0.005701678
-0.008259737
0.0064391904
1.727771E-4
-0.010808675
4.960988E-4
-0.007021916
-0.015949965
-0.0013536569
0.019970983
0.018335398
0.012866892
0.0063176956
-0.011155972
0.008579643
0.014296845
0.014557794
0.007590499
0.012769531
0.012143608
-0.011515955
-0.0049483255
-3.4780055E-4
-0.0038255602
0.014405467
-0.012673702
-0.01323403
0.01776515
-0.019780323
0.01351371
-0.005841272
0.014011931
-0.019883394
-0.015707871
-0.01047465
-0.003724737
-0.0052277846
-0.019296965
-0.012275037
0.006759815
-0.0023693852
0.0076545235
-0.010224685
-0.010165563
0.011334032
-0.0015019942
-4.2416528E-4
-0.007384314
-0.005032194
-0.004355721
-0.0035522953
-0.010740297
0.0072690006
-0.017238025
0.004386848
-0.0090613505
-0.0063464353
-0.0050361613
-0.008381028
-0.0077482937
-0.00817476
-0.004020009
-0.01583705
-0.0034047384
-0.0065593887
-0.009788012
0.0028146617
-0.002325492
0.0050458945
4.5296922E-4
-0.006953447
0.019887622
-0.006876492
-0.010232536
-0.018807191
-0.017113559
-0.015933212
0.0024948306
0.007995296
-0.010527911
-0.0056588007
-0.01835654
-0.01721474
-0.0064969203
-0.0012838785
-0.011726462
0.009559374
-0.013815155
-0.019385137
-0.0038546864
-0.008110085
-0.016393729
0.019308183
-0.0016178433
-4.7283247E-4
-0.0075515816
0.010469975
-0.008266075
0.018870924
0.019295964
-0.01825064
-0.009078515
-0.004002927
-0.015058972
-0.008656976
0.016317867
0.009038094
0.019614324
0.018551484
0.001821002
0.011472419
0.007468434
0.010074854
0.008267324
0.014940567
-0.003745446
0.009074083
0.0063203145
0.015865512
-0.0035141613
0.006144246
0.009763472
0.0113241635
0.00709955
-0.011706495
0.016978484
-0.0061642025
-0.006524858
0.0053968206
-0.010332944
-0.009834366
-0.0014816336
6.2374026E-4
0.001274012
-0.0153237125
0.0063906685
0.0048759673
-0.006089623
0.002611285
0.017481308
0.013790015
0.0058035143
0.0030014254
0.016644351
-0.0065359445
-0.0015129
0.015311342
0.0069372226
-0.0025169663
-0.005717518
0.019778602
-0.01139091
-0.011606247
-0.0065652896
-0.019444328
-0.0034705717
-0.017501825
-0.017003221
0.015784658
-0.014623096
0.004290797
-0.0042253304
-0.017219638
0.005609514
0.008290544
0.010048892
-0.016642325
-0.012483783
-0.010738807
-0.004804327
-0.0015711766
-0.013358986
-0.019646592
-0.016311765
0.0073535684
-0.009169502
0.0016372986
-0.0016642567
0.011815179
0.014467854
-0.0064460486
2.1013059E-4
0.0025058705
-0.015371731
-0.01865107
-0.004160829
0.006551575
-0.009444775
-0.0064629577
-0.016646624
0.0019263197
0.0037722904
-0.00851298
-0.009065361
-0.019734588
-0.018806677
-0.014465889
-0.005178311
2.728533E-4
0.0057835504
0.008479109
-8.988138E-4
0.009746229
-0.015212681
-0.0016091242
0.019499522
0.015150648
0.008533552
-0.01660263
-0.0045410413
0.0043263156
-0.014260416
-0.008645782
-8.718204E-4
0.0016009901
0.014566086
-0.017728519
-0.010157935
0.0072129983
0.0010631531
0.0121350065
0.0146533735
0.017071739
-0.015152363
0.019880254
-0.010918932
0.017654717
-0.019251887
0.01699033
1.5074015E-4
-0.011947746
-0.012246775
0.009347426
0.0018430538
-0.008762986
0.004035456
0.0070450976
0.010181094
0.014594726
-0.0016475171
0.018968634
0.013447471
0.011268657
-0.018864205
-2.0051934E-4
0.017622583
0.00523288
0.018568367
-0.0019518677
0.0063962676
0.011132149
-0.016436944
7.454045E-4
0.0104721375
0.0023480859
-0.009461079
-0.014874625
-0.013072807
-0.014363034
-0.013863862
0.007241633
-0.016196039
-0.0031779576
-0.016479842
-0.01517683
-0.0012806468
-0.00117209
0.009834373
0.0052737426
0.0070181414
-0.01914587
-0.011073952
-0.00634937
-0.018049443
-0.003634967
0.007075321
-0.010548255
0.006707743
0.0091107525
-0.0013906471
-0.009554241
-0.010773844
-0.017494354
0.009616382
0.0075746924
0.0019180365
0.010912897
-0.011755115
0.0037440266
0.019469522
0.004883008
-0.015835602
-0.016681816
-0.018733092
0.0199573
-0.019315422
-0.013789086
0.01668454
0.0046903174
-0.008089671
0.004077267
-0.019659288
0.003105674
0.0034115743
0.0053778607
0.0025708266
0.015542716
-0.014411168
-0.004276283
0.00297519
0.016065411
-2.7169473E-4
2.7276762E-4
-0.009707298
-0.008795902
-0.01870458
0.0020133313
-0.008523562
-0.008675606
0.005071426
0.0151375905
-0.018726742
-0.0094705075
0.012176663
0.003605377
0.0085320845
-0.0075085564
-0.0021457765
0.004277298
0.017705172
-0.012611987
0.0072417576
-0.00986706
-0.012491688
0.0092331525
0.018494945
0.0061858706
-0.009459774
0.003995206
-0.019073479
-0.0015105978
-0.0019764658
-0.0017131995
-0.019202694
-0.00955328
0.0060397964
-0.0120020695
-0.012326233
0.011472959
1.3496168E-4
0.018568125
-0.0033927653
-0.012493644
-0.006461072
-0.013181243
-0.00932323
0.013157543
0.050049674
0.01562073
0.02131542
-0.035274472
-0.05420068
-0.07718193
-0.04274038
-0.008432802
-0.11857667
-0.12743896
-0.19204918
-0.15810281
-0.12659574
-0.11744674
-0.07325408
-0.09546749
0.009379795
0.080960214
0.098871
0.15311034
0.1787052
0.21149996
0.18025978
0.18109888
0.150612
0.12137264
0.11762182
0.06733264
0.05306855
0.031970847
0.0051616402
-0.051930968
-0.047199465
-0.022336995
-0.01662907
-0.10316776
-0.063076444
-0.10939233
-0.17191638
-0.1661825
-0.1417885
-0.13811602
-0.10016992
0.011119627
0.04694424
0.04635542
0.116172604
0.15161294
0.2165932
0.2465774
0.20668979
0.17742531
0.17959848
0.163906
0.12156783
0.109388515
0.023574553
-0.033882935
-0.04481464
-0.049139455
0.0118842255
-0.08358199
-0.13942224
-0.12238838
-0.08395462
-0.05894906
-0.047576092
-0.1358082
-0.043304898
-0.038635902
-0.05238191
0.01723664
0.038912416
0.0629897
0.10921976
0.12536213
0.16929105
0.26197705
0.23291065
0.25578234
0.19270167
0.15575095
0.1760074
0.14340277
0.045193467
-0.0040653273
-0.03192923
-0.054816775
0.012612213
-0.10902749
-0.15613417
-0.16360705
-0.05401658
-0.012500325
-0.09296034
-0.17689465
-0.08563564
-0.015575496
0.060768012
0.016576257
0.063234404
0.044325087
0.11911984
0.12202586
0.15738907
0.25253916
0.24511485
0.24741127
0.22932155
0.21159361
0.1717953
0.109900646
0.026892632
-0.052405473
-0.03991254
0.06773516
0.009036661
-0.047640733
-0.13081867
-0.14445393
-0.059888303
-0.0035525805
-0.077256836
-0.006199012
0.01245758
-0.0711998
-0.107997686
-0.1474062
-0.17729124
-0.183925
-0.026406176
-0.017035874
0.017565066
0.062375456
0.048459973
0.09962484
0.14023136
0.14519604
0.09020106
0.10013592
-5.4691227E-5
-0.0036362156
-0.0022754464
0.07698294
-0.02188505
-0.050038908
-0.059157632
0.007873949
0.04310934
0.08067397
0.059917457
0.095304325
0.08084184
0.02773741
0.022241231
-0.07430099
-0.13573949
-0.06141194
-0.029503513
-0.062268656
0.007996047
-0.02112572
0.01889199
-0.012181857
0.073930636
0.08771157
0.090331346
0.091767974
0.03070039
0.023468584
0.020980656
0.025690127
-0.1284012
-0.082125954
-0.08977689
0.037774824
0.10053786
0.11594746
0.09385391
0.16004704
0.056291744
0.070206106
0.080460355
0.009380514
-0.08216114
-0.0040203007
-0.0115509555
-0.0036273224
0.051358428
-0.012437542
-0.049927365
0.0076837335
0.048754368
0.024398629
0.073543854
0.07723843
0.021433778
0.054573607
0.053707123
0.01658714
-0.049758796
0.0024607435
-0.043081228
0.088362604
0.19101913
0.23683673
0.21005833
0.18108788
0.0729792
0.103645585
0.07580248
0.035809167
-0.061695203
-0.11584128
-0.08798536
-0.16114673
-0.094724536
-0.11418845
-0.12040561
-0.1409599
-0.05154142
-0.047254622
0.021550523
0.036080744
9.462986E-4
-0.010152881
0.05713316
0.0060411748
-0.010961583
0.0093637975
0.05682798
0.058793604
0.10404081
0.1488106
0.1568909
0.12535906
0.1764099
0.20004883
0.2080303
0.124093056
-0.020569742
-0.010115914
-0.14513077
-0.12378006
-0.11242516
-0.106566325
-0.10312929
-0.07929638
-0.025626648
-0.02710077
0.030189766
0.0333491
-0.014611361
0.0034974837
0.060132008
0.029705288
-0.021906722
0.005592055
0.04460237
0.08224772
0.14757806
0.07064679
0.05599306
0.09225789
0.13873518
0.1686455
0.13170137
0.04962672
0.025686882
-0.010317544
-0.11098483
-0.08260248
-0.13604766
-0.04353776
-0.034797374
-0.01925883
-0.021700703
0.027543921
0.0097499965
0.008070377
-0.029045029
-0.031377338
0.038480155
-0.012431214
0.010635696
0.025571853
-0.015622696
0.05360668
0.07618509
0.011587314
0.079718776
0.15634939
0.13091822
0.130938
0.06684758
0.024430335
0.03343775
-0.040351316
-0.08449849
-0.094420634
-0.1580275
-0.09306562
-0.059392527
0.031603735
-0.0063362196
-0.008470533
-0.011593561
-0.022080466
-0.045859016
-0.058668047
0.0069221635
0.013269972
0.012171906
-0.011343263
-0.0058699846
0.0045941263
-0.08010469
-0.0025409374
0.06533331
0.1280731
0.059820313
0.0030481422
-2.101797E-4
0.025276015
0.026371202
-0.022643935
0.007820676
0.011326684
-0.012159771
0.0016272729
0.014283394
0.08278824
-0.01140139
-0.0034172654
-0.028327933
-0.015937494
-0.05612447
-0.040155116
-0.09754846
-0.09763387
-0.07078606
0.030478993
0.057668556
0.031789027
0.023486929
0.04298583
0.09557086
0.07109952
0.04423694
-0.014882558
-0.0067834156
0.00807922
-0.0042416663
0.0068389466
0.022887507
0.07185078
0.08738287
0.03154212
0.07101436
0.124784976
0.04199892
-0.008963917
-0.031510208
-0.029034918
-0.052407283
-0.04209945
-0.07434978
-0.039106205
-0.019711506
-0.024088455
0.022980535
0.06515852
0.091807
0.010757529
0.01616689
0.0027480014
-0.026712388
-0.015896982
-0.046161503
0.03456013
0.032218814
0.0054836418
0.058976974
0.093806155
0.11197766
4.0793692E-4
0.027499525
0.07763643
0.04592487
0.028822621
-0.060656857
-0.059021123
-0.060351424
-0.08520772
-0.093519285
-0.06278377
-0.08813354
-0.017930211
0.0015460862
0.07638743
0.09386821
-0.010178753
-0.030343853
-0.040135007
-0.0051277266
-0.0143705215
0.033298213
0.042583965
0.044599913
0.07296053
0.07401489
0.10960546
0.18266313
0.033186615
0.04542541
0.04659456
0.026701096
-0.0062725
-0.053270526
-0.07657175
-0.0812369
-0.05246798
-0.07818298
-0.09900074
-0.054678865
-0.026111668
-0.024168901
-0.019641852
0.047337115
-0.01351031
0.041955378
-0.003537546
-0.05920369
-0.06761951
-0.04145376
0.032168888
0.018005354
0.058428336
0.07579092
0.11049209
0.07050598
-0.02209364
-0.007768302
0.079361156
0.034457162
0.029839661
-0.050135683
-0.031430576
-0.026576737
-0.04846407
-0.046807975
-0.09134079
-0.01230674
-0.0492491
-0.010616646
-0.014855211
0.0076809675
-0.03435658
0.028129999
-0.022200026
-0.012867076
-0.0042885314
0.013610541
0.062497113
0.06323946
0.08257619
0.087374546
0.037944037
0.123116985
0.017040782
-0.028336579
-0.017335182
-0.084035516
-0.045529738
-0.100657575
-0.073022686
-0.04197422
-0.025219098
-0.011181596
-0.06029183
-0.025223397
-0.017213387
-0.029592855
-0.036385946
-0.041599955
-0.016235007
0.052878194
0.061107036
0.04655425
0.06539321
0.05701443
0.09348308
0.075299315
0.0663993
0.052006375
0.016960805
0.11801453
0.020235136
-0.029528925
-0.010091633
-0.018342884
-0.015970508
-0.055046503
-0.060032547
-0.021913616
0.018453507
0.004618335
-0.012983271
-0.017183332
-0.01247103
-0.01623522
-0.018327752
-0.035882875
5.6826114E-4
0.07720882
0.07523793
0.08686722
0.088942386
0.07420284
0.10639695
0.118763246
0.10964286
0.028846838
0.0087955175
0.044936426
0.018989012
-0.0348965
-0.0021886
-0.072186634
-0.033813145
-0.06290466
-0.043258037
-0.018627107
-9.6146984E-4
0.0084964875
0.0056905546
0.017428728
-0.04844428
-0.044265576
-0.08091587
-0.038317807
-0.05868404
0.017531887
0.035467956
0.14105439
0.12423369
0.16698252
0.15149735
0.13003533
0.15828636
0.06268763
-0.01999313
0.012037941
0.059149258
0.025570737
0.0021412678
-0.08634379
-0.046595674
-0.07906372
-0.051120352
0.014901219
0.028614582
0.085655585
0.06401447
0.04204991
-0.010240729
0.014493502
-0.05326502
-0.1523301
-0.13900857
-0.076181255
0.0045026364
0.11059984
0.13485262
0.15196604
0.09232278
-0.016245726
-0.050473176
-0.034274414
-0.05715792
-0.077949196
-0.05225115
-0.044272963
-0.08269051
-0.17139275
-0.10095728
-0.08107688
-0.03166732
0.05070913
0.08459967
0.11654689
0.03142146
0.05277325
0.031882204
0.08724193
-0.016919574
-0.11056875
-0.15078682
-0.09105333
-0.024039248
0.03451201
0.09848893
0.15792198
0.07129096
-0.03830017
-0.03370794
-0.030785164
-0.0680408
-0.15943398
-0.065860786
-0.07487857
-0.08171944
-0.20162211
-0.07506823
-0.051078282
-0.03154552
0.041388094
0.072640136
0.0880972
0.11649837
0.07556587
0.026798638
0.078108124
-0.012402305
-0.032853533
-0.081719145
-0.0015380775
0.003327884
0.08323543
0.07773114
0.0838586
0.003065223
-0.1054972
-0.13707605
-0.11584277
-0.12624541
-0.1384595
-0.08889583
-0.036202315
-0.11436758
-0.18314868
-0.07641252
-0.05334691
-0.04264978
-0.0053741466
0.065746225
0.105384625
0.07154866
0.05611704
0.0033326235
-0.02236111
-0.04606889
-0.06887454
-0.0010884666
0.0053368313
-0.035584837
-0.045221433
-0.052020825
-0.08169998
-0.15845795
-0.1525828
-0.1443091
-0.19241582
-0.2031582
-0.1569224
-0.086066306
-0.0655404
-0.113118306
-0.09010733
-0.08266093
-0.023171972
0.007357981
0.021089159
0.044329606
0.112861104
0.14397965
0.049044773
-0.010193593
-0.0058935983
0.039010335
0.06412787
0.039666854
-0.019433219
-0.12854001
-0.19794375
-0.22433057
-0.17109932
-0.17910169
-0.19433567
-0.17623106
-0.14378728
-0.14511102
-0.09850378
-0.12390469
-0.077325635
-0.08718235
-0.12606217
-0.07739704
-0.03336044
-0.026785288
0.023225376
0.081553765
0.07652419
0.098962605
0.08077237
-0.074189745
-0.0414514
0.067792036
0.07274615
0.031466953
-0.04297069
-0.10000203
-0.17098038
-0.17064671
-0.1808281
-0.13396339
-0.17182821
-0.13466069
-0.12276942
-0.011789736
-0.06522521
-0.07628541
-0.03313364
0.0024493476
-0.05160418
-0.044592213
0.02577401
0.024212169
0.03507916
0.05101493
0.07026551
0.04138511
0.054042887
0.009305116
0.02347335
0.012934799
-0.029664936
-0.016492553
-0.046444513
-0.059456978
-0.16258502
-0.23850428
-0.24521352
-0.16742435
-0.113229334
-0.0831678
-0.0336328
-0.0013481037
-0.057286873
-0.08038363
-0.06026813
-0.027925357
0.0042244955
0.020716075
-0.004220972
0.013543542
0.059783485
0.06854175
0.034058407
0.04255549
0.014667556
0.054354805
0.040008117
0.042729385
-0.046477295
-0.048415188
-0.044052932
-0.055173773
-0.2114144
-0.19002791
-0.20444025
-0.1559001
-0.15342443
-0.13607955
-0.086622976
-0.08415984
-0.06535884
-0.11082617
-0.10950533
-0.065695666
3.553707E-6
-0.0011500253
7.119073E-4
0.02100356
0.023641016
0.036331177
0.059221435
0.030450858
0.041672233
0.043214153
0.070754915
0.053590894
0.08436976
0.068298616
0.08199798
0.08241286
0.09481496
0.08174434
0.07126599
0.07410178
0.035143383
-0.010488632
-0.023023846
-0.05011598
-0.045865137
-0.045157123
-0.06300331
-0.037760153
-0.0013830003
-0.0074647963
0.008201908
0.011216912
0.023463802
0.060812343
0.05239041
0.047945164
0.025271427
0.08236901
0.07113293
0.08549382
0.06407843
0.08905995
0.11542529
0.09124754
0.094708055
0.04357702
0.06615381
0.067557774
0.03399935
-0.04175243
-0.04658552
-0.05414127
-0.07158603
-0.057426784
-0.03750236
-0.055765413
-0.054630663
-0.0065585957
0.0020824883
0.04155088
0.034431014
0.051878437
0.050805267
0.035908107
0.05737014
0.09055788
0.0678628
0.11847246
0.092612326
0.15383168
0.11678968
0.09811881
0.10718435
0.0310074
-0.021135248
0.006808563
-0.013311425
-0.06787904
-0.059006654
-0.07472411
-0.06804428
-0.06896256
-0.012939628
-0.051610257
-0.010116596
-0.049659416
-0.027423395
0.01326618
0.0197974
0.043884397
0.060137555
0.06161323
0.060438327
0.10352308
0.086572886
0.11936586
0.12898935
0.15138982
0.11412497
0.100415856
0.09735791
0.036897756
0.0010585113
0.0038311677
-0.039072614
-0.019167015
-0.081385516
-0.050309535
-0.077590264
-0.078929484
-0.035942215
-0.038587797
-0.009278844
-0.022631304
-0.012087727
0.01072597
-0.0059645665
0.04118837
0.052451067
0.0804556
0.08001659
0.08750407
0.082539655
0.13815014
0.13437907
0.11569653
0.098648265
0.06440066
0.019297963
-0.011488903
-0.0037962531
-0.01234492
0.0010311992
-0.007854382
-0.047070287
-0.017816069
-0.020295236
-0.00448411
0.010288388
-0.008305459
-0.03564345
-0.03825422
-0.046252463
-0.032481726
-0.014838445
0.028399162
0.048073083
0.042302698
0.08108761
0.094951905
0.099084
0.10434299
0.11021783
0.034486815
0.035083625
0.038976695
0.003915497
-0.043566752
-0.010381739
-0.0073353276
-0.008704552
-0.06545265
-0.05428597
-0.05786186
-0.0723795
-0.019395815
-0.051019877
-0.09767117
-0.04106646
-0.021521913
-0.054121275
-0.048584096
-0.064858004
0.019861951
0.039578825
0.07552615
0.095242605
0.09021431
0.09105766
0.099852875
0.0707044
0.049930673
0.021566626
-0.020998752
0.012820722
-0.026446363
0.008121944
0.0543884
0.022001993
-0.01845301
-0.01927577
-0.018487994
0.0016015911
-0.02208435
-0.02759612
-0.0917796
-0.01614106
-0.012560657
-0.034691256
-0.03621298
-0.048810434
0.029898137
0.037327934
0.035185613
0.051687326
0.10211985
0.06564994
0.07537751
0.014843105
-0.0116030555
0.019380862
-0.037903547
0.009976045
0.008880549
0.021185152
0.03478178
0.026068557
0.021282291
-0.0033635837
-0.01268807
-0.04490504
-0.07728926
-0.113309965
-0.062931605
-0.076215796
-0.05314878
-0.019966021
-0.059186265
-0.0105936285
-0.0043502213
0.05369885
0.060281537
0.077024646
0.060719103
0.063739374
0.065931335
0.036650546
0.034843765
0.043908898
-0.0028645755
0.006486427
0.08494893
0.08008392
0.12099725
0.11812291
0.035393186
-0.017589211
-0.024014309
-0.069697626
-0.10655136
-0.10021161
-0.05264522
-0.046403214
-0.019545991
-0.030651314
-0.012013681
-0.011737506
0.020025874
0.048506226
0.04996437
0.08531081
0.051435933
0.06688399
0.055201676
0.06346184
0.028449435
0.015021098
0.026967442
0.03781131
0.059312634
0.028632343
0.032561183
0.06625991
0.046449512
0.005049971
-0.04965768
-0.061902344
-0.061194688
-0.029558348
0.014377997
-0.017730962
-0.016206183
-0.059461374
-0.022536263
-0.030462874
-0.0014254532
0.041796494
0.069411665
0.06945991
0.07745215
0.053689294
0.05178685
0.06768502
-0.020507075
0.02430436
0.053137947
0.06551849
0.06491549
0.043716095
0.07096424
0.024860816
0.023159312
-0.028790245
-0.105644405
-0.1005773
-0.10346092
-0.05413269
-0.035048284
-0.031971354
-0.08350966
-0.07057762
-0.018388074
-0.014267888
-0.0118999705
0.043581408
0.0634248
0.0656567
0.039389048
0.017162926
0.032921065
0.019631369
-0.01663131
0.063825354
0.06747853
0.08491741
0.081567
0.04497651
0.04425291
0.009415397
-0.016792187
-0.012098489
-0.076804034
-0.03994829
-0.04270706
-0.081282265
-0.06897282
-0.05353088
-0.07501297
-0.053682115
-0.02654562
-0.019955408
-0.013334334
0.0071344324
0.007844048
0.050159447
0.030507918
-0.02514329
-0.027171133
-0.031630944
-0.029431323
-0.002866365
0.016549021
0.016721109
0.037898682
0.07322542
0.041717533
0.03624202
0.108067065
0.09480021
0.054173425
-0.003768743
-0.024390433
-0.0677449
-0.03842661
-0.04324452
-0.015261081
-0.015010318
-0.009177422
-0.0062158154
0.030008387
0.011112954
0.014547609
0.033098176
-2.901065E-4
-0.0043653576
-0.0059649767
-0.019146163
-0.03554143
0.005818029
-0.031567514
-0.0073086536
0.03299952
0.034003545
0.052261032
0.11181405
0.07921357
0.01777747
-0.020749712
-0.040421665
-0.08232875
-0.072679356
-0.06839162
-0.02329108
0.010628482
-0.025915425
0.011188484
-0.015929604
0.032710783
0.016954076
0.006334439
0.015369666
-0.005160231
0.0020086064
-0.04392742
-0.035503555
-0.055766173
-0.062976055
-0.029221648
-0.010280894
0.00926527
0.013904861
0.06921944
0.12135548
0.06255049
0.01812872
-0.0043642777
-0.039667893
-0.042757414
-0.07962836
-0.07383876
-0.022146476
0.028518092
0.043088377
0.026441205
-0.008607993
0.009882751
0.033328533
0.0026489717
-0.012765418
-0.038015854
-0.02971125
-0.043173146
-0.06701448
-0.0069269324
-0.0014060114
-0.025228327
0.019787386
0.026031816
0.039634388
0.09823872
0.07923278
-0.0239734
-0.06318831
-0.0844337
-0.085438706
-0.11016738
-0.13714589
-0.086583525
-0.03338075
0.014557628
0.0034653333
0.0018379677
0.005406463
-0.025140792
-0.020010162
-0.041302234
-0.06109182
-0.050293315
-0.07706408
-0.09891229
-0.08872619
-0.049552053
0.017070366
0.060138505
0.043700375
0.04214234
0.076862685
0.07818934
0.034682132
-0.0144695025
-0.07534804
-0.09068835
-0.098258644
-0.10481818
-0.10285941
-0.07663451
-0.074448206
0.020221092
0.005238044
-0.0078569045
0.010631596
-0.014976182
-0.038958326
-0.02440077
-0.036808915
-0.09112809
-0.054164246
-0.057972502
-0.06299164
0.0038184954
0.037278377
0.0069116633
0.01857656
-0.0026252158
0.021807306
-0.050188344
-0.075707726
-0.10110818
-0.09765643
-0.108334795
-0.08823118
-0.051970024
-0.029166698
-0.034880295
-0.013784555
-0.017853197
0.025320549
-0.008245327
-0.005542795
0.0017519743
-0.013713581
0.014465336
0.020609975
-0.047630906
-0.03211303
-0.050179485
-0.05426342
-0.040724274
0.01681616
0.021447659
0.009984302
0.0045875716
-0.022302208
-0.031901754
-0.09434613
-0.07734742
-0.11544346
-0.074269965
-0.10156581
-0.02918034
-0.023400104
0.0066573834
0.012749134
0.019367296
-0.0038647633
0.014167107
0.0013861671
-0.02656991
0.014593284
-0.017003264
-0.021191316
-0.080407195
-0.07504207
-0.021519572
-0.105026335
-0.048181
-0.013422202
-0.01322882
-0.028968628
-0.051014323
-0.086113505
-0.11408296
-0.12947318
-0.049968578
-0.122470416
-0.041921876
-0.07148331
-0.06807424
-0.03125688
-0.0045349533
0.0148514155
0.04203033
0.062351782
0.06538573
0.040263362
0.015348438
7.12172E-4
-0.022808302
-0.02783807
-0.06186285
-0.08671592
-0.13238797
-0.11072447
-0.060774192
-0.07178818
-0.046280053
-0.0360668
-0.018592093
-0.1251866
-0.17771721
-0.13689478
-0.052820597
-0.013798329
0.014477362
-0.0016076707
-0.03181491
0.0043770177
0.03501487
0.043094113
0.005603976
0.042526953
0.038807042
0.04224622
0.012998211
0.022874895
-0.032559935
-0.020154562
-0.08501781
-0.116474815
-0.15513684
-0.16034809
-0.07504814
-0.053060595
-0.09523773
-0.06075601
-0.06547623
-0.102420464
-0.11618333
-0.09837791
0.008197482
0.05470341
0.033644453
-0.041076764
-0.047048822
-0.012395397
-0.006169826
0.0043322053
-0.016634084
-0.009699591
0.039526936
0.05351898
0.008564815
-0.010797137
-0.037712153
-0.017818581
-0.09230502
-0.11417624
-0.10351532
-0.12857382
-0.0065768026
-0.07275561
-0.091888435
-0.087007284
-0.073030114
-0.042783916
-0.037603255
-0.017062059
0.02401955
0.028882213
-0.0013973429
-0.029451912
0.00598899
0.02484004
0.018928332
0.0250554
0.02150234
3.1547627E-4
0.031171735
0.0031563176
-0.034422945
-0.03439192
-0.03219718
-0.015714955
-0.096501365
-0.10141916
-0.08764836
-0.07893632
-0.090244934
-0.08148186
-0.06864524
-0.06589085
-0.058112454
-0.036017638
-0.01642156
-0.018767301
0.007307039
-0.028440487
-0.017536376
-0.043514244
-0.021583121
0.012341185
0.010832174
0.010043617
-0.0064985687
0.009051346
0.018543238
-0.0066190152
-0.009850182
-0.035543684
-0.072242655
-0.017776
-0.09383818
-0.11782319
-0.08147344
-0.028717069
-0.05374383
-0.03198305
-0.030403528
-0.018031172
0.04336172
0.0448307
0.10379376
0.057073608
0.022726722
0.009007849
-0.0067625926
-0.011133735
-0.015768584
-0.007842774
-0.0280937
-0.02804892
-0.018709973
0.0055134706
0.015982768
0.013686016
-0.032502383
-0.008258542
-0.04446988
-0.03158752
-0.052384265
-0.064497985
-0.018806146
-0.008804811
-0.038411755
-0.036676317
-0.0059536104
-0.0040964982
0.001975567
0.07027417
0.060410596
0.08948642
-0.0021217926
0.035838928
-0.004818363
-0.011605545
-0.028537117
-0.033383228
-0.021088498
-0.032921646
-0.0032657904
0.018746274
0.004273919
0.008039035
0.011650212
0.002204663
-0.0012588927
-0.009098825
0.038468506
0.014395145
0.032823507
-0.0066943183
-0.035475016
-0.0132202115
0.06429427
0.06326365
0.032975655
0.026620034
0.020430585
-0.0031421117
-0.008892318
-7.1974535E-4
0.047675394
0.046826445
-0.039996542
-0.045892127
-0.04668537
-6.7133905E-4
-0.008959715
-0.0053883195
0.026356554
0.027438128
0.054686617
0.028674342
0.0095956335
0.005515089
0.030483508
0.084079206
0.03327741
-0.020812606
-0.0326471
0.025208425
0.03355176
0.070403144
0.063801065
0.060068455
-0.007360744
-0.00626278
0.0051923837
0.04607885
0.06162351
0.032286584
-0.017142873
-0.025427882
-4.4756976E-4
-0.02477437
0.023611885
0.0071756053
0.03454892
0.05461406
0.022670522
-0.10545335
-0.08030302
-0.06753925
0.007347821
-0.0010792194
-0.015653443
-0.038240116
-0.0044295383
0.024995562
0.06387026
0.094075166
0.12737218
0.18447751
0.1734521
0.2743517
0.39089417
0.3731898
0.31345546
0.3725567
0.317464
0.15132046
0.10617631
0.07087088
0.010266491
-0.07213481
-0.09882945
-0.056131102
-0.08765042
-0.08746141
-0.036696482
-0.023480661
-0.008373185
0.002697627
-0.00254221
-0.03619965
-0.04692195
-0.027265053
0.033432383
0.07027315
0.0792004
0.058197197
0.14476387
0.12545261
0.08216639
0.22869413
0.19237776
0.16622104
0.12693013
0.09969163
0.067300074
5.1534275E-4
-0.007866545
-0.012371453
-0.07674113
-0.056561105
-0.07879163
-0.038351633
8.328759E-4
0.0075491723
0.05832742
-0.010023265
0.031367622
0.013873798
0.019344667
0.08771052
0.1528847
0.1226668
0.13125136
0.070446186
0.097921215
0.1357611
0.20737718
0.29430297
0.22557324
0.14214706
0.12716357
0.011574525
0.05023987
0.050474953
0.034374874
0.015304963
-0.0075421934
3.454108E-4
-0.0641738
-0.020939153
0.02523865
0.040029142
0.09832574
0.026917163
0.025258044
-0.008342268
0.09188162
0.13419822
0.15099719
0.17097747
0.1889694
0.18972933
0.18764609
0.25842446
0.28964803
0.31788227
0.29212758
0.20028898
0.21382964
0.15949652
0.117124
0.11460858
0.10031934
0.05662271
-0.012977315
0.013202068
-0.065368496
-0.024130167
0.03068341
0.07668883
0.11536542
0.04489889
0.041756675
0.055821195
0.043471307
0.18738405
0.19176875
0.24102578
0.24348909
0.25664246
0.27714962
0.16402279
0.18789801
0.17169003
0.2199771
0.14450338
0.21610817
0.11186148
0.15727289
0.18033093
0.22109354
0.19690354
0.10327067
0.08741017
0.04110015
0.05077809
0.03418068
0.091460034
0.09708243
0.08778455
0.07824769
0.05872463
0.029822474
0.14684443
0.11028824
0.15831096
0.1657514
0.2135929
0.17068388
0.109436296
0.20095596
0.10373723
0.09127442
0.07611282
0.059060205
0.033690106
0.13248464
0.18604913
0.2534231
0.26953277
0.12731569
0.098502934
0.055814605
0.02437407
0.03374905
0.0707455
0.088230446
0.072827175
0.067687094
0.07151101
0.12307092
0.1761586
0.1857706
0.21740893
0.3192698
0.32229003
0.19629806
0.15900083
0.2095257
0.09879309
0.10160826
0.10104841
0.082746565
0.07571194
0.17544346
0.2362096
0.22466336
0.23590733
0.15043779
0.10814868
0.09126904
-0.015317782
-0.0061631664
0.027761031
0.0453421
0.054451216
0.001904908
0.022891795
-0.006486613
0.14245161
0.1807378
0.2636409
0.22366038
0.20292449
0.19677666
0.13537966
0.14514938
0.031671092
-0.019119255
0.08673818
-0.0011673691
0.044875592
0.10177449
0.12620652
0.1805122
0.14421932
0.10517603
0.07041652
0.08365721
0.003230915
-0.02316971
0.0071949265
0.011049131
-0.04793396
-0.029947296
0.013347453
-0.009037812
0.034615897
0.10868676
0.15275915
0.121619694
0.099662706
0.058879703
0.015743846
0.024346776
0.0075832545
-0.047379542
0.019910822
0.04720353
-0.034053925
0.03353051
0.083664425
0.11843368
0.16237411
0.0732413
0.053965162
0.030006329
0.008342892
-0.022763258
-0.028501589
-0.04463907
-0.08846576
-0.06812493
0.010095778
0.018508475
0.09597163
0.11535202
0.06328628
-0.011061998
0.024844347
-0.030591661
-0.033123128
0.029616676
-0.06058673
-0.0657699
0.048147738
0.014149561
-0.073510244
-0.056271907
0.06895656
0.1103865
0.051563755
-0.0090944
-0.0552524
-0.030885188
-0.02643136
-0.015116868
-0.1014326
-0.053203057
-0.066146694
-0.09852754
-0.029138584
-0.008828674
0.037326414
0.056193713
0.02481755
-0.0023452474
0.025514252
-0.02395052
-0.048193347
-0.017421383
-0.11528394
-0.017940598
0.056345027
-0.039517205
-0.025482722
-0.044166908
4.94509E-4
0.06395293
0.014345371
-0.056153554
-0.08811444
0.004295185
0.0012487745
-0.03597302
-0.09714462
-0.093861565
-0.08885486
-0.085716695
0.037591003
0.010851143
-0.007152152
-0.075358376
-0.02179807
-8.4776164E-4
0.018328197
-0.02245591
-0.094318785
-0.012100996
-0.11090581
-0.017313616
-0.008041102
-0.07839736
-0.11907531
-0.10971293
-0.13713624
-0.06428233
-0.10465086
-0.045080286
-0.05285357
-0.008988469
-0.023337778
-0.0768553
-0.04190892
-0.0918655
-0.061059438
-0.08638633
0.011305322
0.039893676
0.058255844
-0.04062275
-0.08567184
-0.047793273
-0.064175166
-0.0028983254
-0.044174563
0.018472152
-0.119549945
-0.012361682
-0.0011743373
-0.08295455
-0.10824258
-0.07703237
-0.020445395
-0.09106908
-0.12222904
-0.108463526
-0.0901486
-0.048600093
-0.10116302
-0.20543383
-0.057728995
-0.14318234
-0.07212914
-0.05857536
0.00564575
-0.015696622
-0.015868181
0.0010704687
0.09189197
0.08330158
-0.025567504
-0.059963997
-0.0019074104
0.06866654
-0.07532158
-0.08651034
0.0010530675
-0.09037116
-0.14697678
-0.06046261
-0.08864507
-0.15708987
-0.20730938
-0.18966396
-0.20944601
-0.11038311
-0.15948765
-0.23811552
-0.13651739
-0.09262924
-0.018885095
-0.09175082
0.0460937
-0.021264203
-0.016635444
-0.05011674
0.028269285
-0.016393306
-0.09110738
-0.08288857
-0.071948886
-0.0038888426
-0.06136432
0.0021184538
-0.004304214
-0.049843542
-0.100855954
-0.078827634
-0.1034933
-0.12344524
-0.21755499
-0.21049221
-0.22382644
-0.13398257
-0.046522763
-0.090347804
-0.0013090749
-0.011984696
-0.042817358
-0.08642673
0.046736646
0.02969892
0.075621665
-0.0017189359
0.113917135
0.024521811
0.019008052
0.009089892
-0.021002507
0.013417894
-0.015372063
0.019242117
-0.003065474
-0.0445441
-0.115869425
-0.17797427
-0.13380641
-0.14948183
-0.13458796
-0.057346392
-0.095734075
-0.05101146
0.015088588
-0.0785983
0.017444327
-0.041011326
-0.1780999
-0.171651
-0.04849389
-0.0845243
-0.03983409
-0.08641599
0.008302493
-0.012540343
-0.084497854
-0.11021998
-0.111072846
-0.060070273
-0.028330922
0.018651916
-0.02576307
-0.18169793
-0.19922617
-0.22615795
-0.19405995
-0.15896232
-0.21031614
-0.15186399
-0.2538129
-0.21035326
-0.07226619
-0.07531061
-0.0030271732
-0.06252207
-0.14289011
-0.17666945
-0.13083696
-0.10452611
-0.026215706
-0.045029905
-0.010443461
-0.0044674543
-0.041138023
-0.021669362
-0.14856556
-0.109904476
-0.07249761
-0.0020081662
-0.042851504
-0.19285959
-0.2525001
-0.21596247
-0.17417796
-0.2282976
-0.182634
-0.180262
-0.18151055
-0.14236054
0.007934257
0.06519667
0.08718105
-0.034499817
-0.11599867
-0.17939886
-0.044675987
-0.081882976
-0.010021083
0.0694097
0.11084896
0.05000409
0.033694036
0.05212333
-0.019603424
-0.0368675
0.014925749
0.028687665
-0.029146247
-0.062352497
-0.18032044
-0.24688153
-0.19618079
-0.18609507
-0.18214951
-0.13205832
-0.10517901
-0.07853075
0.08023951
0.12485027
0.06193949
-0.0623953
-0.07240529
-0.17104843
-0.12249289
-0.18447599
-0.05827898
-0.010995958
0.051153116
0.031816147
-0.028025199
-0.036911454
-0.0818075
-0.09296684
-0.003141979
-0.04807587
-0.038523234
0.011842837
-0.0832436
-0.0842371
-0.05846899
-0.18509972
-0.11598359
-0.09909046
-0.092367336
-0.028916387
0.05521893
0.088689245
0.11583602
-0.051546447
-0.057454363
-0.0882392
-0.060160693
-0.047245506
0.0803742
0.109747685
0.13664822
0.11384579
0.009815501
-0.015301989
-0.059926596
-0.027329579
0.03559128
0.005193477
-0.038892265
0.027896788
-0.12779815
-0.038749907
-0.09953588
-0.09801822
-0.0805849
-0.08163096
-0.049302906
-0.032892298
0.014284161
0.037157033
0.06016234
-0.06275675
-0.025319386
0.024986086
-0.081440754
0.016336113
0.12529744
0.11530891
0.16704907
0.07675812
0.012516651
0.032597292
-0.10606283
-0.03685402
0.0058096256
-0.002709604
-0.04773738
0.031294927
-0.06970351
-0.017033285
-0.03948332
0.0056370148
-0.049859595
0.014589355
-0.005240962
-0.008624069
0.016726922
0.01180036
-0.03674258
-0.092114225
-0.07800753
-0.06068986
-0.081720166
-0.03622212
0.060366213
0.093919486
0.032377616
-0.035027612
-0.043155223
-0.109631084
-0.24510235
-0.10790887
-0.079723194
-0.064940386
-0.048166547
-0.006661281
-0.04069656
-0.07104145
-0.012923268
0.015370078
0.045119055
0.061336353
0.0626617
0.044856135
-0.004915693
-0.0068220063
-0.05014982
-0.035728715
-0.08249783
-0.016335342
-0.016175412
-0.010620039
0.108666755
0.050159294
0.015809081
-0.06543619
-0.13342418
-0.17524876
-0.21603505
-0.118067995
-0.10458197
-0.030089956
-0.025320677
-0.043723438
-0.019339053
-0.025776127
0.019142209
0.042560074
0.046636548
0.060169503
0.04004721
-0.01681608
-0.06563022
-0.01738059
0.025705498
-0.016225593
0.048527595
0.058578353
-0.028569436
0.027250754
-0.023940392
-0.0073262034
-0.015806055
-0.06988575
-0.06494642
-0.020120213
-0.07874565
-0.05592673
0.0761713
0.101629354
0.0026547946
0.015281679
0.011959733
0.06917522
0.05096282
0.066067606
0.015068366
0.019567568
-0.002656853
-0.032373823
-0.060982537
-0.017328324
-3.6184916E-5
0.039130636
-0.043268744
0.019934816
-0.023085143
-0.048213225
-0.085449606
-0.10060475
-0.17600416
-0.17188174
-0.14343719
-0.12798725
-0.15606931
-0.06365895
0.08809695
0.008825831
-0.076392815
-0.062904075
-0.019413123
0.06437206
0.015526949
-0.004761553
-0.053599745
-0.037921146
-0.07256223
-0.061330847
-0.070135765
-0.067293346
-0.07847646
-0.079531774
-0.07459861
-0.06779481
9.8392E-4
-0.008727602
0.052762844
0.02201993
-0.052573044
-0.03390272
-0.019449143
-0.14066428
-0.18642795
-0.13267304
-0.12803183
-0.082758404
-0.112875715
-0.057070654
-0.021482244
-0.029620083
-0.02502085
-0.077864245
-0.07780069
-0.08941269
-0.085911304
-0.07627252
-0.12041546
-0.07604451
-0.1023551
-0.07514508
-0.0880918
-0.11314244
-0.067484945
-0.06991921
0.041298375
0.044787154
0.003039819
0.0012793695
0.06257641
-0.010444007
-0.03683369
0.025045011
-0.03665966
-0.081037655
-0.0070771794
-0.061677497
-0.050871715
-0.051521044
-0.048792742
-0.07940201
-0.11340541
-0.11203342
-0.07753962
-0.10538758
-0.12015441
0.056131814
0.09833063
0.05664698
0.059199754
-0.016362704
-0.03566979
0.02748934
0.009677691
-0.006014405
-0.09769752
-0.08650389
-0.08160458
-0.18765157
-0.1851331
-0.1597444
-0.12294169
-0.07632085
-0.14789179
-0.07181003
-0.18126945
-0.11447197
-0.1159342
-0.028569499
0.04039611
0.038430903
0.03133197
0.06284132
0.09379038
0.10179236
0.09017177
0.072029166
0.020692956
0.030536357
-0.03356293
-0.00499281
0.0149977645
0.0068363366
-0.012546555
-0.0754756
-0.08912406
-0.14276227
-0.120611265
-0.1789422
-0.10246726
-0.07130197
-0.094370976
-0.09774728
-0.0368272
-0.10217307
-0.06760425
-0.043323364
0.0570703
0.09251358
-0.023706838
0.05508062
0.07371275
0.068718836
0.08160593
-0.058567908
-0.057344645
-0.024282496
-0.0031049636
0.0479702
-0.0067163296
0.08125053
0.03215604
0.054611962
0.057270803
-0.032530166
-0.06158603
-0.04885715
0.0076062786
-0.038153794
0.070140846
0.117197014
0.08425942
0.013760005
0.008128046
0.16232215
0.12167799
0.11987786
0.072086595
0.055413477
0.116068594
0.08928127
0.0657281
-0.044709958
-0.02895378
-0.056591444
-0.023837209
-0.013001442
-0.01630276
0.0032363893
-0.01193737
0.0037374075
-0.014755527
-0.05835912
-0.04775288
-0.07917764
0.02473449
0.017076964
-0.0015252896
0.06250876
0.11715932
0.03410837
0.04460425
0.12767227
0.16132824
0.15048042
0.13449554
0.094803505
0.06777526
0.019298457
-0.0116255535
-0.07035869
-0.022698458
-0.06763468
-0.033356328
-0.03224797
-0.030742047
0.05519672
0.10016188
0.051422462
0.10160055
0.10293448
0.15425995
0.027513877
0.112676024
0.0751971
0.22540765
0.19077706
0.23731337
0.17562447
0.24456875
0.22675216
0.1393972
0.18851854
0.14907774
0.07985319
0.08401385
-0.012249063
-0.017585812
-0.02065272
0.03684672
-0.016467124
0.05531042
-0.078969814
-0.028219162
0.033631653
0.06738673
0.035132866
-0.028937245
0.06733936
0.17901333
0.15814874
0.21970287
0.13956784
0.14318956
0.122724526
0.1752749
0.017901216
0.07140585
0.17908671
0.23996179
0.2695118
0.1693422
0.07607705
0.069832236
-0.040072266
-0.027983278
-0.06682657
0.017386567
-0.033111587
0.010790236
-0.028678294
0.03246066
0.026157891
8.5789996E-4
-0.03967734
0.02356529
0.08577879
0.11564274
0.06863503
0.1348889
0.124913126
0.11007589
0.074357636
0.016636716
-0.0700492
-0.0054445025
0.05365323
0.22655429
0.20389795
0.186616
0.050838098
0.090295
-0.018838834
-0.043494906
-0.045332074
-0.035411924
-0.04849329
-0.021371512
-0.031689763
-0.074318096
-0.027867252
-0.08602037
-0.057845216
0.04055381
0.07048547
0.148978
0.26952425
0.291245
0.22620375
0.12573868
0.03929158
0.04416756
-0.05412304
-0.032033075
0.016446264
0.18107547
0.20736201
0.193755
0.08838851
0.0544619
-0.006443784
-0.06475185
-0.069450915
-0.046691615
-0.01615051
-0.07162429
-0.09455885
-0.13916335
-0.09042637
-0.070882194
0.024686277
0.056430582
0.15265255
0.17856443
0.21299008
0.27911547
0.21859366
0.15609576
-0.00861167
0.10044102
0.018625142
0.10250054
0.07518985
0.13647161
0.23564178
0.13405891
0.10111959
0.0782196
-0.03460605
-0.08068108
-0.03963128
-0.02345688
-0.08746889
0.0013779288
-0.0032823326
-0.04870222
0.03129745
0.023640322
0.09937933
0.13647202
0.18328832
0.20398866
0.21521296
0.2526908
0.10737458
0.106393725
-0.009944493
0.07501836
0.06647554
0.16387595
0.15283954
0.15949762
0.11522636
0.060306218
0.06574755
0.033951193
-0.02603534
-0.04662836
-0.02910383
-0.0068529095
0.03724172
0.055001
0.026266785
-0.08309829
0.054753575
0.002369374
0.16560882
0.22500585
0.24384964
0.21279693
0.25455725
0.22528587
0.17728563
0.13228878
0.03997169
0.101768255
0.105800614
0.15679958
0.10809738
0.17074612
0.12682782
0.05595179
0.028848091
-0.010359679
-0.029872254
-0.026413457
0.022141391
0.008407718
0.03681959
0.12169433
0.07506964
-0.008517122
0.13141507
0.055390988
0.27201286
0.29764655
0.24438591
0.1540412
0.076401606
0.114674084
0.1954394
0.18987116
0.20692675
0.2640474
0.116110526
0.10836692
0.051474273
0.106849566
0.06672971
0.032646723
-0.024718113
-0.046614867
0.0061326805
0.014853463
-0.018244276
0.034575406
0.0649663
0.06385231
0.0799678
0.1334239
0.20869935
0.078557976
0.086759925
0.12629043
0.1442614
0.17066073
0.15701963
0.1815018
0.14446911
0.20468655
0.17309326
0.19325955
0.28490207
0.2618524
0.23872785
0.09162882
0.09887337
0.004795312
-0.025331065
-0.03985747
0.029668778
0.019572733
0.04706816
0.046749316
0.12986678
0.100955084
0.09399616
0.06610056
0.07250515
-0.050592307
0.027267037
0.033237346
-0.012752767
-0.07379221
-0.046685193
0.13471895
0.079177774
0.12808178
0.09443341
0.12847826
0.15663414
0.15350665
0.07109663
0.0877224
-0.009517734
-0.035056204
0.019750046
-0.026238007
0.01835443
0.041719243
0.031899896
0.01768557
0.12929448
0.08686249
0.13663782
0.11057577
0.045672443
-0.012046829
-0.013080968
-0.029612798
-0.0356588
0.02098846
-0.006675236
-0.05276695
0.09050708
0.06380309
0.19146845
0.17799217
0.12222391
0.10864167
-0.035953023
0.05924355
-0.03482307
-0.02186643
0.0029950768
0.014217162
0.022654321
0.08549884
0.056643054
0.03178589
-0.03917823
-0.04945293
0.027568595
0.06964571
-0.007610627
-0.08636938
-0.10057821
-0.11812684
-0.033047438
-0.03312017
0.053297803
0.06532844
0.06737745
0.0052768155
0.04040642
0.01884463
0.053030405
-0.051722527
-0.013710768
-0.034822896
-0.059140865
0.0025474299
0.049807277
0.042953625
-0.027425896
0.06353386
0.005776042
-0.046187226
0.015425427
0.05354391
-0.046337646
-0.013199206
-0.06773668
-0.091523886
-0.041467663
0.006705419
0.0036988668
-0.09109523
-0.03749208
0.030683465
0.06445684
0.09856429
0.025938569
0.02457525
0.07877445
0.049820244
0.0321109
0.021022385
0.08638388
0.09387176
0.119191736
0.08950377
-0.022367682
-0.021967692
-0.01594629
-0.10313058
0.052891213
0.06734969
-0.025528729
-0.055225134
-0.08616092
-0.23977397
-0.14467631
-0.10158662
-0.11141132
-0.14810236
-0.20496711
-0.083007604
-0.045570143
0.017257132
0.0390589
0.039115164
-0.012217821
0.017394904
0.11446062
0.053720117
0.10560291
0.12097584
0.13506165
0.07523332
-0.013526712
-0.02702351
-0.075727046
-0.025167558
0.110977724
-0.025740571
-0.04345279
-0.030300755
-0.08401248
-0.22074531
-0.17713976
-0.14597547
-0.04585102
-0.16283445
-0.04058942
0.022502879
0.07208458
0.13998559
0.13781711
0.16353281
0.061200283
0.005954475
0.061160073
0.07767908
0.077036016
0.092498735
0.10228141
0.09092613
-0.040107027
0.029935226
-0.034265295
-0.08388779
-0.03495563
-0.13637523
-0.098618135
-0.22274177
-0.27325502
-0.2246007
-0.185947
-0.109028004
-0.1536405
-0.24347289
-0.20898955
-0.18468194
-0.14136861
-0.15253285
-0.1567916
-0.017178265
-0.072181575
0.03046315
0.17663239
0.062324848
0.07876347
0.020781422
0.08513787
0.06860891
-0.009560717
0.028277019
0.050202057
-0.07022759
-0.025301926
-0.08849306
-0.11142401
-0.16896635
-0.07803696
-0.05983634
-0.021374367
-0.12277783
-0.12360964
-0.14533128
-0.11591857
-0.14746097
-0.12782063
-0.054694682
-0.1084185
-0.17265278
-0.14401238
-0.02947172
0.021335145
0.046421986
0.07945909
0.05776614
0.12100441
0.09636453
0.012969533
0.02698948
0.04091562
-0.111498006
-0.13622554
-0.034653638
-0.25164545
-0.23780115
-0.15007922
-0.09956145
-0.11894831
-0.19209841
-0.09772371
-0.12177573
-0.09678453
-0.10122506
-0.09475129
-0.1209567
-0.14709368
-0.24094994
-0.1617304
-0.11679392
0.005724825
0.06957999
0.013840219
0.031270206
0.1105916
0.11046122
-0.028444646
0.012123251
-0.014769649
-0.13757259
-0.15616475
-0.10966179
-0.3175652
-0.28737712
-0.28550282
-0.3004772
-0.2680537
-0.19576176
-0.14226976
-0.10134068
-0.0074895583
-0.10434226
-0.25007075
-0.33528838
-0.32799882
-0.20354405
-0.101776585
-0.07898155
-0.066035286
-0.057396606
-0.019968335
0.009448956
0.051033404
0.041335642
-0.0482236
-0.025212688
-0.091023415
-0.09375983
-0.26323467
-0.14258493
-0.23737417
-0.27072987
-0.1407914
-0.14866251
-0.17073344
-0.14194399
-0.15459916
-0.21026468
-0.07083633
-0.16008154
-0.22843269
-0.18689054
-0.14904441
-0.20941946
-0.06082083
-0.056861933
-0.06482817
-0.06584816
-0.078452304
-0.07709314
-0.025480272
0.0018835794
-0.06616481
-0.11973671
-0.090900354
-0.11626984
-0.11627562
-0.17467393
-0.21240264
-0.11512682
-0.09334669
-0.103200726
-0.11007271
-0.20945363
-0.1798326
-0.1225836
-0.074667916
-0.026016051
-0.06262268
0.03475023
-0.03855959
-0.08320607
-0.13248089
-0.12473643
-0.11054522
-0.15820998
-0.13378343
-0.11895498
-0.062051434
-0.08613854
-0.056366414
-0.1269757
-0.1383385
-0.116958424
-0.10040697
-0.12391252
-0.21872172
-0.101535164
-0.096282095
-0.0280722
-0.12982753
-0.19217318
-0.21635841
-0.012803121
-0.044469517
-0.07813099
0.024175605
0.046982545
-0.073215395
-0.02721458
-0.109820634
-0.10235483
-0.11027272
-0.09546623
-0.1316553
-0.073599964
-0.07492798
-0.009580907
-0.0054552853
-0.0641574
-0.093828075
-0.11304405
-0.0712737
-0.110024326
-0.081441365
-0.097355545
-0.057197686
-0.0110354
-0.025405256
-0.05563251
-0.113318846
-0.10651749
-0.07066263
-0.016749062
-0.05080952
0.0018091031
-0.03585303
0.059443407
-0.07061863
-0.201123
-0.19877732
-0.19500932
-0.13363928
-0.11818985
-0.061795283
-0.05703332
0.04084239
-0.0069398475
-0.05391305
-0.11675507
-0.0030785424
-0.049846787
-0.09603519
-0.16487817
-0.1422742
0.019976428
-0.022080725
-0.016959123
-0.09160133
-0.061472457
-0.05607418
-0.013111745
-0.015622426
-0.020237364
0.030522183
-0.05447809
-0.1199329
-0.19559394
-0.18119608
-0.22848156
-0.100812376
-0.08175255
-0.058785662
0.015220478
0.038528413
-0.017765675
-0.03329092
-0.025186831
-0.03926004
-0.010090376
-0.016099
-0.013522122
0.012415949
0.053525608
0.011780752
0.04431517
0.053705245
0.034296907
0.0109708365
0.091658525
0.14947693
0.17034166
0.16887307
0.18453144
0.18344498
0.060501073
-0.0092060985
0.0025090245
0.024695951
-0.0011825092
-0.062340584
-0.050336402
-0.021918155
-0.03266553
-0.03550587
-0.009462786
-0.02463069
-0.007301288
-0.0100557525
0.0039572236
0.0046194373
-0.012320876
0.046436105
0.0031468342
0.0031838769
0.009702337
0.06461864
0.045988314
0.0783863
0.23064734
0.2686276
0.2250999
0.24161404
0.082131915
0.047064938
0.008424859
-0.022908084
-0.018800551
-0.015233311
-0.008363874
-0.048464824
-0.041461576
-0.020919714
-0.024290858
-0.061427966
-0.04573618
-1.09390574E-4
0.023511041
0.027137384
0.039451994
0.08121598
0.044350367
0.009345905
0.036403347
0.038217105
0.09235165
0.18088827
0.2133005
0.21941572
0.21487707
0.1757139
0.09589033
0.046855614
-0.0060411277
-0.033981197
-0.03126476
-0.06054021
-0.030634994
-0.008985516
-0.006781386
-0.017428512
-0.012365507
-0.016510928
-0.025660135
0.022676274
0.012151145
0.06512624
0.044850886
0.05726623
0.031652916
0.08226061
0.12734129
0.085407555
0.1690042
0.2219016
0.2481441
0.24683388
0.21868685
0.15207832
0.07003515
0.022491036
0.009310886
-0.027414331
0.018249484
-0.043291092
-0.0327311
-0.009000147
-0.005036922
0.0055242735
-0.008583867
-0.0071503036
0.011067312
0.019291358
0.060129445
0.08939191
0.055533893
0.02923303
0.070868306
0.07387744
0.03882207
0.0973127
0.16484855
0.23709927
0.2745028
0.26620504
0.20278917
0.08733823
-0.054481693
-0.066971295
-0.0026195622
-0.03057518
-0.017687589
-0.038577024
-0.034392074
0.0058678836
0.02142295
0.001260065
0.025916593
-0.011514951
0.037937276
0.034704298
0.056650035
0.02131763
-0.055700168
-0.03671609
-0.0517982
-0.039104782
0.02484684
0.054452572
0.10035575
0.20329861
0.21993206
0.24143068
0.115825534
0.010192932
-0.027821597
-0.10010196
-0.01805606
-0.06047697
-0.054615155
-0.06777272
-0.042345926
-0.017984405
-0.012319233
-0.023255382
-0.006295814
-0.008546987
0.03579244
0.039109137
0.045369033
-0.06994131
-0.13514502
-0.13056368
-0.1010073
-0.061728593
-0.0060115266
0.046290036
0.06673759
0.15746856
0.19722433
0.22173895
0.0666637
-0.0102185
-0.050477065
-0.076242894
-0.06467021
-0.03886947
-0.07185551
-0.060736004
-0.037505213
-0.0030655283
0.024189718
-0.015141368
0.027983973
0.029953437
0.041426513
0.018292148
0.01222654
-0.054185968
-0.1295488
-0.16137864
-0.06856349
-0.08564381
-0.001576277
-5.6720935E-5
0.012575482
0.08529005
0.10542304
0.07852463
0.0026106588
-0.08725965
-0.0815619
-0.070084155
-0.052553535
-0.07493515
-0.0912593
-0.071033165
-0.047616802
0.03047961
0.0536677
-0.0046234643
0.023747252
0.038435478
0.036022328
-0.031136334
-0.015428009
-0.14923504
-0.12956384
-0.1414339
-0.07410661
-0.0065844376
-0.09345938
-0.014482559
0.048164725
0.08966143
0.040728517
0.045339312
-0.0069946004
0.02270971
0.0050673625
0.0029810513
-0.055956207
-0.016234616
0.012128072
-0.012188917
-0.03996552
0.014998344
0.04238848
0.022569375
-0.027362633
-0.073597774
-0.03698388
-0.107673295
-0.14954495
-0.18557361
-0.23586993
-0.20032287
-0.14274521
-0.12173289
-0.13958308
-0.030579923
-0.003446399
0.011360249
-0.004095268
0.05454774
-0.0050428654
0.009593172
-0.07638831
-0.10516294
-0.07119893
-0.09427979
-0.033368792
-0.040978134
-0.08228289
-0.07515071
0.008766012
-0.0024019708
-0.03619208
-0.043265704
0.02880627
-0.046847522
-0.055197794
-0.1260334
-0.17281483
-0.107731074
-0.07488135
-0.05347213
-0.009448908
0.015651934
0.05181396
0.07986109
0.12379006
0.088861294
0.0959497
-0.013926095
-0.0569431
-0.0036977453
-0.008346047
0.0068961987
0.03382782
-0.034490526
-0.020481776
0.0014120233
0.011105082
-0.034407604
-0.086360626
-0.0877012
-0.053641066
-0.068123035
-0.09351734
-0.13567235
-0.20185935
-0.16532053
-0.12500893
-0.089814186
-0.068363346
-0.010525067
0.0059941257
0.057209875
0.05249936
0.06910938
0.018601244
-0.02052207
-0.013074193
0.005278558
-0.038299635
0.032666747
0.034056004
0.021521071
-0.036000755
-0.02963221
-0.017756592
-0.04416143
-0.06022068
-0.16610186
-0.1862988
-0.111293375
-0.06799804
-0.057606865
-0.122781605
-0.06645848
-0.096043766
-0.072779976
-0.07560312
-0.029473078
-0.024972226
0.022477852
-0.04184035
-0.027128737
-0.08637999
-0.08775331
-0.09283328
-0.06391113
-0.049203627
-0.03430786
-0.025157772
-0.001408073
-0.05255638
-0.06669779
-0.093813516
-0.09323976
-0.057732515
-0.08237985
-0.08186173
-0.06274528
-0.05512272
-0.025116058
0.021309117
-0.011593902
0.011330627
0.029127784
0.07956954
0.0050063557
-0.07672425
-0.04657491
-0.066339195
-0.070719466
-0.032233845
-0.054401346
-0.02815276
-0.01767824
0.009020362
-2.4399978E-4
-0.0075543327
-0.019326782
-0.052082516
-0.07699287
-0.097114034
-0.064187735
-0.065359585
-0.020450698
-0.0741459
-0.07923866
-0.008217312
-0.0016205288
0.054343108
0.014968872
0.07759578
0.067177884
0.033356324
-7.4694265E-4
-0.051457345
-0.009951002
-0.054796297
-0.0050700144
-0.009154704
-0.05779246
-0.03878569
-0.042479374
-0.03280992
-0.060478784
-0.09272817
-0.085394874
-0.09908747
-0.12241142
-0.12261237
-0.12896572
-0.06716975
-0.038961735
-0.024361124
-0.04102705
-0.008408385
-0.08311457
-0.052960034
-0.07367202
-0.0559271
-0.014839208
-0.015910458
-0.020199893
-0.05458085
-0.03918969
-0.08067979
-0.09975764
-0.14578277
-0.07869508
-0.08645005
-0.060797837
-0.055239648
-0.051916584
-0.063448586
-0.0385273
-0.05336914
-0.05432574
0.0010511256
-0.010201025
0.010637673
-0.038040265
0.029844886
-0.0045403535
-0.047938798
-0.03980994
-0.008039529
-0.0078449985
0.019584201
0.051060382
0.023604143
-0.07348485
-0.068175524
-0.066895075
-0.080166996
-0.105660535
-0.05623662
-0.091161676
-0.046745498
-0.054915078
-0.04809898
-0.02365535
-0.029897422
-0.058087293
-0.05699394
0.018480701
0.0345146
0.011777552
0.0018053553
-0.005272673
-0.009437504
-0.022593068
0.010424106
-0.009390542
-0.013038903
-0.037003286
0.038219973
0.013380024
0.053270325
0.036451876
0.0128622735
-0.0016491582
-0.062132478
-5.588224E-4
9.809553E-5
-0.05573931
-0.037179254
-0.010595667
-0.056904446
-0.051460803
-0.05873795
-0.050099857
-0.07547094
0.006879692
0.047688093
-0.030297332
-0.009076965
-0.011698451
-0.04193684
-0.044552613
-0.041491568
-0.02766321
-0.0590616
-0.06009868
0.0046984768
0.018492775
0.008811436
-0.0076054614
0.012920261
-0.020148968
-0.007521567
-0.0070875743
-0.062433604
-0.103922576
-0.05469055
-0.082183175
-0.060921248
-0.052554745
-0.028318493
-0.07493062
-0.07215104
-0.05902047
-0.0013435116
-0.04326495
-0.056214508
-0.059933666
-0.04850697
-0.06178568
-0.03361053
-0.058119357
-0.03919123
-0.0469935
0.012274116
0.06352838
0.022423387
0.07861119
0.0511062
0.057028588
0.0419563
0.03833135
-0.0062130066
-0.034287605
-0.021514144
-0.06321028
-0.060840536
-0.018235117
-0.058199875
-0.064508684
-0.08879198
-0.04895061
0.002026073
-0.031404007
-0.059806675
-0.03216767
-0.035483304
-8.849812E-4
0.027515508
-0.045224335
-0.023678543
-0.007312186
-0.022084372
0.039300885
0.04470226
0.05547394
0.055497307
0.11857186
0.091547504
0.069909915
0.06767995
0.0047552534
-0.034999818
-0.024098279
-0.006311505
0.007963272
0.013672749
-0.037101567
-0.025793156
-0.007595195
0.040874936
-0.027387267
-0.022941943
-0.009471078
0.027289145
0.026345635
0.043868285
1.0095069E-5
-0.008323256
0.024106162
0.06739375
0.10234274
0.09012372
0.07648122
0.065531515
0.08377842
0.08859802
0.08977064
0.08200509
0.027180793
-0.010681525
-0.01526622
-0.012620151
0.023733385
0.041048404
-0.006031747
-0.010606987
0.018392693
5.1771535E-4
-0.030071868
-0.023639206
-0.022802927
0.0077089635
-0.049888182
-0.022162624
-0.042052265
-0.03959105
-0.035041902
0.040008295
0.05019808
0.04302508
0.10847083
0.11819307
0.076758556
0.08081815
0.05806455
0.05880383
0.0071272557
0.0080939615
0.008275808
0.007144753
-0.002935875
-0.030708427
-0.010570386
-0.012763265
-0.024045475
-0.016924843
-0.014141152
0.028931297
0.03987535
0.0054165707
0.032420352
0.031697374
0.005887087
-2.4867116E-4
0.037898447
0.08574754
0.09232424
0.097336896
0.116246834
0.15935123
0.10832302
0.1245614
0.07204808
0.06767716
0.08286946
0.0392552
-1.8917458E-4
0.028692113
0.023961686
0.016422713
0.047524568
0.029901648
0.023754824
-0.026835727
-0.010656326
0.03804696
0.03229855
0.019843386
0.038986295
0.011673005
0.0076580844
-0.03093062
-0.0056259027
0.07582495
0.11836005
0.1151412
0.1284323
0.14967905
0.122079805
0.10044367
0.064299
0.043829028
0.02594955
0.07873128
0.025906097
8.9123717E-4
0.013869327
0.037558928
0.07484293
0.076817475
0.04823364
0.0020417096
0.019181915
0.03227059
0.03163382
0.039050993
-5.561457E-4
-0.01912765
-0.03945169
-0.022374533
0.0023016282
0.070244685
0.077926055
0.08502477
0.11499169
0.12433941
0.10030132
0.109641746
0.030912286
0.029420426
0.014782251
0.03682133
0.021845518
0.015975192
-0.021271974
0.011736284
0.037158046
0.012355082
0.011579516
-0.009077498
-0.002086873
-0.008622915
0.013637332
0.0051718177
-0.02280713
-0.059167776
-0.06909895
-0.045231566
-0.010332652
0.027814716
0.02920059
0.084811196
0.056367066
0.08379801
0.070439056
0.05988654
0.004160539
-0.00892301
-0.0139187975
0.014958058
0.009502349
-0.022505397
-0.05024799
-0.025955448
0.003804181
-0.002869314
0.00965226
-0.0041699274
0.011400723
-0.02802017
-0.0115416115
-0.018045167
-0.015985895
-0.051744528
-0.0947703
-0.04499115
-0.025667151
-0.04164345
0.018361483
0.026064515
0.0334437
0.040885303
-0.02586649
-0.014147808
-0.03868122
-0.051214933
-0.029890034
-0.03842567
-0.014963321
-0.0036856
-0.027234275
-0.0655873
-0.0027518105
-0.025778746
-0.042160396
-0.010005267
-0.13148777
-0.08577545
-0.04521481
-0.042485055
-0.030113457
0.0056327656
-0.0015780578
0.009720874
0.095296696
0.12577553
0.21572636
0.24379772
0.25208703
0.23010871
0.2251608
0.24747926
0.20953333
0.25511253
0.18027122
0.12975423
-0.07223601
-0.0849345
-0.041919347
0.014287251
-0.08956988
-0.11605289
-0.08746349
-0.085870765
-0.054622233
-0.04305263
-0.050051317
-0.025387285
0.011559834
0.004002027
-0.06451173
-0.022510206
0.004914229
0.04766493
0.15367214
0.14872849
0.08271827
0.04387731
0.025215054
-0.03768849
0.06121545
0.059202556
0.0460678
-0.08482387
-0.10731179
-0.1199142
-0.08169307
-0.028490411
-0.085024536
-0.0981986
-0.03853805
-0.07934232
-0.06761557
-0.004032906
0.011281031
0.016354933
0.033207018
0.02322167
0.09839756
0.028238878
0.119137585
0.046773564
0.1317996
0.080784544
-0.0020713096
-0.05529385
-0.00128307
0.036823735
0.09206054
0.059934895
0.08299629
0.13614452
0.03799633
0.04304016
0.0194797
-0.049616456
-0.084140114
-0.039361957
-0.04910053
-0.03777607
-0.041717805
0.0061014844
0.017480223
0.038231794
-0.039277542
0.019881321
0.024661845
0.078160875
0.1191047
0.046522733
0.061399978
0.06824654
0.14698197
0.0202757
0.09812998
0.07683847
0.0303281
0.09776982
0.11371825
0.1285886
0.045888804
0.038942143
0.120385155
-0.08897132
-0.010786418
-0.03691544
-0.017733939
-0.045813434
-0.009525753
0.045514714
0.13289216
0.083141916
0.120884314
0.074277416
0.19954255
0.18360443
0.22005011
0.13065024
0.008041318
0.028248789
0.069088444
0.10091865
0.112654746
0.13331313
0.16891836
0.10663921
0.12922938
0.2032153
0.037092894
0.012813755
0.014264632
0.047838397
-0.007876916
-0.003877378
0.06754694
0.025697697
0.053819034
0.06162735
0.11577381
0.0799373
0.096702024
0.12218921
0.15527947
0.13940577
0.07778247
-0.044667374
-0.0986065
-0.11384111
0.013609176
-0.012850821
0.03300092
0.10686056
0.09985345
0.0066941692
-0.005069476
-0.043702047
0.0012362386
0.024031792
0.077835225
0.11412203
-0.054408956
-0.082091436
0.064706534
0.057908848
0.07250137
0.08689246
0.13676442
0.16995336
0.2294055
0.10411583
0.15358415
0.06173838
0.04644946
-0.0804388
-0.13882636
-0.042095833
0.033402592
-0.00939015
0.00694897
0.1581255
0.18556732
0.114050314
0.10407944
0.110053785
-0.0207439
0.04249484
0.1013671
0.10317648
1.8557489E-4
-0.06601807
0.07693331
0.06643642
0.008798347
0.04642871
0.13836028
0.17500673
0.1741716
0.12132216
0.05836706
-0.0508128
-0.01340532
-0.08169186
-0.005709173
0.0132657485
0.091406904
0.037073933
-0.0069359248
0.21106845
0.13489369
0.11909169
0.10503409
0.09087826
0.011904026
-0.015244718
0.122086175
0.08184946
-0.023937512
-0.010249533
0.0569386
0.08021889
0.11822082
0.080335505
0.069836825
0.029927243
0.024008669
-0.046053365
-0.05085269
-0.12939502
0.06003379
0.071318366
0.06454885
0.06838168
0.0185489
0.105597354
0.21457763
0.2536821
0.14072408
0.03748855
0.16500734
0.099227734
0.042904217
0.0044764513
-0.054673385
0.003503737
-0.0015043374
0.049380958
0.012865456
0.009006571
0.09976706
0.03257172
-0.026583066
-0.15235697
-0.11089957
-0.123476796
-0.088675335
0.08469764
0.09751926
0.14426988
0.066364765
0.06512753
0.029651493
0.15147908
0.17891295
0.19447277
0.030837001
-0.0024682574
0.012342913
-0.011361861
0.016554572
-0.037308104
0.02227345
0.0073902505
-0.14753917
-0.069591336
-0.047905844
0.016142065
0.031770807
-0.022656532
-0.055633865
-0.14500435
-0.12546776
-0.1286663
-0.043937087
-0.06932434
-0.015896888
0.13767456
0.026709802
0.023920769
0.054036733
0.07984169
0.06806272
0.018785901
-0.06999173
-0.099455
-0.022622885
-0.045670267
0.03239172
0.008017306
-0.010455761
-0.08468288
-0.08612971
-0.07754903
-0.05857539
-0.0589765
0.018435653
-0.05904728
-0.1418531
-0.26926872
-0.15012547
-0.19940837
-0.15963243
-0.112092905
-0.1040322
-0.03336934
-0.049808744
-0.07779196
-0.12465321
-0.17116974
-0.20865107
-0.13427109
-0.27291837
-0.14907594
-0.122285165
-0.118665546
-0.051340774
0.02013186
-0.118132
-0.11528188
-0.09274938
-0.029100996
-0.017250394
-0.0012375086
0.045611665
-0.020013424
-0.13345198
-0.25447825
-0.24555074
-0.202735
-0.30537722
-0.18536805
-0.16910072
-0.094050154
-0.094338
-0.16637935
-0.20310937
-0.16017887
-0.16453397
-0.19089787
-0.18666917
-0.065908134
-0.015903898
-0.094057135
-0.1406169
-0.04021168
-0.08562531
-0.083838925
-0.14590701
-0.05393741
-0.0031792235
0.04074164
0.0064605223
-0.03183916
-0.03957336
-0.17204164
-0.13866499
-0.07683961
-0.12742174
-0.14015123
-0.0011788709
-0.0740206
-0.07409426
-0.10809236
-0.13808583
-0.121896416
-0.16054808
-0.08042597
-0.10546154
-0.19683202
-0.16353413
-0.12492026
-0.1122512
-0.014130641
-0.11447958
-0.1345895
-0.077292055
-0.06956865
-0.09296094
-0.015574123
0.018315094
-0.04046983
-0.06265245
-0.07796111
-0.16399692
-0.09983219
-0.09505423
-0.21345419
-0.15464962
-0.18755718
-0.21467794
-0.23150863
-0.17772378
-0.11157291
-0.12075781
-0.054350723
-0.10585393
-0.11265583
-0.10108441
-0.12798895
0.011657023
0.07011873
-0.052761193
-0.038179096
-0.06900135
-0.048003606
-0.06706353
-0.049677033
0.058573175
0.036915906
0.06765318
-0.037637185
-0.12603928
-0.0702252
0.035468057
-0.12820081
-0.041756455
-0.1704109
-0.25327447
-0.1546941
-0.19888023
-0.15257025
-0.20911339
-0.19987822
-0.10801956
-0.09617735
-0.107309446
-0.08335181
0.028690066
0.109219424
0.1140055
0.018632783
-0.08567029
-0.011127074
-0.048628815
0.017141493
0.03489815
-0.07797149
-0.13926855
-0.26291263
-0.25790694
-0.3054293
-0.15575342
-0.18039955
-0.04225205
-0.14585446
-0.09516325
-0.070345625
-0.05291257
-0.0720896
-0.10000211
-0.1369017
-0.06650702
-0.15142518
-0.024349075
-0.08209007
-0.07059257
-0.030760963
-0.13740478
-0.13456824
-0.14005665
-0.15478717
-0.16103062
-0.075347744
0.0047447523
-0.085311785
-0.18839858
-0.21239752
-0.24360698
-0.10938282
-0.015926924
-0.060592588
-0.06453498
-0.018455397
-0.036134254
-0.037989397
0.022230988
0.046885375
-0.13034067
-0.18947183
-0.13489695
-0.03166951
0.025176067
-0.12710959
-0.0322858
-0.08470183
-0.077090316
-0.096892774
-0.11077027
-0.10467144
-0.094196476
-0.0658749
0.04101529
-0.012887022
-0.058507733
-0.12126228
-0.12116982
-0.11962433
-0.055360477
-0.06379975
-0.039619062
-0.025946874
0.05831703
0.04053034
-0.003403274
-0.07611171
-0.1598675
-0.16275826
-0.097850926
-0.009677096
-0.030293677
-0.10945019
-0.11683389
-0.07128383
0.041779038
-0.010853226
-0.0013171341
-0.05282527
0.024549438
0.025881313
0.08286163
0.04086008
-0.014952216
-0.076701835
-0.11567911
-0.119047105
-0.013306301
0.016084488
0.034511555
-0.06724318
-0.120286934
-0.16217785
-0.07526661
-0.13183773
-0.14755072
-0.11649348
-0.055626996
-0.027440788
0.045877155
-0.05234167
-0.06541727
-0.07214328
0.050791744
0.07064599
0.034623373
0.09627255
0.047780726
0.052688148
0.08690359
0.034599744
-0.031991832
-0.07734817
-0.11043064
-0.027131021
-0.061827652
-0.007093508
0.10032461
0.10132357
0.044927437
0.022416694
0.087215714
0.06553449
0.041450556
0.058724962
0.033303954
-0.015499907
0.02299592
-0.0026245227
-0.08154473
-0.013764187
0.14948145
0.058060735
0.03584765
0.037828207
0.009622914
-0.016111925
0.09252157
0.043419816
0.030972851
-0.0366032
-0.051849693
-0.04239033
0.0014862074
0.06608697
0.1955705
0.19853355
0.12846115
0.16811204
0.17044917
0.19954364
0.048909016
0.052627034
-0.03723592
0.01926485
0.020410048
-0.0012266148
-0.061999734
0.035509624
0.16166922
0.022445207
0.048364516
0.002396765
-0.043111816
-0.020782784
-0.014988203
0.0147412475
0.02113895
0.04830985
0.030172024
0.15044993
0.12809648
0.14912577
0.26348653
0.2179103
0.19078678
0.1135151
0.19755575
0.12286515
0.07297778
0.071837865
0.005305493
-0.06633923
0.01810942
0.02356365
-5.7278E-4
0.002701599
0.05112715
-0.04390471
-0.083418764
-0.10337722
-0.110058755
-0.06830536
-0.010788957
-0.011162091
-0.0023176179
0.06619682
0.11820385
0.1456841
0.23147976
0.29718074
0.2957353
0.29592434
0.29530308
0.20169665
0.2274932
0.2148163
0.18312329
0.088464454
0.11600455
0.034142848
0.07322713
0.07436712
0.07439794
0.051906757
0.01909819
0.027042048
-0.016323425
-0.046702065
-0.094334096
-0.07953425
-0.043583106
0.013174837
0.08328404
0.07072439
0.0733836
0.16352847
0.26092643
0.20440055
0.18185021
0.14242645
0.19211899
0.13777316
0.26394656
0.23317558
0.1821199
0.13317554
0.27573723
0.16201147
0.22155346
0.2144654
0.10141013
0.07770011
-0.016339714
-0.07417398
-0.042235795
-0.08607986
-0.09912604
-0.1397592
-0.060637522
-0.018800331
0.02457729
0.034766916
0.05779816
0.13687779
0.1760212
0.13479696
0.11958556
0.05508642
0.08545925
0.09540141
0.14878716
0.13678022
0.12743689
0.079275206
0.09249429
0.072611846
0.06862005
0.09532738
0.07609327
0.04559254
-0.06009238
-0.13408192
-0.103252225
-0.055851873
-0.12627736
-0.12137933
-0.10759171
-0.06972825
-0.042282164
-0.006505124
0.113700666
0.14999707
0.16545175
0.20396227
0.15061763
0.15433124
0.2567568
0.15896502
0.19317672
0.09611089
0.103345186
0.047465943
0.08315027
0.039897885
0.03438864
0.059999924
0.062937595
-0.037786778
-0.08970822
-0.17566422
-0.21536893
-0.16389628
-0.16992542
-0.16137493
-0.11603837
-0.083677106
-0.06724895
0.008683405
0.05405922
0.09598722
0.18574631
0.18062036
0.13725397
0.16116863
0.090794526
0.22567831
0.24355493
0.22402997
0.17628205
0.1143269
0.12421754
0.16479428
0.17563531
0.23483196
0.06366738
0.062396143
-0.05929824
-0.15126236
-0.17856485
-0.14170016
-0.119420424
-0.124139085
-0.117958315
0.0025949555
0.0134655405
0.0155262565
0.011187626
0.016808903
-0.004381721
0.014909333
0.0075420085
0.007934311
0.011846809
-0.013204784
-0.018485028
-0.013451128
-0.01725175
0.0074250204
0.010744897
0.005622567
0.0037477277
-0.0044857245
0.008221936
0.012938325
0.0149088735
-0.016821042
-5.323872E-4
0.019569973
0.015101901
0.0064565544
-0.016274353
-0.012467848
0.006781583
0.007558816
-0.001741113
0.012911225
-0.010271544
0.013231843
-0.0021950365
0.0056411684
-0.0027736544
0.007620198
-7.106615E-4
-0.003025279
-0.015066778
0.0026001036
0.0056728544
0.016657898
-0.008334342
0.006869722
-3.9374613E-4
0.0119188335
-0.013152935
-0.010411405
-0.0042868447
-0.0064308993
0.0054127662
0.010331029
0.006377923
0.008289384
0.0096203955
-0.0022874298
0.00215183
0.0021323962
0.013786894
-0.013629707
0.002581634
-0.003581279
0.008172052
0.015720008
-0.0141064655
-0.011742364
0.00420658
0.015782513
0.002743204
-0.004869972
-0.0063145556
0.019674685
-0.012072262
-0.004014059
0.008127508
-0.016837388
0.0057465644
0.010074301
-0.008843469
-0.0035746088
0.0030356648
-0.011105781
-0.0061040116
0.004124211
0.0033408168
-0.0052035814
-0.015115769
-0.003819488
-0.017933361
-0.0010687555
0.015061521
0.0068053836
0.0045400993
-0.0150705455
0.009726208
0.008782511
0.0065014786
-0.0059211366
-0.0032285466
-0.0062267366
0.012723325
-0.0064184163
-0.01283949
-0.009723682
-0.008339301
0.015935319
0.012400507
7.101359E-5
-0.0034683596
0.014014607
-0.0065325187
-0.0032938507
-0.003893956
0.01732849
-0.01819087
-0.0066005928
-0.011713947
-0.014650565
0.01705544
-9.180991E-4
-0.019887527
-0.007194909
0.014392429
-0.015989095
0.018156353
-0.0093839485
0.016621828
-0.005398584
-0.008908406
-0.013869492
0.014004545
-0.0114206225
-0.006624781
0.009285833
0.011953603
-0.009870061
-0.004889957
-0.01309488
0.013893839
0.018247375
0.011539444
-0.0109033305
0.020190861
-0.010943577
0.012344752
0.008254723
-0.0019585555
0.00841397
0.006520835
-0.016249498
0.0084874565
-0.016837517
0.015873104
-0.0045895907
0.011318955
-0.0039867233
0.012763933
0.008976859
-0.018984046
0.0015504985
-0.0016327031
-0.0075368085
0.0036363318
0.016820861
-0.010030165
0.017242389
-0.019160543
-0.007118301
0.0032630553
-0.010878587
-0.011055442
-0.006623407
-0.0135001745
-0.019339947
0.016088124
0.0033968096
0.017044593
0.013491037
0.007200995
0.018805964
-0.013759607
-0.01351998
0.004556012
0.0029787663
-0.0010183299
0.013776627
-0.007273732
-0.013131848
-0.0037065796
0.013470219
0.0026226512
0.014985585
-0.0052114716
-0.018699184
-0.017409986
-0.0055740844
-0.0021626
0.020356132
0.019647835
-0.003610876
-0.0043178024
-0.010968505
0.013935771
0.0116090495
-0.01688913
0.0052759573
-0.016548062
-0.019314501
-0.01891124
0.01768881
0.014951846
0.0071992916
0.012462397
-0.0061159804
0.0136308605
0.005719269
-0.012574264
-0.008500113
0.013437285
3.0876347E-4
-0.005524911
0.002030668
-0.018908683
0.014350722
0.017268114
-0.016160574
0.016383665
-0.013416857
0.01569317
-0.005210909
0.01071778
-0.0031111196
-0.015789794
-0.008835216
-0.019274611
0.00804031
0.0035381685
-8.950213E-4
-0.007757104
-0.006949731
0.012606224
-0.0041088783
1.556572E-4
0.014310498
-0.0014036245
-0.0058859033
-0.004978922
-0.014261473
7.8247685E-4
-0.010607013
-0.012545539
0.005222632
-0.014748936
-1.884029E-4
2.906267E-4
0.016358944
0.015478288
0.0018124905
-0.009151907
-0.007565964
0.01833668
0.017045077
-0.008907017
-0.01212088
-0.013599185
-0.008284363
-0.013672783
0.0024975361
0.008349358
0.012917189
0.018876612
0.0060768886
-0.013938172
0.009617853
0.008488712
0.0059263087
0.003522982
0.012613078
-0.003514223
0.018061534
0.005550841
-0.016590567
0.0074151596
0.014078224
0.011316727
-0.009093154
-0.01688072
0.014045674
-0.016126448
-0.0053304094
-0.006354635
0.0012052142
-0.015073999
-0.020290146
-0.012945122
0.010450617
-0.014313198
0.0074754152
-0.013627855
5.791285E-4
0.0031366148
-0.013881483
-0.01852439
-0.011426896
-0.006912116
-5.4134475E-4
-0.004754127
-0.010892049
-0.018794222
0.0066712033
0.010289415
-0.0091389185
0.015506019
-0.011211667
0.014354932
-0.013424966
0.0012046428
4.9384664E-5
-0.0049315356
0.005463534
0.019070609
0.016594103
0.015094835
-0.010986435
0.012617213
0.011650741
-0.012766094
-0.007953715
0.014166372
-0.007973223
0.0038050886
0.011863138
0.0072824066
0.006446069
0.002087559
-4.1835688E-4
0.0035446568
0.005220434
-0.017329562
-0.007050845
-0.01784752
-0.0065550404
-0.012784693
0.012988357
-5.132784E-4
-0.0054143127
-0.007730957
-0.011014165
0.011426377
-0.009915847
-0.016849443
0.002880116
-0.009218225
-0.0050360337
-0.019922923
-0.010129977
0.0075166537
0.011300731
-0.010738694
-0.008873103
0.01597912
-0.016642127
2.902861E-4
0.010956672
0.008842237
-0.012676636
-0.015555434
-0.01144803
-0.0033765964
0.011254312
0.01416413
0.013998631
-0.019838752
0.016745482
0.005960094
0.003458316
-0.013314055
-0.015591862
-0.003960244
-0.017822826
-0.019182878
-0.010625961
0.002610448
0.0040001455
0.010495644
0.014260024
0.01395948
-0.019145241
0.018713824
5.2206736E-4
-0.012674636
